SVM-light Version V5.01-TK-1.5
5 # kernel type
3 # kernel parameter -d 
1 # kernel parameter -g 
1 # kernel parameter -s 
1 # kernel parameter -r 
empty# kernel parameter -u 
0.4 # kernel parameter -L 
1 # kernel parameter -T 
T # kernel parameter -C 
1 # kernel parameter -F 
1 # kernel parameter -S 
0.400000 # kernel parameter -M 
3 # kernel parameter -N 
S # kernel parameter -V 
S # kernel parameter -W 
0 # kernel parameter -U 
0 # highest feature index 
1000 # number of training documents 
777 # number of support vectors plus 1 
0.66064357 # threshold b, each following line is a SV (starting with alpha*y)
-0.40020155124249806588565547826875  |BT| (FileAST (Decl (FuncDecl (ParamList (Typename (PtrDecl (TypeDecl (IdentifierType))))(Typename (TypeDecl (IdentifierType)))(Typename (TypeDecl (IdentifierType))))(TypeDecl (IdentifierType))))(Decl (FuncDecl (ParamList (Typename (PtrDecl (TypeDecl (IdentifierType))))(Typename (TypeDecl (IdentifierType)))(Typename (TypeDecl (IdentifierType)))(Typename (TypeDecl (IdentifierType))))(TypeDecl (IdentifierType))))(Decl (TypeDecl (IdentifierType))(Constant))(Decl (ArrayDecl (TypeDecl (IdentifierType))(Constant)))(Decl (ArrayDecl (TypeDecl (IdentifierType))(Constant)))(FuncDef (Decl (FuncDecl (TypeDecl (IdentifierType))))(Compound (Decl (TypeDecl (IdentifierType))(Constant))(Decl (TypeDecl (IdentifierType))(Constant))(Decl (TypeDecl (IdentifierType)))(Decl (ArrayDecl (TypeDecl (IdentifierType))(Constant)))(Decl (TypeDecl (IdentifierType)))(Decl (TypeDecl (IdentifierType)))(FuncCall (ID)(ExprList (Constant)(UnaryOp (ID))))(For (Assignment (ID)(Constant))(BinaryOp (ID)(ID))(UnaryOp (ID))(Compound (FuncCall (ID)(ExprList (Constant)(UnaryOp (ArrayRef (ID)(ID)))))))(FuncCall (ID)(ExprList (ID)(Constant)(ID)))(For (Assignment (ID)(Constant))(BinaryOp (ID)(ID))(UnaryOp (ID))(Compound (FuncCall (ID)(ExprList (Constant)(ArrayRef (ID)(ID))))(If (BinaryOp (ID)(BinaryOp (ID)(Constant)))(FuncCall (ID)(ExprList (Constant))))))(FuncCall (ID)(ExprList (Constant)(ID)))(Return (Constant))))(FuncDef (Decl (FuncDecl (ParamList (Decl (PtrDecl (TypeDecl (IdentifierType))))(Decl (TypeDecl (IdentifierType)))(Decl (TypeDecl (IdentifierType))))(TypeDecl (IdentifierType))))(Compound (Decl (TypeDecl (IdentifierType)))(If (BinaryOp (BinaryOp (ID)(Constant))(ID))(Compound (Assignment (ID)(BinaryOp (BinaryOp (ID)(ID))(Constant)))(FuncCall (ID)(ExprList (ID)(ID)(ID)))(FuncCall (ID)(ExprList (ID)(ID)(ID)))(FuncCall (ID)(ExprList (ID)(ID)(ID)(ID)))))))(FuncDef (Decl (FuncDecl (ParamList (Decl (PtrDecl (TypeDecl (IdentifierType))))(Decl (TypeDecl (IdentifierType)))(Decl (TypeDecl (IdentifierType)))(Decl (TypeDecl (IdentifierType))))(TypeDecl (IdentifierType))))(Compound (Decl (TypeDecl (IdentifierType)))(Decl (TypeDecl (IdentifierType)))(Decl (TypeDecl (IdentifierType))(Constant))(Decl (TypeDecl (IdentifierType))(Constant))(Decl (TypeDecl (IdentifierType)))(Assignment (ID)(BinaryOp (ID)(ID)))(Assignment (ID)(BinaryOp (ID)(ID)))(For (Assignment (ID)(Constant))(BinaryOp (ID)(ID))(UnaryOp (ID))(Compound (Assignment (ArrayRef (ID)(ID))(ArrayRef (ID)(BinaryOp (ID)(ID))))))(For (Assignment (ID)(Constant))(BinaryOp (ID)(ID))(UnaryOp (ID))(Compound (Assignment (ArrayRef (ID)(ID))(ArrayRef (ID)(BinaryOp (ID)(ID))))))(Assignment (ArrayRef (ID)(ID))(Constant))(Assignment (ArrayRef (ID)(ID))(Constant))(Assignment (ID)(Constant))(Assignment (ID)(Constant))(For (Assignment (ID)(ID))(BinaryOp (ID)(ID))(UnaryOp (ID))(Compound (UnaryOp (ID))(If (BinaryOp (ArrayRef (ID)(ID))(ArrayRef (ID)(ID)))(Compound (Assignment (ArrayRef (ID)(ID))(ArrayRef (ID)(ID)))(UnaryOp (ID)))(Compound (Assignment (ArrayRef (ID)(ID))(ArrayRef (ID)(ID)))(UnaryOp (ID))))))))) |ET| 
-0.62309977236549374257634781315573  |BT| (FileAST (Decl (TypeDecl (IdentifierType)))(Decl (TypeDecl (IdentifierType)))(Decl (ArrayDecl (TypeDecl (IdentifierType))(BinaryOp (Constant)(Constant))))(Decl (ArrayDecl (TypeDecl (IdentifierType))(BinaryOp (Constant)(Constant))))(FuncDef (Decl (FuncDecl (ParamList (Decl (ArrayDecl (TypeDecl (IdentifierType))))(Decl (TypeDecl (IdentifierType)))(Decl (TypeDecl (IdentifierType)))(Decl (TypeDecl (IdentifierType))))(TypeDecl (IdentifierType))))(Compound (Decl (TypeDecl (IdentifierType)))(Decl (TypeDecl (IdentifierType)))(Decl (TypeDecl (IdentifierType))(BinaryOp (ID)(ID)))(Decl (TypeDecl (IdentifierType))(BinaryOp (ID)(ID)))(For (Assignment (ID)(Constant))(BinaryOp (ID)(ID))(UnaryOp (ID))(Assignment (ArrayRef (ID)(ID))(ArrayRef (ID)(BinaryOp (ID)(ID)))))(For (Assignment (ID)(Constant))(BinaryOp (ID)(ID))(UnaryOp (ID))(Assignment (ArrayRef (ID)(ID))(ArrayRef (ID)(BinaryOp (ID)(ID)))))(Assignment (ArrayRef (ID)(ID))(Constant))(Assignment (ArrayRef (ID)(ID))(Constant))(Decl (TypeDecl (IdentifierType))(Constant))(Assignment (ID)(Constant))(For (Assignment (ID)(ID))(BinaryOp (ID)(ID))(UnaryOp (ID))(Compound (UnaryOp (ID))(If (BinaryOp (ArrayRef (ID)(ID))(ArrayRef (ID)(ID)))(Compound (Assignment (ArrayRef (ID)(ID))(ArrayRef (ID)(ID)))(UnaryOp (ID)))(Compound (Assignment (ArrayRef (ID)(ID))(ArrayRef (ID)(ID)))(UnaryOp (ID))))))))(FuncDef (Decl (FuncDecl (ParamList (Decl (ArrayDecl (TypeDecl (IdentifierType))))(Decl (TypeDecl (IdentifierType)))(Decl (TypeDecl (IdentifierType))))(TypeDecl (IdentifierType))))(Compound (Decl (TypeDecl (IdentifierType)))(If (BinaryOp (BinaryOp (ID)(Constant))(ID))(Compound (Assignment (ID)(BinaryOp (BinaryOp (ID)(ID))(Constant)))(FuncCall (ID)(ExprList (ID)(ID)(ID)))(FuncCall (ID)(ExprList (ID)(ID)(ID)))(FuncCall (ID)(ExprList (ID)(ID)(ID)(ID)))))))(FuncDef (Decl (FuncDecl (TypeDecl (IdentifierType))))(Compound (Decl (TypeDecl (IdentifierType)))(Decl (ArrayDecl (TypeDecl (IdentifierType))(Constant)))(FuncCall (ID)(ExprList (Constant)(UnaryOp (ID))))(For (Assignment (ID)(Constant))(BinaryOp (ID)(ID))(UnaryOp (ID))(FuncCall (ID)(ExprList (Constant)(UnaryOp (ArrayRef (ID)(ID))))))(FuncCall (ID)(ExprList (ID)(Constant)(ID)))(For (Assignment (ID)(Constant))(BinaryOp (ID)(BinaryOp (ID)(Constant)))(UnaryOp (ID))(Compound (FuncCall (ID)(ExprList (Constant)(ArrayRef (ID)(ID))))(FuncCall (ID)(ExprList (Constant)))))(FuncCall (ID)(ExprList (Constant)(ArrayRef (ID)(ID))(ID)))(Return (Constant))))) |ET| 
-0.52040662793334413471768584713573  |BT| (FileAST (Decl (ArrayDecl (TypeDecl (IdentifierType))(Constant)))(Decl (ArrayDecl (TypeDecl (IdentifierType))(Constant)))(Decl (ArrayDecl (TypeDecl (IdentifierType))(Constant)))(Decl (TypeDecl (IdentifierType))(Constant))(FuncDef (Decl (FuncDecl (ParamList (Decl (ArrayDecl (TypeDecl (IdentifierType))))(Decl (TypeDecl (IdentifierType)))(Decl (TypeDecl (IdentifierType)))(Decl (TypeDecl (IdentifierType))))(TypeDecl (IdentifierType))))(Compound (Decl (TypeDecl (IdentifierType))(BinaryOp (ID)(ID)))(Decl (TypeDecl (IdentifierType))(BinaryOp (ID)(ID)))(Decl (TypeDecl (IdentifierType)))(Decl (TypeDecl (IdentifierType)))(Decl (TypeDecl (IdentifierType)))(For (Assignment (ID)(Constant))(BinaryOp (ID)(ID))(UnaryOp (ID))(Assignment (ArrayRef (ID)(ID))(ArrayRef (ID)(BinaryOp (ID)(ID)))))(For (Assignment (ID)(Constant))(BinaryOp (ID)(ID))(UnaryOp (ID))(Assignment (ArrayRef (ID)(ID))(ArrayRef (ID)(BinaryOp (ID)(ID)))))(Assignment (ArrayRef (ID)(ID))(Assignment (ArrayRef (ID)(ID))(Constant)))(Assignment (ID)(Assignment (ID)(Constant)))(For (Assignment (ID)(ID))(BinaryOp (ID)(ID))(UnaryOp (ID))(Compound (UnaryOp (ID))(If (BinaryOp (ArrayRef (ID)(ID))(ArrayRef (ID)(ID)))(Compound (Assignment (ArrayRef (ID)(ID))(ArrayRef (ID)(ID)))(UnaryOp (ID)))(Compound (Assignment (ArrayRef (ID)(ID))(ArrayRef (ID)(ID)))(UnaryOp (ID))))))))(FuncDef (Decl (FuncDecl (ParamList (Decl (ArrayDecl (TypeDecl (IdentifierType))))(Decl (TypeDecl (IdentifierType)))(Decl (TypeDecl (IdentifierType))))(TypeDecl (IdentifierType))))(Compound (If (BinaryOp (BinaryOp (ID)(Constant))(ID))(Compound (Decl (TypeDecl (IdentifierType))(BinaryOp (BinaryOp (ID)(ID))(Constant)))(FuncCall (ID)(ExprList (ID)(ID)(ID)))(FuncCall (ID)(ExprList (ID)(ID)(ID)))(FuncCall (ID)(ExprList (ID)(ID)(ID)(ID)))))))(FuncDef (Decl (FuncDecl (ParamList (Typename (TypeDecl (IdentifierType))))(TypeDecl (IdentifierType))))(Compound (Decl (TypeDecl (IdentifierType)))(Decl (TypeDecl (IdentifierType)))(FuncCall (ID)(ExprList (Constant)(UnaryOp (ID))))(For (Assignment (ID)(Constant))(BinaryOp (ID)(ID))(UnaryOp (ID))(Compound (FuncCall (ID)(ExprList (Constant)(UnaryOp (ArrayRef (ID)(ID)))))))(FuncCall (ID)(ExprList (ID)(Constant)(ID)))(For (Assignment (ID)(Constant))(BinaryOp (ID)(ID))(UnaryOp (ID))(Compound (If (ID)(FuncCall (ID)(ExprList (Constant))))(FuncCall (ID)(ExprList (Constant)(ArrayRef (ID)(ID))))))(FuncCall (ID)(ExprList (Constant)(ID)))(Return (Constant))))) |ET| 
-0.45799380906977782412781152743264  |BT| (FileAST (Decl (FuncDecl (ParamList (Typename (PtrDecl (TypeDecl (IdentifierType))))(Typename (TypeDecl (IdentifierType)))(Typename (TypeDecl (IdentifierType))))(TypeDecl (IdentifierType))))(Decl (FuncDecl (ParamList (Typename (PtrDecl (TypeDecl (IdentifierType))))(Typename (TypeDecl (IdentifierType)))(Typename (TypeDecl (IdentifierType)))(Typename (TypeDecl (IdentifierType))))(TypeDecl (IdentifierType))))(Decl (TypeDecl (IdentifierType))(Constant))(Decl (ArrayDecl (TypeDecl (IdentifierType))(Constant)))(Decl (ArrayDecl (TypeDecl (IdentifierType))(Constant)))(Decl (ArrayDecl (TypeDecl (IdentifierType))(Constant)))(FuncDef (Decl (FuncDecl (TypeDecl (IdentifierType))))(Compound (Decl (TypeDecl (IdentifierType)))(Decl (TypeDecl (IdentifierType)))(FuncCall (ID)(ExprList (Constant)(UnaryOp (ID))))(For (Assignment (ID)(Constant))(BinaryOp (ID)(ID))(UnaryOp (ID))(Compound (FuncCall (ID)(ExprList (Constant)(UnaryOp (ArrayRef (ID)(ID)))))))(FuncCall (ID)(ExprList (ID)(Constant)(ID)))(For (Assignment (ID)(Constant))(BinaryOp (ID)(BinaryOp (ID)(Constant)))(UnaryOp (ID))(Compound (FuncCall (ID)(ExprList (Constant)(ArrayRef (ID)(ID))))))(FuncCall (ID)(ExprList (Constant)(ArrayRef (ID)(ID))))(FuncCall (ID)(ExprList (Constant)(ID)))(Return (Constant))))(FuncDef (Decl (FuncDecl (ParamList (Decl (PtrDecl (TypeDecl (IdentifierType))))(Decl (TypeDecl (IdentifierType)))(Decl (TypeDecl (IdentifierType))))(TypeDecl (IdentifierType))))(Compound (Decl (TypeDecl (IdentifierType)))(If (BinaryOp (BinaryOp (ID)(Constant))(ID))(Compound (Assignment (ID)(BinaryOp (BinaryOp (ID)(ID))(Constant)))(FuncCall (ID)(ExprList (ID)(ID)(ID)))(FuncCall (ID)(ExprList (ID)(ID)(ID)))(FuncCall (ID)(ExprList (ID)(ID)(ID)(ID)))))))(FuncDef (Decl (FuncDecl (ParamList (Decl (PtrDecl (TypeDecl (IdentifierType))))(Decl (TypeDecl (IdentifierType)))(Decl (TypeDecl (IdentifierType)))(Decl (TypeDecl (IdentifierType))))(TypeDecl (IdentifierType))))(Compound (Decl (TypeDecl (IdentifierType)))(Decl (TypeDecl (IdentifierType)))(Decl (TypeDecl (IdentifierType)))(Decl (TypeDecl (IdentifierType))(Constant))(Decl (TypeDecl (IdentifierType)))(Assignment (ID)(BinaryOp (ID)(ID)))(Assignment (ID)(BinaryOp (ID)(ID)))(For (Assignment (ID)(Constant))(BinaryOp (ID)(ID))(UnaryOp (ID))(Compound (Assignment (ArrayRef (ID)(ID))(ArrayRef (ID)(BinaryOp (ID)(ID))))))(Assignment (ArrayRef (ID)(ID))(Constant))(For (Assignment (ID)(Constant))(BinaryOp (ID)(ID))(UnaryOp (ID))(Compound (Assignment (ArrayRef (ID)(ID))(ArrayRef (ID)(BinaryOp (ID)(ID))))))(Assignment (ArrayRef (ID)(ID))(Constant))(Assignment (ID)(Constant))(For (Assignment (ID)(ID))(BinaryOp (ID)(ID))(UnaryOp (ID))(Compound (If (BinaryOp (ArrayRef (ID)(ID))(ArrayRef (ID)(ID)))(Compound (Assignment (ArrayRef (ID)(ID))(ArrayRef (ID)(ID)))(UnaryOp (ID)))(Compound (Assignment (ArrayRef (ID)(ID))(ArrayRef (ID)(ID)))(UnaryOp (ID))))(UnaryOp (ID))))))) |ET| 
-0.44625045151915482266602452909865  |BT| (FileAST (Decl (TypeDecl (IdentifierType))(Constant))(Decl (FuncDecl (ParamList (Typename (PtrDecl (TypeDecl (IdentifierType))))(Typename (TypeDecl (IdentifierType)))(Typename (TypeDecl (IdentifierType))))(TypeDecl (IdentifierType))))(Decl (FuncDecl (ParamList (Typename (PtrDecl (TypeDecl (IdentifierType))))(Typename (TypeDecl (IdentifierType)))(Typename (TypeDecl (IdentifierType)))(Typename (TypeDecl (IdentifierType))))(TypeDecl (IdentifierType))))(Decl (ArrayDecl (TypeDecl (IdentifierType))(Constant)))(Decl (ArrayDecl (TypeDecl (IdentifierType))(Constant)))(Decl (ArrayDecl (TypeDecl (IdentifierType))(Constant)))(FuncDef (Decl (FuncDecl (TypeDecl (IdentifierType))))(Compound (Decl (TypeDecl (IdentifierType)))(Decl (TypeDecl (IdentifierType)))(FuncCall (ID)(ExprList (Constant)(UnaryOp (ID))))(For (Assignment (ID)(Constant))(BinaryOp (ID)(ID))(UnaryOp (ID))(FuncCall (ID)(ExprList (Constant)(UnaryOp (ArrayRef (ID)(ID))))))(FuncCall (ID)(ExprList (ID)(Constant)(ID)))(For (Assignment (ID)(Constant))(BinaryOp (ID)(BinaryOp (ID)(Constant)))(UnaryOp (ID))(FuncCall (ID)(ExprList (Constant)(ArrayRef (ID)(ID)))))(FuncCall (ID)(ExprList (Constant)(ArrayRef (ID)(ID))))(FuncCall (ID)(ExprList (Constant)(ID)))(Return (Constant))))(FuncDef (Decl (FuncDecl (ParamList (Decl (PtrDecl (TypeDecl (IdentifierType))))(Decl (TypeDecl (IdentifierType)))(Decl (TypeDecl (IdentifierType))))(TypeDecl (IdentifierType))))(Compound (Decl (TypeDecl (IdentifierType)))(If (BinaryOp (BinaryOp (ID)(Constant))(ID))(Compound (Assignment (ID)(BinaryOp (BinaryOp (ID)(ID))(Constant)))(FuncCall (ID)(ExprList (ID)(ID)(ID)))(FuncCall (ID)(ExprList (ID)(ID)(ID)))(FuncCall (ID)(ExprList (ID)(ID)(ID)(ID)))))))(FuncDef (Decl (FuncDecl (ParamList (Decl (PtrDecl (TypeDecl (IdentifierType))))(Decl (TypeDecl (IdentifierType)))(Decl (TypeDecl (IdentifierType)))(Decl (TypeDecl (IdentifierType))))(TypeDecl (IdentifierType))))(Compound (Decl (TypeDecl (IdentifierType)))(Decl (TypeDecl (IdentifierType)))(Decl (TypeDecl (IdentifierType)))(Decl (TypeDecl (IdentifierType))(Constant))(Decl (TypeDecl (IdentifierType)))(Assignment (ID)(BinaryOp (ID)(ID)))(Assignment (ID)(BinaryOp (ID)(ID)))(For (Assignment (ID)(Constant))(BinaryOp (ID)(ID))(UnaryOp (ID))(Assignment (ArrayRef (ID)(ID))(ArrayRef (ID)(BinaryOp (ID)(ID)))))(Assignment (ArrayRef (ID)(ID))(Constant))(For (Assignment (ID)(Constant))(BinaryOp (ID)(ID))(UnaryOp (ID))(Assignment (ArrayRef (ID)(ID))(ArrayRef (ID)(BinaryOp (ID)(ID)))))(Assignment (ArrayRef (ID)(ID))(Constant))(Assignment (ID)(Constant))(For (Assignment (ID)(ID))(BinaryOp (ID)(ID))(UnaryOp (ID))(Compound (If (BinaryOp (ArrayRef (ID)(ID))(ArrayRef (ID)(ID)))(Compound (Assignment (ArrayRef (ID)(ID))(ArrayRef (ID)(ID)))(UnaryOp (ID)))(Compound (Assignment (ArrayRef (ID)(ID))(ArrayRef (ID)(ID)))(UnaryOp (ID))))(UnaryOp (ID))))))) |ET| 
-0.26592576815224699959827603379381  |BT| (FileAST (Decl (FuncDecl (ParamList (Typename (PtrDecl (TypeDecl (IdentifierType))))(Typename (TypeDecl (IdentifierType)))(Typename (TypeDecl (IdentifierType)))(Typename (TypeDecl (IdentifierType))))(TypeDecl (IdentifierType))))(Decl (FuncDecl (ParamList (Typename (PtrDecl (TypeDecl (IdentifierType))))(Typename (TypeDecl (IdentifierType)))(Typename (TypeDecl (IdentifierType))))(TypeDecl (IdentifierType))))(Decl (TypeDecl (IdentifierType))(Constant))(FuncDef (Decl (FuncDecl (TypeDecl (IdentifierType))))(Compound (Decl (TypeDecl (IdentifierType)))(Decl (TypeDecl (IdentifierType)))(Decl (ArrayDecl (TypeDecl (IdentifierType))(Constant)))(FuncCall (ID)(ExprList (Constant)(UnaryOp (ID))))(For (Assignment (ID)(Constant))(BinaryOp (ID)(ID))(UnaryOp (ID))(Compound (FuncCall (ID)(ExprList (Constant)(UnaryOp (ArrayRef (ID)(ID)))))))(FuncCall (ID)(ExprList (ID)(Constant)(ID)))(For (Assignment (ID)(Constant))(BinaryOp (ID)(BinaryOp (ID)(Constant)))(UnaryOp (ID))(Compound (FuncCall (ID)(ExprList (Constant)(ArrayRef (ID)(ID))))))(FuncCall (ID)(ExprList (Constant)(ArrayRef (ID)(ID))))(FuncCall (ID)(ExprList (Constant)(ID)))(Return (Constant))))(FuncDef (Decl (FuncDecl (ParamList (Decl (PtrDecl (TypeDecl (IdentifierType))))(Decl (TypeDecl (IdentifierType)))(Decl (TypeDecl (IdentifierType)))(Decl (TypeDecl (IdentifierType))))(TypeDecl (IdentifierType))))(Compound (Decl (TypeDecl (IdentifierType)))(Decl (TypeDecl (IdentifierType)))(Decl (TypeDecl (IdentifierType)))(Decl (TypeDecl (IdentifierType)))(Decl (TypeDecl (IdentifierType)))(Decl (ArrayDecl (TypeDecl (IdentifierType))(Constant)))(Decl (ArrayDecl (TypeDecl (IdentifierType))(Constant)))(Assignment (ID)(BinaryOp (ID)(ID)))(Assignment (ID)(BinaryOp (ID)(ID)))(For (Assignment (ID)(Constant))(BinaryOp (ID)(ID))(UnaryOp (ID))(Compound (Assignment (ArrayRef (ID)(ID))(ArrayRef (ID)(BinaryOp (ID)(ID))))))(For (Assignment (ID)(Constant))(BinaryOp (ID)(ID))(UnaryOp (ID))(Compound (Assignment (ArrayRef (ID)(ID))(ArrayRef (ID)(BinaryOp (ID)(ID))))))(Assignment (ArrayRef (ID)(ID))(Constant))(Assignment (ArrayRef (ID)(ID))(Constant))(Assignment (ID)(Constant))(Assignment (ID)(Constant))(For (Assignment (ID)(ID))(BinaryOp (ID)(ID))(UnaryOp (ID))(Compound (If (BinaryOp (ArrayRef (ID)(ID))(ArrayRef (ID)(ID)))(Compound (Assignment (ArrayRef (ID)(ID))(ArrayRef (ID)(ID)))(UnaryOp (ID)))(Compound (Assignment (ArrayRef (ID)(ID))(ArrayRef (ID)(ID)))(UnaryOp (ID))))(UnaryOp (ID))))))(FuncDef (Decl (FuncDecl (ParamList (Decl (PtrDecl (TypeDecl (IdentifierType))))(Decl (TypeDecl (IdentifierType)))(Decl (TypeDecl (IdentifierType))))(TypeDecl (IdentifierType))))(Compound (Decl (TypeDecl (IdentifierType)))(If (BinaryOp (BinaryOp (ID)(Constant))(ID))(Compound (Assignment (ID)(BinaryOp (BinaryOp (ID)(ID))(Constant)))(FuncCall (ID)(ExprList (ID)(ID)(ID)))(FuncCall (ID)(ExprList (ID)(ID)(ID)))(FuncCall (ID)(ExprList (ID)(ID)(ID)(ID)))))))) |ET| 
1  |BT| (FileAST (FuncDef (Decl (FuncDecl (TypeDecl (IdentifierType))))(Compound (Decl (PtrDecl (TypeDecl (IdentifierType))))(Decl (PtrDecl (TypeDecl (IdentifierType))))(Decl (ArrayDecl (TypeDecl (IdentifierType))(BinaryOp (Constant)(Constant))))(Decl (TypeDecl (IdentifierType)))(Decl (TypeDecl (IdentifierType)))(Decl (TypeDecl (IdentifierType)))(FuncCall (ID)(ExprList (Constant)(UnaryOp (ID))))(Assignment (ID)(FuncCall (ID)(ExprList (BinaryOp (BinaryOp (UnaryOp (Typename (TypeDecl (IdentifierType))))(ID))(Constant)))))(Assignment (ID)(FuncCall (ID)(ExprList (BinaryOp (BinaryOp (UnaryOp (Typename (TypeDecl (IdentifierType))))(ID))(Constant)))))(For (Assignment (ID)(Constant))(BinaryOp (ID)(ID))(UnaryOp (ID))(FuncCall (ID)(ExprList (Constant)(UnaryOp (ArrayRef (ID)(ID))))))(For (Assignment (ID)(Constant))(BinaryOp (ID)(Constant))(UnaryOp (ID))(Assignment (ArrayRef (ID)(ID))(Constant)))(For (Assignment (ID)(Constant))(BinaryOp (ID)(ID))(UnaryOp (ID))(Compound (UnaryOp (ArrayRef (ID)(ArrayRef (ID)(ID))))))(For (Assignment (ID)(Constant))(BinaryOp (ID)(Constant))(UnaryOp (ID))(Compound (Assignment (ArrayRef (ID)(ID))(BinaryOp (ArrayRef (ID)(BinaryOp (ID)(Constant)))(ArrayRef (ID)(ID))))))(For (Assignment (ID)(ID))(BinaryOp (ID)(Constant))(UnaryOp (ID))(Compound (Assignment (ArrayRef (ID)(ArrayRef (ID)(ArrayRef (ID)(ID))))(ArrayRef (ID)(ID)))(UnaryOp (ArrayRef (ID)(ArrayRef (ID)(ID))))))(For (Assignment (ID)(Constant))(BinaryOp (ID)(ID))(UnaryOp (ID))(If (BinaryOp (ID)(ID))(FuncCall (ID)(ExprList (Constant)(ArrayRef (ID)(ID))))(FuncCall (ID)(ExprList (Constant)(ArrayRef (ID)(ID))))))(FuncCall (ID)(ExprList (Constant)))(Return (Constant))))) |ET| 
-0.40046350580386941286903379477735  |BT| (FileAST (Decl (TypeDecl (IdentifierType)))(Decl (FuncDecl (ParamList (Decl (ArrayDecl (TypeDecl (IdentifierType))))(Decl (TypeDecl (IdentifierType)))(Decl (TypeDecl (IdentifierType)))(Decl (TypeDecl (IdentifierType)))(Decl (TypeDecl (IdentifierType))))(TypeDecl (IdentifierType))))(Decl (FuncDecl (ParamList (Decl (ArrayDecl (TypeDecl (IdentifierType))))(Decl (TypeDecl (IdentifierType)))(Decl (TypeDecl (IdentifierType)))(Decl (TypeDecl (IdentifierType))))(TypeDecl (IdentifierType))))(Decl (ArrayDecl (TypeDecl (IdentifierType))(Constant)))(Decl (ArrayDecl (TypeDecl (IdentifierType))(Constant)))(FuncDef (Decl (FuncDecl (TypeDecl (IdentifierType))))(Compound (Decl (TypeDecl (IdentifierType)))(Decl (TypeDecl (IdentifierType)))(Decl (ArrayDecl (TypeDecl (IdentifierType))(Constant)))(FuncCall (ID)(ExprList (Constant)(UnaryOp (ID))))(For (Assignment (ID)(Constant))(BinaryOp (ID)(ID))(UnaryOp (ID))(Compound (FuncCall (ID)(ExprList (Constant)(UnaryOp (ArrayRef (ID)(ID)))))))(Assignment (ID)(Constant))(FuncCall (ID)(ExprList (ID)(ID)(Constant)(ID)))(For (Assignment (ID)(Constant))(BinaryOp (ID)(ID))(UnaryOp (ID))(Compound (If (BinaryOp (ID)(Constant))(FuncCall (ID)(ExprList (Constant))))(FuncCall (ID)(ExprList (Constant)(ArrayRef (ID)(ID))))))(FuncCall (ID)(ExprList (Constant)))(FuncCall (ID)(ExprList (Constant)(ID)))(Return (Constant))))(FuncDef (Decl (FuncDecl (ParamList (Decl (ArrayDecl (TypeDecl (IdentifierType))))(Decl (TypeDecl (IdentifierType)))(Decl (TypeDecl (IdentifierType)))(Decl (TypeDecl (IdentifierType)))(Decl (TypeDecl (IdentifierType))))(TypeDecl (IdentifierType))))(Compound (Decl (TypeDecl (IdentifierType)))(Decl (TypeDecl (IdentifierType)))(Decl (TypeDecl (IdentifierType)))(Decl (TypeDecl (IdentifierType)))(Decl (TypeDecl (IdentifierType)))(Assignment (ID)(BinaryOp (ID)(ID)))(Assignment (ID)(BinaryOp (ID)(ID)))(For (Assignment (ID)(Constant))(BinaryOp (ID)(ID))(UnaryOp (ID))(Compound (Assignment (ArrayRef (ID)(ID))(ArrayRef (ID)(BinaryOp (ID)(ID))))))(For (Assignment (ID)(Constant))(BinaryOp (ID)(ID))(UnaryOp (ID))(Compound (Assignment (ArrayRef (ID)(ID))(ArrayRef (ID)(BinaryOp (ID)(ID))))))(Assignment (ArrayRef (ID)(ID))(Constant))(Assignment (ArrayRef (ID)(ID))(Constant))(Assignment (ID)(Constant))(Assignment (ID)(Constant))(For (Assignment (ID)(ID))(BinaryOp (ID)(ID))(UnaryOp (ID))(Compound (UnaryOp (ID))(If (BinaryOp (ArrayRef (ID)(ID))(ArrayRef (ID)(ID)))(Compound (Assignment (ArrayRef (ID)(ID))(ArrayRef (ID)(ID)))(UnaryOp (ID)))(Compound (Assignment (ArrayRef (ID)(ID))(ArrayRef (ID)(ID)))(UnaryOp (ID))))))))(FuncDef (Decl (FuncDecl (ParamList (Decl (ArrayDecl (TypeDecl (IdentifierType))))(Decl (TypeDecl (IdentifierType)))(Decl (TypeDecl (IdentifierType)))(Decl (TypeDecl (IdentifierType))))(TypeDecl (IdentifierType))))(Compound (Decl (TypeDecl (IdentifierType)))(If (BinaryOp (BinaryOp (ID)(Constant))(ID))(Compound (Assignment (ID)(BinaryOp (BinaryOp (ID)(ID))(Constant)))(FuncCall (ID)(ExprList (ID)(ID)(ID)(ID)))(FuncCall (ID)(ExprList (ID)(ID)(ID)(ID)))(FuncCall (ID)(ExprList (ID)(ID)(ID)(ID)(ID)))))))) |ET| 
0.4630487516388047675164330030384  |BT| (FileAST (Decl (PtrDecl (TypeDecl (IdentifierType))))(Decl (PtrDecl (TypeDecl (IdentifierType))))(Decl (FuncDecl (ParamList (Typename (TypeDecl (IdentifierType))))(TypeDecl (IdentifierType))))(FuncDef (Decl (FuncDecl (TypeDecl (IdentifierType))))(Compound (Decl (TypeDecl (IdentifierType)))(Decl (TypeDecl (IdentifierType)))(FuncCall (ID)(ExprList (Constant)(UnaryOp (ID))))(Assignment (ID)(FuncCall (ID)(ExprList (BinaryOp (BinaryOp (UnaryOp (Typename (TypeDecl (IdentifierType))))(ID))(Constant)))))(Assignment (ID)(FuncCall (ID)(ExprList (BinaryOp (BinaryOp (UnaryOp (Typename (TypeDecl (IdentifierType))))(ID))(Constant)))))(For (Assignment (ID)(Constant))(BinaryOp (ID)(ID))(UnaryOp (ID))(Compound (FuncCall (ID)(ExprList (Constant)(UnaryOp (ArrayRef (ID)(ID)))))))(FuncCall (ID)(ExprList (ID)))(For (Assignment (ID)(Constant))(BinaryOp (ID)(ID))(UnaryOp (ID))(Compound (FuncCall (ID)(ExprList (Constant)(ArrayRef (ID)(ID))))(If (BinaryOp (ID)(ID))(FuncCall (ID)(ExprList (Constant))))))(FuncCall (ID)(ExprList (Constant)))(Return (Constant))))(FuncDef (Decl (FuncDecl (ParamList (Decl (TypeDecl (IdentifierType))))(TypeDecl (IdentifierType))))(Compound (Decl (TypeDecl (IdentifierType)))(Decl (ArrayDecl (TypeDecl (IdentifierType))(Constant)))(For (Assignment (ID)(Constant))(BinaryOp (ID)(ID))(UnaryOp (ID))(Compound (Assignment (ArrayRef (ID)(ID))(Constant))))(For (Assignment (ID)(Constant))(BinaryOp (ID)(ID))(UnaryOp (ID))(Compound (UnaryOp (ArrayRef (ID)(ArrayRef (ID)(ID))))))(For (Assignment (ID)(Constant))(BinaryOp (ID)(Constant))(UnaryOp (ID))(Compound (Assignment (ArrayRef (ID)(ID))(BinaryOp (ArrayRef (ID)(ID))(ArrayRef (ID)(BinaryOp (ID)(Constant)))))(If (BinaryOp (ArrayRef (ID)(ID))(ID))(Break))))(For (Assignment (ID)(BinaryOp (ID)(Constant)))(BinaryOp (ID)(Constant))(UnaryOp (ID))(Compound (Assignment (ArrayRef (ID)(ArrayRef (ID)(ArrayRef (ID)(ID))))(ArrayRef (ID)(ID)))(UnaryOp (ArrayRef (ID)(ArrayRef (ID)(ID))))))))) |ET| 
-0.31897905768256967773410792688082  |BT| (FileAST (Decl (FuncDecl (ParamList (Typename (PtrDecl (TypeDecl (IdentifierType))))(Typename (TypeDecl (IdentifierType)))(Typename (TypeDecl (IdentifierType)))(Typename (TypeDecl (IdentifierType))))(TypeDecl (IdentifierType))))(Decl (FuncDecl (ParamList (Typename (PtrDecl (TypeDecl (IdentifierType))))(Typename (TypeDecl (IdentifierType)))(Typename (TypeDecl (IdentifierType))))(TypeDecl (IdentifierType))))(Decl (TypeDecl (IdentifierType))(Constant))(FuncDef (Decl (FuncDecl (TypeDecl (IdentifierType))))(Compound (Decl (TypeDecl (IdentifierType)))(Decl (TypeDecl (IdentifierType)))(Decl (ArrayDecl (TypeDecl (IdentifierType))(Constant)))(FuncCall (ID)(ExprList (Constant)(UnaryOp (ID))))(For (Assignment (ID)(Constant))(BinaryOp (ID)(ID))(UnaryOp (ID))(Compound (FuncCall (ID)(ExprList (Constant)(UnaryOp (ArrayRef (ID)(ID)))))))(FuncCall (ID)(ExprList (ID)(Constant)(ID)))(For (Assignment (ID)(Constant))(BinaryOp (ID)(ID))(UnaryOp (ID))(Compound (If (BinaryOp (ID)(Constant))(FuncCall (ID)(ExprList (Constant))))(FuncCall (ID)(ExprList (Constant)(ArrayRef (ID)(ID))))))(FuncCall (ID)(ExprList (Constant)(ID)))(Return (Constant))))(FuncDef (Decl (FuncDecl (ParamList (Decl (PtrDecl (TypeDecl (IdentifierType))))(Decl (TypeDecl (IdentifierType)))(Decl (TypeDecl (IdentifierType)))(Decl (TypeDecl (IdentifierType))))(TypeDecl (IdentifierType))))(Compound (Decl (TypeDecl (IdentifierType)))(Decl (TypeDecl (IdentifierType)))(Decl (TypeDecl (IdentifierType)))(Decl (TypeDecl (IdentifierType)))(Decl (TypeDecl (IdentifierType)))(Decl (ArrayDecl (TypeDecl (IdentifierType))(Constant)))(Decl (ArrayDecl (TypeDecl (IdentifierType))(Constant)))(Assignment (ID)(BinaryOp (ID)(ID)))(Assignment (ID)(BinaryOp (ID)(ID)))(For (Assignment (ID)(Constant))(BinaryOp (ID)(ID))(UnaryOp (ID))(Compound (Assignment (ArrayRef (ID)(ID))(ArrayRef (ID)(BinaryOp (ID)(ID))))))(For (Assignment (ID)(Constant))(BinaryOp (ID)(ID))(UnaryOp (ID))(Compound (Assignment (ArrayRef (ID)(ID))(ArrayRef (ID)(BinaryOp (ID)(ID))))))(Assignment (ArrayRef (ID)(ID))(Constant))(Assignment (ArrayRef (ID)(ID))(Constant))(Assignment (ID)(Constant))(Assignment (ID)(Constant))(For (Assignment (ID)(ID))(BinaryOp (ID)(ID))(UnaryOp (ID))(Compound (If (BinaryOp (ArrayRef (ID)(ID))(ArrayRef (ID)(ID)))(Compound (Assignment (ArrayRef (ID)(ID))(ArrayRef (ID)(ID)))(UnaryOp (ID))(UnaryOp (ID)))(Compound (Assignment (ArrayRef (ID)(ID))(ArrayRef (ID)(ID)))(UnaryOp (ID))(UnaryOp (ID))))))))(FuncDef (Decl (FuncDecl (ParamList (Decl (PtrDecl (TypeDecl (IdentifierType))))(Decl (TypeDecl (IdentifierType)))(Decl (TypeDecl (IdentifierType))))(TypeDecl (IdentifierType))))(Compound (Decl (TypeDecl (IdentifierType)))(If (BinaryOp (BinaryOp (ID)(Constant))(ID))(Compound (Assignment (ID)(BinaryOp (BinaryOp (ID)(ID))(Constant)))(FuncCall (ID)(ExprList (ID)(ID)(ID)))(FuncCall (ID)(ExprList (ID)(ID)(ID)))(FuncCall (ID)(ExprList (ID)(ID)(ID)(ID)))))))) |ET| 
-1  |BT| (FileAST (FuncDef (Decl (FuncDecl (ParamList (Decl (PtrDecl (TypeDecl (IdentifierType))))(Decl (PtrDecl (TypeDecl (IdentifierType)))))(TypeDecl (IdentifierType))))(Compound (Return (BinaryOp (UnaryOp (Cast (Typename (PtrDecl (TypeDecl (IdentifierType))))(ID)))(UnaryOp (Cast (Typename (PtrDecl (TypeDecl (IdentifierType))))(ID)))))))(FuncDef (Decl (FuncDecl (ParamList (Decl (PtrDecl (TypeDecl (IdentifierType))))(Decl (TypeDecl (IdentifierType))))(TypeDecl (IdentifierType))))(Compound (FuncCall (ID)(ExprList (ID)(ID)(UnaryOp (Typename (TypeDecl (IdentifierType))))(ID)))))(FuncDef (Decl (FuncDecl (ParamList (Decl (TypeDecl (IdentifierType))))(TypeDecl (IdentifierType))))(Compound (If (BinaryOp (ID)(Constant))(Return (BinaryOp (BinaryOp (FuncCall (ID)(ExprList (BinaryOp (ID)(Constant))))(FuncCall (ID)(ExprList (BinaryOp (ID)(BinaryOp (ID)(Constant))))))(ID))))(Return (Constant))))(Decl (ArrayDecl (TypeDecl (IdentifierType))(Constant)))(FuncDef (Decl (FuncDecl (TypeDecl (IdentifierType))))(Compound (Decl (TypeDecl (IdentifierType)))(FuncCall (ID)(ExprList (Constant)(UnaryOp (ID))))(For (DeclList (Decl (TypeDecl (IdentifierType))(Constant)))(BinaryOp (ID)(ID))(UnaryOp (ID))(FuncCall (ID)(ExprList (Constant)(BinaryOp (ID)(ID)))))(FuncCall (ID)(ExprList (ID)(ID)))(For (DeclList (Decl (TypeDecl (IdentifierType))(Constant)))(BinaryOp (ID)(ID))(UnaryOp (ID))(FuncCall (ID)(ExprList (Constant)(ArrayRef (ID)(ID))(TernaryOp (BinaryOp (ID)(BinaryOp (ID)(Constant)))(Constant)(Constant)))))(FuncCall (ID)(ExprList (Constant)(FuncCall (ID)(ExprList (ID)))))))) |ET| 
1  |BT| (FileAST (Decl (Struct (Decl (PtrDecl (TypeDecl (IdentifierType))))(Decl (TypeDecl (IdentifierType)))))(FuncDef (Decl (FuncDecl (ParamList (Decl (TypeDecl (IdentifierType))))(TypeDecl (IdentifierType))))(Compound (If (BinaryOp (ID)(Constant))(Compound (FuncCall (ID)(ExprList (StructRef (ID)(ID))))))(FuncCall (ID)(ExprList (ID)))))(FuncDef (Decl (FuncDecl (ParamList (Decl (TypeDecl (IdentifierType))))(TypeDecl (IdentifierType))))(Compound (Decl (TypeDecl (IdentifierType))(Cast (Typename (TypeDecl (IdentifierType)))(FuncCall (ID)(ExprList (UnaryOp (Typename (TypeDecl (IdentifierType))))))))(If (BinaryOp (ID)(Constant))(Goto))(Assignment (StructRef (ID)(ID))(ID))(Assignment (StructRef (ID)(ID))(Cast (Typename (PtrDecl (TypeDecl (IdentifierType))))(FuncCall (ID)(ExprList (UnaryOp (Typename (TypeDecl (IdentifierType))))(ID)))))(If (BinaryOp (StructRef (ID)(ID))(Constant))(Goto))(Return (ID))(Label (FuncCall (ID)(ExprList (ID))))(FuncCall (ID)(ExprList (Constant)))(FuncCall (ID)(ExprList (Constant)))))(FuncDef (Decl (FuncDecl (ParamList (Decl (TypeDecl (IdentifierType))))(TypeDecl (IdentifierType))))(Compound (FuncCall (ID)(ExprList (ID)))))(FuncDef (Decl (FuncDecl (ParamList (Decl (TypeDecl (IdentifierType)))(Decl (ArrayDecl (TypeDecl (IdentifierType))))(Decl (TypeDecl (IdentifierType))))(TypeDecl (IdentifierType))))(Compound (Decl (TypeDecl (IdentifierType)))(For (Assignment (ID)(Constant))(BinaryOp (ID)(ID))(UnaryOp (ID))(Compound (UnaryOp (ArrayRef (StructRef (ID)(ID))(ArrayRef (ID)(ID))))))))(FuncDef (Decl (FuncDecl (ParamList (Decl (TypeDecl (IdentifierType))))(TypeDecl (IdentifierType))))(Compound (Decl (TypeDecl (IdentifierType)))(For (Assignment (ID)(Constant))(BinaryOp (ID)(StructRef (ID)(ID)))(UnaryOp (ID))(Compound (Assignment (ArrayRef (StructRef (ID)(ID))(ID))(ArrayRef (StructRef (ID)(ID))(BinaryOp (ID)(Constant))))))))(FuncDef (Decl (FuncDecl (ParamList (Decl (ArrayDecl (TypeDecl (IdentifierType))))(Decl (TypeDecl (IdentifierType)))(Decl (PtrDecl (PtrDecl (TypeDecl (IdentifierType))))))(TypeDecl (IdentifierType))))(Compound (Assignment (UnaryOp (ID))(Cast (Typename (PtrDecl (TypeDecl (IdentifierType))))(FuncCall (ID)(ExprList (BinaryOp (UnaryOp (ArrayRef (ID)(Constant)))(ID))))))(If (BinaryOp (UnaryOp (ID))(Constant))(Return (Constant)))(FuncCall (ID)(ExprList (UnaryOp (ID))(ID)(BinaryOp (UnaryOp (ArrayRef (ID)(Constant)))(ID))))(Return (Constant))))(FuncDef (Decl (FuncDecl (ParamList (Decl (TypeDecl (IdentifierType)))(Decl (ArrayDecl (TypeDecl (IdentifierType))))(Decl (TypeDecl (IdentifierType))))(TypeDecl (IdentifierType))))(Compound (FuncCall (ID)(ExprList (ID)(ID)(ID)))(FuncCall (ID)(ExprList (ID)))(Decl (PtrDecl (TypeDecl (IdentifierType))))(If (UnaryOp (FuncCall (ID)(ExprList (ID)(ID)(UnaryOp (ID)))))(Goto))(Decl (TypeDecl (IdentifierType)))(For (Assignment (ID)(BinaryOp (ID)(Constant)))(BinaryOp (Constant)(ID))(UnaryOp (ID))(Compound (Decl (TypeDecl (IdentifierType))(ArrayRef (StructRef (ID)(ID))(ArrayRef (ID)(ID))))(Assignment (ArrayRef (ID)(BinaryOp (ID)(Constant)))(ArrayRef (ID)(ID)))(UnaryOp (ArrayRef (StructRef (ID)(ID))(ArrayRef (ID)(ID))))))(Return)(Label (FuncCall (ID)(ExprList (ID))))(FuncCall (ID)(ExprList (Constant)))(FuncCall (ID)(ExprList (Constant)))))(Decl (ArrayDecl (TypeDecl (IdentifierType))(Constant)))(FuncDef (Decl (FuncDecl (ParamList (Typename (TypeDecl (IdentifierType))))(TypeDecl (IdentifierType))))(Compound (Decl (TypeDecl (IdentifierType)))(FuncCall (ID)(ExprList (Constant)(UnaryOp (ID))))(Decl (TypeDecl (IdentifierType))(FuncCall (ID)(ExprList (Constant))))(Decl (TypeDecl (IdentifierType)))(For (Assignment (ID)(Constant))(BinaryOp (ID)(ID))(UnaryOp (ID))(Compound (Decl (TypeDecl (IdentifierType)))(FuncCall (ID)(ExprList (Constant)(UnaryOp (ID))))(Assignment (ArrayRef (ID)(ID))(ID))))(FuncCall (ID)(ExprList (ID)(ID)(ID)))(For (Assignment (ID)(Constant))(BinaryOp (ID)(ID))(UnaryOp (ID))(Compound (If (BinaryOp (ID)(Constant))(FuncCall (ID)(ExprList (Constant))))(FuncCall (ID)(ExprList (Constant)(ArrayRef (ID)(ID))))))(FuncCall (ID)(ExprList (Constant)))(FuncCall (ID)(ExprList (ID)))(Return (Constant))))) |ET| 
-0.41569689807822302052287000151409  |BT| (FileAST (Decl (TypeDecl (IdentifierType)))(Decl (ArrayDecl (TypeDecl (IdentifierType))(Constant)))(Decl (TypeDecl (IdentifierType))(Constant))(FuncDef (Decl (FuncDecl (ParamList (ID)(ID)(ID))(TypeDecl (IdentifierType))))(Compound (Decl (TypeDecl (IdentifierType)))(Decl (TypeDecl (IdentifierType)))(Decl (TypeDecl (IdentifierType)))(Decl (TypeDecl (IdentifierType))(Constant))(Decl (TypeDecl (IdentifierType))(Constant))(Assignment (ID)(BinaryOp (ID)(ID)))(Assignment (ID)(BinaryOp (ID)(ID)))(Decl (ArrayDecl (TypeDecl (IdentifierType))(BinaryOp (ID)(Constant))))(Decl (ArrayDecl (TypeDecl (IdentifierType))(BinaryOp (ID)(Constant))))(For (Assignment (ID)(Constant))(BinaryOp (ID)(ID))(UnaryOp (ID))(Compound (Assignment (ArrayRef (ID)(ID))(ArrayRef (ID)(BinaryOp (ID)(ID))))))(For (Assignment (ID)(Constant))(BinaryOp (ID)(ID))(UnaryOp (ID))(Compound (Assignment (ArrayRef (ID)(ID))(ArrayRef (ID)(BinaryOp (ID)(ID))))))(Assignment (ArrayRef (ID)(ID))(Constant))(Assignment (ArrayRef (ID)(ID))(Constant))(Assignment (ID)(Constant))(Assignment (ID)(Constant))(For (Assignment (ID)(ID))(BinaryOp (ID)(ID))(UnaryOp (ID))(Compound (If (BinaryOp (ArrayRef (ID)(ID))(ArrayRef (ID)(ID)))(Compound (Assignment (ArrayRef (ID)(ID))(ArrayRef (ID)(ID)))(Assignment (ID)(BinaryOp (ID)(Constant)))(UnaryOp (ID)))(Compound (Assignment (ArrayRef (ID)(ID))(ArrayRef (ID)(ID)))(Assignment (ID)(BinaryOp (ID)(Constant)))(UnaryOp (ID))))))))(FuncDef (Decl (FuncDecl (ParamList (ID)(ID))(TypeDecl (IdentifierType))))(Compound (Decl (TypeDecl (IdentifierType)))(If (BinaryOp (BinaryOp (ID)(Constant))(ID))(Compound (Assignment (ID)(BinaryOp (BinaryOp (ID)(ID))(Constant)))(FuncCall (ID)(ExprList (ID)(ID)))(FuncCall (ID)(ExprList (ID)(ID)))(FuncCall (ID)(ExprList (ID)(ID)(ID)))))(Return (ID))))(FuncDef (Decl (FuncDecl (TypeDecl (IdentifierType))))(Compound (Decl (TypeDecl (IdentifierType)))(Decl (TypeDecl (IdentifierType)))(Decl (TypeDecl (IdentifierType)))(Decl (TypeDecl (IdentifierType)))(FuncCall (ID)(ExprList (Constant)(UnaryOp (ID))))(Assignment (ID)(Constant))(Assignment (ID)(ID))(For (Assignment (ID)(Constant))(BinaryOp (ID)(ID))(UnaryOp (ID))(Compound (FuncCall (ID)(ExprList (Constant)(UnaryOp (ArrayRef (ID)(ID)))))))(FuncCall (ID)(ExprList (ID)(ID)))(For (Assignment (ID)(Constant))(BinaryOp (ID)(ID))(UnaryOp (ID))(Compound (If (BinaryOp (ID)(Constant))(Compound (FuncCall (ID)(ExprList (Constant)(ArrayRef (ID)(ID)))))(FuncCall (ID)(ExprList (Constant)(ArrayRef (ID)(ID)))))))(FuncCall (ID)(ExprList (Constant)(ID)))(Return (Constant))))) |ET| 
0.55027102011289230620860735143651  |BT| (FileAST (FuncDef (Decl (FuncDecl (TypeDecl (IdentifierType))))(Compound (Decl (TypeDecl (IdentifierType)))(Decl (TypeDecl (IdentifierType)))(Decl (TypeDecl (IdentifierType)))(Decl (TypeDecl (IdentifierType)))(Decl (TypeDecl (IdentifierType))(Constant))(Decl (ArrayDecl (TypeDecl (IdentifierType))(Constant)))(Decl (ArrayDecl (TypeDecl (IdentifierType))(Constant)))(FuncCall (ID)(ExprList (Constant)(UnaryOp (ID))))(If (BinaryOp (BinaryOp (ID)(Constant))(BinaryOp (ID)(Constant)))(FuncCall (ID)(ExprList (Constant))))(For (Assignment (ID)(Constant))(BinaryOp (ID)(Constant))(UnaryOp (ID))(Compound (Assignment (ArrayRef (ID)(ID))(Constant))))(For (Assignment (ID)(Constant))(BinaryOp (ID)(ID))(UnaryOp (ID))(Compound (FuncCall (ID)(ExprList (Constant)(UnaryOp (ID))))(UnaryOp (ArrayRef (ID)(ID)))))(For (Assignment (ID)(Constant))(BinaryOp (ID)(Constant))(UnaryOp (ID))(Compound (For (Assignment (ID)(Constant))(BinaryOp (ID)(ArrayRef (ID)(ID)))(UnaryOp (ID))(Compound (FuncCall (ID)(ExprList (Constant)(ID)))(If (BinaryOp (ID)(BinaryOp (ID)(Constant)))(Compound (FuncCall (ID)(ExprList (Constant)))(UnaryOp (ID))))))))(FuncCall (ID)(ExprList (Constant)))(Return (Constant))))) |ET| 
-1  |BT| (FileAST (Decl (ArrayDecl (TypeDecl (IdentifierType))(Constant)))(Decl (ArrayDecl (TypeDecl (IdentifierType))(Constant)))(Decl (TypeDecl (IdentifierType))(Constant))(FuncDef (Decl (FuncDecl (ParamList (Decl (PtrDecl (TypeDecl (IdentifierType))))(Decl (TypeDecl (IdentifierType)))(Decl (TypeDecl (IdentifierType))))(TypeDecl (IdentifierType))))(Compound (Decl (TypeDecl (IdentifierType)))(Decl (TypeDecl (IdentifierType)))(Decl (TypeDecl (IdentifierType)))(Decl (TypeDecl (IdentifierType)))(If (BinaryOp (ID)(ID))(Compound (Assignment (ID)(BinaryOp (BinaryOp (ID)(ID))(Constant)))(FuncCall (ID)(ExprList (ID)(ID)(ID)))(FuncCall (ID)(ExprList (ID)(BinaryOp (ID)(Constant))(ID)))(For (Assignment (ID)(BinaryOp (ID)(Constant)))(BinaryOp (ID)(ID))(UnaryOp (ID))(Assignment (ArrayRef (ID)(BinaryOp (ID)(Constant)))(ArrayRef (ID)(BinaryOp (ID)(Constant)))))(For (Assignment (ID)(ID))(BinaryOp (ID)(ID))(UnaryOp (ID))(Assignment (ArrayRef (ID)(BinaryOp (BinaryOp (ID)(ID))(ID)))(ArrayRef (ID)(BinaryOp (ID)(Constant)))))(For (Assignment (ID)(ID))(BinaryOp (ID)(ID))(UnaryOp (ID))(Compound (Assignment (ArrayRef (ID)(ID))(TernaryOp (BinaryOp (ArrayRef (ID)(ID))(ArrayRef (ID)(ID)))(ArrayRef (ID)(UnaryOp (ID)))(ArrayRef (ID)(UnaryOp (ID)))))(UnaryOp (ID))))))))(FuncDef (Decl (FuncDecl (TypeDecl (IdentifierType))))(Compound (Decl (TypeDecl (IdentifierType)))(Decl (TypeDecl (IdentifierType)))(FuncCall (ID)(ExprList (Constant)(UnaryOp (ID))))(For (Assignment (ID)(Constant))(BinaryOp (ID)(ID))(UnaryOp (ID))(FuncCall (ID)(ExprList (Constant)(UnaryOp (ArrayRef (ID)(ID))))))(FuncCall (ID)(ExprList (ID)(Constant)(BinaryOp (ID)(Constant))))(For (Assignment (ID)(Constant))(BinaryOp (ID)(BinaryOp (ID)(Constant)))(UnaryOp (ID))(FuncCall (ID)(ExprList (Constant)(ArrayRef (ID)(ID)))))(FuncCall (ID)(ExprList (Constant)(ArrayRef (ID)(BinaryOp (ID)(Constant)))(ID)))(Return (Constant))))) |ET| 
1  |BT| (FileAST (FuncDef (Decl (FuncDecl (ParamList (Decl (PtrDecl (TypeDecl (IdentifierType))))(Decl (PtrDecl (TypeDecl (IdentifierType))))(Decl (PtrDecl (TypeDecl (IdentifierType))))(Decl (TypeDecl (IdentifierType)))(Decl (TypeDecl (IdentifierType))))(TypeDecl (IdentifierType))))(Compound (Decl (TypeDecl (IdentifierType)))(For (Assignment (ID)(Constant))(BinaryOp (ID)(ID))(UnaryOp (ID))(Assignment (ArrayRef (ID)(ID))(Constant)))(For (Assignment (ID)(Constant))(BinaryOp (ID)(ID))(UnaryOp (ID))(UnaryOp (ArrayRef (ID)(ArrayRef (ID)(ID)))))(For (Assignment (ID)(Constant))(BinaryOp (ID)(ID))(UnaryOp (ID))(Assignment (ArrayRef (ID)(ID))(ArrayRef (ID)(BinaryOp (ID)(Constant)))))(For (Assignment (ID)(BinaryOp (ID)(Constant)))(BinaryOp (ID)(Constant))(UnaryOp (ID))(Compound (Assignment (ArrayRef (ID)(BinaryOp (ArrayRef (ID)(ArrayRef (ID)(ID)))(Constant)))(ArrayRef (ID)(ID)))(UnaryOp (ArrayRef (ID)(ArrayRef (ID)(ID))))))))(FuncDef (Decl (FuncDecl (ParamList (Decl (TypeDecl (IdentifierType)))(Decl (PtrDecl (PtrDecl (TypeDecl (IdentifierType))))))(TypeDecl (IdentifierType))))(Compound (Decl (TypeDecl (IdentifierType)))(Decl (TypeDecl (IdentifierType)))(Decl (TypeDecl (IdentifierType)))(Decl (TypeDecl (IdentifierType)))(Decl (PtrDecl (TypeDecl (IdentifierType))))(Decl (PtrDecl (TypeDecl (IdentifierType))))(Decl (PtrDecl (TypeDecl (IdentifierType))))(Assignment (ID)(FuncCall (ID)(ExprList (Constant)(UnaryOp (ID)))))(If (BinaryOp (ID)(Constant))(FuncCall (ID)(ExprList (Constant))))(If (BinaryOp (ID)(Constant))(FuncCall (ID)(ExprList (Constant))))(Assignment (ID)(Cast (Typename (PtrDecl (TypeDecl (IdentifierType))))(FuncCall (ID)(ExprList (BinaryOp (UnaryOp (Typename (TypeDecl (IdentifierType))))(ID))))))(If (BinaryOp (ID)(Constant))(FuncCall (ID)(ExprList (Constant))))(For (Assignment (ID)(Assignment (ID)(Constant)))(BinaryOp (ID)(ID))(UnaryOp (ID))(Compound (Assignment (ID)(FuncCall (ID)(ExprList (Constant)(UnaryOp (ArrayRef (ID)(ID))))))(If (BinaryOp (ID)(Constant))(FuncCall (ID)(ExprList (Constant))))(If (BinaryOp (ID)(Constant))(Break))(If (BinaryOp (ArrayRef (ID)(ID))(ID))(Assignment (ID)(ArrayRef (ID)(ID))))))(Assignment (ID)(Cast (Typename (PtrDecl (TypeDecl (IdentifierType))))(FuncCall (ID)(ExprList (BinaryOp (UnaryOp (Typename (TypeDecl (IdentifierType))))(ID))))))(If (BinaryOp (ID)(Constant))(Compound (FuncCall (ID)(ExprList (ID)))(FuncCall (ID)(ExprList (Constant)))))(Assignment (ID)(Cast (Typename (PtrDecl (TypeDecl (IdentifierType))))(FuncCall (ID)(ExprList (BinaryOp (UnaryOp (Typename (TypeDecl (IdentifierType))))(BinaryOp (ID)(Constant)))))))(If (BinaryOp (ID)(Constant))(Compound (FuncCall (ID)(ExprList (ID)))(FuncCall (ID)(ExprList (ID)))(FuncCall (ID)(ExprList (Constant)))))(FuncCall (ID)(ExprList (ID)(ID)(ID)(ID)(BinaryOp (ID)(Constant))))(For (Assignment (ID)(Constant))(BinaryOp (ID)(ID))(UnaryOp (ID))(Compound (If (BinaryOp (ID)(Constant))(FuncCall (ID)(ExprList (Constant))))(FuncCall (ID)(ExprList (Constant)(ArrayRef (ID)(ID))))))(FuncCall (ID)(ExprList (Constant)))(FuncCall (ID)(ExprList (ID)))(FuncCall (ID)(ExprList (ID)))(FuncCall (ID)(ExprList (ID)))(FuncCall (ID)(ExprList (Constant)))))) |ET| 
-1  |BT| (FileAST (Decl (ArrayDecl (TypeDecl (IdentifierType))(Constant)))(Decl (TypeDecl (IdentifierType))(Constant))(FuncDef (Decl (FuncDecl (ParamList (Decl (ArrayDecl (TypeDecl (IdentifierType))))(Decl (TypeDecl (IdentifierType)))(Decl (TypeDecl (IdentifierType))))(TypeDecl (IdentifierType))))(Compound (Decl (TypeDecl (IdentifierType)))(Decl (TypeDecl (IdentifierType)))(Decl (TypeDecl (IdentifierType)))(Decl (TypeDecl (IdentifierType)))(If (BinaryOp (ID)(ID))(Compound (Assignment (ID)(BinaryOp (BinaryOp (ID)(ID))(Constant)))(FuncCall (ID)(ExprList (ID)(ID)(ID)))(FuncCall (ID)(ExprList (ID)(BinaryOp (ID)(Constant))(ID)))(For (Assignment (ID)(ID))(BinaryOp (ID)(ID))(UnaryOp (ID))(Assignment (ArrayRef (ID)(ID))(ArrayRef (ID)(ID))))(For (ExprList (Assignment (ID)(BinaryOp (ID)(Constant)))(Assignment (ID)(ID)))(BinaryOp (ID)(ID))(ExprList (UnaryOp (ID))(UnaryOp (ID)))(Assignment (ArrayRef (ID)(ID))(ArrayRef (ID)(ID))))(Assignment (ID)(ID))(Assignment (ID)(ID))(For (Assignment (ID)(ID))(BinaryOp (ID)(ID))(UnaryOp (ID))(Compound (UnaryOp (ID))(If (BinaryOp (ArrayRef (ID)(ID))(ArrayRef (ID)(ID)))(Assignment (ArrayRef (ID)(ID))(ArrayRef (ID)(UnaryOp (ID))))(Assignment (ArrayRef (ID)(ID))(ArrayRef (ID)(UnaryOp (ID)))))))))))(FuncDef (Decl (FuncDecl (ParamList (Typename (TypeDecl (IdentifierType))))(TypeDecl (IdentifierType))))(Compound (Decl (TypeDecl (IdentifierType)))(Decl (ArrayDecl (TypeDecl (IdentifierType))(Constant)))(Decl (TypeDecl (IdentifierType)))(FuncCall (ID)(ExprList (Constant)(UnaryOp (ID))))(For (Assignment (ID)(Constant))(BinaryOp (ID)(ID))(UnaryOp (ID))(Compound (FuncCall (ID)(ExprList (Constant)(UnaryOp (ArrayRef (ID)(ID)))))))(FuncCall (ID)(ExprList (ID)(Constant)(BinaryOp (ID)(Constant))))(For (Assignment (ID)(Constant))(BinaryOp (ID)(ID))(UnaryOp (ID))(Compound (FuncCall (ID)(ExprList (Constant)(ArrayRef (ID)(ID))))(If (BinaryOp (ID)(BinaryOp (ID)(Constant)))(Compound (FuncCall (ID)(ExprList (Constant)))))))(FuncCall (ID)(ExprList (Constant)(ID)))(Return (Constant))))) |ET| 
0.99792051824786065505890064741834  |BT| (FileAST (Decl (FuncDecl (ParamList (Typename (TypeDecl (IdentifierType))))(TypeDecl (IdentifierType))))(Decl (FuncDecl (ParamList (Decl (TypeDecl (IdentifierType))))(TypeDecl (IdentifierType))))(Decl (FuncDecl (ParamList (Decl (ArrayDecl (TypeDecl (IdentifierType))))(Decl (ArrayDecl (TypeDecl (IdentifierType))))(Decl (TypeDecl (IdentifierType)))(Decl (TypeDecl (IdentifierType))))(TypeDecl (IdentifierType))))(Decl (ArrayDecl (TypeDecl (IdentifierType))(Constant)))(Decl (ArrayDecl (TypeDecl (IdentifierType))(Constant)))(Decl (ArrayDecl (TypeDecl (IdentifierType))(Constant)))(Decl (PtrDecl (TypeDecl (IdentifierType)))(ID))(FuncDef (Decl (FuncDecl (ParamList (Typename (TypeDecl (IdentifierType))))(TypeDecl (IdentifierType))))(Compound (Decl (TypeDecl (IdentifierType)))(Decl (TypeDecl (IdentifierType)))(FuncCall (ID)(ExprList (ID)(Constant)(Constant)(ID)))(Assignment (ID)(FuncCall (ID)))(For (Assignment (ID)(Constant))(BinaryOp (ID)(ID))(UnaryOp (ID))(Compound (Assignment (ArrayRef (ID)(ID))(FuncCall (ID)))))(FuncCall (ID)(ExprList (ID)(ID)(Constant)(ID)))(Assignment (ID)(ID))(UnaryOp (ID))(For (Assignment (ID)(Constant))(BinaryOp (ID)(ID))(UnaryOp (ID))(Compound (FuncCall (ID)(ExprList (ArrayRef (ID)(ID))))(EmptyStatement)(Assignment (UnaryOp (ID))(Cast (Typename (TypeDecl (IdentifierType)))(Constant)))(UnaryOp (ID))(EmptyStatement)))(FuncCall (ID)(ExprList (ArrayRef (ID)(ID))))(EmptyStatement)(Assignment (UnaryOp (ID))(Cast (Typename (TypeDecl (IdentifierType)))(Constant)))(UnaryOp (ID))(EmptyStatement)(FuncCall (ID)(ExprList (ID)))(Return (Constant))))(FuncDef (Decl (FuncDecl (ParamList (Typename (TypeDecl (IdentifierType))))(TypeDecl (IdentifierType))))(Compound (Decl (TypeDecl (IdentifierType))(Constant))(While (BinaryOp (BinaryOp (UnaryOp (ID))(Constant))(BinaryOp (UnaryOp (ID))(Constant)))(Compound (Assignment (ID)(BinaryOp (BinaryOp (ID)(Constant))(Cast (Typename (TypeDecl (IdentifierType)))(BinaryOp (UnaryOp (ID))(Constant)))))(UnaryOp (ID))))(UnaryOp (ID))(Return (ID))))(FuncDef (Decl (FuncDecl (ParamList (Decl (TypeDecl (IdentifierType))))(TypeDecl (IdentifierType))))(Compound (Decl (TypeDecl (IdentifierType)))(If (BinaryOp (ID)(Constant))(Compound (EmptyStatement)(Assignment (UnaryOp (ID))(Cast (Typename (TypeDecl (IdentifierType)))(BinaryOp (Constant)(ID))))(UnaryOp (ID))(EmptyStatement)(Return)))(Assignment (ID)(BinaryOp (ID)(Constant)))(If (ID)(FuncCall (ID)(ExprList (ID))))(EmptyStatement)(Assignment (UnaryOp (ID))(Cast (Typename (TypeDecl (IdentifierType)))(BinaryOp (Constant)(BinaryOp (ID)(BinaryOp (ID)(Constant))))))(UnaryOp (ID))(EmptyStatement)))(FuncDef (Decl (FuncDecl (ParamList (Decl (ArrayDecl (TypeDecl (IdentifierType))))(Decl (ArrayDecl (TypeDecl (IdentifierType))))(Decl (TypeDecl (IdentifierType)))(Decl (TypeDecl (IdentifierType))))(TypeDecl (IdentifierType))))(Compound (Decl (ArrayDecl (TypeDecl (IdentifierType))(Constant))(InitList (Constant)))(Decl (TypeDecl (IdentifierType)))(Decl (TypeDecl (IdentifierType)))(For (Assignment (ID)(Constant))(BinaryOp (ID)(ID))(UnaryOp (ID))(Compound (UnaryOp (ArrayRef (ID)(ArrayRef (ID)(ID))))))(For (Assignment (ID)(Constant))(BinaryOp (ID)(ID))(UnaryOp (ID))(Compound (Assignment (ArrayRef (ID)(ID))(ArrayRef (ID)(BinaryOp (ID)(Constant))))))(For (Assignment (ID)(ID))(BinaryOp (ID)(Constant))(UnaryOp (ID))(Compound (Assignment (ArrayRef (ID)(ArrayRef (ID)(ArrayRef (ID)(ID))))(ArrayRef (ID)(ID)))(UnaryOp (ArrayRef (ID)(ArrayRef (ID)(ID))))))))) |ET| 
-0.69145171631580604199029949086253  |BT| (FileAST (Decl (ArrayDecl (TypeDecl (IdentifierType))(Constant)))(Decl (TypeDecl (IdentifierType))(Constant))(Decl (FuncDecl (TypeDecl (IdentifierType))))(FuncDef (Decl (FuncDecl (ParamList (Decl (ArrayDecl (TypeDecl (IdentifierType))))(Decl (TypeDecl (IdentifierType)))(Decl (TypeDecl (IdentifierType))))(TypeDecl (IdentifierType))))(Compound (Decl (TypeDecl (IdentifierType)))(Decl (TypeDecl (IdentifierType)))(Decl (TypeDecl (IdentifierType)))(Decl (TypeDecl (IdentifierType)))(If (BinaryOp (ID)(ID))(Compound (Assignment (ID)(BinaryOp (BinaryOp (ID)(ID))(Constant)))(FuncCall (ID)(ExprList (ID)(ID)(ID)))(FuncCall (ID)(ExprList (ID)(BinaryOp (ID)(Constant))(ID)))(For (Assignment (ID)(ID))(BinaryOp (ID)(ID))(UnaryOp (ID))(Compound (Assignment (ArrayRef (ID)(ID))(ArrayRef (ID)(ID)))))(For (Assignment (ID)(ID))(BinaryOp (ID)(ID))(UnaryOp (ID))(Compound (Assignment (ArrayRef (ID)(BinaryOp (ID)(BinaryOp (ID)(BinaryOp (ID)(Constant)))))(ArrayRef (ID)(ID)))))(Assignment (ID)(ID))(Assignment (ID)(ID))(For (Assignment (ID)(ID))(BinaryOp (ID)(ID))(UnaryOp (ID))(Compound (If (BinaryOp (ArrayRef (ID)(ID))(ArrayRef (ID)(ID)))(Assignment (ArrayRef (ID)(ID))(ArrayRef (ID)(UnaryOp (ID))))(Assignment (ArrayRef (ID)(ID))(ArrayRef (ID)(UnaryOp (ID)))))(UnaryOp (ID))))))))(FuncDef (Decl (FuncDecl (TypeDecl (IdentifierType))))(Compound (Decl (TypeDecl (IdentifierType)))(Decl (TypeDecl (IdentifierType)))(Decl (ArrayDecl (TypeDecl (IdentifierType))(Constant)))(FuncCall (ID)(ExprList (Constant)(UnaryOp (ID))))(For (Assignment (ID)(Constant))(BinaryOp (ID)(ID))(UnaryOp (ID))(Compound (FuncCall (ID)(ExprList (Constant)(UnaryOp (ArrayRef (ID)(ID)))))))(FuncCall (ID)(ExprList (ID)(Constant)(BinaryOp (ID)(Constant))))(For (Assignment (ID)(Constant))(BinaryOp (ID)(ID))(UnaryOp (ID))(Compound (If (BinaryOp (ID)(Constant))(FuncCall (ID)(ExprList (Constant))))(FuncCall (ID)(ExprList (Constant)(ArrayRef (ID)(ID))))))(FuncCall (ID)(ExprList (Constant)))(FuncCall (ID)(ExprList (Constant)(ID)))(Return (Constant))))) |ET| 
1  |BT| (FileAST (FuncDef (Decl (FuncDecl (ParamList (Decl (PtrDecl (TypeDecl (IdentifierType))))(Decl (PtrDecl (TypeDecl (IdentifierType))))(Decl (PtrDecl (TypeDecl (IdentifierType))))(Decl (TypeDecl (IdentifierType)))(Decl (TypeDecl (IdentifierType))))(TypeDecl (IdentifierType))))(Compound (Decl (TypeDecl (IdentifierType)))(For (Assignment (ID)(Constant))(BinaryOp (ID)(ID))(UnaryOp (ID))(Compound (Assignment (UnaryOp (BinaryOp (ID)(UnaryOp (BinaryOp (ID)(ID)))))(Constant))))(For (Assignment (ID)(Constant))(BinaryOp (ID)(ID))(UnaryOp (ID))(Compound (Assignment (UnaryOp (BinaryOp (ID)(ID)))(BinaryOp (UnaryOp (BinaryOp (ID)(ID)))(UnaryOp (BinaryOp (BinaryOp (ID)(ID))(Constant)))))))(For (Assignment (ID)(BinaryOp (ID)(Constant)))(BinaryOp (ID)(Constant))(UnaryOp (ID))(Compound (Assignment (UnaryOp (BinaryOp (ID)(UnaryOp (BinaryOp (ID)(UnaryOp (BinaryOp (ID)(ID)))))))(UnaryOp (BinaryOp (ID)(ID))))(Assignment (UnaryOp (BinaryOp (ID)(UnaryOp (BinaryOp (ID)(ID)))))(Constant))))))(FuncDef (Decl (FuncDecl (ParamList (Typename (TypeDecl (IdentifierType))))(TypeDecl (IdentifierType))))(Compound (Decl (TypeDecl (IdentifierType)))(Decl (TypeDecl (IdentifierType)))(Decl (TypeDecl (IdentifierType)))(Decl (PtrDecl (TypeDecl (IdentifierType))))(Decl (PtrDecl (TypeDecl (IdentifierType))))(Decl (PtrDecl (TypeDecl (IdentifierType))))(Decl (TypeDecl (IdentifierType))(Constant))(FuncCall (ID)(ExprList (Constant)(UnaryOp (ID))))(Assignment (ID)(ID))(Assignment (ID)(FuncCall (ID)(ExprList (BinaryOp (UnaryOp (Typename (TypeDecl (IdentifierType))))(ID)))))(Assignment (ID)(FuncCall (ID)(ExprList (BinaryOp (UnaryOp (Typename (TypeDecl (IdentifierType))))(Constant)))))(For (Assignment (ID)(Constant))(BinaryOp (ID)(ID))(UnaryOp (ID))(Compound (FuncCall (ID)(ExprList (Constant)(BinaryOp (ID)(ID))))(If (BinaryOp (ID)(UnaryOp (BinaryOp (ID)(ID))))(Assignment (ID)(UnaryOp (BinaryOp (ID)(ID)))))))(Assignment (ID)(FuncCall (ID)(ExprList (BinaryOp (UnaryOp (Typename (TypeDecl (IdentifierType))))(BinaryOp (ID)(Constant))))))(FuncCall (ID)(ExprList (ID)(ID)(ID)(ID)(ID)))(For (Assignment (ID)(Constant))(BinaryOp (ID)(ID))(UnaryOp (ID))(Compound (FuncCall (ID)(ExprList (Constant)(UnaryOp (BinaryOp (ID)(ID)))))))(FuncCall (ID)(ExprList (Constant)(UnaryOp (BinaryOp (ID)(ID)))))(FuncCall (ID)(ExprList (ID)))(FuncCall (ID)(ExprList (ID)))(FuncCall (ID)(ExprList (ID)))(Return (Constant))))) |ET| 
-1  |BT| (FileAST (FuncDef (Decl (FuncDecl (ParamList (Decl (ArrayDecl (TypeDecl (IdentifierType))))(Decl (TypeDecl (IdentifierType)))(Decl (ArrayDecl (TypeDecl (IdentifierType))))(Decl (TypeDecl (IdentifierType))))(TypeDecl (IdentifierType))))(Compound (Decl (TypeDecl (IdentifierType))(BinaryOp (ID)(ID)))(Decl (PtrDecl (TypeDecl (IdentifierType)))(Cast (Typename (PtrDecl (TypeDecl (IdentifierType))))(FuncCall (ID)(ExprList (BinaryOp (UnaryOp (Typename (TypeDecl (IdentifierType))))(ID))))))(Decl (TypeDecl (IdentifierType))(Constant))(Decl (TypeDecl (IdentifierType))(Constant))(Decl (TypeDecl (IdentifierType))(Constant))(Decl (TypeDecl (IdentifierType)))(For (Assignment (ID)(Constant))(BinaryOp (ID)(ID))(UnaryOp (ID))(Compound (If (BinaryOp (BinaryOp (ID)(ID))(BinaryOp (ID)(ID)))(Compound (If (BinaryOp (ArrayRef (ID)(ID))(ArrayRef (ID)(ID)))(Compound (Assignment (ArrayRef (ID)(ID))(ArrayRef (ID)(ID)))(UnaryOp (ID)))(Compound (Assignment (ArrayRef (ID)(ID))(ArrayRef (ID)(ID)))(UnaryOp (ID)))))(If (BinaryOp (ID)(ID))(Compound (Assignment (ArrayRef (ID)(ID))(ArrayRef (ID)(ID)))(UnaryOp (ID)))(Compound (Assignment (ArrayRef (ID)(ID))(ArrayRef (ID)(ID)))(UnaryOp (ID)))))(UnaryOp (ID))))(FuncCall (ID)(ExprList (ID)(ID)(BinaryOp (UnaryOp (Typename (TypeDecl (IdentifierType))))(ID))))(FuncCall (ID)(ExprList (ID)))(Return (ID))))(FuncDef (Decl (FuncDecl (ParamList (Decl (ArrayDecl (TypeDecl (IdentifierType))))(Decl (TypeDecl (IdentifierType))))(TypeDecl (IdentifierType))))(Compound (If (BinaryOp (ID)(Constant))(Return (Constant)))(If (BinaryOp (ID)(Constant))(Compound (Return (Constant)))(Compound (Decl (TypeDecl (IdentifierType))(BinaryOp (ID)(Constant)))(Decl (TypeDecl (IdentifierType))(FuncCall (ID)(ExprList (ID)(ID))))(Decl (TypeDecl (IdentifierType))(FuncCall (ID)(ExprList (UnaryOp (ArrayRef (ID)(ID)))(BinaryOp (ID)(ID)))))(Decl (TypeDecl (IdentifierType))(FuncCall (ID)(ExprList (ID)(ID)(UnaryOp (ArrayRef (ID)(ID)))(BinaryOp (ID)(ID)))))(Return (BinaryOp (BinaryOp (ID)(ID))(ID)))))))(Decl (ArrayDecl (TypeDecl (IdentifierType))(Constant)))(FuncDef (Decl (FuncDecl (ParamList (Typename (TypeDecl (IdentifierType))))(TypeDecl (IdentifierType))))(Compound (Decl (TypeDecl (IdentifierType)))(FuncCall (ID)(ExprList (Constant)(UnaryOp (ID))))(Decl (TypeDecl (IdentifierType)))(For (Assignment (ID)(Constant))(BinaryOp (ID)(ID))(UnaryOp (ID))(Compound (FuncCall (ID)(ExprList (Constant)(UnaryOp (ArrayRef (ID)(ID)))))))(Decl (TypeDecl (IdentifierType))(FuncCall (ID)(ExprList (ID)(ID))))(For (Assignment (ID)(Constant))(BinaryOp (ID)(ID))(UnaryOp (ID))(Compound (If (BinaryOp (ID)(Constant))(FuncCall (ID)(ExprList (Constant))))(FuncCall (ID)(ExprList (Constant)(ArrayRef (ID)(ID))))))(FuncCall (ID)(ExprList (Constant)))(FuncCall (ID)(ExprList (Constant)(ID)))(Return (Constant))))) |ET| 
1  |BT| (FileAST (Decl (FuncDecl (ParamList (Typename (ArrayDecl (TypeDecl (IdentifierType))))(Typename (ArrayDecl (TypeDecl (IdentifierType))))(Typename (TypeDecl (IdentifierType)))(Typename (TypeDecl (IdentifierType))))(TypeDecl (IdentifierType))))(Decl (FuncDecl (ParamList (Typename (ArrayDecl (TypeDecl (IdentifierType))))(Typename (TypeDecl (IdentifierType))))(TypeDecl (IdentifierType))))(FuncDef (Decl (FuncDecl (ParamList (Typename (TypeDecl (IdentifierType))))(TypeDecl (IdentifierType))))(Compound (Decl (TypeDecl (IdentifierType)))(Decl (TypeDecl (IdentifierType)))(Decl (TypeDecl (IdentifierType))(Constant))(Decl (PtrDecl (TypeDecl (IdentifierType))))(Decl (PtrDecl (TypeDecl (IdentifierType))))(FuncCall (ID)(ExprList (Constant)(UnaryOp (ID))))(Assignment (ID)(Cast (Typename (PtrDecl (TypeDecl (IdentifierType))))(FuncCall (ID)(ExprList (BinaryOp (UnaryOp (Typename (TypeDecl (IdentifierType))))(ID))))))(Assignment (ID)(Cast (Typename (PtrDecl (TypeDecl (IdentifierType))))(FuncCall (ID)(ExprList (BinaryOp (UnaryOp (Typename (TypeDecl (IdentifierType))))(ID))))))(For (Assignment (ID)(Constant))(BinaryOp (ID)(ID))(UnaryOp (ID))(Compound (FuncCall (ID)(ExprList (Constant)(UnaryOp (ArrayRef (ID)(ID)))))(If (BinaryOp (ID)(ArrayRef (ID)(ID)))(Assignment (ID)(ArrayRef (ID)(ID))))))(FuncCall (ID)(ExprList (ID)(ID)(ID)(ID)))(FuncCall (ID)(ExprList (ID)(ID)))(Return (Constant))))(FuncDef (Decl (FuncDecl (ParamList (Decl (ArrayDecl (TypeDecl (IdentifierType))))(Decl (ArrayDecl (TypeDecl (IdentifierType))))(Decl (TypeDecl (IdentifierType)))(Decl (TypeDecl (IdentifierType))))(TypeDecl (IdentifierType))))(Compound (Decl (TypeDecl (IdentifierType)))(Decl (PtrDecl (TypeDecl (IdentifierType)))(Cast (Typename (PtrDecl (TypeDecl (IdentifierType))))(FuncCall (ID)(ExprList (BinaryOp (UnaryOp (Typename (TypeDecl (IdentifierType))))(BinaryOp (ID)(Constant)))))))(For (Assignment (ID)(Constant))(BinaryOp (ID)(BinaryOp (ID)(Constant)))(UnaryOp (ID))(Assignment (ArrayRef (ID)(ID))(Constant)))(For (Assignment (ID)(Constant))(BinaryOp (ID)(ID))(UnaryOp (ID))(UnaryOp (ArrayRef (ID)(ArrayRef (ID)(ID)))))(For (Assignment (ID)(Constant))(BinaryOp (ID)(BinaryOp (ID)(Constant)))(UnaryOp (ID))(Assignment (ArrayRef (ID)(ID))(ArrayRef (ID)(BinaryOp (ID)(Constant)))))(For (Assignment (ID)(BinaryOp (ID)(Constant)))(BinaryOp (ID)(Constant))(UnaryOp (ID))(Compound (Assignment (ArrayRef (ID)(BinaryOp (ArrayRef (ID)(ArrayRef (ID)(ID)))(Constant)))(ArrayRef (ID)(ID)))(UnaryOp (ArrayRef (ID)(ArrayRef (ID)(ID))))))))(FuncDef (Decl (FuncDecl (ParamList (Decl (ArrayDecl (TypeDecl (IdentifierType))))(Decl (TypeDecl (IdentifierType))))(TypeDecl (IdentifierType))))(Compound (Decl (TypeDecl (IdentifierType)))(For (Assignment (ID)(Constant))(BinaryOp (ID)(ID))(UnaryOp (ID))(Compound (If (BinaryOp (ID)(Constant))(FuncCall (ID)(ExprList (Constant))))(FuncCall (ID)(ExprList (Constant)(ArrayRef (ID)(ID))))))(FuncCall (ID)(ExprList (Constant)))))) |ET| 
-0.59554974108470448701524446732947  |BT| (FileAST (Decl (TypeDecl (IdentifierType))(Constant))(Decl (TypeDecl (IdentifierType)))(FuncDef (Decl (FuncDecl (ParamList (Decl (ArrayDecl (TypeDecl (IdentifierType))))(Decl (TypeDecl (IdentifierType)))(Decl (TypeDecl (IdentifierType)))(Decl (TypeDecl (IdentifierType))))(TypeDecl (IdentifierType))))(Compound (Decl (TypeDecl (IdentifierType))(BinaryOp (ID)(ID)))(Decl (TypeDecl (IdentifierType))(BinaryOp (ID)(ID)))(Decl (TypeDecl (IdentifierType)))(Decl (TypeDecl (IdentifierType)))(Decl (TypeDecl (IdentifierType)))(Decl (ArrayDecl (TypeDecl (IdentifierType))(ID)))(Decl (ArrayDecl (TypeDecl (IdentifierType))(ID)))(For (Assignment (ID)(Constant))(BinaryOp (ID)(ID))(UnaryOp (ID))(Compound (Assignment (ArrayRef (ID)(ID))(ArrayRef (ID)(BinaryOp (ID)(ID))))))(For (Assignment (ID)(Constant))(BinaryOp (ID)(ID))(UnaryOp (ID))(Compound (Assignment (ArrayRef (ID)(ID))(ArrayRef (ID)(BinaryOp (ID)(ID))))))(Assignment (ArrayRef (ID)(ID))(Constant))(Assignment (ArrayRef (ID)(ID))(Constant))(Assignment (ID)(Constant))(Assignment (ID)(Constant))(For (Assignment (ID)(ID))(BinaryOp (ID)(ID))(UnaryOp (ID))(Compound (If (BinaryOp (ArrayRef (ID)(ID))(ArrayRef (ID)(ID)))(Compound (Assignment (ArrayRef (ID)(ID))(ArrayRef (ID)(ID)))(UnaryOp (ID)))(Compound (Assignment (ArrayRef (ID)(ID))(ArrayRef (ID)(ID)))(UnaryOp (ID))))(UnaryOp (ID))))))(FuncDef (Decl (FuncDecl (ParamList (Decl (ArrayDecl (TypeDecl (IdentifierType))))(Decl (TypeDecl (IdentifierType)))(Decl (TypeDecl (IdentifierType))))(TypeDecl (IdentifierType))))(Compound (Decl (TypeDecl (IdentifierType)))(If (BinaryOp (BinaryOp (ID)(Constant))(ID))(Compound (Assignment (ID)(BinaryOp (BinaryOp (ID)(ID))(Constant)))(FuncCall (ID)(ExprList (ID)(ID)(ID)))(FuncCall (ID)(ExprList (ID)(ID)(ID)))(FuncCall (ID)(ExprList (ID)(ID)(ID)(ID)))))))(FuncDef (Decl (FuncDecl (TypeDecl (IdentifierType))))(Compound (Decl (TypeDecl (IdentifierType)))(FuncCall (ID)(ExprList (Constant)(UnaryOp (ID))))(Decl (ArrayDecl (TypeDecl (IdentifierType))(ID)))(For (Assignment (ID)(Constant))(BinaryOp (ID)(ID))(UnaryOp (ID))(Compound (FuncCall (ID)(ExprList (Constant)(UnaryOp (ArrayRef (ID)(ID)))))))(FuncCall (ID)(ExprList (ID)(Constant)(ID)))(For (Assignment (ID)(Constant))(BinaryOp (ID)(ID))(UnaryOp (ID))(Compound (FuncCall (ID)(ExprList (Constant)(ArrayRef (ID)(ID))))(If (BinaryOp (ID)(BinaryOp (ID)(Constant)))(Compound (FuncCall (ID)(ExprList (Constant)))))))(FuncCall (ID)(ExprList (Constant)(ID)))(Return (Constant))))) |ET| 
-0.3984966116719257378520069323713  |BT| (FileAST (Decl (FuncDecl (ParamList (Typename (TypeDecl (IdentifierType)))(Typename (TypeDecl (IdentifierType)))(Typename (TypeDecl (IdentifierType))))(TypeDecl (IdentifierType))))(Decl (FuncDecl (ParamList (Typename (TypeDecl (IdentifierType)))(Typename (TypeDecl (IdentifierType))))(TypeDecl (IdentifierType))))(Decl (ArrayDecl (TypeDecl (IdentifierType))(Constant)))(Decl (TypeDecl (IdentifierType))(Constant))(Decl (TypeDecl (IdentifierType)))(Decl (ArrayDecl (TypeDecl (IdentifierType))(Constant)))(Decl (ArrayDecl (TypeDecl (IdentifierType))(Constant)))(Decl (TypeDecl (IdentifierType)))(FuncDef (Decl (FuncDecl (TypeDecl (IdentifierType))))(Compound (Decl (TypeDecl (IdentifierType)))(Decl (TypeDecl (IdentifierType)))(FuncCall (ID)(ExprList (Constant)(UnaryOp (ID))))(For (Assignment (ID)(Constant))(BinaryOp (ID)(ID))(UnaryOp (ID))(Compound (FuncCall (ID)(ExprList (Constant)(UnaryOp (ArrayRef (ID)(ID)))))))(Assignment (ID)(ID))(Assignment (ID)(Constant))(FuncCall (ID)(ExprList (ID)(ID)))(For (Assignment (ID)(Constant))(BinaryOp (ID)(ID))(UnaryOp (ID))(Compound (If (BinaryOp (ID)(BinaryOp (ID)(Constant)))(FuncCall (ID)(ExprList (Constant)(ArrayRef (ID)(ID))))(FuncCall (ID)(ExprList (Constant)(ArrayRef (ID)(ID)))))))(FuncCall (ID)(ExprList (Constant)(ID)))(Return (Constant))))(FuncDef (Decl (FuncDecl (ParamList (Decl (TypeDecl (IdentifierType)))(Decl (TypeDecl (IdentifierType))))(TypeDecl (IdentifierType))))(Compound (Decl (TypeDecl (IdentifierType)))(If (BinaryOp (BinaryOp (ID)(Constant))(ID))(Compound (Assignment (ID)(BinaryOp (BinaryOp (ID)(ID))(Constant)))(FuncCall (ID)(ExprList (ID)(ID)))(FuncCall (ID)(ExprList (ID)(ID)))(FuncCall (ID)(ExprList (ID)(ID)(ID)))))))(FuncDef (Decl (FuncDecl (ParamList (Decl (TypeDecl (IdentifierType)))(Decl (TypeDecl (IdentifierType)))(Decl (TypeDecl (IdentifierType))))(TypeDecl (IdentifierType))))(Compound (Decl (TypeDecl (IdentifierType)))(Decl (TypeDecl (IdentifierType)))(Decl (TypeDecl (IdentifierType)))(Decl (TypeDecl (IdentifierType)))(Decl (TypeDecl (IdentifierType)))(Assignment (ID)(BinaryOp (ID)(ID)))(Assignment (ID)(BinaryOp (ID)(ID)))(For (Assignment (ID)(Constant))(BinaryOp (ID)(ID))(UnaryOp (ID))(Compound (Assignment (ArrayRef (ID)(ID))(ArrayRef (ID)(BinaryOp (ID)(ID))))))(For (Assignment (ID)(Constant))(BinaryOp (ID)(ID))(UnaryOp (ID))(Compound (Assignment (ArrayRef (ID)(ID))(ArrayRef (ID)(BinaryOp (ID)(ID))))))(Assignment (ArrayRef (ID)(ID))(Constant))(Assignment (ArrayRef (ID)(ID))(Constant))(Assignment (ID)(Constant))(Assignment (ID)(Constant))(For (Assignment (ID)(ID))(BinaryOp (ID)(ID))(UnaryOp (ID))(Compound (UnaryOp (ID))(If (BinaryOp (ArrayRef (ID)(ID))(ArrayRef (ID)(ID)))(Compound (Assignment (ArrayRef (ID)(ID))(ArrayRef (ID)(ID)))(UnaryOp (ID)))(Compound (Assignment (ArrayRef (ID)(ID))(ArrayRef (ID)(ID)))(UnaryOp (ID))))))))) |ET| 
-1  |BT| (FileAST (Decl (FuncDecl (ParamList (Decl (ArrayDecl (TypeDecl (IdentifierType))))(Decl (TypeDecl (IdentifierType)))(Decl (TypeDecl (IdentifierType))))(TypeDecl (IdentifierType))))(Decl (TypeDecl (IdentifierType))(Constant))(FuncDef (Decl (FuncDecl (TypeDecl (IdentifierType))))(Compound (Decl (TypeDecl (IdentifierType)))(Decl (TypeDecl (IdentifierType)))(Decl (ArrayDecl (TypeDecl (IdentifierType))(Constant)))(FuncCall (ID)(ExprList (Constant)(UnaryOp (ID))))(For (Assignment (ID)(Constant))(BinaryOp (ID)(ID))(UnaryOp (ID))(FuncCall (ID)(ExprList (Constant)(UnaryOp (ArrayRef (ID)(ID))))))(FuncCall (ID)(ExprList (ID)(Constant)(BinaryOp (ID)(Constant))))(For (Assignment (ID)(Constant))(BinaryOp (ID)(BinaryOp (ID)(Constant)))(UnaryOp (ID))(FuncCall (ID)(ExprList (Constant)(ArrayRef (ID)(ID)))))(FuncCall (ID)(ExprList (Constant)(ArrayRef (ID)(BinaryOp (ID)(Constant)))))(FuncCall (ID)(ExprList (Constant)(ID)))(Return (Constant))))(FuncDef (Decl (FuncDecl (ParamList (Decl (ArrayDecl (TypeDecl (IdentifierType))))(Decl (TypeDecl (IdentifierType)))(Decl (TypeDecl (IdentifierType))))(TypeDecl (IdentifierType))))(Compound (Decl (TypeDecl (IdentifierType)))(Decl (TypeDecl (IdentifierType)))(Decl (TypeDecl (IdentifierType)))(Decl (ArrayDecl (TypeDecl (IdentifierType))(Constant)))(Decl (TypeDecl (IdentifierType)))(If (BinaryOp (ID)(ID))(Compound (Assignment (ID)(BinaryOp (BinaryOp (ID)(ID))(Constant)))(FuncCall (ID)(ExprList (ID)(ID)(ID)))(FuncCall (ID)(ExprList (ID)(BinaryOp (ID)(Constant))(ID)))(For (Assignment (ID)(ID))(BinaryOp (ID)(ID))(UnaryOp (ID))(Compound (Assignment (ArrayRef (ID)(ID))(ArrayRef (ID)(ID)))(UnaryOp (ID))))(For (Assignment (ID)(BinaryOp (ID)(Constant)))(BinaryOp (ID)(ID))(UnaryOp (ID))(Compound (Assignment (ArrayRef (ID)(BinaryOp (ID)(BinaryOp (ID)(BinaryOp (ID)(Constant)))))(ArrayRef (ID)(ID)))(UnaryOp (ID))))(Assignment (ID)(ID))(Assignment (ID)(ID))(For (Assignment (ID)(ID))(BinaryOp (ID)(ID))(UnaryOp (ID))(Compound (If (BinaryOp (ArrayRef (ID)(ID))(ArrayRef (ID)(ID)))(Compound (Assignment (ArrayRef (ID)(ID))(ArrayRef (ID)(UnaryOp (ID)))))(Compound (Assignment (ArrayRef (ID)(ID))(ArrayRef (ID)(UnaryOp (ID))))))))))))) |ET| 
1  |BT| (FileAST (Decl (FuncDecl (ParamList (Typename (PtrDecl (TypeDecl (IdentifierType))))(Typename (PtrDecl (TypeDecl (IdentifierType))))(Typename (PtrDecl (TypeDecl (IdentifierType))))(Typename (TypeDecl (IdentifierType)))(Typename (TypeDecl (IdentifierType))))(TypeDecl (IdentifierType))))(FuncDef (Decl (FuncDecl (ParamList (Typename (TypeDecl (IdentifierType))))(TypeDecl (IdentifierType))))(Compound (Decl (TypeDecl (IdentifierType)))(Decl (TypeDecl (IdentifierType)))(Decl (TypeDecl (IdentifierType)))(Decl (PtrDecl (TypeDecl (IdentifierType))))(Decl (PtrDecl (TypeDecl (IdentifierType))))(Decl (PtrDecl (TypeDecl (IdentifierType))))(FuncCall (ID)(ExprList (Constant)(UnaryOp (ID))))(Assignment (ID)(Cast (Typename (PtrDecl (TypeDecl (IdentifierType))))(FuncCall (ID)(ExprList (BinaryOp (UnaryOp (Typename (TypeDecl (IdentifierType))))(BinaryOp (ID)(Constant)))))))(For (Assignment (ID)(Constant))(BinaryOp (ID)(ID))(UnaryOp (ID))(FuncCall (ID)(ExprList (Constant)(UnaryOp (ArrayRef (ID)(ID))))))(Assignment (ID)(ArrayRef (ID)(Constant)))(For (Assignment (ID)(Constant))(BinaryOp (ID)(ID))(UnaryOp (ID))(If (BinaryOp (ID)(ArrayRef (ID)(ID)))(Assignment (ID)(ArrayRef (ID)(ID)))))(Assignment (ID)(Cast (Typename (PtrDecl (TypeDecl (IdentifierType))))(FuncCall (ID)(ExprList (BinaryOp (UnaryOp (Typename (TypeDecl (IdentifierType))))(BinaryOp (ID)(Constant)))))))(Assignment (ID)(Cast (Typename (PtrDecl (TypeDecl (IdentifierType))))(FuncCall (ID)(ExprList (BinaryOp (UnaryOp (Typename (TypeDecl (IdentifierType))))(BinaryOp (ID)(Constant)))))))(FuncCall (ID)(ExprList (ID)(ID)(ID)(ID)(ID)))(For (Assignment (ID)(Constant))(BinaryOp (ID)(ID))(UnaryOp (ID))(Compound (FuncCall (ID)(ExprList (Constant)(ArrayRef (ID)(ID))))(If (BinaryOp (ID)(BinaryOp (ID)(Constant)))(FuncCall (ID)(ExprList (Constant))))))(FuncCall (ID)(ExprList (Constant)))(FuncCall (ID)(ExprList (ID)))(FuncCall (ID)(ExprList (ID)))(FuncCall (ID)(ExprList (ID)))(Return (Constant))))(FuncDef (Decl (FuncDecl (ParamList (Decl (PtrDecl (TypeDecl (IdentifierType))))(Decl (PtrDecl (TypeDecl (IdentifierType))))(Decl (PtrDecl (TypeDecl (IdentifierType))))(Decl (TypeDecl (IdentifierType)))(Decl (TypeDecl (IdentifierType))))(TypeDecl (IdentifierType))))(Compound (Decl (TypeDecl (IdentifierType)))(Decl (TypeDecl (IdentifierType)))(For (Assignment (ID)(Constant))(BinaryOp (ID)(ID))(UnaryOp (ID))(Assignment (ArrayRef (ID)(ID))(Constant)))(For (Assignment (ID)(Constant))(BinaryOp (ID)(ID))(UnaryOp (ID))(UnaryOp (ArrayRef (ID)(ArrayRef (ID)(ID)))))(For (Assignment (ID)(Constant))(BinaryOp (ID)(ID))(UnaryOp (ID))(Assignment (ArrayRef (ID)(ID))(BinaryOp (ArrayRef (ID)(ID))(ArrayRef (ID)(BinaryOp (ID)(Constant))))))(For (Assignment (ID)(BinaryOp (ID)(Constant)))(BinaryOp (ID)(Constant))(UnaryOp (ID))(Compound (Assignment (ArrayRef (ID)(BinaryOp (ArrayRef (ID)(ArrayRef (ID)(ID)))(Constant)))(ArrayRef (ID)(ID)))(UnaryOp (ArrayRef (ID)(ArrayRef (ID)(ID))))))))) |ET| 
-1  |BT| (FileAST (Decl (FuncDecl (ParamList (Typename (PtrDecl (TypeDecl (IdentifierType))))(Typename (TypeDecl (IdentifierType)))(Typename (TypeDecl (IdentifierType))))(TypeDecl (IdentifierType))))(Decl (TypeDecl (IdentifierType))(Constant))(FuncDef (Decl (FuncDecl (TypeDecl (IdentifierType))))(Compound (Decl (TypeDecl (IdentifierType)))(Decl (ArrayDecl (TypeDecl (IdentifierType))(Constant)))(Decl (TypeDecl (IdentifierType)))(Decl (TypeDecl (IdentifierType)))(FuncCall (ID)(ExprList (Constant)(UnaryOp (ID))))(For (Assignment (ID)(Constant))(BinaryOp (ID)(ID))(UnaryOp (ID))(FuncCall (ID)(ExprList (Constant)(UnaryOp (ArrayRef (ID)(ID))))))(FuncCall (ID)(ExprList (ID)(Constant)(ID)))(For (Assignment (ID)(Constant))(BinaryOp (ID)(ID))(UnaryOp (ID))(Compound (If (BinaryOp (ID)(BinaryOp (ID)(Constant)))(FuncCall (ID)(ExprList (Constant)(ArrayRef (ID)(ID))))(FuncCall (ID)(ExprList (Constant)(ArrayRef (ID)(ID)))))))(FuncCall (ID)(ExprList (Constant)(ID)))(Return (Constant))))(FuncDef (Decl (FuncDecl (ParamList (Decl (PtrDecl (TypeDecl (IdentifierType))))(Decl (TypeDecl (IdentifierType)))(Decl (TypeDecl (IdentifierType))))(TypeDecl (IdentifierType))))(Compound (Decl (TypeDecl (IdentifierType)))(Decl (TypeDecl (IdentifierType)))(Decl (TypeDecl (IdentifierType)))(Decl (TypeDecl (IdentifierType)))(Decl (TypeDecl (IdentifierType)))(Decl (PtrDecl (TypeDecl (IdentifierType))))(If (BinaryOp (BinaryOp (ID)(Constant))(ID))(Compound (FuncCall (ID)(ExprList (ID)(ID)(BinaryOp (BinaryOp (ID)(ID))(Constant))))(FuncCall (ID)(ExprList (ID)(BinaryOp (BinaryOp (ID)(ID))(Constant))(ID)))(Assignment (ID)(FuncCall (ID)(ExprList (BinaryOp (UnaryOp (Typename (TypeDecl (IdentifierType))))(BinaryOp (ID)(ID))))))(Assignment (ID)(ID))(Assignment (ID)(BinaryOp (BinaryOp (ID)(ID))(Constant)))(For (Assignment (ID)(Constant))(BinaryOp (ID)(BinaryOp (ID)(ID)))(UnaryOp (ID))(Compound (UnaryOp (ID))(If (BinaryOp (ID)(BinaryOp (BinaryOp (ID)(ID))(Constant)))(Compound (Assignment (ArrayRef (ID)(ID))(ArrayRef (ID)(ID)))(UnaryOp (ID)))(If (BinaryOp (ID)(ID))(Compound (Assignment (ArrayRef (ID)(ID))(ArrayRef (ID)(ID)))(UnaryOp (ID)))(If (BinaryOp (ArrayRef (ID)(ID))(ArrayRef (ID)(ID)))(Compound (Assignment (ArrayRef (ID)(ID))(ArrayRef (ID)(ID)))(UnaryOp (ID)))(Compound (Assignment (ArrayRef (ID)(ID))(ArrayRef (ID)(ID)))(UnaryOp (ID))))))))(For (Assignment (ID)(ID))(BinaryOp (ID)(ID))(UnaryOp (ID))(Compound (Assignment (ArrayRef (ID)(ID))(ArrayRef (ID)(BinaryOp (ID)(ID))))))(FuncCall (ID)(ExprList (ID)))))))) |ET| 
1  |BT| (FileAST (FuncDef (Decl (FuncDecl (TypeDecl (IdentifierType))))(Compound (Decl (PtrDecl (TypeDecl (IdentifierType))))(Decl (PtrDecl (TypeDecl (IdentifierType))))(Decl (TypeDecl (IdentifierType)))(Decl (TypeDecl (IdentifierType)))(Decl (PtrDecl (TypeDecl (IdentifierType))))(Decl (TypeDecl (IdentifierType)))(Decl (TypeDecl (IdentifierType)))(Decl (TypeDecl (IdentifierType)))(Decl (TypeDecl (IdentifierType))(Constant))(Decl (TypeDecl (IdentifierType)))(FuncCall (ID)(ExprList (Constant)(UnaryOp (ID))))(If (BinaryOp (BinaryOp (ID)(Constant))(BinaryOp (ID)(Constant)))(FuncCall (ID)(ExprList (Constant))))(Assignment (ID)(FuncCall (ID)(ExprList (BinaryOp (UnaryOp (Typename (TypeDecl (IdentifierType))))(ID)))))(Assignment (ID)(FuncCall (ID)(ExprList (BinaryOp (UnaryOp (Typename (TypeDecl (IdentifierType))))(ID)))))(For (Assignment (ID)(Constant))(BinaryOp (ID)(ID))(UnaryOp (ID))(Compound (FuncCall (ID)(ExprList (Constant)(UnaryOp (ArrayRef (ID)(ID)))))(If (BinaryOp (BinaryOp (ArrayRef (ID)(ID))(Constant))(BinaryOp (ArrayRef (ID)(ID))(Constant)))(FuncCall (ID)(ExprList (Constant))))))(Assignment (ID)(ArrayRef (ID)(Constant)))(For (Assignment (ID)(Constant))(BinaryOp (ID)(ID))(UnaryOp (ID))(If (BinaryOp (ID)(ArrayRef (ID)(ID)))(Assignment (ID)(ArrayRef (ID)(ID)))))(Assignment (ID)(FuncCall (ID)(ExprList (BinaryOp (BinaryOp (ID)(Constant))(UnaryOp (Typename (TypeDecl (IdentifierType))))))))(For (Assignment (ID)(Constant))(BinaryOp (ID)(ID))(UnaryOp (ID))(UnaryOp (ArrayRef (ID)(ArrayRef (ID)(ID)))))(For (Assignment (ID)(Constant))(BinaryOp (ID)(BinaryOp (ID)(Constant)))(UnaryOp (ID))(Assignment (ArrayRef (ID)(ID))(BinaryOp (ArrayRef (ID)(ID))(ArrayRef (ID)(BinaryOp (ID)(Constant))))))(For (Assignment (ID)(BinaryOp (ID)(Constant)))(BinaryOp (ID)(Constant))(UnaryOp (ID))(Compound (Assignment (ArrayRef (ID)(BinaryOp (ArrayRef (ID)(ArrayRef (ID)(ID)))(Constant)))(ArrayRef (ID)(ID)))(UnaryOp (ArrayRef (ID)(ArrayRef (ID)(ID))))))(For (Assignment (ID)(Constant))(BinaryOp (ID)(ID))(UnaryOp (ID))(Compound (FuncCall (ID)(ExprList (Constant)(ArrayRef (ID)(ID))))(If (BinaryOp (ID)(BinaryOp (ID)(Constant)))(FuncCall (ID)(ExprList (Constant))))))(FuncCall (ID)(ExprList (Constant)))(Return (Constant))))) |ET| 
-0.35735878715989971565747396198276  |BT| (FileAST (Decl (ArrayDecl (TypeDecl (IdentifierType))(Constant)))(Decl (ArrayDecl (TypeDecl (IdentifierType))(Constant)))(Decl (ArrayDecl (TypeDecl (IdentifierType))(Constant)))(Decl (TypeDecl (IdentifierType))(Constant))(FuncDef (Decl (FuncDecl (TypeDecl (IdentifierType))))(Compound (Decl (TypeDecl (IdentifierType)))(Decl (TypeDecl (IdentifierType)))(FuncCall (ID)(ExprList (Constant)(UnaryOp (ID))))(For (Assignment (ID)(Constant))(BinaryOp (ID)(ID))(UnaryOp (ID))(FuncCall (ID)(ExprList (Constant)(UnaryOp (ArrayRef (ID)(ID))))))(FuncCall (ID)(ExprList (Constant)(ID)))(For (Assignment (ID)(Constant))(BinaryOp (ID)(ID))(UnaryOp (ID))(Compound (If (BinaryOp (ID)(Constant))(FuncCall (ID)(ExprList (Constant))))(FuncCall (ID)(ExprList (Constant)(ArrayRef (ID)(ID))))))(FuncCall (ID)(ExprList (Constant)(ID)))(Return (Constant))))(FuncDef (Decl (FuncDecl (ParamList (ID)(ID)(ID))(TypeDecl (IdentifierType))))(Compound (Decl (TypeDecl (IdentifierType)))(Decl (TypeDecl (IdentifierType)))(Decl (TypeDecl (IdentifierType)))(Decl (TypeDecl (IdentifierType)))(Decl (TypeDecl (IdentifierType)))(Assignment (ID)(BinaryOp (ID)(ID)))(Assignment (ID)(BinaryOp (ID)(ID)))(For (Assignment (ID)(Constant))(BinaryOp (ID)(ID))(UnaryOp (ID))(Assignment (ArrayRef (ID)(ID))(ArrayRef (ID)(BinaryOp (ID)(ID)))))(For (Assignment (ID)(Constant))(BinaryOp (ID)(ID))(UnaryOp (ID))(Assignment (ArrayRef (ID)(ID))(ArrayRef (ID)(BinaryOp (ID)(ID)))))(Assignment (ArrayRef (ID)(ID))(Constant))(Assignment (ArrayRef (ID)(ID))(Constant))(Assignment (ID)(Constant))(Assignment (ID)(Constant))(For (Assignment (ID)(ID))(BinaryOp (ID)(ID))(UnaryOp (ID))(Compound (If (BinaryOp (ArrayRef (ID)(ID))(ArrayRef (ID)(ID)))(Compound (Assignment (ArrayRef (ID)(ID))(ArrayRef (ID)(ID)))(Assignment (ID)(BinaryOp (ID)(Constant)))(UnaryOp (ID)))(Compound (Assignment (ArrayRef (ID)(ID))(ArrayRef (ID)(ID)))(Assignment (ID)(BinaryOp (ID)(Constant)))(UnaryOp (ID))))))))(FuncDef (Decl (FuncDecl (ParamList (ID)(ID))(TypeDecl (IdentifierType))))(Compound (Decl (TypeDecl (IdentifierType)))(If (BinaryOp (BinaryOp (ID)(Constant))(ID))(Compound (Assignment (ID)(BinaryOp (BinaryOp (ID)(ID))(Constant)))(FuncCall (ID)(ExprList (ID)(ID)))(FuncCall (ID)(ExprList (ID)(ID)))(FuncCall (ID)(ExprList (ID)(ID)(ID)))))))) |ET| 
0.7774874640100428724309722383623  |BT| (FileAST (FuncDef (Decl (FuncDecl (ParamList (Decl (TypeDecl (IdentifierType))))(TypeDecl (IdentifierType))))(Compound (Return (BinaryOp (ID)(Constant)))))(FuncDef (Decl (FuncDecl (ParamList (Decl (ArrayDecl (TypeDecl (IdentifierType))))(Decl (TypeDecl (IdentifierType))))(TypeDecl (IdentifierType))))(Compound (For (DeclList (Decl (TypeDecl (IdentifierType))(Constant)))(BinaryOp (ID)(ID))(UnaryOp (ID))(Compound (If (BinaryOp (ID)(Constant))(FuncCall (ID)(ExprList (Constant))))(FuncCall (ID)(ExprList (Constant)(ArrayRef (ID)(ID))))))(EmptyStatement)))(FuncDef (Decl (FuncDecl (ParamList (Decl (ArrayDecl (TypeDecl (IdentifierType))))(Decl (ArrayDecl (TypeDecl (IdentifierType))))(Decl (TypeDecl (IdentifierType)))(Decl (TypeDecl (IdentifierType))))(TypeDecl (IdentifierType))))(Compound (Decl (ArrayDecl (TypeDecl (IdentifierType))(BinaryOp (ID)(Constant))))(Decl (TypeDecl (IdentifierType)))(Decl (TypeDecl (IdentifierType)))(For (Assignment (ID)(Constant))(BinaryOp (ID)(ID))(UnaryOp (ID))(Assignment (ArrayRef (ID)(ID))(Constant)))(For (Assignment (ID)(Constant))(BinaryOp (ID)(ID))(UnaryOp (ID))(UnaryOp (ArrayRef (ID)(ArrayRef (ID)(FuncCall (ID)(ExprList (ID)))))))(For (Assignment (ID)(Constant))(BinaryOp (ID)(ID))(UnaryOp (ID))(Assignment (ArrayRef (ID)(ID))(BinaryOp (ArrayRef (ID)(ID))(ArrayRef (ID)(BinaryOp (ID)(Constant))))))(For (Assignment (ID)(ID))(BinaryOp (ID)(Constant))(UnaryOp (ID))(Compound (Assignment (ArrayRef (ID)(FuncCall (ID)(ExprList (ArrayRef (ID)(ArrayRef (ID)(FuncCall (ID)(ExprList (ID))))))))(ArrayRef (ID)(FuncCall (ID)(ExprList (ID)))))(UnaryOp (ArrayRef (ID)(ArrayRef (ID)(FuncCall (ID)(ExprList (ID))))))))))(FuncDef (Decl (FuncDecl (ParamList (Decl (TypeDecl (IdentifierType)))(Decl (PtrDecl (PtrDecl (TypeDecl (IdentifierType))))))(TypeDecl (IdentifierType))))(Compound (Decl (TypeDecl (IdentifierType)))(Decl (TypeDecl (IdentifierType))(Constant))(FuncCall (ID)(ExprList (Constant)(UnaryOp (ID))))(Decl (ArrayDecl (TypeDecl (IdentifierType))(ID)))(Decl (ArrayDecl (TypeDecl (IdentifierType))(ID)))(For (DeclList (Decl (TypeDecl (IdentifierType))(Constant)))(BinaryOp (ID)(ID))(UnaryOp (ID))(Compound (FuncCall (ID)(ExprList (Constant)(UnaryOp (ArrayRef (ID)(ID)))))(If (BinaryOp (ArrayRef (ID)(ID))(ID))(Assignment (ID)(ArrayRef (ID)(ID))))))(FuncCall (ID)(ExprList (ID)(ID)(ID)(ID)))(FuncCall (ID)(ExprList (ID)(ID)))(FuncCall (ID)(ExprList (Constant)))(Return (Constant))))) |ET| 
-0.68003892598280735182214584710891  |BT| (FileAST (Decl (TypeDecl (IdentifierType))(Constant))(FuncDef (Decl (FuncDecl (ParamList (Decl (ArrayDecl (TypeDecl (IdentifierType))))(Decl (TypeDecl (IdentifierType)))(Decl (TypeDecl (IdentifierType)))(Decl (TypeDecl (IdentifierType))))(TypeDecl (IdentifierType))))(Compound (Decl (TypeDecl (IdentifierType))(BinaryOp (ID)(ID)))(Decl (TypeDecl (IdentifierType))(BinaryOp (ID)(ID)))(Decl (ArrayDecl (TypeDecl (IdentifierType))(ID)))(Decl (ArrayDecl (TypeDecl (IdentifierType))(ID)))(For (DeclList (Decl (TypeDecl (IdentifierType))(Constant)))(BinaryOp (ID)(ID))(UnaryOp (ID))(Compound (Assignment (ArrayRef (ID)(ID))(ArrayRef (ID)(BinaryOp (ID)(ID))))))(For (DeclList (Decl (TypeDecl (IdentifierType))(Constant)))(BinaryOp (ID)(ID))(UnaryOp (ID))(Compound (Assignment (ArrayRef (ID)(ID))(ArrayRef (ID)(BinaryOp (ID)(ID))))))(Assignment (ArrayRef (ID)(ID))(Constant))(Assignment (ArrayRef (ID)(ID))(Constant))(Decl (TypeDecl (IdentifierType))(Constant))(Decl (TypeDecl (IdentifierType))(Constant))(For (DeclList (Decl (TypeDecl (IdentifierType))(ID)))(BinaryOp (ID)(ID))(UnaryOp (ID))(Compound (If (BinaryOp (ArrayRef (ID)(ID))(ArrayRef (ID)(ID)))(Compound (Assignment (ArrayRef (ID)(ID))(ArrayRef (ID)(ID)))(UnaryOp (ID))(UnaryOp (ID)))(Compound (Assignment (ArrayRef (ID)(ID))(ArrayRef (ID)(ID)))(UnaryOp (ID))(UnaryOp (ID))))))))(FuncDef (Decl (FuncDecl (ParamList (Decl (ArrayDecl (TypeDecl (IdentifierType))))(Decl (TypeDecl (IdentifierType)))(Decl (TypeDecl (IdentifierType))))(TypeDecl (IdentifierType))))(Compound (If (BinaryOp (BinaryOp (ID)(Constant))(ID))(Compound (Decl (TypeDecl (IdentifierType))(BinaryOp (BinaryOp (ID)(ID))(Constant)))(FuncCall (ID)(ExprList (ID)(ID)(ID)))(FuncCall (ID)(ExprList (ID)(ID)(ID)))(FuncCall (ID)(ExprList (ID)(ID)(ID)(ID)))))))(FuncDef (Decl (FuncDecl (TypeDecl (IdentifierType))))(Compound (Decl (TypeDecl (IdentifierType)))(FuncCall (ID)(ExprList (Constant)(UnaryOp (ID))))(Decl (ArrayDecl (TypeDecl (IdentifierType))(ID)))(For (DeclList (Decl (TypeDecl (IdentifierType))(Constant)))(BinaryOp (ID)(ID))(UnaryOp (ID))(Compound (FuncCall (ID)(ExprList (Constant)(UnaryOp (ArrayRef (ID)(ID)))))))(FuncCall (ID)(ExprList (ID)(Constant)(ID)))(For (DeclList (Decl (TypeDecl (IdentifierType))(Constant)))(BinaryOp (ID)(ID))(UnaryOp (ID))(Compound (FuncCall (ID)(ExprList (Constant)(ArrayRef (ID)(ID))))(If (BinaryOp (ID)(BinaryOp (ID)(Constant)))(Compound (FuncCall (ID)(ExprList (Constant))))(Compound (FuncCall (ID)(ExprList (Constant)))))))(FuncCall (ID)(ExprList (Constant)(ID)))(Return (Constant))))) |ET| 
1  |BT| (FileAST (FuncDef (Decl (FuncDecl (TypeDecl (IdentifierType))))(Compound (Decl (PtrDecl (TypeDecl (IdentifierType))))(Decl (PtrDecl (TypeDecl (IdentifierType))))(Decl (PtrDecl (TypeDecl (IdentifierType))))(Decl (TypeDecl (IdentifierType)))(Decl (TypeDecl (IdentifierType)))(Decl (TypeDecl (IdentifierType)))(Decl (TypeDecl (IdentifierType))(UnaryOp (Constant)))(FuncCall (ID)(ExprList (Constant)(UnaryOp (ID))))(Assignment (ID)(Cast (Typename (PtrDecl (TypeDecl (IdentifierType))))(FuncCall (ID)(ExprList (BinaryOp (BinaryOp (ID)(Constant))(UnaryOp (Typename (TypeDecl (IdentifierType)))))))))(Assignment (ID)(Cast (Typename (PtrDecl (TypeDecl (IdentifierType))))(FuncCall (ID)(ExprList (BinaryOp (BinaryOp (ID)(Constant))(UnaryOp (Typename (TypeDecl (IdentifierType)))))))))(For (Assignment (ID)(Constant))(BinaryOp (ID)(BinaryOp (ID)(Constant)))(UnaryOp (ID))(Compound (FuncCall (ID)(ExprList (Constant)(UnaryOp (ArrayRef (ID)(ID)))))(If (BinaryOp (ArrayRef (ID)(ID))(ID))(Assignment (ID)(ArrayRef (ID)(ID))))))(Assignment (ID)(Cast (Typename (PtrDecl (TypeDecl (IdentifierType))))(FuncCall (ID)(ExprList (BinaryOp (BinaryOp (ID)(Constant))(UnaryOp (Typename (TypeDecl (IdentifierType)))))))))(For (Assignment (ID)(Constant))(BinaryOp (ID)(BinaryOp (ID)(Constant)))(UnaryOp (ID))(Compound (Assignment (ArrayRef (ID)(ID))(Constant))))(For (Assignment (ID)(Constant))(BinaryOp (ID)(ID))(UnaryOp (ID))(Compound (UnaryOp (ArrayRef (ID)(ArrayRef (ID)(ID))))))(For (Assignment (ID)(Constant))(BinaryOp (ID)(BinaryOp (ID)(Constant)))(UnaryOp (ID))(Compound (Assignment (ArrayRef (ID)(ID))(BinaryOp (ArrayRef (ID)(ID))(ArrayRef (ID)(BinaryOp (ID)(Constant)))))))(For (Assignment (ID)(ID))(BinaryOp (ID)(Constant))(UnaryOp (ID))(Compound (Assignment (ArrayRef (ID)(ArrayRef (ID)(ArrayRef (ID)(ID))))(ArrayRef (ID)(ID)))(UnaryOp (ArrayRef (ID)(ArrayRef (ID)(ID))))))(For (Assignment (ID)(Constant))(BinaryOp (ID)(BinaryOp (ID)(Constant)))(UnaryOp (ID))(Compound (FuncCall (ID)(ExprList (Constant)(ArrayRef (ID)(ID))))))(FuncCall (ID)(ExprList (Constant)(ArrayRef (ID)(ID))))(FuncCall (ID)(ExprList (ID)))(FuncCall (ID)(ExprList (ID)))(FuncCall (ID)(ExprList (ID)))(Return (Constant))))) |ET| 
-0.58510998190915375349874238963821  |BT| (FileAST (Decl (ArrayDecl (TypeDecl (IdentifierType))(BinaryOp (BinaryOp (Constant)(Constant))(Constant))))(Decl (ArrayDecl (TypeDecl (IdentifierType))(BinaryOp (BinaryOp (Constant)(Constant))(Constant))))(Decl (TypeDecl (IdentifierType)))(FuncDef (Decl (FuncDecl (ParamList (Decl (ArrayDecl (TypeDecl (IdentifierType))))(Decl (TypeDecl (IdentifierType)))(Decl (TypeDecl (IdentifierType)))(Decl (TypeDecl (IdentifierType)))(Decl (TypeDecl (IdentifierType))))(TypeDecl (IdentifierType))))(Compound (Decl (TypeDecl (IdentifierType)))(Decl (TypeDecl (IdentifierType)))(Decl (TypeDecl (IdentifierType)))(Decl (TypeDecl (IdentifierType))(BinaryOp (ID)(ID)))(Decl (TypeDecl (IdentifierType))(BinaryOp (ID)(ID)))(For (Assignment (ID)(Constant))(BinaryOp (ID)(ID))(UnaryOp (ID))(Compound (Assignment (ArrayRef (ID)(ID))(ArrayRef (ID)(BinaryOp (ID)(ID))))))(For (Assignment (ID)(Constant))(BinaryOp (ID)(ID))(UnaryOp (ID))(Compound (Assignment (ArrayRef (ID)(ID))(ArrayRef (ID)(BinaryOp (ID)(ID))))))(Assignment (ArrayRef (ID)(ID))(Assignment (ArrayRef (ID)(ID))(Constant)))(ExprList (Assignment (ID)(Constant))(Assignment (ID)(Constant)))(For (Assignment (ID)(ID))(BinaryOp (ID)(ID))(UnaryOp (ID))(Compound (UnaryOp (ID))(If (BinaryOp (ArrayRef (ID)(ID))(ArrayRef (ID)(ID)))(Compound (Assignment (ArrayRef (ID)(ID))(ArrayRef (ID)(UnaryOp (ID)))))(Compound (Assignment (ArrayRef (ID)(ID))(ArrayRef (ID)(UnaryOp (ID))))))))))(FuncDef (Decl (FuncDecl (ParamList (Decl (ArrayDecl (TypeDecl (IdentifierType))))(Decl (TypeDecl (IdentifierType)))(Decl (TypeDecl (IdentifierType)))(Decl (TypeDecl (IdentifierType))))(TypeDecl (IdentifierType))))(Compound (Decl (TypeDecl (IdentifierType)))(If (BinaryOp (BinaryOp (ID)(Constant))(ID))(Compound (Assignment (ID)(BinaryOp (BinaryOp (ID)(ID))(Constant)))(FuncCall (ID)(ExprList (ID)(ID)(ID)(ID)))(FuncCall (ID)(ExprList (ID)(ID)(ID)(ID)))(FuncCall (ID)(ExprList (ID)(ID)(ID)(ID)(ID)))))))(FuncDef (Decl (FuncDecl (TypeDecl (IdentifierType))))(Compound (Decl (ArrayDecl (TypeDecl (IdentifierType))(Constant)))(Decl (TypeDecl (IdentifierType)))(Decl (TypeDecl (IdentifierType)))(Assignment (ID)(Constant))(FuncCall (ID)(ExprList (Constant)(UnaryOp (ID))))(For (Assignment (ID)(Constant))(BinaryOp (ID)(ID))(UnaryOp (ID))(Compound (FuncCall (ID)(ExprList (Constant)(UnaryOp (ArrayRef (ID)(ID)))))))(FuncCall (ID)(ExprList (ID)(ID)(Constant)(ID)))(For (Assignment (ID)(Constant))(BinaryOp (ID)(ID))(UnaryOp (ID))(Compound (If (ID)(FuncCall (ID)(ExprList (Constant))))(FuncCall (ID)(ExprList (Constant)(ArrayRef (ID)(ID))))))(FuncCall (ID)(ExprList (Constant)(ID)))(Return (Constant))))) |ET| 
1  |BT| (FileAST (Decl (FuncDecl (ParamList (Typename (PtrDecl (TypeDecl (IdentifierType))))(Typename (PtrDecl (TypeDecl (IdentifierType))))(Typename (TypeDecl (IdentifierType)))(Typename (TypeDecl (IdentifierType))))(TypeDecl (IdentifierType))))(Decl (FuncDecl (ParamList (Typename (PtrDecl (TypeDecl (IdentifierType))))(Typename (TypeDecl (IdentifierType))))(TypeDecl (IdentifierType))))(FuncDef (Decl (FuncDecl (TypeDecl (IdentifierType))))(Compound (Decl (TypeDecl (IdentifierType)))(Decl (TypeDecl (IdentifierType)))(Decl (PtrDecl (TypeDecl (IdentifierType))))(Decl (PtrDecl (TypeDecl (IdentifierType))))(Decl (PtrDecl (TypeDecl (IdentifierType))))(Decl (TypeDecl (IdentifierType))(Constant))(FuncCall (ID)(ExprList (Constant)(UnaryOp (ID))))(Assignment (ID)(Cast (Typename (PtrDecl (TypeDecl (IdentifierType))))(FuncCall (ID)(ExprList (BinaryOp (ID)(UnaryOp (Typename (TypeDecl (IdentifierType)))))))))(Assignment (ID)(Cast (Typename (PtrDecl (TypeDecl (IdentifierType))))(FuncCall (ID)(ExprList (BinaryOp (ID)(UnaryOp (Typename (TypeDecl (IdentifierType)))))))))(For (Assignment (ID)(Constant))(BinaryOp (ID)(ID))(UnaryOp (ID))(Compound (FuncCall (ID)(ExprList (Constant)(UnaryOp (ArrayRef (ID)(ID)))))(If (BinaryOp (ID)(ArrayRef (ID)(ID)))(Assignment (ID)(ArrayRef (ID)(ID))))))(UnaryOp (ID))(FuncCall (ID)(ExprList (ID)(ID)(ID)(ID)))(FuncCall (ID)(ExprList (ID)(ID)))(Return (Constant))))(FuncDef (Decl (FuncDecl (ParamList (Decl (ArrayDecl (TypeDecl (IdentifierType))))(Decl (ArrayDecl (TypeDecl (IdentifierType))))(Decl (TypeDecl (IdentifierType)))(Decl (TypeDecl (IdentifierType))))(TypeDecl (IdentifierType))))(Compound (Decl (TypeDecl (IdentifierType)))(Decl (PtrDecl (TypeDecl (IdentifierType))))(Assignment (ID)(Cast (Typename (PtrDecl (TypeDecl (IdentifierType))))(FuncCall (ID)(ExprList (BinaryOp (ID)(UnaryOp (Typename (TypeDecl (IdentifierType)))))))))(For (Assignment (ID)(Constant))(BinaryOp (ID)(ID))(UnaryOp (ID))(Assignment (ArrayRef (ID)(ID))(Constant)))(For (Assignment (ID)(Constant))(BinaryOp (ID)(ID))(UnaryOp (ID))(UnaryOp (ArrayRef (ID)(ArrayRef (ID)(ID)))))(For (Assignment (ID)(Constant))(BinaryOp (ID)(ID))(UnaryOp (ID))(Assignment (ArrayRef (ID)(ID))(ArrayRef (ID)(BinaryOp (ID)(Constant)))))(For (Assignment (ID)(BinaryOp (ID)(Constant)))(BinaryOp (ID)(Constant))(UnaryOp (ID))(Compound (Assignment (ArrayRef (ID)(BinaryOp (ArrayRef (ID)(ArrayRef (ID)(ID)))(Constant)))(ArrayRef (ID)(ID)))(UnaryOp (ArrayRef (ID)(ArrayRef (ID)(ID))))))))(FuncDef (Decl (FuncDecl (ParamList (Decl (ArrayDecl (TypeDecl (IdentifierType))))(Decl (TypeDecl (IdentifierType))))(TypeDecl (IdentifierType))))(Compound (Decl (TypeDecl (IdentifierType)))(For (Assignment (ID)(Constant))(BinaryOp (ID)(ID))(UnaryOp (ID))(Compound (If (BinaryOp (ID)(Constant))(FuncCall (ID)(ExprList (Constant))))(FuncCall (ID)(ExprList (Constant)(ArrayRef (ID)(ID))))))(FuncCall (ID)(ExprList (Constant)))))) |ET| 
-0.56174302546867904695204742893111  |BT| (FileAST (Decl (TypeDecl (IdentifierType))(Constant))(FuncDef (Decl (FuncDecl (ParamList (Decl (ArrayDecl (TypeDecl (IdentifierType))))(Decl (TypeDecl (IdentifierType)))(Decl (TypeDecl (IdentifierType)))(Decl (TypeDecl (IdentifierType))))(TypeDecl (IdentifierType))))(Compound (Decl (TypeDecl (IdentifierType))(BinaryOp (ID)(ID)))(Decl (TypeDecl (IdentifierType))(BinaryOp (ID)(ID)))(Decl (ArrayDecl (TypeDecl (IdentifierType))(Constant)))(Decl (ArrayDecl (TypeDecl (IdentifierType))(Constant)))(Decl (TypeDecl (IdentifierType)))(Decl (TypeDecl (IdentifierType)))(Decl (TypeDecl (IdentifierType)))(For (Assignment (ID)(Constant))(BinaryOp (ID)(ID))(UnaryOp (ID))(Assignment (ArrayRef (ID)(ID))(ArrayRef (ID)(BinaryOp (ID)(ID)))))(For (Assignment (ID)(Constant))(BinaryOp (ID)(ID))(UnaryOp (ID))(Assignment (ArrayRef (ID)(ID))(ArrayRef (ID)(BinaryOp (ID)(ID)))))(Assignment (ArrayRef (ID)(ID))(Constant))(Assignment (ArrayRef (ID)(ID))(Constant))(ExprList (Assignment (ID)(Constant))(Assignment (ID)(Constant)))(For (Assignment (ID)(ID))(BinaryOp (ID)(ID))(UnaryOp (ID))(Compound (UnaryOp (ID))(If (BinaryOp (ArrayRef (ID)(ID))(ArrayRef (ID)(ID)))(Compound (Assignment (ArrayRef (ID)(ID))(ArrayRef (ID)(ID)))(UnaryOp (ID)))(Compound (Assignment (ArrayRef (ID)(ID))(ArrayRef (ID)(ID)))(UnaryOp (ID))))))))(FuncDef (Decl (FuncDecl (ParamList (Decl (ArrayDecl (TypeDecl (IdentifierType))))(Decl (TypeDecl (IdentifierType)))(Decl (TypeDecl (IdentifierType))))(TypeDecl (IdentifierType))))(Compound (If (BinaryOp (BinaryOp (ID)(Constant))(ID))(Compound (Decl (TypeDecl (IdentifierType))(BinaryOp (BinaryOp (ID)(ID))(Constant)))(FuncCall (ID)(ExprList (ID)(ID)(ID)))(FuncCall (ID)(ExprList (ID)(ID)(ID)))(FuncCall (ID)(ExprList (ID)(ID)(ID)(ID)))))))(FuncDef (Decl (FuncDecl (TypeDecl (IdentifierType))))(Compound (Decl (TypeDecl (IdentifierType)))(FuncCall (ID)(ExprList (Constant)(UnaryOp (ID))))(Decl (ArrayDecl (TypeDecl (IdentifierType))(Constant)))(Decl (TypeDecl (IdentifierType)))(For (Assignment (ID)(Constant))(BinaryOp (ID)(ID))(UnaryOp (ID))(FuncCall (ID)(ExprList (Constant)(UnaryOp (ArrayRef (ID)(ID))))))(FuncCall (ID)(ExprList (ID)(Constant)(ID)))(For (Assignment (ID)(Constant))(BinaryOp (ID)(ID))(UnaryOp (ID))(Compound (If (ID)(FuncCall (ID)(ExprList (Constant))))(FuncCall (ID)(ExprList (Constant)(ArrayRef (ID)(ID))))))(FuncCall (ID)(ExprList (Constant)))(ExprList (FuncCall (ID)(ExprList (Constant)(ID)))(FuncCall (ID)(ExprList (Constant))))(Return (Constant))))) |ET| 
1  |BT| (FileAST (Decl (FuncDecl (ParamList (Typename (PtrDecl (TypeDecl (IdentifierType))))(Typename (PtrDecl (TypeDecl (IdentifierType))))(Typename (TypeDecl (IdentifierType))))(TypeDecl (IdentifierType))))(FuncDef (Decl (FuncDecl (TypeDecl (IdentifierType))))(Compound (Decl (TypeDecl (IdentifierType)))(Decl (TypeDecl (IdentifierType)))(Decl (PtrDecl (TypeDecl (IdentifierType))))(Decl (PtrDecl (TypeDecl (IdentifierType))))(FuncCall (ID)(ExprList (Constant)(UnaryOp (ID))))(Assignment (ID)(Cast (Typename (PtrDecl (TypeDecl (IdentifierType))))(FuncCall (ID)(ExprList (BinaryOp (UnaryOp (Typename (TypeDecl (IdentifierType))))(ID))))))(Assignment (ID)(Cast (Typename (PtrDecl (TypeDecl (IdentifierType))))(FuncCall (ID)(ExprList (BinaryOp (UnaryOp (Typename (TypeDecl (IdentifierType))))(ID))))))(For (Assignment (ID)(Constant))(BinaryOp (ID)(ID))(UnaryOp (ID))(FuncCall (ID)(ExprList (Constant)(UnaryOp (ArrayRef (ID)(ID))))))(FuncCall (ID)(ExprList (ID)(ID)(ID)))(For (Assignment (ID)(Constant))(BinaryOp (ID)(ID))(UnaryOp (ID))(Compound (FuncCall (ID)(ExprList (Constant)(ArrayRef (ID)(ID))))(If (UnaryOp (BinaryOp (ID)(BinaryOp (ID)(Constant))))(FuncCall (ID)(ExprList (Constant))))))(FuncCall (ID)(ExprList (Constant)))(Return (Constant))))(FuncDef (Decl (FuncDecl (ParamList (Decl (PtrDecl (TypeDecl (IdentifierType))))(Decl (PtrDecl (TypeDecl (IdentifierType))))(Decl (TypeDecl (IdentifierType))))(TypeDecl (IdentifierType))))(Compound (Decl (PtrDecl (TypeDecl (IdentifierType))))(Decl (PtrDecl (TypeDecl (IdentifierType))))(Decl (TypeDecl (IdentifierType)))(Decl (TypeDecl (IdentifierType)))(Assignment (ID)(Cast (Typename (PtrDecl (TypeDecl (IdentifierType))))(FuncCall (ID)(ExprList (BinaryOp (UnaryOp (Typename (TypeDecl (IdentifierType))))(BinaryOp (Constant)(Constant)))))))(Assignment (ID)(Cast (Typename (PtrDecl (TypeDecl (IdentifierType))))(FuncCall (ID)(ExprList (BinaryOp (UnaryOp (Typename (TypeDecl (IdentifierType))))(BinaryOp (Constant)(Constant)))))))(For (Assignment (ID)(Constant))(BinaryOp (ID)(Constant))(UnaryOp (ID))(Assignment (ArrayRef (ID)(ID))(Constant)))(For (Assignment (ID)(Constant))(BinaryOp (ID)(ID))(UnaryOp (ID))(Compound (UnaryOp (ArrayRef (ID)(ArrayRef (ID)(ID))))))(Assignment (ID)(Constant))(While (Constant)(Compound (If (BinaryOp (ID)(Constant))(Assignment (ArrayRef (ID)(Constant))(ArrayRef (ID)(Constant)))(Compound (Assignment (ArrayRef (ID)(ID))(BinaryOp (ArrayRef (ID)(ID))(ArrayRef (ID)(BinaryOp (ID)(Constant)))))))(UnaryOp (ID))(If (BinaryOp (ID)(BinaryOp (Constant)(Constant)))(Break))))(For (Assignment (ID)(BinaryOp (ID)(Constant)))(BinaryOp (ID)(Constant))(UnaryOp (ID))(Compound (Assignment (ArrayRef (ID)(BinaryOp (ArrayRef (ID)(ArrayRef (ID)(ID)))(Constant)))(ArrayRef (ID)(ID)))(UnaryOp (ArrayRef (ID)(ArrayRef (ID)(ID))))))))) |ET| 
-0.63140837436841290575273433205439  |BT| (FileAST (Decl (ArrayDecl (TypeDecl (IdentifierType))(BinaryOp (BinaryOp (Constant)(Constant))(Constant))))(Decl (ArrayDecl (TypeDecl (IdentifierType))(BinaryOp (BinaryOp (Constant)(Constant))(Constant))))(Decl (TypeDecl (IdentifierType))(Constant))(FuncDef (Decl (FuncDecl (ParamList (Decl (ArrayDecl (TypeDecl (IdentifierType))))(Decl (TypeDecl (IdentifierType)))(Decl (TypeDecl (IdentifierType)))(Decl (TypeDecl (IdentifierType))))(TypeDecl (IdentifierType))))(Compound (Decl (TypeDecl (IdentifierType)))(Decl (TypeDecl (IdentifierType)))(Decl (TypeDecl (IdentifierType)))(Decl (TypeDecl (IdentifierType))(BinaryOp (ID)(ID)))(Decl (TypeDecl (IdentifierType))(BinaryOp (ID)(ID)))(For (Assignment (ID)(Constant))(BinaryOp (ID)(ID))(UnaryOp (ID))(Compound (Assignment (ArrayRef (ID)(ID))(ArrayRef (ID)(BinaryOp (ID)(ID))))))(For (Assignment (ID)(Constant))(BinaryOp (ID)(ID))(UnaryOp (ID))(Compound (Assignment (ArrayRef (ID)(ID))(ArrayRef (ID)(BinaryOp (ID)(ID))))))(Assignment (ArrayRef (ID)(ID))(Constant))(Assignment (ArrayRef (ID)(ID))(Constant))(Assignment (ID)(Constant))(Assignment (ID)(Constant))(For (Assignment (ID)(ID))(BinaryOp (ID)(ID))(UnaryOp (ID))(Compound (If (BinaryOp (ArrayRef (ID)(ID))(ArrayRef (ID)(ID)))(Compound (Assignment (ArrayRef (ID)(ID))(ArrayRef (ID)(ID)))(UnaryOp (ID)))(Compound (Assignment (ArrayRef (ID)(ID))(ArrayRef (ID)(ID)))(UnaryOp (ID))))(UnaryOp (ID))))))(FuncDef (Decl (FuncDecl (ParamList (Decl (ArrayDecl (TypeDecl (IdentifierType))))(Decl (TypeDecl (IdentifierType)))(Decl (TypeDecl (IdentifierType))))(TypeDecl (IdentifierType))))(Compound (If (BinaryOp (BinaryOp (ID)(Constant))(ID))(Compound (Decl (TypeDecl (IdentifierType))(BinaryOp (BinaryOp (ID)(ID))(Constant)))(FuncCall (ID)(ExprList (ID)(ID)(ID)))(FuncCall (ID)(ExprList (ID)(ID)(ID)))(FuncCall (ID)(ExprList (ID)(ID)(ID)(ID)))))))(FuncDef (Decl (FuncDecl (ParamList (Typename (TypeDecl (IdentifierType))))(TypeDecl (IdentifierType))))(Compound (Decl (TypeDecl (IdentifierType)))(Decl (TypeDecl (IdentifierType)))(FuncCall (ID)(ExprList (Constant)(UnaryOp (ID))))(Decl (ArrayDecl (TypeDecl (IdentifierType))(ID)))(For (Assignment (ID)(Constant))(BinaryOp (ID)(ID))(UnaryOp (ID))(Compound (FuncCall (ID)(ExprList (Constant)(UnaryOp (ArrayRef (ID)(ID)))))))(FuncCall (ID)(ExprList (ID)(Constant)(ID)))(For (Assignment (ID)(Constant))(BinaryOp (ID)(ID))(UnaryOp (ID))(Compound (If (BinaryOp (ID)(BinaryOp (ID)(Constant)))(Compound (FuncCall (ID)(ExprList (Constant)(ArrayRef (ID)(ID)))))(Compound (FuncCall (ID)(ExprList (Constant)(ArrayRef (ID)(ID))))))))(FuncCall (ID)(ExprList (Constant)(ID)))(Return (Constant))))) |ET| 
1  |BT| (FileAST (Decl (FuncDecl (ParamList (Typename (PtrDecl (TypeDecl (IdentifierType))))(Typename (PtrDecl (TypeDecl (IdentifierType))))(Typename (TypeDecl (IdentifierType)))(Typename (TypeDecl (IdentifierType))))(TypeDecl (IdentifierType))))(FuncDef (Decl (FuncDecl (TypeDecl (IdentifierType))))(Compound (Decl (TypeDecl (IdentifierType)))(Decl (TypeDecl (IdentifierType)))(Decl (TypeDecl (IdentifierType)))(Decl (PtrDecl (TypeDecl (IdentifierType))))(Decl (PtrDecl (TypeDecl (IdentifierType))))(Decl (TypeDecl (IdentifierType)))(FuncCall (ID)(ExprList (Constant)(UnaryOp (ID))))(Assignment (ID)(Cast (Typename (PtrDecl (TypeDecl (IdentifierType))))(FuncCall (ID)(ExprList (BinaryOp (ID)(UnaryOp (Typename (TypeDecl (IdentifierType)))))))))(Assignment (ID)(Cast (Typename (PtrDecl (TypeDecl (IdentifierType))))(FuncCall (ID)(ExprList (BinaryOp (ID)(UnaryOp (Typename (TypeDecl (IdentifierType)))))))))(For (Assignment (ID)(Constant))(BinaryOp (ID)(ID))(UnaryOp (ID))(Compound (FuncCall (ID)(ExprList (Constant)(UnaryOp (ArrayRef (ID)(ID)))))))(Assignment (ID)(ArrayRef (ID)(Constant)))(For (Assignment (ID)(Constant))(BinaryOp (ID)(ID))(UnaryOp (ID))(Compound (If (BinaryOp (ID)(ArrayRef (ID)(ID)))(Assignment (ID)(ArrayRef (ID)(ID))))))(Assignment (ID)(ID))(FuncCall (ID)(ExprList (ID)(ID)(ID)(ID)))(For (Assignment (ID)(Constant))(BinaryOp (ID)(ID))(UnaryOp (ID))(Compound (FuncCall (ID)(ExprList (Constant)(ArrayRef (ID)(ID))))(If (BinaryOp (ID)(BinaryOp (ID)(Constant)))(FuncCall (ID)(ExprList (Constant))))))(FuncCall (ID)(ExprList (Constant)))(Return (Constant))))(FuncDef (Decl (FuncDecl (ParamList (Decl (PtrDecl (TypeDecl (IdentifierType))))(Decl (PtrDecl (TypeDecl (IdentifierType))))(Decl (TypeDecl (IdentifierType)))(Decl (TypeDecl (IdentifierType))))(TypeDecl (IdentifierType))))(Compound (Decl (TypeDecl (IdentifierType)))(Decl (TypeDecl (IdentifierType)))(Decl (PtrDecl (TypeDecl (IdentifierType))))(Assignment (ID)(Cast (Typename (PtrDecl (TypeDecl (IdentifierType))))(FuncCall (ID)(ExprList (BinaryOp (BinaryOp (ID)(Constant))(UnaryOp (Typename (TypeDecl (IdentifierType)))))))))(For (Assignment (ID)(Constant))(BinaryOp (ID)(ID))(UnaryOp (ID))(Compound (Assignment (ArrayRef (ID)(ID))(Constant))))(For (Assignment (ID)(Constant))(BinaryOp (ID)(ID))(UnaryOp (ID))(Compound (Assignment (ArrayRef (ID)(ArrayRef (ID)(ID)))(BinaryOp (ArrayRef (ID)(ArrayRef (ID)(ID)))(Constant)))))(For (Assignment (ID)(Constant))(BinaryOp (ID)(ID))(UnaryOp (ID))(Compound (Assignment (ArrayRef (ID)(ID))(BinaryOp (ArrayRef (ID)(ID))(ArrayRef (ID)(BinaryOp (ID)(Constant)))))))(For (Assignment (ID)(BinaryOp (ID)(Constant)))(BinaryOp (ID)(Constant))(UnaryOp (ID))(Compound (Assignment (ArrayRef (ID)(BinaryOp (ArrayRef (ID)(ArrayRef (ID)(ID)))(Constant)))(ArrayRef (ID)(ID)))(Assignment (ArrayRef (ID)(ArrayRef (ID)(ID)))(BinaryOp (ArrayRef (ID)(ArrayRef (ID)(ID)))(Constant)))))))) |ET| 
