SVM-light Version V5.01-TK-1.5
5 # kernel type
3 # kernel parameter -d 
1 # kernel parameter -g 
1 # kernel parameter -s 
1 # kernel parameter -r 
empty# kernel parameter -u 
0.4 # kernel parameter -L 
1 # kernel parameter -T 
T # kernel parameter -C 
1 # kernel parameter -F 
1 # kernel parameter -S 
0.400000 # kernel parameter -M 
3 # kernel parameter -N 
S # kernel parameter -V 
S # kernel parameter -W 
0 # kernel parameter -U 
0 # highest feature index 
1000 # number of training documents 
744 # number of support vectors plus 1 
0.85798363 # threshold b, each following line is a SV (starting with alpha*y)
-0.22139042175144399426933716767962  |BT| (FileAST (Decl (FuncDecl (ParamList (Typename (PtrDecl (TypeDecl (IdentifierType))))(Typename (TypeDecl (IdentifierType)))(Typename (TypeDecl (IdentifierType))))(TypeDecl (IdentifierType))))(Decl (FuncDecl (ParamList (Typename (PtrDecl (TypeDecl (IdentifierType))))(Typename (TypeDecl (IdentifierType)))(Typename (TypeDecl (IdentifierType)))(Typename (TypeDecl (IdentifierType))))(TypeDecl (IdentifierType))))(Decl (TypeDecl (IdentifierType))(Constant))(Decl (ArrayDecl (TypeDecl (IdentifierType))(Constant)))(Decl (ArrayDecl (TypeDecl (IdentifierType))(Constant)))(FuncDef (Decl (FuncDecl (TypeDecl (IdentifierType))))(Compound (Decl (TypeDecl (IdentifierType))(Constant))(Decl (TypeDecl (IdentifierType))(Constant))(Decl (TypeDecl (IdentifierType)))(Decl (ArrayDecl (TypeDecl (IdentifierType))(Constant)))(Decl (TypeDecl (IdentifierType)))(Decl (TypeDecl (IdentifierType)))(FuncCall (ID)(ExprList (Constant)(UnaryOp (ID))))(For (Assignment (ID)(Constant))(BinaryOp (ID)(ID))(UnaryOp (ID))(Compound (FuncCall (ID)(ExprList (Constant)(UnaryOp (ArrayRef (ID)(ID)))))))(FuncCall (ID)(ExprList (ID)(Constant)(ID)))(For (Assignment (ID)(Constant))(BinaryOp (ID)(ID))(UnaryOp (ID))(Compound (FuncCall (ID)(ExprList (Constant)(ArrayRef (ID)(ID))))(If (BinaryOp (ID)(BinaryOp (ID)(Constant)))(FuncCall (ID)(ExprList (Constant))))))(FuncCall (ID)(ExprList (Constant)(ID)))(Return (Constant))))(FuncDef (Decl (FuncDecl (ParamList (Decl (PtrDecl (TypeDecl (IdentifierType))))(Decl (TypeDecl (IdentifierType)))(Decl (TypeDecl (IdentifierType))))(TypeDecl (IdentifierType))))(Compound (Decl (TypeDecl (IdentifierType)))(If (BinaryOp (BinaryOp (ID)(Constant))(ID))(Compound (Assignment (ID)(BinaryOp (BinaryOp (ID)(ID))(Constant)))(FuncCall (ID)(ExprList (ID)(ID)(ID)))(FuncCall (ID)(ExprList (ID)(ID)(ID)))(FuncCall (ID)(ExprList (ID)(ID)(ID)(ID)))))))(FuncDef (Decl (FuncDecl (ParamList (Decl (PtrDecl (TypeDecl (IdentifierType))))(Decl (TypeDecl (IdentifierType)))(Decl (TypeDecl (IdentifierType)))(Decl (TypeDecl (IdentifierType))))(TypeDecl (IdentifierType))))(Compound (Decl (TypeDecl (IdentifierType)))(Decl (TypeDecl (IdentifierType)))(Decl (TypeDecl (IdentifierType))(Constant))(Decl (TypeDecl (IdentifierType))(Constant))(Decl (TypeDecl (IdentifierType)))(Assignment (ID)(BinaryOp (ID)(ID)))(Assignment (ID)(BinaryOp (ID)(ID)))(For (Assignment (ID)(Constant))(BinaryOp (ID)(ID))(UnaryOp (ID))(Compound (Assignment (ArrayRef (ID)(ID))(ArrayRef (ID)(BinaryOp (ID)(ID))))))(For (Assignment (ID)(Constant))(BinaryOp (ID)(ID))(UnaryOp (ID))(Compound (Assignment (ArrayRef (ID)(ID))(ArrayRef (ID)(BinaryOp (ID)(ID))))))(Assignment (ArrayRef (ID)(ID))(Constant))(Assignment (ArrayRef (ID)(ID))(Constant))(Assignment (ID)(Constant))(Assignment (ID)(Constant))(For (Assignment (ID)(ID))(BinaryOp (ID)(ID))(UnaryOp (ID))(Compound (UnaryOp (ID))(If (BinaryOp (ArrayRef (ID)(ID))(ArrayRef (ID)(ID)))(Compound (Assignment (ArrayRef (ID)(ID))(ArrayRef (ID)(ID)))(UnaryOp (ID)))(Compound (Assignment (ArrayRef (ID)(ID))(ArrayRef (ID)(ID)))(UnaryOp (ID))))))))) |ET| 
-0.51081516329392895325867129940889  |BT| (FileAST (Decl (TypeDecl (IdentifierType)))(Decl (TypeDecl (IdentifierType)))(Decl (ArrayDecl (TypeDecl (IdentifierType))(BinaryOp (Constant)(Constant))))(Decl (ArrayDecl (TypeDecl (IdentifierType))(BinaryOp (Constant)(Constant))))(FuncDef (Decl (FuncDecl (ParamList (Decl (ArrayDecl (TypeDecl (IdentifierType))))(Decl (TypeDecl (IdentifierType)))(Decl (TypeDecl (IdentifierType)))(Decl (TypeDecl (IdentifierType))))(TypeDecl (IdentifierType))))(Compound (Decl (TypeDecl (IdentifierType)))(Decl (TypeDecl (IdentifierType)))(Decl (TypeDecl (IdentifierType))(BinaryOp (ID)(ID)))(Decl (TypeDecl (IdentifierType))(BinaryOp (ID)(ID)))(For (Assignment (ID)(Constant))(BinaryOp (ID)(ID))(UnaryOp (ID))(Assignment (ArrayRef (ID)(ID))(ArrayRef (ID)(BinaryOp (ID)(ID)))))(For (Assignment (ID)(Constant))(BinaryOp (ID)(ID))(UnaryOp (ID))(Assignment (ArrayRef (ID)(ID))(ArrayRef (ID)(BinaryOp (ID)(ID)))))(Assignment (ArrayRef (ID)(ID))(Constant))(Assignment (ArrayRef (ID)(ID))(Constant))(Decl (TypeDecl (IdentifierType))(Constant))(Assignment (ID)(Constant))(For (Assignment (ID)(ID))(BinaryOp (ID)(ID))(UnaryOp (ID))(Compound (UnaryOp (ID))(If (BinaryOp (ArrayRef (ID)(ID))(ArrayRef (ID)(ID)))(Compound (Assignment (ArrayRef (ID)(ID))(ArrayRef (ID)(ID)))(UnaryOp (ID)))(Compound (Assignment (ArrayRef (ID)(ID))(ArrayRef (ID)(ID)))(UnaryOp (ID))))))))(FuncDef (Decl (FuncDecl (ParamList (Decl (ArrayDecl (TypeDecl (IdentifierType))))(Decl (TypeDecl (IdentifierType)))(Decl (TypeDecl (IdentifierType))))(TypeDecl (IdentifierType))))(Compound (Decl (TypeDecl (IdentifierType)))(If (BinaryOp (BinaryOp (ID)(Constant))(ID))(Compound (Assignment (ID)(BinaryOp (BinaryOp (ID)(ID))(Constant)))(FuncCall (ID)(ExprList (ID)(ID)(ID)))(FuncCall (ID)(ExprList (ID)(ID)(ID)))(FuncCall (ID)(ExprList (ID)(ID)(ID)(ID)))))))(FuncDef (Decl (FuncDecl (TypeDecl (IdentifierType))))(Compound (Decl (TypeDecl (IdentifierType)))(Decl (ArrayDecl (TypeDecl (IdentifierType))(Constant)))(FuncCall (ID)(ExprList (Constant)(UnaryOp (ID))))(For (Assignment (ID)(Constant))(BinaryOp (ID)(ID))(UnaryOp (ID))(FuncCall (ID)(ExprList (Constant)(UnaryOp (ArrayRef (ID)(ID))))))(FuncCall (ID)(ExprList (ID)(Constant)(ID)))(For (Assignment (ID)(Constant))(BinaryOp (ID)(BinaryOp (ID)(Constant)))(UnaryOp (ID))(Compound (FuncCall (ID)(ExprList (Constant)(ArrayRef (ID)(ID))))(FuncCall (ID)(ExprList (Constant)))))(FuncCall (ID)(ExprList (Constant)(ArrayRef (ID)(ID))(ID)))(Return (Constant))))) |ET| 
-0.4521602508986568569326891520177  |BT| (FileAST (Decl (ArrayDecl (TypeDecl (IdentifierType))(Constant)))(Decl (ArrayDecl (TypeDecl (IdentifierType))(Constant)))(Decl (ArrayDecl (TypeDecl (IdentifierType))(Constant)))(Decl (TypeDecl (IdentifierType))(Constant))(FuncDef (Decl (FuncDecl (ParamList (Decl (ArrayDecl (TypeDecl (IdentifierType))))(Decl (TypeDecl (IdentifierType)))(Decl (TypeDecl (IdentifierType)))(Decl (TypeDecl (IdentifierType))))(TypeDecl (IdentifierType))))(Compound (Decl (TypeDecl (IdentifierType))(BinaryOp (ID)(ID)))(Decl (TypeDecl (IdentifierType))(BinaryOp (ID)(ID)))(Decl (TypeDecl (IdentifierType)))(Decl (TypeDecl (IdentifierType)))(Decl (TypeDecl (IdentifierType)))(For (Assignment (ID)(Constant))(BinaryOp (ID)(ID))(UnaryOp (ID))(Assignment (ArrayRef (ID)(ID))(ArrayRef (ID)(BinaryOp (ID)(ID)))))(For (Assignment (ID)(Constant))(BinaryOp (ID)(ID))(UnaryOp (ID))(Assignment (ArrayRef (ID)(ID))(ArrayRef (ID)(BinaryOp (ID)(ID)))))(Assignment (ArrayRef (ID)(ID))(Assignment (ArrayRef (ID)(ID))(Constant)))(Assignment (ID)(Assignment (ID)(Constant)))(For (Assignment (ID)(ID))(BinaryOp (ID)(ID))(UnaryOp (ID))(Compound (UnaryOp (ID))(If (BinaryOp (ArrayRef (ID)(ID))(ArrayRef (ID)(ID)))(Compound (Assignment (ArrayRef (ID)(ID))(ArrayRef (ID)(ID)))(UnaryOp (ID)))(Compound (Assignment (ArrayRef (ID)(ID))(ArrayRef (ID)(ID)))(UnaryOp (ID))))))))(FuncDef (Decl (FuncDecl (ParamList (Decl (ArrayDecl (TypeDecl (IdentifierType))))(Decl (TypeDecl (IdentifierType)))(Decl (TypeDecl (IdentifierType))))(TypeDecl (IdentifierType))))(Compound (If (BinaryOp (BinaryOp (ID)(Constant))(ID))(Compound (Decl (TypeDecl (IdentifierType))(BinaryOp (BinaryOp (ID)(ID))(Constant)))(FuncCall (ID)(ExprList (ID)(ID)(ID)))(FuncCall (ID)(ExprList (ID)(ID)(ID)))(FuncCall (ID)(ExprList (ID)(ID)(ID)(ID)))))))(FuncDef (Decl (FuncDecl (ParamList (Typename (TypeDecl (IdentifierType))))(TypeDecl (IdentifierType))))(Compound (Decl (TypeDecl (IdentifierType)))(Decl (TypeDecl (IdentifierType)))(FuncCall (ID)(ExprList (Constant)(UnaryOp (ID))))(For (Assignment (ID)(Constant))(BinaryOp (ID)(ID))(UnaryOp (ID))(Compound (FuncCall (ID)(ExprList (Constant)(UnaryOp (ArrayRef (ID)(ID)))))))(FuncCall (ID)(ExprList (ID)(Constant)(ID)))(For (Assignment (ID)(Constant))(BinaryOp (ID)(ID))(UnaryOp (ID))(Compound (If (ID)(FuncCall (ID)(ExprList (Constant))))(FuncCall (ID)(ExprList (Constant)(ArrayRef (ID)(ID))))))(FuncCall (ID)(ExprList (Constant)(ID)))(Return (Constant))))) |ET| 
-0.29194782784040146372817048359138  |BT| (FileAST (Decl (FuncDecl (ParamList (Typename (PtrDecl (TypeDecl (IdentifierType))))(Typename (TypeDecl (IdentifierType)))(Typename (TypeDecl (IdentifierType))))(TypeDecl (IdentifierType))))(Decl (FuncDecl (ParamList (Typename (PtrDecl (TypeDecl (IdentifierType))))(Typename (TypeDecl (IdentifierType)))(Typename (TypeDecl (IdentifierType)))(Typename (TypeDecl (IdentifierType))))(TypeDecl (IdentifierType))))(Decl (TypeDecl (IdentifierType))(Constant))(Decl (ArrayDecl (TypeDecl (IdentifierType))(Constant)))(Decl (ArrayDecl (TypeDecl (IdentifierType))(Constant)))(Decl (ArrayDecl (TypeDecl (IdentifierType))(Constant)))(FuncDef (Decl (FuncDecl (TypeDecl (IdentifierType))))(Compound (Decl (TypeDecl (IdentifierType)))(Decl (TypeDecl (IdentifierType)))(FuncCall (ID)(ExprList (Constant)(UnaryOp (ID))))(For (Assignment (ID)(Constant))(BinaryOp (ID)(ID))(UnaryOp (ID))(Compound (FuncCall (ID)(ExprList (Constant)(UnaryOp (ArrayRef (ID)(ID)))))))(FuncCall (ID)(ExprList (ID)(Constant)(ID)))(For (Assignment (ID)(Constant))(BinaryOp (ID)(BinaryOp (ID)(Constant)))(UnaryOp (ID))(Compound (FuncCall (ID)(ExprList (Constant)(ArrayRef (ID)(ID))))))(FuncCall (ID)(ExprList (Constant)(ArrayRef (ID)(ID))))(FuncCall (ID)(ExprList (Constant)(ID)))(Return (Constant))))(FuncDef (Decl (FuncDecl (ParamList (Decl (PtrDecl (TypeDecl (IdentifierType))))(Decl (TypeDecl (IdentifierType)))(Decl (TypeDecl (IdentifierType))))(TypeDecl (IdentifierType))))(Compound (Decl (TypeDecl (IdentifierType)))(If (BinaryOp (BinaryOp (ID)(Constant))(ID))(Compound (Assignment (ID)(BinaryOp (BinaryOp (ID)(ID))(Constant)))(FuncCall (ID)(ExprList (ID)(ID)(ID)))(FuncCall (ID)(ExprList (ID)(ID)(ID)))(FuncCall (ID)(ExprList (ID)(ID)(ID)(ID)))))))(FuncDef (Decl (FuncDecl (ParamList (Decl (PtrDecl (TypeDecl (IdentifierType))))(Decl (TypeDecl (IdentifierType)))(Decl (TypeDecl (IdentifierType)))(Decl (TypeDecl (IdentifierType))))(TypeDecl (IdentifierType))))(Compound (Decl (TypeDecl (IdentifierType)))(Decl (TypeDecl (IdentifierType)))(Decl (TypeDecl (IdentifierType)))(Decl (TypeDecl (IdentifierType))(Constant))(Decl (TypeDecl (IdentifierType)))(Assignment (ID)(BinaryOp (ID)(ID)))(Assignment (ID)(BinaryOp (ID)(ID)))(For (Assignment (ID)(Constant))(BinaryOp (ID)(ID))(UnaryOp (ID))(Compound (Assignment (ArrayRef (ID)(ID))(ArrayRef (ID)(BinaryOp (ID)(ID))))))(Assignment (ArrayRef (ID)(ID))(Constant))(For (Assignment (ID)(Constant))(BinaryOp (ID)(ID))(UnaryOp (ID))(Compound (Assignment (ArrayRef (ID)(ID))(ArrayRef (ID)(BinaryOp (ID)(ID))))))(Assignment (ArrayRef (ID)(ID))(Constant))(Assignment (ID)(Constant))(For (Assignment (ID)(ID))(BinaryOp (ID)(ID))(UnaryOp (ID))(Compound (If (BinaryOp (ArrayRef (ID)(ID))(ArrayRef (ID)(ID)))(Compound (Assignment (ArrayRef (ID)(ID))(ArrayRef (ID)(ID)))(UnaryOp (ID)))(Compound (Assignment (ArrayRef (ID)(ID))(ArrayRef (ID)(ID)))(UnaryOp (ID))))(UnaryOp (ID))))))) |ET| 
-0.27746144345121476204596433490224  |BT| (FileAST (Decl (TypeDecl (IdentifierType))(Constant))(Decl (FuncDecl (ParamList (Typename (PtrDecl (TypeDecl (IdentifierType))))(Typename (TypeDecl (IdentifierType)))(Typename (TypeDecl (IdentifierType))))(TypeDecl (IdentifierType))))(Decl (FuncDecl (ParamList (Typename (PtrDecl (TypeDecl (IdentifierType))))(Typename (TypeDecl (IdentifierType)))(Typename (TypeDecl (IdentifierType)))(Typename (TypeDecl (IdentifierType))))(TypeDecl (IdentifierType))))(Decl (ArrayDecl (TypeDecl (IdentifierType))(Constant)))(Decl (ArrayDecl (TypeDecl (IdentifierType))(Constant)))(Decl (ArrayDecl (TypeDecl (IdentifierType))(Constant)))(FuncDef (Decl (FuncDecl (TypeDecl (IdentifierType))))(Compound (Decl (TypeDecl (IdentifierType)))(Decl (TypeDecl (IdentifierType)))(FuncCall (ID)(ExprList (Constant)(UnaryOp (ID))))(For (Assignment (ID)(Constant))(BinaryOp (ID)(ID))(UnaryOp (ID))(FuncCall (ID)(ExprList (Constant)(UnaryOp (ArrayRef (ID)(ID))))))(FuncCall (ID)(ExprList (ID)(Constant)(ID)))(For (Assignment (ID)(Constant))(BinaryOp (ID)(BinaryOp (ID)(Constant)))(UnaryOp (ID))(FuncCall (ID)(ExprList (Constant)(ArrayRef (ID)(ID)))))(FuncCall (ID)(ExprList (Constant)(ArrayRef (ID)(ID))))(FuncCall (ID)(ExprList (Constant)(ID)))(Return (Constant))))(FuncDef (Decl (FuncDecl (ParamList (Decl (PtrDecl (TypeDecl (IdentifierType))))(Decl (TypeDecl (IdentifierType)))(Decl (TypeDecl (IdentifierType))))(TypeDecl (IdentifierType))))(Compound (Decl (TypeDecl (IdentifierType)))(If (BinaryOp (BinaryOp (ID)(Constant))(ID))(Compound (Assignment (ID)(BinaryOp (BinaryOp (ID)(ID))(Constant)))(FuncCall (ID)(ExprList (ID)(ID)(ID)))(FuncCall (ID)(ExprList (ID)(ID)(ID)))(FuncCall (ID)(ExprList (ID)(ID)(ID)(ID)))))))(FuncDef (Decl (FuncDecl (ParamList (Decl (PtrDecl (TypeDecl (IdentifierType))))(Decl (TypeDecl (IdentifierType)))(Decl (TypeDecl (IdentifierType)))(Decl (TypeDecl (IdentifierType))))(TypeDecl (IdentifierType))))(Compound (Decl (TypeDecl (IdentifierType)))(Decl (TypeDecl (IdentifierType)))(Decl (TypeDecl (IdentifierType)))(Decl (TypeDecl (IdentifierType))(Constant))(Decl (TypeDecl (IdentifierType)))(Assignment (ID)(BinaryOp (ID)(ID)))(Assignment (ID)(BinaryOp (ID)(ID)))(For (Assignment (ID)(Constant))(BinaryOp (ID)(ID))(UnaryOp (ID))(Assignment (ArrayRef (ID)(ID))(ArrayRef (ID)(BinaryOp (ID)(ID)))))(Assignment (ArrayRef (ID)(ID))(Constant))(For (Assignment (ID)(Constant))(BinaryOp (ID)(ID))(UnaryOp (ID))(Assignment (ArrayRef (ID)(ID))(ArrayRef (ID)(BinaryOp (ID)(ID)))))(Assignment (ArrayRef (ID)(ID))(Constant))(Assignment (ID)(Constant))(For (Assignment (ID)(ID))(BinaryOp (ID)(ID))(UnaryOp (ID))(Compound (If (BinaryOp (ArrayRef (ID)(ID))(ArrayRef (ID)(ID)))(Compound (Assignment (ArrayRef (ID)(ID))(ArrayRef (ID)(ID)))(UnaryOp (ID)))(Compound (Assignment (ArrayRef (ID)(ID))(ArrayRef (ID)(ID)))(UnaryOp (ID))))(UnaryOp (ID))))))) |ET| 
0.3972715570150776587254881633271  |BT| (FileAST (FuncDef (Decl (FuncDecl (TypeDecl (IdentifierType))))(Compound (Decl (ArrayDecl (TypeDecl (IdentifierType))(Constant)))(Decl (TypeDecl (IdentifierType)))(Decl (TypeDecl (IdentifierType)))(Decl (TypeDecl (IdentifierType)))(Decl (TypeDecl (IdentifierType)))(Decl (TypeDecl (IdentifierType))(Constant))(Decl (TypeDecl (IdentifierType)))(FuncCall (ID)(ExprList (Constant)(UnaryOp (ID))))(For (Assignment (ID)(Constant))(BinaryOp (ID)(ID))(UnaryOp (ID))(FuncCall (ID)(ExprList (Constant)(UnaryOp (ArrayRef (ID)(ID))))))(For (Assignment (ID)(Constant))(BinaryOp (ID)(ID))(UnaryOp (ID))(Compound (Assignment (ID)(ID))(For (Assignment (ID)(ID))(BinaryOp (ID)(ID))(UnaryOp (ID))(Compound (If (BinaryOp (ArrayRef (ID)(ID))(ArrayRef (ID)(ID)))(Assignment (ID)(ID)))))(Assignment (ID)(ArrayRef (ID)(ID)))(Assignment (ArrayRef (ID)(ID))(ArrayRef (ID)(ID)))(Assignment (ArrayRef (ID)(ID))(ID))(If (BinaryOp (ID)(ID))(UnaryOp (ID)))))(For (Assignment (ID)(Constant))(BinaryOp (ID)(ID))(UnaryOp (ID))(Compound (If (BinaryOp (ID)(Constant))(FuncCall (ID)(ExprList (Constant))))(FuncCall (ID)(ExprList (Constant)(ArrayRef (ID)(ID))))))(FuncCall (ID)(ExprList (Constant)))(FuncCall (ID)(ExprList (Constant)(ID)))(Return (Constant))))) |ET| 
0.27481935028610399163184752069355  |BT| (FileAST (Decl (FuncDecl (ParamList (Typename (PtrDecl (TypeDecl (IdentifierType))))(Typename (TypeDecl (IdentifierType))))(TypeDecl (IdentifierType))))(FuncDef (Decl (FuncDecl (TypeDecl (IdentifierType))))(Compound (Decl (TypeDecl (IdentifierType)))(Decl (ArrayDecl (TypeDecl (IdentifierType))(Constant)))(Decl (TypeDecl (IdentifierType)))(Decl (ArrayDecl (TypeDecl (IdentifierType))(Constant)))(Decl (TypeDecl (IdentifierType))(Constant))(FuncCall (ID)(ExprList (Constant)(UnaryOp (ID))))(For (Assignment (ID)(Constant))(BinaryOp (ID)(ID))(UnaryOp (ID))(FuncCall (ID)(ExprList (Constant)(UnaryOp (ArrayRef (ID)(ID))))))(Assignment (ID)(FuncCall (ID)(ExprList (ID)(ID))))(For (Assignment (ID)(Constant))(BinaryOp (ID)(BinaryOp (ID)(Constant)))(UnaryOp (ID))(FuncCall (ID)(ExprList (Constant)(ArrayRef (ID)(ID)))))(FuncCall (ID)(ExprList (Constant)(ArrayRef (ID)(BinaryOp (ID)(Constant)))))(FuncCall (ID)(ExprList (Constant)(ID)))(Return (Constant))))(FuncDef (Decl (FuncDecl (ParamList (Decl (PtrDecl (TypeDecl (IdentifierType))))(Decl (TypeDecl (IdentifierType))))(TypeDecl (IdentifierType))))(Compound (Decl (TypeDecl (IdentifierType)))(Decl (TypeDecl (IdentifierType)))(Decl (TypeDecl (IdentifierType)))(Decl (TypeDecl (IdentifierType))(Constant))(Decl (TypeDecl (IdentifierType)))(Decl (TypeDecl (IdentifierType)))(For (Assignment (ID)(Constant))(BinaryOp (ID)(ID))(UnaryOp (ID))(Compound (Assignment (ID)(ID))(For (Assignment (ID)(ID))(BinaryOp (ID)(ID))(UnaryOp (ID))(Compound (If (BinaryOp (ArrayRef (ID)(ID))(ArrayRef (ID)(ID)))(Compound (Assignment (ID)(ID))))))(If (BinaryOp (ArrayRef (ID)(ID))(ArrayRef (ID)(ID)))(Compound (Assignment (ID)(ArrayRef (ID)(ID)))(Assignment (ArrayRef (ID)(ID))(ArrayRef (ID)(ID)))(Assignment (ArrayRef (ID)(ID))(ID))(UnaryOp (ID))))))(Return (ID))))) |ET| 
0.36227906296710338240885107552458  |BT| (FileAST (FuncDef (Decl (FuncDecl (TypeDecl (IdentifierType))))(Compound (Decl (ArrayDecl (TypeDecl (IdentifierType))(Constant)))(Decl (TypeDecl (IdentifierType)))(Decl (TypeDecl (IdentifierType)))(Decl (TypeDecl (IdentifierType)))(Decl (TypeDecl (IdentifierType)))(Decl (TypeDecl (IdentifierType)))(Decl (TypeDecl (IdentifierType))(Constant))(Decl (TypeDecl (IdentifierType)))(FuncCall (ID)(ExprList (Constant)(UnaryOp (ID))))(For (Assignment (ID)(Constant))(BinaryOp (ID)(ID))(UnaryOp (ID))(Compound (FuncCall (ID)(ExprList (Constant)(UnaryOp (ArrayRef (ID)(ID)))))))(For (Assignment (ID)(Constant))(BinaryOp (ID)(BinaryOp (ID)(Constant)))(UnaryOp (ID))(Compound (Assignment (ID)(Constant))(Assignment (ID)(ID))(For (Assignment (ID)(ID))(BinaryOp (ID)(ID))(UnaryOp (ID))(Compound (If (BinaryOp (ArrayRef (ID)(ID))(ArrayRef (ID)(ID)))(Compound (Assignment (ID)(ID))(Assignment (ID)(Constant))))))(If (BinaryOp (ID)(Constant))(Compound (Assignment (ID)(ArrayRef (ID)(ID)))(Assignment (ArrayRef (ID)(ID))(ArrayRef (ID)(ID)))(Assignment (ArrayRef (ID)(ID))(ID))(UnaryOp (ID))))))(For (Assignment (ID)(Constant))(BinaryOp (ID)(ID))(UnaryOp (ID))(Compound (FuncCall (ID)(ExprList (Constant)(ArrayRef (ID)(ID))))(If (BinaryOp (ID)(BinaryOp (ID)(Constant)))(FuncCall (ID)(ExprList (Constant))))))(FuncCall (ID)(ExprList (Constant)(ID)))(Return (Constant))))) |ET| 
0.30424537482404157007209732910269  |BT| (FileAST (FuncDef (Decl (FuncDecl (TypeDecl (IdentifierType))))(Compound (Decl (TypeDecl (IdentifierType))(Constant))(Decl (TypeDecl (IdentifierType))(Constant))(Decl (TypeDecl (IdentifierType))(Constant))(Decl (TypeDecl (IdentifierType))(Constant))(Decl (ArrayDecl (TypeDecl (IdentifierType))(Constant)))(Decl (TypeDecl (IdentifierType))(Constant))(Decl (TypeDecl (IdentifierType))(Constant))(FuncCall (ID)(ExprList (Constant)(UnaryOp (ID))))(For (Assignment (ID)(Constant))(BinaryOp (ID)(ID))(UnaryOp (ID))(Compound (FuncCall (ID)(ExprList (Constant)(UnaryOp (ArrayRef (ID)(ID)))))))(For (Assignment (ID)(Constant))(BinaryOp (ID)(ID))(UnaryOp (ID))(Compound (Assignment (ID)(ID))(For (Assignment (ID)(ID))(BinaryOp (ID)(ID))(UnaryOp (ID))(Compound (If (BinaryOp (ArrayRef (ID)(ID))(ArrayRef (ID)(ID)))(Compound (Assignment (ID)(ID))))))(If (BinaryOp (ArrayRef (ID)(ID))(ArrayRef (ID)(ID)))(Compound (Assignment (ID)(ArrayRef (ID)(ID)))(Assignment (ArrayRef (ID)(ID))(ArrayRef (ID)(ID)))(Assignment (ArrayRef (ID)(ID))(ID))(UnaryOp (ID))))))(For (Assignment (ID)(Constant))(BinaryOp (ID)(ID))(UnaryOp (ID))(Compound (FuncCall (ID)(ExprList (Constant)(ArrayRef (ID)(ID))))(If (BinaryOp (ID)(BinaryOp (ID)(Constant)))(FuncCall (ID)(ExprList (Constant)))(FuncCall (ID)(ExprList (Constant))))))(FuncCall (ID)(ExprList (Constant)(ID)))(Return (Constant))))) |ET| 
0.56707838747289796010875306819798  |BT| (FileAST (FuncDef (Decl (FuncDecl (TypeDecl (IdentifierType))))(Compound (Decl (TypeDecl (IdentifierType)))(Decl (TypeDecl (IdentifierType)))(Decl (TypeDecl (IdentifierType)))(Decl (TypeDecl (IdentifierType)))(Decl (ArrayDecl (TypeDecl (IdentifierType))(Constant)))(Decl (TypeDecl (IdentifierType)))(Decl (TypeDecl (IdentifierType))(Constant))(FuncCall (ID)(ExprList (Constant)(UnaryOp (ID))))(For (Assignment (ID)(Constant))(BinaryOp (ID)(BinaryOp (ID)(Constant)))(UnaryOp (ID))(Compound (FuncCall (ID)(ExprList (Constant)(UnaryOp (ArrayRef (ID)(ID)))))))(For (Assignment (ID)(Constant))(BinaryOp (ID)(BinaryOp (ID)(Constant)))(UnaryOp (ID))(Compound (Assignment (ID)(ID))(For (Assignment (ID)(ID))(BinaryOp (ID)(BinaryOp (ID)(Constant)))(UnaryOp (ID))(Compound (If (BinaryOp (ArrayRef (ID)(ID))(ArrayRef (ID)(ID)))(Assignment (ID)(ID)))))(Assignment (ID)(ArrayRef (ID)(ID)))(Assignment (ArrayRef (ID)(ID))(ArrayRef (ID)(ID)))(Assignment (ArrayRef (ID)(ID))(ID))(If (BinaryOp (ID)(ID))(UnaryOp (ID)))))(For (Assignment (ID)(Constant))(BinaryOp (ID)(BinaryOp (ID)(Constant)))(UnaryOp (ID))(Compound (FuncCall (ID)(ExprList (Constant)(ArrayRef (ID)(ID))))(If (BinaryOp (ID)(BinaryOp (ID)(Constant)))(FuncCall (ID)(ExprList (Constant))))))(FuncCall (ID)(ExprList (Constant)(ID)))(Return (Constant))))) |ET| 
-1  |BT| (FileAST (FuncDef (Decl (FuncDecl (ParamList (Decl (PtrDecl (TypeDecl (IdentifierType))))(Decl (PtrDecl (TypeDecl (IdentifierType)))))(TypeDecl (IdentifierType))))(Compound (Return (BinaryOp (UnaryOp (Cast (Typename (PtrDecl (TypeDecl (IdentifierType))))(ID)))(UnaryOp (Cast (Typename (PtrDecl (TypeDecl (IdentifierType))))(ID)))))))(FuncDef (Decl (FuncDecl (ParamList (Decl (PtrDecl (TypeDecl (IdentifierType))))(Decl (TypeDecl (IdentifierType))))(TypeDecl (IdentifierType))))(Compound (FuncCall (ID)(ExprList (ID)(ID)(UnaryOp (Typename (TypeDecl (IdentifierType))))(ID)))))(FuncDef (Decl (FuncDecl (ParamList (Decl (TypeDecl (IdentifierType))))(TypeDecl (IdentifierType))))(Compound (If (BinaryOp (ID)(Constant))(Return (BinaryOp (BinaryOp (FuncCall (ID)(ExprList (BinaryOp (ID)(Constant))))(FuncCall (ID)(ExprList (BinaryOp (ID)(BinaryOp (ID)(Constant))))))(ID))))(Return (Constant))))(Decl (ArrayDecl (TypeDecl (IdentifierType))(Constant)))(FuncDef (Decl (FuncDecl (TypeDecl (IdentifierType))))(Compound (Decl (TypeDecl (IdentifierType)))(FuncCall (ID)(ExprList (Constant)(UnaryOp (ID))))(For (DeclList (Decl (TypeDecl (IdentifierType))(Constant)))(BinaryOp (ID)(ID))(UnaryOp (ID))(FuncCall (ID)(ExprList (Constant)(BinaryOp (ID)(ID)))))(FuncCall (ID)(ExprList (ID)(ID)))(For (DeclList (Decl (TypeDecl (IdentifierType))(Constant)))(BinaryOp (ID)(ID))(UnaryOp (ID))(FuncCall (ID)(ExprList (Constant)(ArrayRef (ID)(ID))(TernaryOp (BinaryOp (ID)(BinaryOp (ID)(Constant)))(Constant)(Constant)))))(FuncCall (ID)(ExprList (Constant)(FuncCall (ID)(ExprList (ID)))))))) |ET| 
1  |BT| (FileAST (Decl (Enum (EnumeratorList (Enumerator (Constant))(Enumerator (Constant))(Enumerator (Constant))(Enumerator (Constant))(Enumerator (Constant))(Enumerator (Constant))(Enumerator (Constant))(Enumerator (Constant))(Enumerator (Constant))(Enumerator (Constant))(Enumerator (Constant))(Enumerator (Constant))(Enumerator (Constant))(Enumerator (Constant))(Enumerator (Constant))(Enumerator (Constant))(Enumerator (Constant))(Enumerator (Constant))(Enumerator (Constant))(Enumerator (Constant))(Enumerator (Constant))(Enumerator (Constant))(Enumerator (Constant))(Enumerator (Constant))(Enumerator (Constant))(Enumerator (Constant))(Enumerator (Constant))(Enumerator (Constant))(Enumerator (Constant))(Enumerator (Constant))(Enumerator (Constant))(Enumerator (Constant))(Enumerator (Constant))(Enumerator (Constant))(Enumerator (Constant))(Enumerator (Constant))(Enumerator (Constant))(Enumerator (Constant))(Enumerator (Constant))(Enumerator (Constant))(Enumerator (Constant))(Enumerator (Constant))(Enumerator))))(FuncDef (Decl (FuncDecl (ParamList (Decl (ArrayDecl (TypeDecl (IdentifierType))))(Decl (TypeDecl (IdentifierType))))(TypeDecl (IdentifierType))))(Compound (Decl (TypeDecl (IdentifierType)))(Decl (TypeDecl (IdentifierType)))(Decl (TypeDecl (IdentifierType)))(Decl (TypeDecl (IdentifierType))(Constant))(Decl (TypeDecl (IdentifierType)))(For (Assignment (ID)(Constant))(BinaryOp (ID)(BinaryOp (ID)(Constant)))(UnaryOp (ID))(Compound (Assignment (ID)(ID))(For (Assignment (ID)(ID))(BinaryOp (ID)(ID))(UnaryOp (ID))(Compound (If (BinaryOp (ArrayRef (ID)(ID))(ArrayRef (ID)(ID)))(Assignment (ID)(ID)))))(Assignment (ID)(ArrayRef (ID)(ID)))(Assignment (ArrayRef (ID)(ID))(ArrayRef (ID)(ID)))(Assignment (ArrayRef (ID)(ID))(ID))(If (BinaryOp (ID)(ID))(UnaryOp (ID)))))(Return (ID))))(FuncDef (Decl (FuncDecl (TypeDecl (IdentifierType))))(Compound (Decl (ArrayDecl (TypeDecl (IdentifierType))(Constant)))(Decl (TypeDecl (IdentifierType)))(Decl (TypeDecl (IdentifierType)))(Decl (TypeDecl (IdentifierType)))(FuncCall (ID)(ExprList (Constant)(UnaryOp (ID))))(For (Assignment (ID)(Constant))(BinaryOp (ID)(ID))(UnaryOp (ID))(FuncCall (ID)(ExprList (Constant)(UnaryOp (ArrayRef (ID)(ID))))))(Assignment (ID)(FuncCall (ID)(ExprList (ID)(ID))))(For (Assignment (ID)(Constant))(BinaryOp (ID)(ID))(UnaryOp (ID))(Compound (If (BinaryOp (ID)(Constant))(FuncCall (ID)(ExprList (Constant))))(FuncCall (ID)(ExprList (Constant)(ArrayRef (ID)(ID))))))(FuncCall (ID)(ExprList (Constant)))(FuncCall (ID)(ExprList (Constant)(ID)))(Return (Constant))))) |ET| 
-0.1490617132533784972014956338171  |BT| (FileAST (Decl (TypeDecl (IdentifierType)))(Decl (FuncDecl (ParamList (Typename (PtrDecl (TypeDecl (IdentifierType))))(Typename (TypeDecl (IdentifierType)))(Typename (TypeDecl (IdentifierType)))(Typename (TypeDecl (IdentifierType))))(TypeDecl (IdentifierType))))(Decl (FuncDecl (ParamList (Typename (PtrDecl (TypeDecl (IdentifierType))))(Typename (TypeDecl (IdentifierType)))(Typename (TypeDecl (IdentifierType))))(TypeDecl (IdentifierType))))(FuncDef (Decl (FuncDecl (TypeDecl (IdentifierType))))(Compound (Decl (TypeDecl (IdentifierType)))(Decl (TypeDecl (IdentifierType)))(Decl (TypeDecl (IdentifierType)))(Decl (TypeDecl (IdentifierType)))(Decl (PtrDecl (TypeDecl (IdentifierType))))(Assignment (ID)(Constant))(FuncCall (ID)(ExprList (Constant)(UnaryOp (ID))))(Assignment (ID)(Cast (Typename (PtrDecl (TypeDecl (IdentifierType))))(FuncCall (ID)(ExprList (BinaryOp (UnaryOp (Typename (TypeDecl (IdentifierType))))(ID))))))(If (BinaryOp (ID)(Constant))(FuncCall (ID)(ExprList (Constant))))(For (Assignment (ID)(Constant))(BinaryOp (ID)(ID))(UnaryOp (ID))(Compound (FuncCall (ID)(ExprList (Constant)(UnaryOp (ArrayRef (ID)(ID)))))))(FuncCall (ID)(ExprList (ID)(Constant)(ID)))(For (Assignment (ID)(Constant))(BinaryOp (ID)(ID))(UnaryOp (ID))(Compound (FuncCall (ID)(ExprList (Constant)(ArrayRef (ID)(ID))))(If (BinaryOp (ID)(BinaryOp (ID)(Constant)))(FuncCall (ID)(ExprList (Constant))))))(FuncCall (ID)(ExprList (Constant)))(FuncCall (ID)(ExprList (Constant)(ID)))(FuncCall (ID)(ExprList (ID)))(Return (Constant))))(FuncDef (Decl (FuncDecl (ParamList (Decl (PtrDecl (TypeDecl (IdentifierType))))(Decl (TypeDecl (IdentifierType)))(Decl (TypeDecl (IdentifierType)))(Decl (TypeDecl (IdentifierType))))(TypeDecl (IdentifierType))))(Compound (Decl (TypeDecl (IdentifierType)))(Decl (TypeDecl (IdentifierType)))(Decl (TypeDecl (IdentifierType)))(Decl (TypeDecl (IdentifierType)))(Decl (TypeDecl (IdentifierType)))(Decl (PtrDecl (TypeDecl (IdentifierType))))(Decl (PtrDecl (TypeDecl (IdentifierType))))(Assignment (ID)(BinaryOp (ID)(ID)))(Assignment (ID)(BinaryOp (ID)(ID)))(Assignment (ID)(Cast (Typename (PtrDecl (TypeDecl (IdentifierType))))(FuncCall (ID)(ExprList (BinaryOp (UnaryOp (Typename (TypeDecl (IdentifierType))))(BinaryOp (ID)(Constant)))))))(If (BinaryOp (ID)(Constant))(FuncCall (ID)(ExprList (Constant))))(Assignment (ID)(Cast (Typename (PtrDecl (TypeDecl (IdentifierType))))(FuncCall (ID)(ExprList (BinaryOp (UnaryOp (Typename (TypeDecl (IdentifierType))))(BinaryOp (ID)(Constant)))))))(If (BinaryOp (ID)(Constant))(FuncCall (ID)(ExprList (Constant))))(For (Assignment (ID)(Constant))(BinaryOp (ID)(ID))(UnaryOp (ID))(Compound (Assignment (ArrayRef (ID)(ID))(ArrayRef (ID)(BinaryOp (ID)(ID))))))(For (Assignment (ID)(Constant))(BinaryOp (ID)(ID))(UnaryOp (ID))(Compound (Assignment (ArrayRef (ID)(ID))(ArrayRef (ID)(BinaryOp (ID)(ID))))))(Assignment (ArrayRef (ID)(ID))(Constant))(Assignment (ArrayRef (ID)(ID))(Constant))(Assignment (ID)(Constant))(Assignment (ID)(Constant))(For (Assignment (ID)(ID))(BinaryOp (ID)(ID))(UnaryOp (ID))(Compound (If (BinaryOp (ArrayRef (ID)(ID))(ArrayRef (ID)(ID)))(Compound (Assignment (ArrayRef (ID)(ID))(ArrayRef (ID)(ID)))(Assignment (ID)(BinaryOp (ID)(Constant)))(UnaryOp (ID)))(Compound (Assignment (ArrayRef (ID)(ID))(ArrayRef (ID)(ID)))(Assignment (ID)(BinaryOp (ID)(Constant)))(UnaryOp (ID))))))(FuncCall (ID)(ExprList (ID)))(FuncCall (ID)(ExprList (ID)))))(FuncDef (Decl (FuncDecl (ParamList (Decl (PtrDecl (TypeDecl (IdentifierType))))(Decl (TypeDecl (IdentifierType)))(Decl (TypeDecl (IdentifierType))))(TypeDecl (IdentifierType))))(Compound (Decl (TypeDecl (IdentifierType)))(If (BinaryOp (BinaryOp (ID)(Constant))(ID))(Compound (Assignment (ID)(BinaryOp (BinaryOp (ID)(ID))(Constant)))(FuncCall (ID)(ExprList (ID)(ID)(ID)))(FuncCall (ID)(ExprList (ID)(ID)(ID)))(FuncCall (ID)(ExprList (ID)(ID)(ID)(ID)))))))) |ET| 
0.62417121508632567028485027549323  |BT| (FileAST (Decl (FuncDecl (ParamList (Decl (PtrDecl (TypeDecl (IdentifierType))))(Typename (TypeDecl (IdentifierType))))(TypeDecl (IdentifierType))))(FuncDef (Decl (FuncDecl (TypeDecl (IdentifierType))))(Compound (Decl (TypeDecl (IdentifierType)))(Decl (TypeDecl (IdentifierType)))(Decl (TypeDecl (IdentifierType)))(Decl (ArrayDecl (TypeDecl (IdentifierType))(Constant)))(FuncCall (ID)(ExprList (Constant)(UnaryOp (ID))))(If (BinaryOp (BinaryOp (ID)(Constant))(BinaryOp (ID)(Constant)))(FuncCall (ID)(ExprList (Constant))))(For (Assignment (ID)(Constant))(BinaryOp (ID)(ID))(UnaryOp (ID))(Compound (FuncCall (ID)(ExprList (Constant)(UnaryOp (ArrayRef (ID)(ID)))))))(Assignment (ID)(FuncCall (ID)(ExprList (ID)(ID))))(For (Assignment (ID)(Constant))(BinaryOp (ID)(ID))(UnaryOp (ID))(Compound (FuncCall (ID)(ExprList (Constant)(ArrayRef (ID)(ID))))(If (BinaryOp (ID)(BinaryOp (ID)(Constant)))(FuncCall (ID)(ExprList (Constant))))))(FuncCall (ID)(ExprList (Constant)))(FuncCall (ID)(ExprList (Constant)(ID)))(Return (Constant))))(FuncDef (Decl (FuncDecl (ParamList (Decl (PtrDecl (TypeDecl (IdentifierType))))(Decl (TypeDecl (IdentifierType))))(TypeDecl (IdentifierType))))(Compound (Decl (TypeDecl (IdentifierType)))(Decl (TypeDecl (IdentifierType)))(Decl (TypeDecl (IdentifierType))(Constant))(Decl (TypeDecl (IdentifierType)))(Decl (TypeDecl (IdentifierType)))(Decl (TypeDecl (IdentifierType)))(Decl (TypeDecl (IdentifierType)))(For (Assignment (ID)(Constant))(BinaryOp (ID)(ID))(UnaryOp (ID))(Compound (Assignment (ID)(ID))(For (Assignment (ID)(ID))(BinaryOp (ID)(ID))(UnaryOp (ID))(Compound (If (BinaryOp (ArrayRef (ID)(ID))(ArrayRef (ID)(ID)))(Compound (Assignment (ID)(ID))(Assignment (ID)(ArrayRef (ID)(ID)))))))(If (BinaryOp (ID)(ID))(Compound (Assignment (ID)(ArrayRef (ID)(ID)))(Assignment (ArrayRef (ID)(ID))(ID))(Assignment (ArrayRef (ID)(ID))(ID))(UnaryOp (ID))))))(Return (ID))))) |ET| 
-1  |BT| (FileAST (Decl (ArrayDecl (TypeDecl (IdentifierType))(Constant)))(Decl (ArrayDecl (TypeDecl (IdentifierType))(Constant)))(Decl (TypeDecl (IdentifierType))(Constant))(FuncDef (Decl (FuncDecl (ParamList (Decl (PtrDecl (TypeDecl (IdentifierType))))(Decl (TypeDecl (IdentifierType)))(Decl (TypeDecl (IdentifierType))))(TypeDecl (IdentifierType))))(Compound (Decl (TypeDecl (IdentifierType)))(Decl (TypeDecl (IdentifierType)))(Decl (TypeDecl (IdentifierType)))(Decl (TypeDecl (IdentifierType)))(If (BinaryOp (ID)(ID))(Compound (Assignment (ID)(BinaryOp (BinaryOp (ID)(ID))(Constant)))(FuncCall (ID)(ExprList (ID)(ID)(ID)))(FuncCall (ID)(ExprList (ID)(BinaryOp (ID)(Constant))(ID)))(For (Assignment (ID)(BinaryOp (ID)(Constant)))(BinaryOp (ID)(ID))(UnaryOp (ID))(Assignment (ArrayRef (ID)(BinaryOp (ID)(Constant)))(ArrayRef (ID)(BinaryOp (ID)(Constant)))))(For (Assignment (ID)(ID))(BinaryOp (ID)(ID))(UnaryOp (ID))(Assignment (ArrayRef (ID)(BinaryOp (BinaryOp (ID)(ID))(ID)))(ArrayRef (ID)(BinaryOp (ID)(Constant)))))(For (Assignment (ID)(ID))(BinaryOp (ID)(ID))(UnaryOp (ID))(Compound (Assignment (ArrayRef (ID)(ID))(TernaryOp (BinaryOp (ArrayRef (ID)(ID))(ArrayRef (ID)(ID)))(ArrayRef (ID)(UnaryOp (ID)))(ArrayRef (ID)(UnaryOp (ID)))))(UnaryOp (ID))))))))(FuncDef (Decl (FuncDecl (TypeDecl (IdentifierType))))(Compound (Decl (TypeDecl (IdentifierType)))(Decl (TypeDecl (IdentifierType)))(FuncCall (ID)(ExprList (Constant)(UnaryOp (ID))))(For (Assignment (ID)(Constant))(BinaryOp (ID)(ID))(UnaryOp (ID))(FuncCall (ID)(ExprList (Constant)(UnaryOp (ArrayRef (ID)(ID))))))(FuncCall (ID)(ExprList (ID)(Constant)(BinaryOp (ID)(Constant))))(For (Assignment (ID)(Constant))(BinaryOp (ID)(BinaryOp (ID)(Constant)))(UnaryOp (ID))(FuncCall (ID)(ExprList (Constant)(ArrayRef (ID)(ID)))))(FuncCall (ID)(ExprList (Constant)(ArrayRef (ID)(BinaryOp (ID)(Constant)))(ID)))(Return (Constant))))) |ET| 
1  |BT| (FileAST (Decl (FuncDecl (ParamList (Decl (PtrDecl (TypeDecl (IdentifierType))))(Decl (TypeDecl (IdentifierType))))(TypeDecl (IdentifierType))))(Decl (FuncDecl (ParamList (Decl (PtrDecl (TypeDecl (IdentifierType))))(Decl (PtrDecl (TypeDecl (IdentifierType)))))(TypeDecl (IdentifierType))))(Decl (FuncDecl (ParamList (Decl (PtrDecl (TypeDecl (IdentifierType))))(Decl (TypeDecl (IdentifierType))))(TypeDecl (IdentifierType))))(Decl (FuncDecl (ParamList (Decl (PtrDecl (TypeDecl (IdentifierType))))(Decl (TypeDecl (IdentifierType)))(Decl (TypeDecl (IdentifierType)))(Decl (TypeDecl (IdentifierType))))(TypeDecl (IdentifierType))))(Decl (FuncDecl (ParamList (Decl (PtrDecl (TypeDecl (IdentifierType))))(Decl (TypeDecl (IdentifierType)))(Decl (TypeDecl (IdentifierType))))(TypeDecl (IdentifierType))))(Decl (FuncDecl (ParamList (Decl (TypeDecl (IdentifierType)))(Decl (TypeDecl (IdentifierType)))(Decl (TypeDecl (IdentifierType))))(TypeDecl (IdentifierType))))(FuncDef (Decl (FuncDecl (ParamList (Typename (TypeDecl (IdentifierType))))(TypeDecl (IdentifierType))))(Compound (Decl (TypeDecl (IdentifierType)))(Decl (ArrayDecl (TypeDecl (IdentifierType))(Constant)))(Decl (TypeDecl (IdentifierType)))(If (BinaryOp (FuncCall (ID)(ExprList (UnaryOp (ID))(Constant)(Constant)))(UnaryOp (Constant)))(Compound (Return (UnaryOp (Constant)))))(If (BinaryOp (FuncCall (ID)(ExprList (UnaryOp (ArrayRef (ID)(Constant)))(Constant)(Constant)(ID)))(UnaryOp (Constant)))(Compound (Return (UnaryOp (Constant)))))(Assignment (ID)(FuncCall (ID)(ExprList (UnaryOp (ArrayRef (ID)(Constant)))(ID))))(FuncCall (ID)(ExprList (UnaryOp (ArrayRef (ID)(Constant)))(ID)))(FuncCall (ID)(ExprList (Constant)(ID)))(Return (Constant))))(FuncDef (Decl (FuncDecl (ParamList (Decl (PtrDecl (TypeDecl (IdentifierType))))(Decl (TypeDecl (IdentifierType))))(TypeDecl (IdentifierType))))(Compound (Decl (TypeDecl (IdentifierType)))(Decl (TypeDecl (IdentifierType)))(Decl (TypeDecl (IdentifierType)))(Decl (TypeDecl (IdentifierType))(Constant))(For (Assignment (ID)(Constant))(BinaryOp (ID)(BinaryOp (ID)(Constant)))(UnaryOp (ID))(Compound (Assignment (ID)(ID))(For (Assignment (ID)(BinaryOp (ID)(Constant)))(BinaryOp (ID)(ID))(UnaryOp (ID))(Compound (If (BinaryOp (ArrayRef (ID)(ID))(ArrayRef (ID)(ID)))(Compound (Assignment (ID)(ID))))))(If (BinaryOp (ArrayRef (ID)(ID))(ArrayRef (ID)(ID)))(Compound (FuncCall (ID)(ExprList (UnaryOp (ArrayRef (ID)(ID)))(UnaryOp (ArrayRef (ID)(ID)))))(UnaryOp (ID))))))(Return (ID))))(FuncDef (Decl (FuncDecl (ParamList (Decl (PtrDecl (TypeDecl (IdentifierType))))(Decl (PtrDecl (TypeDecl (IdentifierType)))))(TypeDecl (IdentifierType))))(Compound (Decl (TypeDecl (IdentifierType))(UnaryOp (ID)))(Assignment (UnaryOp (ID))(UnaryOp (ID)))(Assignment (UnaryOp (ID))(ID))(Return)))(FuncDef (Decl (FuncDecl (ParamList (Decl (PtrDecl (TypeDecl (IdentifierType))))(Decl (TypeDecl (IdentifierType))))(TypeDecl (IdentifierType))))(Compound (Decl (TypeDecl (IdentifierType)))(For (Assignment (ID)(Constant))(BinaryOp (ID)(BinaryOp (ID)(Constant)))(UnaryOp (ID))(Compound (FuncCall (ID)(ExprList (Constant)(ArrayRef (ID)(ID))))))(FuncCall (ID)(ExprList (Constant)(ArrayRef (ID)(BinaryOp (ID)(Constant)))))))(FuncDef (Decl (FuncDecl (ParamList (Decl (PtrDecl (TypeDecl (IdentifierType))))(Decl (TypeDecl (IdentifierType)))(Decl (TypeDecl (IdentifierType)))(Decl (TypeDecl (IdentifierType))))(TypeDecl (IdentifierType))))(Compound (Decl (TypeDecl (IdentifierType)))(For (Assignment (ID)(Constant))(BinaryOp (ID)(ID))(UnaryOp (ID))(Compound (If (BinaryOp (FuncCall (ID)(ExprList (UnaryOp (ArrayRef (ID)(ID)))(ID)(ID)))(UnaryOp (Constant)))(Compound (Return (UnaryOp (Constant)))))))(Return (Constant))))(FuncDef (Decl (FuncDecl (ParamList (Decl (PtrDecl (TypeDecl (IdentifierType))))(Decl (TypeDecl (IdentifierType)))(Decl (TypeDecl (IdentifierType))))(TypeDecl (IdentifierType))))(Compound (FuncCall (ID)(ExprList (Constant)(ID)))(If (BinaryOp (FuncCall (ID)(ExprList (UnaryOp (ID))(ID)(ID)))(UnaryOp (Constant)))(Compound (Return (UnaryOp (Constant)))))(Return (Constant))))(FuncDef (Decl (FuncDecl (ParamList (Decl (TypeDecl (IdentifierType)))(Decl (TypeDecl (IdentifierType)))(Decl (TypeDecl (IdentifierType))))(TypeDecl (IdentifierType))))(Compound (If (BinaryOp (BinaryOp (ID)(ID))(BinaryOp (ID)(ID)))(Compound (Return (UnaryOp (Constant)))))(Return (Constant))))) |ET| 
-1  |BT| (FileAST (Decl (ArrayDecl (TypeDecl (IdentifierType))(Constant)))(Decl (TypeDecl (IdentifierType))(Constant))(FuncDef (Decl (FuncDecl (ParamList (Decl (ArrayDecl (TypeDecl (IdentifierType))))(Decl (TypeDecl (IdentifierType)))(Decl (TypeDecl (IdentifierType))))(TypeDecl (IdentifierType))))(Compound (Decl (TypeDecl (IdentifierType)))(Decl (TypeDecl (IdentifierType)))(Decl (TypeDecl (IdentifierType)))(Decl (TypeDecl (IdentifierType)))(If (BinaryOp (ID)(ID))(Compound (Assignment (ID)(BinaryOp (BinaryOp (ID)(ID))(Constant)))(FuncCall (ID)(ExprList (ID)(ID)(ID)))(FuncCall (ID)(ExprList (ID)(BinaryOp (ID)(Constant))(ID)))(For (Assignment (ID)(ID))(BinaryOp (ID)(ID))(UnaryOp (ID))(Assignment (ArrayRef (ID)(ID))(ArrayRef (ID)(ID))))(For (ExprList (Assignment (ID)(BinaryOp (ID)(Constant)))(Assignment (ID)(ID)))(BinaryOp (ID)(ID))(ExprList (UnaryOp (ID))(UnaryOp (ID)))(Assignment (ArrayRef (ID)(ID))(ArrayRef (ID)(ID))))(Assignment (ID)(ID))(Assignment (ID)(ID))(For (Assignment (ID)(ID))(BinaryOp (ID)(ID))(UnaryOp (ID))(Compound (UnaryOp (ID))(If (BinaryOp (ArrayRef (ID)(ID))(ArrayRef (ID)(ID)))(Assignment (ArrayRef (ID)(ID))(ArrayRef (ID)(UnaryOp (ID))))(Assignment (ArrayRef (ID)(ID))(ArrayRef (ID)(UnaryOp (ID)))))))))))(FuncDef (Decl (FuncDecl (ParamList (Typename (TypeDecl (IdentifierType))))(TypeDecl (IdentifierType))))(Compound (Decl (TypeDecl (IdentifierType)))(Decl (ArrayDecl (TypeDecl (IdentifierType))(Constant)))(Decl (TypeDecl (IdentifierType)))(FuncCall (ID)(ExprList (Constant)(UnaryOp (ID))))(For (Assignment (ID)(Constant))(BinaryOp (ID)(ID))(UnaryOp (ID))(Compound (FuncCall (ID)(ExprList (Constant)(UnaryOp (ArrayRef (ID)(ID)))))))(FuncCall (ID)(ExprList (ID)(Constant)(BinaryOp (ID)(Constant))))(For (Assignment (ID)(Constant))(BinaryOp (ID)(ID))(UnaryOp (ID))(Compound (FuncCall (ID)(ExprList (Constant)(ArrayRef (ID)(ID))))(If (BinaryOp (ID)(BinaryOp (ID)(Constant)))(Compound (FuncCall (ID)(ExprList (Constant)))))))(FuncCall (ID)(ExprList (Constant)(ID)))(Return (Constant))))) |ET| 
1  |BT| (FileAST (Decl (FuncDecl (ParamList (Typename (PtrDecl (TypeDecl (IdentifierType))))(Typename (TypeDecl (IdentifierType))))(TypeDecl (IdentifierType))))(Decl (FuncDecl (ParamList (Typename (PtrDecl (TypeDecl (IdentifierType))))(Typename (TypeDecl (IdentifierType)))(Typename (TypeDecl (IdentifierType))))(TypeDecl (IdentifierType))))(Decl (FuncDecl (ParamList (Typename (PtrDecl (TypeDecl (IdentifierType))))(Typename (TypeDecl (IdentifierType)))(Typename (TypeDecl (IdentifierType))))(TypeDecl (IdentifierType))))(FuncDef (Decl (FuncDecl (ParamList (Typename (TypeDecl (IdentifierType))))(TypeDecl (IdentifierType))))(Compound (Decl (TypeDecl (IdentifierType)))(Decl (TypeDecl (IdentifierType)))(Decl (PtrDecl (TypeDecl (IdentifierType))))(Decl (TypeDecl (IdentifierType)))(FuncCall (ID)(ExprList (Constant)(UnaryOp (ID))))(Assignment (ID)(FuncCall (ID)(ExprList (BinaryOp (UnaryOp (Typename (TypeDecl (IdentifierType))))(ID)))))(For (Assignment (ID)(Constant))(BinaryOp (ID)(ID))(UnaryOp (ID))(Compound (FuncCall (ID)(ExprList (Constant)(BinaryOp (ID)(ID))))))(Assignment (ID)(FuncCall (ID)(ExprList (ID)(ID))))(FuncCall (ID)(ExprList (ID)(ID)(ID)))(Return (Constant))))(FuncDef (Decl (FuncDecl (ParamList (Decl (PtrDecl (TypeDecl (IdentifierType))))(Decl (TypeDecl (IdentifierType))))(TypeDecl (IdentifierType))))(Compound (Decl (TypeDecl (IdentifierType)))(Decl (TypeDecl (IdentifierType)))(Decl (TypeDecl (IdentifierType)))(Decl (TypeDecl (IdentifierType)))(Decl (TypeDecl (IdentifierType))(Constant))(For (Assignment (ID)(Constant))(BinaryOp (ID)(BinaryOp (ID)(Constant)))(UnaryOp (ID))(Compound (Assignment (ID)(UnaryOp (BinaryOp (ID)(ID))))(For (Assignment (ID)(ID))(BinaryOp (ID)(ID))(UnaryOp (ID))(Compound (If (BinaryOp (UnaryOp (BinaryOp (ID)(ID)))(ID))(Compound (Assignment (ID)(UnaryOp (BinaryOp (ID)(ID))))(Assignment (ID)(ID))))))(If (BinaryOp (ID)(UnaryOp (BinaryOp (ID)(ID))))(Compound (FuncCall (ID)(ExprList (ID)(ID)(ID)))(UnaryOp (ID))))))(Return (ID))))(FuncDef (Decl (FuncDecl (ParamList (Decl (PtrDecl (TypeDecl (IdentifierType))))(Decl (TypeDecl (IdentifierType)))(Decl (TypeDecl (IdentifierType))))(TypeDecl (IdentifierType))))(Compound (Decl (TypeDecl (IdentifierType)))(Assignment (ID)(UnaryOp (BinaryOp (ID)(ID))))(Assignment (UnaryOp (BinaryOp (ID)(ID)))(UnaryOp (BinaryOp (ID)(ID))))(Assignment (UnaryOp (BinaryOp (ID)(ID)))(ID))))(FuncDef (Decl (FuncDecl (ParamList (Decl (PtrDecl (TypeDecl (IdentifierType))))(Decl (TypeDecl (IdentifierType)))(Decl (TypeDecl (IdentifierType))))(TypeDecl (IdentifierType))))(Compound (Decl (TypeDecl (IdentifierType)))(For (Assignment (ID)(Constant))(BinaryOp (ID)(ID))(UnaryOp (ID))(Compound (FuncCall (ID)(ExprList (Constant)(UnaryOp (BinaryOp (ID)(ID)))))(If (BinaryOp (ID)(BinaryOp (ID)(Constant)))(FuncCall (ID)(ExprList (Constant))))))(FuncCall (ID)(ExprList (Constant)(ID)))))) |ET| 
-1  |BT| (FileAST (Decl (ArrayDecl (TypeDecl (IdentifierType))(Constant)))(Decl (ArrayDecl (TypeDecl (IdentifierType))(Constant)))(Decl (TypeDecl (IdentifierType))(Constant))(FuncDef (Decl (FuncDecl (ParamList (Decl (ArrayDecl (TypeDecl (IdentifierType))))(Decl (TypeDecl (IdentifierType)))(Decl (TypeDecl (IdentifierType))))(TypeDecl (IdentifierType))))(Compound (Decl (TypeDecl (IdentifierType)))(Decl (TypeDecl (IdentifierType)))(Decl (TypeDecl (IdentifierType)))(Decl (TypeDecl (IdentifierType)))(If (BinaryOp (ID)(ID))(Compound (Assignment (ID)(BinaryOp (BinaryOp (ID)(ID))(Constant)))(FuncCall (ID)(ExprList (ID)(ID)(ID)))(FuncCall (ID)(ExprList (ID)(BinaryOp (ID)(Constant))(ID)))(For (Assignment (ID)(ID))(BinaryOp (ID)(ID))(UnaryOp (ID))(Compound (Assignment (ArrayRef (ID)(ID))(ArrayRef (ID)(ID)))))(For (Assignment (ID)(BinaryOp (ID)(Constant)))(BinaryOp (ID)(ID))(UnaryOp (ID))(Compound (Assignment (ArrayRef (ID)(BinaryOp (ID)(BinaryOp (ID)(BinaryOp (ID)(Constant)))))(ArrayRef (ID)(ID)))))(Assignment (ID)(ID))(Assignment (ID)(ID))(For (Assignment (ID)(ID))(BinaryOp (ID)(ID))(UnaryOp (ID))(Compound (If (BinaryOp (ArrayRef (ID)(ID))(ArrayRef (ID)(ID)))(Compound (Assignment (ArrayRef (ID)(ID))(ArrayRef (ID)(UnaryOp (ID)))))(Compound (Assignment (ArrayRef (ID)(ID))(ArrayRef (ID)(UnaryOp (ID))))))(UnaryOp (ID))))))))(FuncDef (Decl (FuncDecl (ParamList (Typename (TypeDecl (IdentifierType))))(TypeDecl (IdentifierType))))(Compound (Decl (TypeDecl (IdentifierType)))(Decl (TypeDecl (IdentifierType)))(FuncCall (ID)(ExprList (Constant)(UnaryOp (ID))))(For (Assignment (ID)(Constant))(BinaryOp (ID)(ID))(UnaryOp (ID))(Compound (FuncCall (ID)(ExprList (Constant)(UnaryOp (ArrayRef (ID)(ID)))))))(FuncCall (ID)(ExprList (ID)(Constant)(BinaryOp (ID)(Constant))))(For (Assignment (ID)(Constant))(BinaryOp (ID)(ID))(UnaryOp (ID))(Compound (FuncCall (ID)(ExprList (Constant)(ArrayRef (ID)(ID))))(If (BinaryOp (ID)(BinaryOp (ID)(Constant)))(FuncCall (ID)(ExprList (Constant))))))(FuncCall (ID)(ExprList (Constant)))(FuncCall (ID)(ExprList (Constant)(ID)))(Return (Constant))))) |ET| 
1  |BT| (FileAST (FuncDef (Decl (FuncDecl (TypeDecl (IdentifierType))))(Compound (Decl (TypeDecl (IdentifierType)))(Decl (PtrDecl (TypeDecl (IdentifierType))))(Decl (TypeDecl (IdentifierType)))(Decl (TypeDecl (IdentifierType)))(Decl (TypeDecl (IdentifierType)))(Decl (TypeDecl (IdentifierType)))(Decl (TypeDecl (IdentifierType)))(Decl (TypeDecl (IdentifierType)))(Decl (TypeDecl (IdentifierType))(Constant))(Decl (TypeDecl (IdentifierType)))(FuncCall (ID)(ExprList (Constant)(UnaryOp (ID))))(Assignment (ID)(Cast (Typename (PtrDecl (TypeDecl (IdentifierType))))(FuncCall (ID)(ExprList (BinaryOp (ID)(UnaryOp (Typename (TypeDecl (IdentifierType)))))))))(For (Assignment (ID)(Constant))(BinaryOp (ID)(ID))(UnaryOp (ID))(FuncCall (ID)(ExprList (Constant)(UnaryOp (ArrayRef (ID)(ID))))))(For (Assignment (ID)(Constant))(BinaryOp (ID)(ID))(UnaryOp (ID))(Compound (Assignment (ID)(Constant))(Assignment (ID)(ArrayRef (ID)(ID)))(Assignment (ID)(ID))(For (Assignment (ID)(BinaryOp (ID)(Constant)))(BinaryOp (ID)(ID))(UnaryOp (ID))(Compound (If (BinaryOp (ID)(ArrayRef (ID)(ID)))(Compound (Assignment (ID)(ArrayRef (ID)(ID)))(Assignment (ID)(ID))(Assignment (ID)(Constant))))))(Assignment (ID)(ArrayRef (ID)(ID)))(Assignment (ArrayRef (ID)(ID))(ArrayRef (ID)(ID)))(Assignment (ArrayRef (ID)(ID))(ID))(If (BinaryOp (ID)(Constant))(UnaryOp (ID)))))(For (Assignment (ID)(Constant))(BinaryOp (ID)(ID))(UnaryOp (ID))(Compound (If (BinaryOp (ID)(BinaryOp (ID)(Constant)))(Compound (FuncCall (ID)(ExprList (Constant)(ArrayRef (ID)(ID))))(Break)))(FuncCall (ID)(ExprList (Constant)(ArrayRef (ID)(ID))))))(FuncCall (ID)(ExprList (Constant)(ID)))(Return (Constant))))) |ET| 
-0.63957941930620676451724193611881  |BT| (FileAST (Decl (TypeDecl (IdentifierType))(Constant))(FuncDef (Decl (FuncDecl (ParamList (Decl (ArrayDecl (TypeDecl (IdentifierType))))(Decl (TypeDecl (IdentifierType)))(Decl (TypeDecl (IdentifierType)))(Decl (TypeDecl (IdentifierType))))(TypeDecl (IdentifierType))))(Compound (Decl (TypeDecl (IdentifierType))(BinaryOp (ID)(ID)))(Decl (TypeDecl (IdentifierType))(BinaryOp (ID)(ID)))(Decl (ArrayDecl (TypeDecl (IdentifierType))(ID)))(Decl (ArrayDecl (TypeDecl (IdentifierType))(ID)))(For (DeclList (Decl (TypeDecl (IdentifierType))(Constant)))(BinaryOp (ID)(ID))(UnaryOp (ID))(Compound (Assignment (ArrayRef (ID)(ID))(ArrayRef (ID)(BinaryOp (ID)(ID))))))(For (DeclList (Decl (TypeDecl (IdentifierType))(Constant)))(BinaryOp (ID)(ID))(UnaryOp (ID))(Compound (Assignment (ArrayRef (ID)(ID))(ArrayRef (ID)(BinaryOp (ID)(ID))))))(Assignment (ArrayRef (ID)(ID))(Constant))(Assignment (ArrayRef (ID)(ID))(Constant))(Decl (TypeDecl (IdentifierType))(Constant))(Decl (TypeDecl (IdentifierType))(Constant))(For (DeclList (Decl (TypeDecl (IdentifierType))(ID)))(BinaryOp (ID)(ID))(UnaryOp (ID))(Compound (If (BinaryOp (ArrayRef (ID)(ID))(ArrayRef (ID)(ID)))(Compound (Assignment (ArrayRef (ID)(ID))(ArrayRef (ID)(ID)))(UnaryOp (ID))(UnaryOp (ID)))(Compound (Assignment (ArrayRef (ID)(ID))(ArrayRef (ID)(ID)))(UnaryOp (ID))(UnaryOp (ID))))))))(FuncDef (Decl (FuncDecl (ParamList (Decl (ArrayDecl (TypeDecl (IdentifierType))))(Decl (TypeDecl (IdentifierType)))(Decl (TypeDecl (IdentifierType))))(TypeDecl (IdentifierType))))(Compound (If (BinaryOp (BinaryOp (ID)(Constant))(ID))(Compound (Decl (TypeDecl (IdentifierType))(BinaryOp (BinaryOp (ID)(ID))(Constant)))(FuncCall (ID)(ExprList (ID)(ID)(ID)))(FuncCall (ID)(ExprList (ID)(ID)(ID)))(FuncCall (ID)(ExprList (ID)(ID)(ID)(ID)))))))(FuncDef (Decl (FuncDecl (TypeDecl (IdentifierType))))(Compound (Decl (TypeDecl (IdentifierType)))(FuncCall (ID)(ExprList (Constant)(UnaryOp (ID))))(Decl (ArrayDecl (TypeDecl (IdentifierType))(ID)))(For (DeclList (Decl (TypeDecl (IdentifierType))(Constant)))(BinaryOp (ID)(ID))(UnaryOp (ID))(Compound (FuncCall (ID)(ExprList (Constant)(UnaryOp (ArrayRef (ID)(ID)))))))(FuncCall (ID)(ExprList (ID)(Constant)(ID)))(For (DeclList (Decl (TypeDecl (IdentifierType))(Constant)))(BinaryOp (ID)(ID))(UnaryOp (ID))(Compound (FuncCall (ID)(ExprList (Constant)(ArrayRef (ID)(ID))))(If (BinaryOp (ID)(BinaryOp (ID)(Constant)))(Compound (FuncCall (ID)(ExprList (Constant))))(Compound (FuncCall (ID)(ExprList (Constant)))))))(FuncCall (ID)(ExprList (Constant)(ID)))(Return (Constant))))) |ET| 
1  |BT| (FileAST (FuncDef (Decl (FuncDecl (TypeDecl (IdentifierType))))(Compound (Decl (PtrDecl (TypeDecl (IdentifierType))))(Decl (TypeDecl (IdentifierType)))(Decl (TypeDecl (IdentifierType)))(Decl (TypeDecl (IdentifierType)))(Decl (TypeDecl (IdentifierType))(Constant))(Decl (TypeDecl (IdentifierType)))(Decl (TypeDecl (IdentifierType)))(Decl (TypeDecl (IdentifierType)))(EmptyStatement)(FuncCall (ID)(ExprList (Constant)(UnaryOp (ID))))(Assignment (ID)(Cast (Typename (PtrDecl (TypeDecl (IdentifierType))))(FuncCall (ID)(ExprList (BinaryOp (UnaryOp (Typename (TypeDecl (IdentifierType))))(ID))))))(For (Assignment (ID)(Constant))(BinaryOp (ID)(ID))(UnaryOp (ID))(FuncCall (ID)(ExprList (Constant)(BinaryOp (ID)(ID)))))(For (Assignment (ID)(Constant))(BinaryOp (ID)(BinaryOp (ID)(Constant)))(UnaryOp (ID))(Compound (Assignment (ID)(Assignment (ID)(ID)))(For (Assignment (ID)(ID))(BinaryOp (ID)(ID))(UnaryOp (ID))(Compound (If (BinaryOp (UnaryOp (BinaryOp (ID)(ID)))(UnaryOp (BinaryOp (ID)(ID))))(Compound (Assignment (ID)(ID))))))(If (BinaryOp (ID)(ID))(Compound (Assignment (ID)(UnaryOp (BinaryOp (ID)(ID))))(Assignment (UnaryOp (BinaryOp (ID)(ID)))(UnaryOp (BinaryOp (ID)(ID))))(Assignment (UnaryOp (BinaryOp (ID)(ID)))(ID))(UnaryOp (ID))))))(For (Assignment (ID)(Constant))(BinaryOp (ID)(ID))(UnaryOp (ID))(FuncCall (ID)(ExprList (Constant)(ArrayRef (ID)(ID))(TernaryOp (BinaryOp (ID)(BinaryOp (ID)(Constant)))(Constant)(Constant)))))(FuncCall (ID)(ExprList (Constant)(ID)))(FuncCall (ID)(ExprList (ID)))(Return (Constant))))) |ET| 
-1  |BT| (FileAST (Decl (FuncDecl (ParamList (Typename (PtrDecl (TypeDecl (IdentifierType))))(Typename (TypeDecl (IdentifierType)))(Typename (TypeDecl (IdentifierType))))(TypeDecl (IdentifierType))))(Decl (TypeDecl (IdentifierType))(Constant))(FuncDef (Decl (FuncDecl (TypeDecl (IdentifierType))))(Compound (Decl (TypeDecl (IdentifierType)))(Decl (ArrayDecl (TypeDecl (IdentifierType))(Constant)))(Decl (TypeDecl (IdentifierType)))(Decl (TypeDecl (IdentifierType)))(FuncCall (ID)(ExprList (Constant)(UnaryOp (ID))))(For (Assignment (ID)(Constant))(BinaryOp (ID)(ID))(UnaryOp (ID))(FuncCall (ID)(ExprList (Constant)(UnaryOp (ArrayRef (ID)(ID))))))(FuncCall (ID)(ExprList (ID)(Constant)(ID)))(For (Assignment (ID)(Constant))(BinaryOp (ID)(ID))(UnaryOp (ID))(Compound (If (BinaryOp (ID)(BinaryOp (ID)(Constant)))(FuncCall (ID)(ExprList (Constant)(ArrayRef (ID)(ID))))(FuncCall (ID)(ExprList (Constant)(ArrayRef (ID)(ID)))))))(FuncCall (ID)(ExprList (Constant)(ID)))(Return (Constant))))(FuncDef (Decl (FuncDecl (ParamList (Decl (PtrDecl (TypeDecl (IdentifierType))))(Decl (TypeDecl (IdentifierType)))(Decl (TypeDecl (IdentifierType))))(TypeDecl (IdentifierType))))(Compound (Decl (TypeDecl (IdentifierType)))(Decl (TypeDecl (IdentifierType)))(Decl (TypeDecl (IdentifierType)))(Decl (TypeDecl (IdentifierType)))(Decl (TypeDecl (IdentifierType)))(Decl (PtrDecl (TypeDecl (IdentifierType))))(If (BinaryOp (BinaryOp (ID)(Constant))(ID))(Compound (FuncCall (ID)(ExprList (ID)(ID)(BinaryOp (BinaryOp (ID)(ID))(Constant))))(FuncCall (ID)(ExprList (ID)(BinaryOp (BinaryOp (ID)(ID))(Constant))(ID)))(Assignment (ID)(FuncCall (ID)(ExprList (BinaryOp (UnaryOp (Typename (TypeDecl (IdentifierType))))(BinaryOp (ID)(ID))))))(Assignment (ID)(ID))(Assignment (ID)(BinaryOp (BinaryOp (ID)(ID))(Constant)))(For (Assignment (ID)(Constant))(BinaryOp (ID)(BinaryOp (ID)(ID)))(UnaryOp (ID))(Compound (UnaryOp (ID))(If (BinaryOp (ID)(BinaryOp (BinaryOp (ID)(ID))(Constant)))(Compound (Assignment (ArrayRef (ID)(ID))(ArrayRef (ID)(ID)))(UnaryOp (ID)))(If (BinaryOp (ID)(ID))(Compound (Assignment (ArrayRef (ID)(ID))(ArrayRef (ID)(ID)))(UnaryOp (ID)))(If (BinaryOp (ArrayRef (ID)(ID))(ArrayRef (ID)(ID)))(Compound (Assignment (ArrayRef (ID)(ID))(ArrayRef (ID)(ID)))(UnaryOp (ID)))(Compound (Assignment (ArrayRef (ID)(ID))(ArrayRef (ID)(ID)))(UnaryOp (ID))))))))(For (Assignment (ID)(ID))(BinaryOp (ID)(ID))(UnaryOp (ID))(Compound (Assignment (ArrayRef (ID)(ID))(ArrayRef (ID)(BinaryOp (ID)(ID))))))(FuncCall (ID)(ExprList (ID)))))))) |ET| 
1  |BT| (FileAST (FuncDef (Decl (FuncDecl (ParamList (Decl (PtrDecl (TypeDecl (IdentifierType))))(Decl (PtrDecl (TypeDecl (IdentifierType)))))(TypeDecl (IdentifierType))))(Compound (Decl (TypeDecl (IdentifierType)))(Assignment (ID)(UnaryOp (ID)))(Assignment (UnaryOp (ID))(UnaryOp (ID)))(Assignment (UnaryOp (ID))(ID))))(FuncDef (Decl (FuncDecl (ParamList (Decl (ArrayDecl (TypeDecl (IdentifierType))))(Decl (TypeDecl (IdentifierType))))(TypeDecl (IdentifierType))))(Compound (Decl (TypeDecl (IdentifierType)))(For (Assignment (ID)(Constant))(BinaryOp (ID)(ID))(UnaryOp (ID))(Compound (FuncCall (ID)(ExprList (Constant)(ArrayRef (ID)(ID))))(If (BinaryOp (ID)(BinaryOp (ID)(Constant)))(FuncCall (ID)(ExprList (Constant))))))(FuncCall (ID)(ExprList (Constant)))))(FuncDef (Decl (FuncDecl (ParamList (Decl (ArrayDecl (TypeDecl (IdentifierType))))(Decl (TypeDecl (IdentifierType))))(TypeDecl (IdentifierType))))(Compound (Decl (TypeDecl (IdentifierType)))(Decl (TypeDecl (IdentifierType)))(Decl (TypeDecl (IdentifierType)))(For (Assignment (ID)(Constant))(BinaryOp (ID)(ID))(UnaryOp (ID))(Compound (Assignment (ID)(ID))(While (BinaryOp (BinaryOp (ID)(Constant))(BinaryOp (ArrayRef (ID)(BinaryOp (ID)(Constant)))(ArrayRef (ID)(ID))))(Compound (Assignment (ID)(ArrayRef (ID)(BinaryOp (ID)(Constant))))(Assignment (ArrayRef (ID)(BinaryOp (ID)(Constant)))(ArrayRef (ID)(ID)))(Assignment (ArrayRef (ID)(ID))(ID))(UnaryOp (ID))))(FuncCall (ID)(ExprList (ID)(ID)))))))(FuncDef (Decl (FuncDecl (ParamList (Decl (ArrayDecl (TypeDecl (IdentifierType))))(Decl (TypeDecl (IdentifierType)))(Decl (PtrDecl (TypeDecl (IdentifierType)))))(TypeDecl (IdentifierType))))(Compound (Decl (TypeDecl (IdentifierType))(Constant))(Decl (TypeDecl (IdentifierType)))(Decl (TypeDecl (IdentifierType)))(Decl (TypeDecl (IdentifierType)))(For (Assignment (ID)(Constant))(BinaryOp (ID)(ID))(UnaryOp (ID))(Compound (For (Assignment (ID)(BinaryOp (ID)(Constant)))(BinaryOp (ID)(Constant))(UnaryOp (ID))(Compound (If (BinaryOp (ArrayRef (ID)(BinaryOp (ID)(Constant)))(ArrayRef (ID)(ID)))(Compound (Assignment (ID)(ArrayRef (ID)(BinaryOp (ID)(Constant))))(Assignment (ArrayRef (ID)(BinaryOp (ID)(Constant)))(ArrayRef (ID)(ID)))(Assignment (ArrayRef (ID)(ID))(ID))(Assignment (ID)(Constant))(UnaryOp (UnaryOp (ID)))))))(If (BinaryOp (ID)(Constant))(Break)(Assignment (ID)(Constant)))))))(FuncDef (Decl (FuncDecl (ParamList (Decl (ArrayDecl (TypeDecl (IdentifierType))))(Decl (TypeDecl (IdentifierType)))(Decl (PtrDecl (TypeDecl (IdentifierType)))))(TypeDecl (IdentifierType))))(Compound (Decl (TypeDecl (IdentifierType)))(Decl (TypeDecl (IdentifierType)))(Decl (TypeDecl (IdentifierType)))(Decl (TypeDecl (IdentifierType)))(For (Assignment (ID)(Constant))(BinaryOp (ID)(ID))(UnaryOp (ID))(Compound (Assignment (ID)(ID))(For (Assignment (ID)(ID))(BinaryOp (ID)(ID))(UnaryOp (ID))(Compound (If (BinaryOp (ArrayRef (ID)(ID))(ArrayRef (ID)(ID)))(Assignment (ID)(ID)))))(If (BinaryOp (ID)(ID))(Compound (Assignment (ID)(ArrayRef (ID)(ID)))(Assignment (ArrayRef (ID)(ID))(ArrayRef (ID)(ID)))(Assignment (ArrayRef (ID)(ID))(ID))(UnaryOp (UnaryOp (ID)))))))))(FuncDef (Decl (FuncDecl (TypeDecl (IdentifierType))))(Compound (Decl (ArrayDecl (TypeDecl (IdentifierType))(Constant)))(Decl (TypeDecl (IdentifierType)))(Decl (TypeDecl (IdentifierType)))(Decl (TypeDecl (IdentifierType))(Constant))(FuncCall (ID)(ExprList (Constant)(UnaryOp (ID))))(For (Assignment (ID)(Constant))(BinaryOp (ID)(ID))(UnaryOp (ID))(FuncCall (ID)(ExprList (Constant)(UnaryOp (ArrayRef (ID)(ID))))))(FuncCall (ID)(ExprList (ID)(ID)(UnaryOp (ID))))(FuncCall (ID)(ExprList (ID)(ID)))(FuncCall (ID)(ExprList (Constant)(ID)))(Return (Constant))))) |ET| 
-0.93598633193333913293798786980915  |BT| (FileAST (FuncDef (Decl (FuncDecl (ParamList (Decl (ArrayDecl (TypeDecl (IdentifierType))))(Decl (TypeDecl (IdentifierType)))(Decl (ArrayDecl (TypeDecl (IdentifierType))))(Decl (TypeDecl (IdentifierType))))(TypeDecl (IdentifierType))))(Compound (Decl (TypeDecl (IdentifierType))(BinaryOp (ID)(ID)))(Decl (PtrDecl (TypeDecl (IdentifierType)))(Cast (Typename (PtrDecl (TypeDecl (IdentifierType))))(FuncCall (ID)(ExprList (BinaryOp (UnaryOp (Typename (TypeDecl (IdentifierType))))(ID))))))(Decl (TypeDecl (IdentifierType))(Constant))(Decl (TypeDecl (IdentifierType))(Constant))(Decl (TypeDecl (IdentifierType))(Constant))(Decl (TypeDecl (IdentifierType)))(For (Assignment (ID)(Constant))(BinaryOp (ID)(ID))(UnaryOp (ID))(Compound (If (BinaryOp (BinaryOp (ID)(ID))(BinaryOp (ID)(ID)))(Compound (If (BinaryOp (ArrayRef (ID)(ID))(ArrayRef (ID)(ID)))(Compound (Assignment (ArrayRef (ID)(ID))(ArrayRef (ID)(ID)))(UnaryOp (ID)))(Compound (Assignment (ArrayRef (ID)(ID))(ArrayRef (ID)(ID)))(UnaryOp (ID)))))(If (BinaryOp (ID)(ID))(Compound (Assignment (ArrayRef (ID)(ID))(ArrayRef (ID)(ID)))(UnaryOp (ID)))(Compound (Assignment (ArrayRef (ID)(ID))(ArrayRef (ID)(ID)))(UnaryOp (ID)))))(UnaryOp (ID))))(FuncCall (ID)(ExprList (ID)(ID)(BinaryOp (UnaryOp (Typename (TypeDecl (IdentifierType))))(ID))))(FuncCall (ID)(ExprList (ID)))(Return (ID))))(FuncDef (Decl (FuncDecl (ParamList (Decl (ArrayDecl (TypeDecl (IdentifierType))))(Decl (TypeDecl (IdentifierType))))(TypeDecl (IdentifierType))))(Compound (If (BinaryOp (ID)(Constant))(Return (Constant)))(If (BinaryOp (ID)(Constant))(Compound (Return (Constant)))(Compound (Decl (TypeDecl (IdentifierType))(BinaryOp (ID)(Constant)))(Decl (TypeDecl (IdentifierType))(FuncCall (ID)(ExprList (ID)(ID))))(Decl (TypeDecl (IdentifierType))(FuncCall (ID)(ExprList (UnaryOp (ArrayRef (ID)(ID)))(BinaryOp (ID)(ID)))))(Decl (TypeDecl (IdentifierType))(FuncCall (ID)(ExprList (ID)(ID)(UnaryOp (ArrayRef (ID)(ID)))(BinaryOp (ID)(ID)))))(Return (BinaryOp (BinaryOp (ID)(ID))(ID)))))))(Decl (ArrayDecl (TypeDecl (IdentifierType))(Constant)))(FuncDef (Decl (FuncDecl (ParamList (Typename (TypeDecl (IdentifierType))))(TypeDecl (IdentifierType))))(Compound (Decl (TypeDecl (IdentifierType)))(FuncCall (ID)(ExprList (Constant)(UnaryOp (ID))))(Decl (TypeDecl (IdentifierType)))(For (Assignment (ID)(Constant))(BinaryOp (ID)(ID))(UnaryOp (ID))(Compound (FuncCall (ID)(ExprList (Constant)(UnaryOp (ArrayRef (ID)(ID)))))))(Decl (TypeDecl (IdentifierType))(FuncCall (ID)(ExprList (ID)(ID))))(For (Assignment (ID)(Constant))(BinaryOp (ID)(ID))(UnaryOp (ID))(Compound (If (BinaryOp (ID)(Constant))(FuncCall (ID)(ExprList (Constant))))(FuncCall (ID)(ExprList (Constant)(ArrayRef (ID)(ID))))))(FuncCall (ID)(ExprList (Constant)))(FuncCall (ID)(ExprList (Constant)(ID)))(Return (Constant))))) |ET| 
0.87668556156158061742900144963642  |BT| (FileAST (Decl (FuncDecl (ParamList (Typename (PtrDecl (TypeDecl (IdentifierType))))(Typename (PtrDecl (TypeDecl (IdentifierType)))))(TypeDecl (IdentifierType))))(Decl (FuncDecl (ParamList (Typename (ArrayDecl (TypeDecl (IdentifierType))))(Typename (TypeDecl (IdentifierType))))(TypeDecl (IdentifierType))))(Decl (FuncDecl (ParamList (Typename (ArrayDecl (TypeDecl (IdentifierType))))(Typename (TypeDecl (IdentifierType))))(TypeDecl (IdentifierType))))(FuncDef (Decl (FuncDecl (TypeDecl (IdentifierType))))(Compound (Decl (TypeDecl (IdentifierType)))(Decl (TypeDecl (IdentifierType)))(Decl (TypeDecl (IdentifierType)))(Decl (ArrayDecl (TypeDecl (IdentifierType))(Constant)))(FuncCall (ID)(ExprList (Constant)(UnaryOp (ID))))(For (Assignment (ID)(Constant))(BinaryOp (ID)(ID))(UnaryOp (ID))(Compound (FuncCall (ID)(ExprList (Constant)(BinaryOp (ID)(ID))))))(Assignment (ID)(FuncCall (ID)(ExprList (ID)(ID))))(FuncCall (ID)(ExprList (ID)(ID)))(FuncCall (ID)(ExprList (Constant)(ID)))(Return (Constant))))(FuncDef (Decl (FuncDecl (ParamList (Decl (PtrDecl (TypeDecl (IdentifierType))))(Decl (PtrDecl (TypeDecl (IdentifierType)))))(TypeDecl (IdentifierType))))(Compound (Decl (TypeDecl (IdentifierType)))(Assignment (ID)(UnaryOp (ID)))(Assignment (UnaryOp (ID))(UnaryOp (ID)))(Assignment (UnaryOp (ID))(ID))))(FuncDef (Decl (FuncDecl (ParamList (Decl (ArrayDecl (TypeDecl (IdentifierType))))(Decl (TypeDecl (IdentifierType))))(TypeDecl (IdentifierType))))(Compound (Decl (TypeDecl (IdentifierType)))(Decl (TypeDecl (IdentifierType)))(Decl (TypeDecl (IdentifierType)))(Decl (TypeDecl (IdentifierType))(Constant))(For (Assignment (ID)(Constant))(BinaryOp (ID)(ID))(UnaryOp (ID))(Compound (Assignment (ID)(ID))(For (Assignment (ID)(BinaryOp (ID)(Constant)))(BinaryOp (ID)(ID))(UnaryOp (ID))(Compound (If (BinaryOp (ArrayRef (ID)(ID))(ArrayRef (ID)(ID)))(Compound (Assignment (ID)(ID))))))(FuncCall (ID)(ExprList (UnaryOp (ArrayRef (ID)(ID)))(UnaryOp (ArrayRef (ID)(ID)))))(If (BinaryOp (ID)(ID))(UnaryOp (ID)))))(Return (ID))))(FuncDef (Decl (FuncDecl (ParamList (Decl (ArrayDecl (TypeDecl (IdentifierType))))(Decl (TypeDecl (IdentifierType))))(TypeDecl (IdentifierType))))(Compound (Decl (TypeDecl (IdentifierType)))(For (Assignment (ID)(Constant))(BinaryOp (ID)(ID))(UnaryOp (ID))(Compound (FuncCall (ID)(ExprList (Constant)(ArrayRef (ID)(ID))))(If (BinaryOp (ID)(BinaryOp (ID)(Constant)))(Compound (FuncCall (ID)(ExprList (Constant))))(Compound (FuncCall (ID)(ExprList (Constant)))))))))) |ET| 
-0.56277312069881124667602989575244  |BT| (FileAST (Decl (ArrayDecl (TypeDecl (IdentifierType))(Constant)))(Decl (ArrayDecl (TypeDecl (IdentifierType))(BinaryOp (BinaryOp (Constant)(Constant))(Constant))))(Decl (ArrayDecl (TypeDecl (IdentifierType))(BinaryOp (BinaryOp (Constant)(Constant))(Constant))))(Decl (TypeDecl (IdentifierType)))(FuncDef (Decl (FuncDecl (ParamList (Decl (ArrayDecl (TypeDecl (IdentifierType))))(Decl (TypeDecl (IdentifierType))))(TypeDecl (IdentifierType))))(Compound (For (DeclList (Decl (TypeDecl (IdentifierType))(Constant)))(BinaryOp (ID)(ID))(UnaryOp (ID))(Compound (FuncCall (ID)(ExprList (BinaryOp (Constant)(UnaryOp (ID)))(ArrayRef (ID)(ID))))))(FuncCall (ID)(ExprList (Constant)))))(FuncDef (Decl (FuncDecl (ParamList (Decl (ArrayDecl (TypeDecl (IdentifierType))))(Decl (TypeDecl (IdentifierType)))(Decl (TypeDecl (IdentifierType)))(Decl (TypeDecl (IdentifierType))))(TypeDecl (IdentifierType))))(Compound (Decl (TypeDecl (IdentifierType))(BinaryOp (ID)(ID)))(Decl (TypeDecl (IdentifierType))(BinaryOp (ID)(ID)))(For (DeclList (Decl (TypeDecl (IdentifierType))(Constant)))(BinaryOp (ID)(ID))(UnaryOp (ID))(Compound (Assignment (ArrayRef (ID)(ID))(ArrayRef (ID)(BinaryOp (ID)(ID))))))(For (DeclList (Decl (TypeDecl (IdentifierType))(Constant)))(BinaryOp (ID)(ID))(UnaryOp (ID))(Compound (Assignment (ArrayRef (ID)(ID))(ArrayRef (ID)(BinaryOp (ID)(ID))))))(Assignment (ArrayRef (ID)(ID))(Constant))(Assignment (ArrayRef (ID)(ID))(Constant))(Decl (TypeDecl (IdentifierType))(Constant))(Decl (TypeDecl (IdentifierType))(Constant))(For (DeclList (Decl (TypeDecl (IdentifierType))(ID)))(BinaryOp (ID)(ID))(UnaryOp (ID))(Compound (UnaryOp (ID))(If (BinaryOp (ArrayRef (ID)(ID))(ArrayRef (ID)(ID)))(Compound (Assignment (ArrayRef (ID)(ID))(ArrayRef (ID)(ID)))(UnaryOp (ID)))(Compound (Assignment (ArrayRef (ID)(ID))(ArrayRef (ID)(ID)))(UnaryOp (ID))))))))(FuncDef (Decl (FuncDecl (ParamList (Decl (ArrayDecl (TypeDecl (IdentifierType))))(Decl (TypeDecl (IdentifierType)))(Decl (TypeDecl (IdentifierType))))(TypeDecl (IdentifierType))))(Compound (If (BinaryOp (BinaryOp (ID)(Constant))(ID))(Compound (Decl (TypeDecl (IdentifierType))(BinaryOp (BinaryOp (ID)(ID))(Constant)))(FuncCall (ID)(ExprList (ID)(ID)(ID)))(FuncCall (ID)(ExprList (ID)(ID)(ID)))(FuncCall (ID)(ExprList (ID)(ID)(ID)(ID)))))))(FuncDef (Decl (FuncDecl (TypeDecl (IdentifierType))))(Compound (Decl (TypeDecl (IdentifierType))(Constant))(Assignment (ID)(Constant))(FuncCall (ID)(ExprList (Constant)(UnaryOp (ID))))(For (DeclList (Decl (TypeDecl (IdentifierType))(Constant)))(BinaryOp (ID)(ID))(UnaryOp (ID))(Compound (FuncCall (ID)(ExprList (Constant)(UnaryOp (ArrayRef (ID)(ID)))))))(FuncCall (ID)(ExprList (ID)(Constant)(ID)))(FuncCall (ID)(ExprList (ID)(ID)))(FuncCall (ID)(ExprList (Constant)(ID)))(Return (Constant))))) |ET| 
0.9890935214689506871366120321909  |BT| (FileAST (FuncDef (Decl (FuncDecl (ParamList (Typename (TypeDecl (IdentifierType))))(TypeDecl (IdentifierType))))(Compound (Decl (TypeDecl (IdentifierType)))(Decl (TypeDecl (IdentifierType)))(Decl (TypeDecl (IdentifierType)))(Decl (TypeDecl (IdentifierType)))(Decl (TypeDecl (IdentifierType)))(Decl (TypeDecl (IdentifierType)))(Decl (TypeDecl (IdentifierType)))(FuncCall (ID)(ExprList (Constant)(UnaryOp (ID))))(Assignment (ID)(BinaryOp (ID)(Constant)))(Decl (ArrayDecl (TypeDecl (IdentifierType))(ID)))(FuncCall (ID)(ExprList (Constant)(UnaryOp (ArrayRef (ID)(Constant)))))(For (Assignment (ID)(Constant))(BinaryOp (ID)(ID))(UnaryOp (ID))(Compound (FuncCall (ID)(ExprList (Constant)(UnaryOp (ArrayRef (ID)(ID)))))))(Assignment (ID)(Constant))(For (Assignment (ID)(Constant))(BinaryOp (ID)(BinaryOp (ID)(Constant)))(UnaryOp (ID))(Compound (Assignment (ID)(ID))(For (Assignment (ID)(ID))(BinaryOp (ID)(BinaryOp (ID)(Constant)))(UnaryOp (ID))(Compound (If (BinaryOp (ArrayRef (ID)(ID))(ArrayRef (ID)(ID)))(Compound (Assignment (ID)(ID))))))(Assignment (ID)(ID))(Assignment (ID)(ArrayRef (ID)(ID)))(Assignment (ArrayRef (ID)(ID))(ArrayRef (ID)(ID)))(Assignment (ArrayRef (ID)(ID))(ID))(If (BinaryOp (ID)(ID))(Compound (UnaryOp (ID))))))(FuncCall (ID)(ExprList (Constant)(ArrayRef (ID)(Constant))))(For (Assignment (ID)(Constant))(BinaryOp (ID)(ID))(UnaryOp (ID))(Compound (FuncCall (ID)(ExprList (Constant)(ArrayRef (ID)(ID))))))(FuncCall (ID)(ExprList (Constant)(ID)))(Return (Constant))))) |ET| 
-0.58907015005877272351142437400995  |BT| (FileAST (Decl (TypeDecl (IdentifierType))(Constant))(FuncDef (Decl (FuncDecl (ParamList (Decl (PtrDecl (TypeDecl (IdentifierType))))(Decl (TypeDecl (IdentifierType)))(Decl (TypeDecl (IdentifierType)))(Decl (TypeDecl (IdentifierType))))(TypeDecl (IdentifierType))))(Compound (Decl (TypeDecl (IdentifierType))(BinaryOp (ID)(ID)))(Decl (TypeDecl (IdentifierType))(BinaryOp (ID)(ID)))(Decl (ArrayDecl (TypeDecl (IdentifierType))(BinaryOp (ID)(Constant))))(Decl (ArrayDecl (TypeDecl (IdentifierType))(BinaryOp (ID)(Constant))))(For (DeclList (Decl (TypeDecl (IdentifierType))(Constant)))(BinaryOp (ID)(ID))(UnaryOp (ID))(Compound (Assignment (ArrayRef (ID)(ID))(ArrayRef (ID)(BinaryOp (ID)(ID))))))(For (DeclList (Decl (TypeDecl (IdentifierType))(Constant)))(BinaryOp (ID)(ID))(UnaryOp (ID))(Compound (Assignment (ArrayRef (ID)(ID))(ArrayRef (ID)(BinaryOp (ID)(ID))))))(Decl (TypeDecl (IdentifierType))(Constant))(Decl (TypeDecl (IdentifierType))(Constant))(Assignment (ArrayRef (ID)(ID))(Constant))(Assignment (ArrayRef (ID)(ID))(Constant))(For (DeclList (Decl (TypeDecl (IdentifierType))(ID)))(BinaryOp (ID)(ID))(UnaryOp (ID))(Compound (UnaryOp (ID))(If (BinaryOp (ArrayRef (ID)(ID))(ArrayRef (ID)(ID)))(Compound (Assignment (ArrayRef (ID)(ID))(ArrayRef (ID)(ID)))(UnaryOp (ID)))(Compound (Assignment (ArrayRef (ID)(ID))(ArrayRef (ID)(ID)))(UnaryOp (ID))))))))(FuncDef (Decl (FuncDecl (ParamList (Decl (PtrDecl (TypeDecl (IdentifierType))))(Decl (TypeDecl (IdentifierType)))(Decl (TypeDecl (IdentifierType))))(TypeDecl (IdentifierType))))(Compound (If (BinaryOp (BinaryOp (ID)(Constant))(ID))(Compound (Decl (TypeDecl (IdentifierType))(BinaryOp (BinaryOp (ID)(ID))(Constant)))(FuncCall (ID)(ExprList (ID)(ID)(ID)))(FuncCall (ID)(ExprList (ID)(ID)(ID)))(FuncCall (ID)(ExprList (ID)(ID)(ID)(ID)))))))(FuncDef (Decl (FuncDecl (ParamList (Typename (TypeDecl (IdentifierType))))(TypeDecl (IdentifierType))))(Compound (Decl (TypeDecl (IdentifierType)))(FuncCall (ID)(ExprList (Constant)(UnaryOp (ID))))(Decl (ArrayDecl (TypeDecl (IdentifierType))(ID)))(For (DeclList (Decl (TypeDecl (IdentifierType))(Constant)))(BinaryOp (ID)(ID))(UnaryOp (ID))(Compound (FuncCall (ID)(ExprList (Constant)(UnaryOp (ArrayRef (ID)(ID)))))))(FuncCall (ID)(ExprList (ID)(Constant)(ID)))(For (DeclList (Decl (TypeDecl (IdentifierType))(Constant)))(BinaryOp (ID)(ID))(UnaryOp (ID))(Compound (If (BinaryOp (ID)(Constant))(Compound (FuncCall (ID)(ExprList (Constant)))))(FuncCall (ID)(ExprList (Constant)(ArrayRef (ID)(ID))))))(FuncCall (ID)(ExprList (Constant)))(FuncCall (ID)(ExprList (Constant)(ID)))(Return (Constant))))) |ET| 
1  |BT| (FileAST (Decl (FuncDecl (ParamList (Decl (PtrDecl (TypeDecl (IdentifierType))))(Decl (TypeDecl (IdentifierType))))(TypeDecl (IdentifierType))))(Decl (FuncDecl (ParamList (Decl (PtrDecl (TypeDecl (IdentifierType))))(Decl (TypeDecl (IdentifierType))))(TypeDecl (IdentifierType))))(Decl (FuncDecl (ParamList (Decl (PtrDecl (TypeDecl (IdentifierType))))(Decl (PtrDecl (TypeDecl (IdentifierType)))))(TypeDecl (IdentifierType))))(FuncDef (Decl (FuncDecl (TypeDecl (IdentifierType))))(Compound (Decl (TypeDecl (IdentifierType)))(Decl (PtrDecl (TypeDecl (IdentifierType))))(Decl (TypeDecl (IdentifierType)))(Decl (TypeDecl (IdentifierType)))(FuncCall (ID)(ExprList (Constant)(UnaryOp (ID))))(Assignment (ID)(Cast (Typename (PtrDecl (TypeDecl (IdentifierType))))(FuncCall (ID)(ExprList (BinaryOp (UnaryOp (Typename (TypeDecl (IdentifierType))))(ID))))))(For (Assignment (ID)(Constant))(BinaryOp (ID)(ID))(UnaryOp (ID))(FuncCall (ID)(ExprList (Constant)(UnaryOp (ArrayRef (ID)(ID))))))(Assignment (ID)(FuncCall (ID)(ExprList (ID)(ID))))(For (Assignment (ID)(Constant))(BinaryOp (ID)(ID))(UnaryOp (ID))(Compound (FuncCall (ID)(ExprList (Constant)(UnaryOp (BinaryOp (ID)(ID)))))(If (BinaryOp (ID)(BinaryOp (ID)(Constant)))(FuncCall (ID)(ExprList (Constant))))))(FuncCall (ID)(ExprList (Constant)))(FuncCall (ID)(ExprList (Constant)(ID)))(Return (Constant))))(FuncDef (Decl (FuncDecl (ParamList (Decl (PtrDecl (TypeDecl (IdentifierType))))(Decl (TypeDecl (IdentifierType))))(TypeDecl (IdentifierType))))(Compound (Decl (TypeDecl (IdentifierType))(Constant))(Decl (TypeDecl (IdentifierType)))(Decl (TypeDecl (IdentifierType)))(Decl (TypeDecl (IdentifierType)))(For (Assignment (ID)(Constant))(BinaryOp (ID)(ID))(UnaryOp (ID))(Compound (Assignment (ID)(ID))(For (Assignment (ID)(ID))(BinaryOp (ID)(ID))(UnaryOp (ID))(Compound (If (BinaryOp (ArrayRef (ID)(ID))(ArrayRef (ID)(ID)))(Compound (Assignment (ID)(ID))))))(If (BinaryOp (ID)(ID))(Compound (FuncCall (ID)(ExprList (UnaryOp (ArrayRef (ID)(ID)))(UnaryOp (ArrayRef (ID)(ID)))))(UnaryOp (ID))))))(Return (ID))))(FuncDef (Decl (FuncDecl (ParamList (Decl (PtrDecl (TypeDecl (IdentifierType))))(Decl (PtrDecl (TypeDecl (IdentifierType)))))(TypeDecl (IdentifierType))))(Compound (Decl (TypeDecl (IdentifierType)))(Assignment (ID)(UnaryOp (ID)))(Assignment (UnaryOp (ID))(UnaryOp (ID)))(Assignment (UnaryOp (ID))(ID))(Return)))) |ET| 
-1  |BT| (FileAST (Decl (TypeDecl (IdentifierType)))(Decl (TypeDecl (IdentifierType))(Constant))(FuncDef (Decl (FuncDecl (ParamList (Decl (ArrayDecl (TypeDecl (IdentifierType))))(Decl (TypeDecl (IdentifierType)))(Decl (TypeDecl (IdentifierType)))(Decl (TypeDecl (IdentifierType))))(TypeDecl (IdentifierType))))(Compound (Decl (TypeDecl (IdentifierType))(ID))(Decl (TypeDecl (IdentifierType))(BinaryOp (ID)(Constant)))(Decl (ArrayDecl (TypeDecl (IdentifierType))(ID)))(Decl (TypeDecl (IdentifierType))(Constant))(While (BinaryOp (BinaryOp (ID)(ID))(BinaryOp (ID)(ID)))(Compound (If (BinaryOp (ArrayRef (ID)(ID))(ArrayRef (ID)(ID)))(Assignment (ArrayRef (ID)(UnaryOp (ID)))(ArrayRef (ID)(UnaryOp (ID))))(Assignment (ArrayRef (ID)(UnaryOp (ID)))(ArrayRef (ID)(UnaryOp (ID)))))))(While (BinaryOp (ID)(ID))(Assignment (ArrayRef (ID)(UnaryOp (ID)))(ArrayRef (ID)(UnaryOp (ID)))))(While (BinaryOp (ID)(ID))(Assignment (ArrayRef (ID)(UnaryOp (ID)))(ArrayRef (ID)(UnaryOp (ID)))))(For (DeclList (Decl (TypeDecl (IdentifierType))(Constant)))(BinaryOp (ID)(ID))(UnaryOp (ID))(Compound (Assignment (UnaryOp (BinaryOp (BinaryOp (ID)(ID))(ID)))(ArrayRef (ID)(ID)))(UnaryOp (ID))))))(FuncDef (Decl (FuncDecl (ParamList (Decl (ArrayDecl (TypeDecl (IdentifierType))))(Decl (TypeDecl (IdentifierType)))(Decl (TypeDecl (IdentifierType))))(TypeDecl (IdentifierType))))(Compound (If (BinaryOp (ID)(ID))(Compound (Decl (TypeDecl (IdentifierType))(BinaryOp (BinaryOp (ID)(ID))(Constant)))(FuncCall (ID)(ExprList (ID)(ID)(ID)))(FuncCall (ID)(ExprList (ID)(BinaryOp (ID)(Constant))(ID)))(FuncCall (ID)(ExprList (ID)(ID)(ID)(ID)))))))(FuncDef (Decl (FuncDecl (TypeDecl (IdentifierType))))(Compound (FuncCall (ID)(ExprList (Constant)(UnaryOp (ID))))(Decl (ArrayDecl (TypeDecl (IdentifierType))(ID)))(For (DeclList (Decl (TypeDecl (IdentifierType))(Constant)))(BinaryOp (ID)(ID))(UnaryOp (ID))(FuncCall (ID)(ExprList (Constant)(UnaryOp (ArrayRef (ID)(ID))))))(Decl (TypeDecl (IdentifierType))(Constant))(Decl (TypeDecl (IdentifierType))(BinaryOp (ID)(Constant)))(FuncCall (ID)(ExprList (ID)(ID)(ID)))(For (DeclList (Decl (TypeDecl (IdentifierType))(Constant)))(BinaryOp (ID)(ID))(UnaryOp (ID))(Compound (FuncCall (ID)(ExprList (Constant)(ArrayRef (ID)(ID))))(If (BinaryOp (ID)(BinaryOp (ID)(Constant)))(FuncCall (ID)(ExprList (Constant)))(FuncCall (ID)(ExprList (Constant))))))(FuncCall (ID)(ExprList (Constant)(ID)))(Return (Constant))))) |ET| 
1  |BT| (FileAST (FuncDef (Decl (FuncDecl (ParamList (Typename (TypeDecl (IdentifierType))))(TypeDecl (IdentifierType))))(Compound (Decl (TypeDecl (IdentifierType)))(Decl (TypeDecl (IdentifierType)))(Decl (TypeDecl (IdentifierType)))(Decl (ArrayDecl (TypeDecl (IdentifierType))(Constant)))(Decl (TypeDecl (IdentifierType)))(Decl (TypeDecl (IdentifierType)))(Decl (TypeDecl (IdentifierType)))(Decl (TypeDecl (IdentifierType)))(Decl (TypeDecl (IdentifierType))(Constant))(Decl (ArrayDecl (TypeDecl (IdentifierType))(Constant)))(FuncCall (ID)(ExprList (Constant)(UnaryOp (ID))))(For (Assignment (ID)(Constant))(BinaryOp (BinaryOp (ID)(ID))(BinaryOp (Assignment (ID)(FuncCall (ID)(ExprList (Constant)(BinaryOp (ID)(ID))(ID))))(Constant)))(UnaryOp (ID))(EmptyStatement))(If (BinaryOp (ID)(Constant))(UnaryOp (ID)))(For (Assignment (ID)(Constant))(BinaryOp (ID)(ID))(UnaryOp (ID))(Compound (Assignment (ID)(ID))(For (Assignment (ID)(ID))(BinaryOp (ID)(ID))(UnaryOp (ID))(Compound (If (BinaryOp (ArrayRef (ID)(ID))(ArrayRef (ID)(ID)))(Compound (Assignment (ID)(ID))))))(If (BinaryOp (ArrayRef (ID)(ID))(ArrayRef (ID)(ID)))(Compound (UnaryOp (ID))))(Assignment (ID)(ArrayRef (ID)(ID)))(Assignment (ArrayRef (ID)(ID))(ArrayRef (ID)(ID)))(Assignment (ArrayRef (ID)(ID))(ID))))(For (Assignment (ID)(Constant))(BinaryOp (ID)(ID))(UnaryOp (ID))(Compound (FuncCall (ID)(ExprList (Constant)(ArrayRef (ID)(ID))))(If (BinaryOp (ID)(BinaryOp (ID)(Constant)))(Compound (FuncCall (ID)(ExprList (Constant)))))))(FuncCall (ID)(ExprList (Constant)))(FuncCall (ID)(ExprList (Constant)(ID)))(Return (Constant))))) |ET| 
-0.52603785002467418063787363280426  |BT| (FileAST (Decl (ArrayDecl (TypeDecl (IdentifierType))(Constant)))(Decl (TypeDecl (IdentifierType)))(FuncDef (Decl (FuncDecl (ParamList (Decl (TypeDecl (IdentifierType)))(Decl (TypeDecl (IdentifierType)))(Decl (TypeDecl (IdentifierType))))(TypeDecl (IdentifierType))))(Compound (Decl (TypeDecl (IdentifierType)))(Decl (TypeDecl (IdentifierType)))(Decl (TypeDecl (IdentifierType)))(Decl (TypeDecl (IdentifierType))(BinaryOp (ID)(ID)))(Decl (TypeDecl (IdentifierType))(BinaryOp (ID)(ID)))(Decl (ArrayDecl (TypeDecl (IdentifierType))(ID)))(Decl (ArrayDecl (TypeDecl (IdentifierType))(ID)))(For (Assignment (ID)(Constant))(BinaryOp (ID)(ID))(UnaryOp (ID))(Compound (Assignment (ArrayRef (ID)(ID))(ArrayRef (ID)(BinaryOp (ID)(ID))))))(For (Assignment (ID)(Constant))(BinaryOp (ID)(ID))(UnaryOp (ID))(Compound (Assignment (ArrayRef (ID)(ID))(ArrayRef (ID)(BinaryOp (ID)(ID))))))(Assignment (ArrayRef (ID)(ID))(Constant))(Assignment (ArrayRef (ID)(ID))(Constant))(Assignment (ID)(Constant))(Assignment (ID)(Constant))(For (Assignment (ID)(ID))(BinaryOp (ID)(ID))(UnaryOp (ID))(Compound (If (BinaryOp (ArrayRef (ID)(ID))(ArrayRef (ID)(ID)))(Compound (Assignment (ArrayRef (ID)(ID))(ArrayRef (ID)(ID)))(UnaryOp (ID)))(Compound (Assignment (ArrayRef (ID)(ID))(ArrayRef (ID)(ID)))(UnaryOp (ID))))(UnaryOp (ID))))))(FuncDef (Decl (FuncDecl (ParamList (Decl (TypeDecl (IdentifierType)))(Decl (TypeDecl (IdentifierType))))(TypeDecl (IdentifierType))))(Compound (Decl (TypeDecl (IdentifierType)))(If (BinaryOp (BinaryOp (ID)(Constant))(ID))(Compound (Assignment (ID)(BinaryOp (BinaryOp (ID)(ID))(Constant)))(FuncCall (ID)(ExprList (ID)(ID)))(FuncCall (ID)(ExprList (ID)(ID)))(FuncCall (ID)(ExprList (ID)(ID)(ID)))))))(FuncDef (Decl (FuncDecl (TypeDecl (IdentifierType))))(Compound (Decl (TypeDecl (IdentifierType)))(Decl (TypeDecl (IdentifierType)))(FuncCall (ID)(ExprList (Constant)(UnaryOp (ID))))(For (Assignment (ID)(Constant))(BinaryOp (ID)(ID))(UnaryOp (ID))(Compound (FuncCall (ID)(ExprList (Constant)(UnaryOp (ArrayRef (ID)(ID)))))))(FuncCall (ID)(ExprList (Constant)(ID)))(For (Assignment (ID)(Constant))(BinaryOp (ID)(ID))(UnaryOp (ID))(Compound (If (ID)(FuncCall (ID)(ExprList (Constant))))(FuncCall (ID)(ExprList (Constant)(ArrayRef (ID)(ID))))))(FuncCall (ID)(ExprList (Constant)(ID)))(Return (Constant))))) |ET| 
0.37840052862926298882229048103909  |BT| (FileAST (Decl (TypeDecl (IdentifierType))(Constant))(FuncDef (Decl (FuncDecl (ParamList (Decl (PtrDecl (TypeDecl (IdentifierType))))(Decl (PtrDecl (TypeDecl (IdentifierType)))))(TypeDecl (IdentifierType))))(Compound (Decl (TypeDecl (IdentifierType))(UnaryOp (ID)))(Assignment (UnaryOp (ID))(UnaryOp (ID)))(Assignment (UnaryOp (ID))(ID))(UnaryOp (ID))))(FuncDef (Decl (FuncDecl (ParamList (Decl (ArrayDecl (TypeDecl (IdentifierType))))(Decl (TypeDecl (IdentifierType))))(TypeDecl (IdentifierType))))(Compound (Decl (TypeDecl (IdentifierType)))(Decl (TypeDecl (IdentifierType)))(Decl (TypeDecl (IdentifierType)))(Decl (TypeDecl (IdentifierType)))(For (Assignment (ID)(Constant))(BinaryOp (ID)(ID))(UnaryOp (ID))(Compound (Assignment (ID)(ArrayRef (ID)(ID)))(Assignment (ID)(ID))(For (Assignment (ID)(BinaryOp (ID)(Constant)))(BinaryOp (ID)(ID))(UnaryOp (ID))(Compound (If (BinaryOp (ArrayRef (ID)(ID))(ID))(Compound (Assignment (ID)(ArrayRef (ID)(ID)))(Assignment (ID)(ID))))))(If (BinaryOp (ID)(ID))(FuncCall (ID)(ExprList (UnaryOp (ArrayRef (ID)(ID)))(UnaryOp (ArrayRef (ID)(ID))))))))))(FuncDef (Decl (FuncDecl (ParamList (Typename (TypeDecl (IdentifierType))))(TypeDecl (IdentifierType))))(Compound (Decl (TypeDecl (IdentifierType)))(Decl (TypeDecl (IdentifierType)))(FuncCall (ID)(ExprList (Constant)(UnaryOp (ID))))(Decl (PtrDecl (TypeDecl (IdentifierType)))(Cast (Typename (PtrDecl (TypeDecl (IdentifierType))))(FuncCall (ID)(ExprList (BinaryOp (UnaryOp (Typename (TypeDecl (IdentifierType))))(ID))))))(If (BinaryOp (ID)(Constant))(FuncCall (ID)(ExprList (Constant))))(For (Assignment (ID)(Constant))(BinaryOp (ID)(ID))(UnaryOp (ID))(FuncCall (ID)(ExprList (Constant)(UnaryOp (ArrayRef (ID)(ID))))))(FuncCall (ID)(ExprList (ID)(ID)))(For (Assignment (ID)(Constant))(BinaryOp (ID)(BinaryOp (ID)(Constant)))(UnaryOp (ID))(FuncCall (ID)(ExprList (Constant)(ArrayRef (ID)(ID)))))(FuncCall (ID)(ExprList (Constant)(ArrayRef (ID)(BinaryOp (ID)(Constant)))(ID)))(FuncCall (ID)(ExprList (ID)))(Return (Constant))))) |ET| 
-1  |BT| (FileAST (Decl (FuncDecl (ParamList (Decl (ArrayDecl (TypeDecl (IdentifierType))))(Decl (TypeDecl (IdentifierType)))(Decl (TypeDecl (IdentifierType))))(TypeDecl (IdentifierType))))(Decl (TypeDecl (IdentifierType))(Constant))(FuncDef (Decl (FuncDecl (TypeDecl (IdentifierType))))(Compound (Decl (TypeDecl (IdentifierType)))(Decl (TypeDecl (IdentifierType)))(Decl (ArrayDecl (TypeDecl (IdentifierType))(Constant)))(FuncCall (ID)(ExprList (Constant)(UnaryOp (ID))))(For (Assignment (ID)(Constant))(BinaryOp (ID)(ID))(UnaryOp (ID))(FuncCall (ID)(ExprList (Constant)(UnaryOp (ArrayRef (ID)(ID))))))(FuncCall (ID)(ExprList (ID)(Constant)(BinaryOp (ID)(Constant))))(For (Assignment (ID)(Constant))(BinaryOp (ID)(BinaryOp (ID)(Constant)))(UnaryOp (ID))(FuncCall (ID)(ExprList (Constant)(ArrayRef (ID)(ID)))))(FuncCall (ID)(ExprList (Constant)(ArrayRef (ID)(BinaryOp (ID)(Constant)))))(FuncCall (ID)(ExprList (Constant)(ID)))(Return (Constant))))(FuncDef (Decl (FuncDecl (ParamList (Decl (ArrayDecl (TypeDecl (IdentifierType))))(Decl (TypeDecl (IdentifierType)))(Decl (TypeDecl (IdentifierType))))(TypeDecl (IdentifierType))))(Compound (Decl (TypeDecl (IdentifierType)))(Decl (TypeDecl (IdentifierType)))(Decl (TypeDecl (IdentifierType)))(Decl (ArrayDecl (TypeDecl (IdentifierType))(Constant)))(Decl (TypeDecl (IdentifierType)))(If (BinaryOp (ID)(ID))(Compound (Assignment (ID)(BinaryOp (BinaryOp (ID)(ID))(Constant)))(FuncCall (ID)(ExprList (ID)(ID)(ID)))(FuncCall (ID)(ExprList (ID)(BinaryOp (ID)(Constant))(ID)))(For (Assignment (ID)(ID))(BinaryOp (ID)(ID))(UnaryOp (ID))(Compound (Assignment (ArrayRef (ID)(ID))(ArrayRef (ID)(ID)))(UnaryOp (ID))))(For (Assignment (ID)(BinaryOp (ID)(Constant)))(BinaryOp (ID)(ID))(UnaryOp (ID))(Compound (Assignment (ArrayRef (ID)(BinaryOp (ID)(BinaryOp (ID)(BinaryOp (ID)(Constant)))))(ArrayRef (ID)(ID)))(UnaryOp (ID))))(Assignment (ID)(ID))(Assignment (ID)(ID))(For (Assignment (ID)(ID))(BinaryOp (ID)(ID))(UnaryOp (ID))(Compound (If (BinaryOp (ArrayRef (ID)(ID))(ArrayRef (ID)(ID)))(Compound (Assignment (ArrayRef (ID)(ID))(ArrayRef (ID)(UnaryOp (ID)))))(Compound (Assignment (ArrayRef (ID)(ID))(ArrayRef (ID)(UnaryOp (ID))))))))))))) |ET| 
1  |BT| (FileAST (FuncDef (Decl (FuncDecl (TypeDecl (IdentifierType))))(Compound (Decl (ArrayDecl (TypeDecl (IdentifierType))(Constant)))(Decl (TypeDecl (IdentifierType)))(Decl (TypeDecl (IdentifierType)))(Decl (TypeDecl (IdentifierType)))(Decl (TypeDecl (IdentifierType))(Constant))(Decl (TypeDecl (IdentifierType)))(Decl (TypeDecl (IdentifierType)))(Decl (TypeDecl (IdentifierType)))(Decl (TypeDecl (IdentifierType)))(Decl (TypeDecl (IdentifierType)))(FuncCall (ID)(ExprList (Constant)(UnaryOp (ID))))(If (BinaryOp (BinaryOp (ID)(Constant))(BinaryOp (ID)(Constant)))(FuncCall (ID)(ExprList (Constant))))(For (Assignment (ID)(Constant))(BinaryOp (ID)(ID))(UnaryOp (ID))(Compound (FuncCall (ID)(ExprList (Constant)(UnaryOp (ArrayRef (ID)(ID)))))(If (BinaryOp (BinaryOp (ArrayRef (ID)(ID))(Constant))(BinaryOp (ArrayRef (ID)(ID))(Constant)))(FuncCall (ID)(ExprList (Constant))))))(For (Assignment (ID)(Constant))(BinaryOp (ID)(BinaryOp (ID)(Constant)))(UnaryOp (ID))(Compound (Assignment (ID)(ArrayRef (ID)(ID)))(Assignment (ID)(Constant))(For (Assignment (ID)(ID))(BinaryOp (ID)(ID))(UnaryOp (ID))(Compound (If (BinaryOp (ID)(ArrayRef (ID)(ID)))(Compound (Assignment (ID)(ArrayRef (ID)(ID)))(Assignment (ID)(Constant))(Assignment (ID)(ID))))))(If (BinaryOp (ID)(Constant))(Compound (Assignment (ID)(ArrayRef (ID)(ID)))(Assignment (ArrayRef (ID)(ID))(ArrayRef (ID)(ID)))(Assignment (ArrayRef (ID)(ID))(ID))(UnaryOp (ID))))))(For (Assignment (ID)(Constant))(BinaryOp (ID)(BinaryOp (ID)(Constant)))(UnaryOp (ID))(FuncCall (ID)(ExprList (Constant)(ArrayRef (ID)(ID)))))(FuncCall (ID)(ExprList (Constant)(ArrayRef (ID)(BinaryOp (ID)(Constant)))))(FuncCall (ID)(ExprList (Constant)(ID)))(Return (Constant))))) |ET| 
-0.46091857695330046285064895528194  |BT| (FileAST (Decl (ArrayDecl (TypeDecl (IdentifierType))(Constant)))(Decl (TypeDecl (IdentifierType))(Constant))(FuncDef (Decl (FuncDecl (ParamList (Decl (TypeDecl (IdentifierType)))(Decl (TypeDecl (IdentifierType)))(Decl (TypeDecl (IdentifierType))))(TypeDecl (IdentifierType))))(Compound (Decl (TypeDecl (IdentifierType)))(Decl (TypeDecl (IdentifierType)))(Decl (TypeDecl (IdentifierType)))(Decl (TypeDecl (IdentifierType)))(Decl (TypeDecl (IdentifierType)))(Assignment (ID)(BinaryOp (ID)(ID)))(Decl (ArrayDecl (TypeDecl (IdentifierType))(ID)))(Assignment (ID)(BinaryOp (ID)(ID)))(Decl (ArrayDecl (TypeDecl (IdentifierType))(ID)))(For (Assignment (ID)(Constant))(BinaryOp (ID)(BinaryOp (ID)(Constant)))(UnaryOp (ID))(Compound (Assignment (ArrayRef (ID)(ID))(ArrayRef (ID)(BinaryOp (ID)(ID))))))(For (Assignment (ID)(Constant))(BinaryOp (ID)(BinaryOp (ID)(Constant)))(UnaryOp (ID))(Compound (Assignment (ArrayRef (ID)(ID))(ArrayRef (ID)(BinaryOp (ID)(ID))))))(Assignment (ArrayRef (ID)(ID))(Constant))(Assignment (ArrayRef (ID)(ID))(Constant))(Assignment (ID)(Constant))(Assignment (ID)(Constant))(For (Assignment (ID)(ID))(BinaryOp (ID)(BinaryOp (ID)(Constant)))(UnaryOp (ID))(Compound (If (BinaryOp (ArrayRef (ID)(ID))(ArrayRef (ID)(ID)))(Compound (UnaryOp (ID))(Assignment (ArrayRef (ID)(ID))(ArrayRef (ID)(ID)))(Assignment (ID)(BinaryOp (ID)(Constant))))(Compound (UnaryOp (ID))(Assignment (ArrayRef (ID)(ID))(ArrayRef (ID)(ID)))(Assignment (ID)(BinaryOp (ID)(Constant)))))))))(FuncDef (Decl (FuncDecl (ParamList (Decl (TypeDecl (IdentifierType)))(Decl (TypeDecl (IdentifierType))))(TypeDecl (IdentifierType))))(Compound (Decl (TypeDecl (IdentifierType)))(If (BinaryOp (BinaryOp (ID)(Constant))(ID))(Compound (Assignment (ID)(BinaryOp (BinaryOp (ID)(ID))(Constant)))(FuncCall (ID)(ExprList (ID)(ID)))(FuncCall (ID)(ExprList (ID)(ID)))(FuncCall (ID)(ExprList (ID)(ID)(ID)))))))(FuncDef (Decl (FuncDecl (TypeDecl (IdentifierType))))(Compound (Decl (TypeDecl (IdentifierType)))(Decl (TypeDecl (IdentifierType)))(FuncCall (ID)(ExprList (Constant)(UnaryOp (ID))))(For (Assignment (ID)(Constant))(BinaryOp (ID)(ID))(UnaryOp (ID))(FuncCall (ID)(ExprList (Constant)(UnaryOp (ArrayRef (ID)(ID))))))(FuncCall (ID)(ExprList (Constant)(ID)))(For (Assignment (ID)(Constant))(BinaryOp (ID)(ID))(UnaryOp (ID))(Compound (If (BinaryOp (ID)(BinaryOp (ID)(Constant)))(Compound (FuncCall (ID)(ExprList (Constant)(ArrayRef (ID)(ID))))(FuncCall (ID)(ExprList (Constant)(ID))))(FuncCall (ID)(ExprList (Constant)(ArrayRef (ID)(ID)))))))(Return (Constant))))) |ET| 
1  |BT| (FileAST (FuncDef (Decl (FuncDecl (ParamList (Typename (TypeDecl (IdentifierType))))(TypeDecl (IdentifierType))))(Compound (Decl (TypeDecl (IdentifierType)))(Decl (TypeDecl (IdentifierType)))(Decl (TypeDecl (IdentifierType)))(Decl (TypeDecl (IdentifierType)))(Decl (TypeDecl (IdentifierType)))(Decl (TypeDecl (IdentifierType)))(Decl (TypeDecl (IdentifierType)))(Decl (TypeDecl (IdentifierType)))(Decl (ArrayDecl (TypeDecl (IdentifierType))(Constant)))(FuncCall (ID)(ExprList (Constant)(UnaryOp (ID))))(For (Assignment (ID)(Constant))(BinaryOp (ID)(ID))(UnaryOp (ID))(Compound (FuncCall (ID)(ExprList (Constant)(UnaryOp (ArrayRef (ID)(ID)))))))(Assignment (ID)(Constant))(For (Assignment (ID)(Constant))(BinaryOp (ID)(ID))(UnaryOp (ID))(Compound (Assignment (ID)(ID))(Assignment (ID)(ID))(For (Assignment (ID)(ID))(BinaryOp (ID)(ID))(UnaryOp (ID))(Compound (If (BinaryOp (ArrayRef (ID)(ID))(ArrayRef (ID)(ID)))(Compound (Assignment (ID)(ID))))))(Assignment (ID)(ArrayRef (ID)(ID)))(Assignment (ArrayRef (ID)(ID))(ArrayRef (ID)(ID)))(Assignment (ArrayRef (ID)(ID))(ID))(If (BinaryOp (ID)(ID))(Compound (UnaryOp (ID))))))(For (Assignment (ID)(Constant))(BinaryOp (ID)(BinaryOp (ID)(Constant)))(UnaryOp (ID))(Compound (FuncCall (ID)(ExprList (Constant)(ArrayRef (ID)(ID))))))(FuncCall (ID)(ExprList (Constant)(ArrayRef (ID)(BinaryOp (ID)(Constant)))))(FuncCall (ID)(ExprList (Constant)(ID)))(Return (Constant))))) |ET| 
-0.4782593657396724817765232273814  |BT| (FileAST (Decl (ArrayDecl (TypeDecl (IdentifierType))(BinaryOp (BinaryOp (Constant)(Constant))(Constant))))(Decl (ArrayDecl (TypeDecl (IdentifierType))(BinaryOp (BinaryOp (Constant)(Constant))(Constant))))(Decl (TypeDecl (IdentifierType)))(FuncDef (Decl (FuncDecl (ParamList (Decl (ArrayDecl (TypeDecl (IdentifierType))))(Decl (TypeDecl (IdentifierType)))(Decl (TypeDecl (IdentifierType)))(Decl (TypeDecl (IdentifierType)))(Decl (TypeDecl (IdentifierType))))(TypeDecl (IdentifierType))))(Compound (Decl (TypeDecl (IdentifierType)))(Decl (TypeDecl (IdentifierType)))(Decl (TypeDecl (IdentifierType)))(Decl (TypeDecl (IdentifierType))(BinaryOp (ID)(ID)))(Decl (TypeDecl (IdentifierType))(BinaryOp (ID)(ID)))(For (Assignment (ID)(Constant))(BinaryOp (ID)(ID))(UnaryOp (ID))(Compound (Assignment (ArrayRef (ID)(ID))(ArrayRef (ID)(BinaryOp (ID)(ID))))))(For (Assignment (ID)(Constant))(BinaryOp (ID)(ID))(UnaryOp (ID))(Compound (Assignment (ArrayRef (ID)(ID))(ArrayRef (ID)(BinaryOp (ID)(ID))))))(Assignment (ArrayRef (ID)(ID))(Assignment (ArrayRef (ID)(ID))(Constant)))(ExprList (Assignment (ID)(Constant))(Assignment (ID)(Constant)))(For (Assignment (ID)(ID))(BinaryOp (ID)(ID))(UnaryOp (ID))(Compound (UnaryOp (ID))(If (BinaryOp (ArrayRef (ID)(ID))(ArrayRef (ID)(ID)))(Compound (Assignment (ArrayRef (ID)(ID))(ArrayRef (ID)(UnaryOp (ID)))))(Compound (Assignment (ArrayRef (ID)(ID))(ArrayRef (ID)(UnaryOp (ID))))))))))(FuncDef (Decl (FuncDecl (ParamList (Decl (ArrayDecl (TypeDecl (IdentifierType))))(Decl (TypeDecl (IdentifierType)))(Decl (TypeDecl (IdentifierType)))(Decl (TypeDecl (IdentifierType))))(TypeDecl (IdentifierType))))(Compound (Decl (TypeDecl (IdentifierType)))(If (BinaryOp (BinaryOp (ID)(Constant))(ID))(Compound (Assignment (ID)(BinaryOp (BinaryOp (ID)(ID))(Constant)))(FuncCall (ID)(ExprList (ID)(ID)(ID)(ID)))(FuncCall (ID)(ExprList (ID)(ID)(ID)(ID)))(FuncCall (ID)(ExprList (ID)(ID)(ID)(ID)(ID)))))))(FuncDef (Decl (FuncDecl (TypeDecl (IdentifierType))))(Compound (Decl (ArrayDecl (TypeDecl (IdentifierType))(Constant)))(Decl (TypeDecl (IdentifierType)))(Decl (TypeDecl (IdentifierType)))(Assignment (ID)(Constant))(FuncCall (ID)(ExprList (Constant)(UnaryOp (ID))))(For (Assignment (ID)(Constant))(BinaryOp (ID)(ID))(UnaryOp (ID))(Compound (FuncCall (ID)(ExprList (Constant)(UnaryOp (ArrayRef (ID)(ID)))))))(FuncCall (ID)(ExprList (ID)(ID)(Constant)(ID)))(For (Assignment (ID)(Constant))(BinaryOp (ID)(ID))(UnaryOp (ID))(Compound (If (ID)(FuncCall (ID)(ExprList (Constant))))(FuncCall (ID)(ExprList (Constant)(ArrayRef (ID)(ID))))))(FuncCall (ID)(ExprList (Constant)(ID)))(Return (Constant))))) |ET| 
1  |BT| (FileAST (FuncDef (Decl (FuncDecl (TypeDecl (IdentifierType))))(Compound (Decl (PtrDecl (TypeDecl (IdentifierType))))(Decl (TypeDecl (IdentifierType)))(Decl (TypeDecl (IdentifierType)))(Decl (TypeDecl (IdentifierType)))(Decl (TypeDecl (IdentifierType)))(Decl (TypeDecl (IdentifierType)))(Decl (TypeDecl (IdentifierType))(Constant))(FuncCall (ID)(ExprList (Constant)(UnaryOp (ID))))(Assignment (ID)(Cast (Typename (PtrDecl (TypeDecl (IdentifierType))))(FuncCall (ID)(ExprList (BinaryOp (UnaryOp (Typename (TypeDecl (IdentifierType))))(ID))))))(If (BinaryOp (ID)(Constant))(Compound (FuncCall (ID)(ExprList (Constant)))))(For (Assignment (ID)(Constant))(BinaryOp (ID)(ID))(UnaryOp (ID))(Compound (Assignment (ArrayRef (ID)(ID))(Constant))))(For (Assignment (ID)(Constant))(BinaryOp (ID)(ID))(UnaryOp (ID))(Compound (FuncCall (ID)(ExprList (Constant)(UnaryOp (ArrayRef (ID)(ID)))))))(For (Assignment (ID)(Constant))(BinaryOp (ID)(ID))(UnaryOp (ID))(Compound (Assignment (ID)(ID))(For (Assignment (ID)(ID))(BinaryOp (ID)(ID))(UnaryOp (ID))(Compound (If (BinaryOp (ArrayRef (ID)(ID))(ArrayRef (ID)(ID)))(Compound (Assignment (ID)(ID))))))(Assignment (ID)(ArrayRef (ID)(ID)))(Assignment (ArrayRef (ID)(ID))(ArrayRef (ID)(ID)))(Assignment (ArrayRef (ID)(ID))(ID))(If (BinaryOp (ID)(ID))(UnaryOp (ID)))))(For (Assignment (ID)(Constant))(BinaryOp (ID)(ID))(UnaryOp (ID))(Compound (If (BinaryOp (ID)(BinaryOp (ID)(Constant)))(Compound (FuncCall (ID)(ExprList (Constant)(ArrayRef (ID)(ID)))))(Compound (FuncCall (ID)(ExprList (Constant)(ArrayRef (ID)(BinaryOp (ID)(Constant)))(ID)))))))(FuncCall (ID)(ExprList (ID)))(Return (Constant))))) |ET| 
-0.38551429285624949638844327637344  |BT| (FileAST (Decl (FuncDecl (ParamList (Typename (PtrDecl (TypeDecl (IdentifierType))))(Typename (TypeDecl (IdentifierType)))(Typename (TypeDecl (IdentifierType)))(Typename (TypeDecl (IdentifierType))))(TypeDecl (IdentifierType))))(Decl (FuncDecl (ParamList (Typename (PtrDecl (TypeDecl (IdentifierType))))(Typename (TypeDecl (IdentifierType)))(Typename (TypeDecl (IdentifierType))))(TypeDecl (IdentifierType))))(Decl (TypeDecl (IdentifierType))(Constant))(FuncDef (Decl (FuncDecl (TypeDecl (IdentifierType))))(Compound (Decl (TypeDecl (IdentifierType)))(Decl (TypeDecl (IdentifierType)))(FuncCall (ID)(ExprList (Constant)(UnaryOp (ID))))(Decl (ArrayDecl (TypeDecl (IdentifierType))(ID)))(For (Assignment (ID)(Constant))(BinaryOp (ID)(ID))(UnaryOp (ID))(Compound (FuncCall (ID)(ExprList (Constant)(UnaryOp (ArrayRef (ID)(ID)))))))(FuncCall (ID)(ExprList (UnaryOp (ArrayRef (ID)(Constant)))(Constant)(ID)))(For (Assignment (ID)(Constant))(BinaryOp (ID)(ID))(UnaryOp (ID))(Compound (FuncCall (ID)(ExprList (Constant)(ArrayRef (ID)(ID))))(If (BinaryOp (ID)(BinaryOp (ID)(Constant)))(FuncCall (ID)(ExprList (Constant))))))(FuncCall (ID)(ExprList (Constant)(ID)))(Return (Constant))))(FuncDef (Decl (FuncDecl (ParamList (Decl (PtrDecl (TypeDecl (IdentifierType))))(Decl (TypeDecl (IdentifierType)))(Decl (TypeDecl (IdentifierType)))(Decl (TypeDecl (IdentifierType))))(TypeDecl (IdentifierType))))(Compound (Decl (TypeDecl (IdentifierType))(BinaryOp (ID)(ID)))(Decl (TypeDecl (IdentifierType))(BinaryOp (ID)(ID)))(Decl (TypeDecl (IdentifierType)))(Decl (TypeDecl (IdentifierType)))(Decl (ArrayDecl (TypeDecl (IdentifierType))(ID)))(Decl (ArrayDecl (TypeDecl (IdentifierType))(ID)))(For (Assignment (ID)(Constant))(BinaryOp (ID)(ID))(UnaryOp (ID))(Compound (Assignment (ArrayRef (ID)(ID))(ArrayRef (ID)(BinaryOp (ID)(ID))))))(For (Assignment (ID)(Constant))(BinaryOp (ID)(ID))(UnaryOp (ID))(Compound (Assignment (ArrayRef (ID)(ID))(ArrayRef (ID)(BinaryOp (ID)(ID))))))(Assignment (ArrayRef (ID)(ID))(Constant))(Assignment (ArrayRef (ID)(ID))(Constant))(Decl (TypeDecl (IdentifierType))(Constant))(Assignment (ID)(Constant))(For (Assignment (ID)(ID))(BinaryOp (ID)(ID))(UnaryOp (ID))(Compound (Assignment (ID)(Constant))(If (BinaryOp (ArrayRef (ID)(ID))(ArrayRef (ID)(ID)))(Compound (Assignment (ArrayRef (ID)(ID))(ArrayRef (ID)(ID)))(Assignment (ID)(Constant)))(Compound (Assignment (ArrayRef (ID)(ID))(ArrayRef (ID)(ID)))(Assignment (ID)(Constant))))))))(FuncDef (Decl (FuncDecl (ParamList (Decl (PtrDecl (TypeDecl (IdentifierType))))(Decl (TypeDecl (IdentifierType)))(Decl (TypeDecl (IdentifierType))))(TypeDecl (IdentifierType))))(Compound (If (BinaryOp (BinaryOp (ID)(Constant))(ID))(Compound (Decl (TypeDecl (IdentifierType))(BinaryOp (BinaryOp (ID)(ID))(Constant)))(FuncCall (ID)(ExprList (UnaryOp (ArrayRef (ID)(Constant)))(ID)(ID)))(FuncCall (ID)(ExprList (UnaryOp (ArrayRef (ID)(Constant)))(ID)(ID)))(FuncCall (ID)(ExprList (UnaryOp (ArrayRef (ID)(Constant)))(ID)(ID)(ID)))))))) |ET| 
1  |BT| (FileAST (FuncDef (Decl (FuncDecl (TypeDecl (IdentifierType))))(Compound (Decl (TypeDecl (IdentifierType)))(Decl (TypeDecl (IdentifierType)))(Decl (TypeDecl (IdentifierType)))(Decl (TypeDecl (IdentifierType)))(Decl (TypeDecl (IdentifierType)))(Decl (TypeDecl (IdentifierType)))(Decl (TypeDecl (IdentifierType)))(Decl (TypeDecl (IdentifierType))(Constant))(Decl (ArrayDecl (TypeDecl (IdentifierType))(Constant)))(FuncCall (ID)(ExprList (Constant)(UnaryOp (ID))))(If (BinaryOp (BinaryOp (Constant)(ID))(BinaryOp (ID)(Constant)))(Compound (For (Assignment (ID)(Constant))(BinaryOp (ID)(ID))(UnaryOp (ID))(Compound (FuncCall (ID)(ExprList (Constant)(UnaryOp (ArrayRef (ID)(ID)))))))))(For (Assignment (ID)(Constant))(BinaryOp (ID)(BinaryOp (ID)(Constant)))(UnaryOp (ID))(Compound (Assignment (ID)(ID))(For (Assignment (ID)(ID))(BinaryOp (ID)(BinaryOp (ID)(Constant)))(UnaryOp (ID))(Compound (If (BinaryOp (ArrayRef (ID)(ID))(ArrayRef (ID)(ID)))(Compound (Assignment (ID)(ID))))))(If (BinaryOp (ID)(ID))(UnaryOp (ID)))(Assignment (ID)(ArrayRef (ID)(ID)))(Assignment (ArrayRef (ID)(ID))(ArrayRef (ID)(ID)))(Assignment (ArrayRef (ID)(ID))(ID))))(For (Assignment (ID)(Constant))(BinaryOp (ID)(ID))(UnaryOp (ID))(Compound (FuncCall (ID)(ExprList (Constant)(ArrayRef (ID)(ID))))(If (BinaryOp (ID)(BinaryOp (ID)(Constant)))(FuncCall (ID)(ExprList (Constant))))))(FuncCall (ID)(ExprList (Constant)))(FuncCall (ID)(ExprList (Constant)(ID)))(FuncCall (ID)(ExprList (Constant)))(Return (Constant))))) |ET| 
-0.4356034660777440281620442874555  |BT| (FileAST (Decl (PtrDecl (TypeDecl (IdentifierType))))(Decl (TypeDecl (IdentifierType))(Constant))(Decl (TypeDecl (IdentifierType)))(FuncDef (Decl (FuncDecl (ParamList (Decl (PtrDecl (TypeDecl (IdentifierType))))(Decl (TypeDecl (IdentifierType)))(Decl (TypeDecl (IdentifierType))))(TypeDecl (IdentifierType))))(Compound (Decl (TypeDecl (IdentifierType)))(Decl (TypeDecl (IdentifierType)))(Decl (TypeDecl (IdentifierType)))(Decl (TypeDecl (IdentifierType)))(If (BinaryOp (ID)(ID))(Return))(Assignment (ID)(BinaryOp (BinaryOp (ID)(ID))(Constant)))(FuncCall (ID)(ExprList (ID)(ID)(ID)))(FuncCall (ID)(ExprList (ID)(BinaryOp (ID)(Constant))(ID)))(For (Assignment (ID)(ID))(BinaryOp (ID)(ID))(UnaryOp (ID))(Assignment (ArrayRef (ID)(ID))(ArrayRef (ID)(ID))))(For (ExprList (Assignment (ID)(ID))(Assignment (ID)(BinaryOp (ID)(Constant))))(BinaryOp (ID)(ID))(ExprList (UnaryOp (ID))(UnaryOp (ID)))(Assignment (ArrayRef (ID)(ID))(ArrayRef (ID)(ID))))(Assignment (ID)(ID))(Assignment (ID)(ID))(For (Assignment (ID)(ID))(BinaryOp (ID)(ID))(UnaryOp (ID))(Compound (If (BinaryOp (ArrayRef (ID)(ID))(ArrayRef (ID)(ID)))(Assignment (ArrayRef (ID)(ID))(ArrayRef (ID)(UnaryOp (ID))))(Assignment (ArrayRef (ID)(ID))(ArrayRef (ID)(UnaryOp (ID)))))(UnaryOp (ID))))))(FuncDef (Decl (FuncDecl (TypeDecl (IdentifierType))))(Compound (Decl (PtrDecl (TypeDecl (IdentifierType))))(Decl (TypeDecl (IdentifierType)))(FuncCall (ID)(ExprList (Constant)(UnaryOp (ID))))(Assignment (ID)(Cast (Typename (PtrDecl (TypeDecl (IdentifierType))))(FuncCall (ID)(ExprList (BinaryOp (UnaryOp (Typename (TypeDecl (IdentifierType))))(ID))))))(Assignment (ID)(Cast (Typename (PtrDecl (TypeDecl (IdentifierType))))(FuncCall (ID)(ExprList (BinaryOp (UnaryOp (Typename (TypeDecl (IdentifierType))))(ID))))))(For (Assignment (ID)(Constant))(BinaryOp (ID)(ID))(UnaryOp (ID))(FuncCall (ID)(ExprList (Constant)(UnaryOp (ArrayRef (ID)(ID))))))(FuncCall (ID)(ExprList (ID)(Constant)(BinaryOp (ID)(Constant))))(For (Assignment (ID)(Constant))(BinaryOp (ID)(ID))(UnaryOp (ID))(Compound (FuncCall (ID)(ExprList (Constant)(ArrayRef (ID)(ID))))(If (BinaryOp (ID)(BinaryOp (ID)(Constant)))(FuncCall (ID)(ExprList (Constant)))(FuncCall (ID)(ExprList (Constant))))))(FuncCall (ID)(ExprList (Constant)(ID)))(Return (Constant))))) |ET| 
