SVM-light Version V5.01-TK-1.5
5 # kernel type
3 # kernel parameter -d 
1 # kernel parameter -g 
1 # kernel parameter -s 
1 # kernel parameter -r 
empty# kernel parameter -u 
0.4 # kernel parameter -L 
1 # kernel parameter -T 
T # kernel parameter -C 
1 # kernel parameter -F 
1 # kernel parameter -S 
0.400000 # kernel parameter -M 
3 # kernel parameter -N 
S # kernel parameter -V 
S # kernel parameter -W 
0 # kernel parameter -U 
0 # highest feature index 
600 # number of training documents 
410 # number of support vectors plus 1 
0.85322275 # threshold b, each following line is a SV (starting with alpha*y)
-0.22626513866775715966284110436391  |BT| (FileAST (Decl (TypeDecl (IdentifierType))(Constant))(Decl (TypeDecl (IdentifierType))(Constant))(Decl (TypeDecl (IdentifierType))(Constant))(Decl (TypeDecl (IdentifierType)))(Decl (ArrayDecl (ArrayDecl (TypeDecl (IdentifierType))(Constant))(Constant)))(Decl (ArrayDecl (TypeDecl (IdentifierType))(Constant)))(Decl (ArrayDecl (TypeDecl (IdentifierType))(Constant)))(Decl (ArrayDecl (TypeDecl (IdentifierType))(Constant)))(Decl (TypeDecl (IdentifierType)))(FuncDef (Decl (FuncDecl (ParamList (Decl (TypeDecl (IdentifierType))))(TypeDecl (IdentifierType))))(Compound (Decl (TypeDecl (IdentifierType)))(Assignment (ArrayRef (ID)(ID))(ID))(UnaryOp (ID))(Assignment (ArrayRef (ID)(ID))(ID))(For (Assignment (ID)(Constant))(BinaryOp (ID)(ID))(UnaryOp (ID))(Compound (If (BinaryOp (ArrayRef (ArrayRef (ID)(ID))(ID))(Constant))(Continue))(If (BinaryOp (ArrayRef (ID)(ID))(ID))(Compound (FuncCall (ID)(ExprList (ID)))))))(Assignment (ArrayRef (ID)(ID))(ID))(Assignment (ArrayRef (ID)(ID))(UnaryOp (ID)))))(FuncDef (Decl (FuncDecl (TypeDecl (IdentifierType))))(Compound (Decl (TypeDecl (IdentifierType)))(Decl (TypeDecl (IdentifierType)))(For (Assignment (ID)(Constant))(BinaryOp (ID)(ID))(UnaryOp (ID))(Assignment (ArrayRef (ID)(ID))(ID)))(Assignment (ID)(Constant))(For (Assignment (ID)(Constant))(BinaryOp (ID)(ID))(UnaryOp (ID))(Compound (If (BinaryOp (ArrayRef (ID)(ID))(ID))(FuncCall (ID)(ExprList (ID))))))(For (Assignment (ID)(Constant))(BinaryOp (ID)(ID))(UnaryOp (ID))(Compound (FuncCall (ID)(ExprList (Constant)(BinaryOp (ID)(Constant))(ArrayRef (ID)(ID))(ArrayRef (ID)(ID))))))))(FuncDef (Decl (FuncDecl (TypeDecl (IdentifierType))))(Compound (Decl (TypeDecl (IdentifierType)))(Decl (TypeDecl (IdentifierType)))(Decl (TypeDecl (IdentifierType)))(Decl (TypeDecl (IdentifierType)))(Decl (TypeDecl (IdentifierType)))(FuncCall (ID)(ExprList (Constant)(UnaryOp (ID))))(For (Assignment (ID)(Constant))(BinaryOp (ID)(ID))(UnaryOp (ID))(Compound (For (Assignment (ID)(Constant))(BinaryOp (ID)(ID))(UnaryOp (ID))(Assignment (ArrayRef (ArrayRef (ID)(ID))(ID))(Constant)))))(For (Assignment (ID)(Constant))(BinaryOp (ID)(ID))(UnaryOp (ID))(Compound (FuncCall (ID)(ExprList (Constant)(UnaryOp (ID))(UnaryOp (ID))))(UnaryOp (ID))(For (Assignment (ID)(Constant))(BinaryOp (ID)(ID))(UnaryOp (ID))(Compound (FuncCall (ID)(ExprList (Constant)(UnaryOp (ID))))(UnaryOp (ID))(Assignment (ArrayRef (ArrayRef (ID)(ID))(ID))(Constant))))))(FuncCall (ID))(Return (Constant))))) |ET| 
-0.15449780763603393474170388799394  |BT| (FileAST (Decl (TypeDecl (IdentifierType)))(Decl (ArrayDecl (ArrayDecl (TypeDecl (IdentifierType))(Constant))(Constant)))(Decl (ArrayDecl (TypeDecl (IdentifierType))(Constant)))(Decl (ArrayDecl (TypeDecl (IdentifierType))(Constant)))(Decl (ArrayDecl (TypeDecl (IdentifierType))(Constant)))(Decl (TypeDecl (IdentifierType)))(Decl (FuncDecl (ParamList (Typename (TypeDecl (IdentifierType))))(TypeDecl (IdentifierType))))(Decl (FuncDecl (ParamList (Typename (TypeDecl (IdentifierType))))(TypeDecl (IdentifierType))))(FuncDef (Decl (FuncDecl (TypeDecl (IdentifierType))))(Compound (Decl (TypeDecl (IdentifierType)))(Decl (TypeDecl (IdentifierType)))(Decl (TypeDecl (IdentifierType)))(Decl (TypeDecl (IdentifierType)))(Decl (TypeDecl (IdentifierType)))(FuncCall (ID)(ExprList (Constant)(UnaryOp (ID))))(For (Assignment (ID)(Constant))(BinaryOp (ID)(ID))(UnaryOp (ID))(Compound (For (Assignment (ID)(Constant))(BinaryOp (ID)(ID))(UnaryOp (ID))(Compound (Assignment (ArrayRef (ArrayRef (ID)(ID))(ID))(Constant))))))(For (Assignment (ID)(Constant))(BinaryOp (ID)(ID))(UnaryOp (ID))(Compound (FuncCall (ID)(ExprList (Constant)(UnaryOp (ID))(UnaryOp (ID))))(For (Assignment (ID)(Constant))(BinaryOp (ID)(ID))(UnaryOp (ID))(Compound (FuncCall (ID)(ExprList (Constant)(UnaryOp (ID))))(Assignment (ArrayRef (ArrayRef (ID)(BinaryOp (ID)(Constant)))(BinaryOp (ID)(Constant)))(Constant))))))(FuncCall (ID))(Return (Constant))))(FuncDef (Decl (FuncDecl (ParamList (Decl (TypeDecl (IdentifierType))))(TypeDecl (IdentifierType))))(Compound (Decl (TypeDecl (IdentifierType)))(Assignment (ArrayRef (ID)(ID))(Constant))(Assignment (ArrayRef (ID)(ID))(UnaryOp (ID)))(For (Assignment (ID)(Constant))(BinaryOp (ID)(ID))(UnaryOp (ID))(Compound (If (BinaryOp (ArrayRef (ArrayRef (ID)(ID))(ID))(Constant))(Continue))(If (BinaryOp (ArrayRef (ID)(ID))(Constant))(Compound (FuncCall (ID)(ExprList (ID)))))))(Assignment (ArrayRef (ID)(ID))(Constant))(Assignment (ArrayRef (ID)(ID))(UnaryOp (ID)))))(FuncDef (Decl (FuncDecl (TypeDecl (IdentifierType))))(Compound (Decl (TypeDecl (IdentifierType)))(For (Assignment (ID)(Constant))(BinaryOp (ID)(ID))(UnaryOp (ID))(Compound (Assignment (ArrayRef (ID)(ID))(Constant))))(Assignment (ID)(Constant))(For (Assignment (ID)(Constant))(BinaryOp (ID)(ID))(UnaryOp (ID))(Compound (If (BinaryOp (ArrayRef (ID)(ID))(Constant))(Compound (FuncCall (ID)(ExprList (ID)))))))(For (Assignment (ID)(Constant))(BinaryOp (ID)(ID))(UnaryOp (ID))(Compound (FuncCall (ID)(ExprList (Constant)(BinaryOp (ID)(Constant))(ArrayRef (ID)(ID))(ArrayRef (ID)(ID))))))))) |ET| 
-0.98120307130407391493776003699168  |BT| (FileAST (FuncDef (Decl (FuncDecl (ParamList (Decl (PtrDecl (TypeDecl (IdentifierType))))(Decl (TypeDecl (IdentifierType))))(TypeDecl (IdentifierType))))(Compound (Decl (TypeDecl (IdentifierType)))(Decl (TypeDecl (IdentifierType))(Constant))(UnaryOp (ID))(Assignment (StructRef (ArrayRef (ID)(ID))(ID))(ID))(Assignment (StructRef (ArrayRef (ID)(ID))(ID))(Constant))(For (Assignment (ID)(Constant))(BinaryOp (ID)(ArrayRef (StructRef (ArrayRef (ID)(ID))(ID))(ID)))(UnaryOp (ID))(Compound (If (BinaryOp (StructRef (ArrayRef (ID)(ArrayRef (StructRef (ArrayRef (ID)(ID))(ID))(ID)))(ID))(Constant))(Compound (Assignment (StructRef (ArrayRef (ID)(ArrayRef (StructRef (ArrayRef (ID)(ID))(ID))(ID)))(ID))(Constant))(FuncCall (ID)(ExprList (ID)(ArrayRef (StructRef (ArrayRef (ID)(ID))(ID))(ID))))))))(UnaryOp (ID))(Assignment (StructRef (ArrayRef (ID)(ID))(ID))(ID))(Return)))(FuncDef (Decl (FuncDecl (TypeDecl (IdentifierType))))(Compound (Decl (TypeDecl (IdentifierType)))(Decl (TypeDecl (IdentifierType)))(Decl (TypeDecl (IdentifierType)))(Decl (ArrayDecl (TypeDecl (IdentifierType))(Constant)))(FuncCall (ID)(ExprList (Constant)(UnaryOp (ID))))(For (Assignment (ID)(Constant))(BinaryOp (ID)(ID))(UnaryOp (ID))(Compound (FuncCall (ID)(ExprList (Constant)(UnaryOp (ArrayRef (StructRef (ArrayRef (ID)(ID))(ID))(ID)))(UnaryOp (ArrayRef (StructRef (ArrayRef (ID)(ID))(ID))(ID)))))(If (BinaryOp (ArrayRef (StructRef (ArrayRef (ID)(ID))(ID))(ID))(Constant))(Compound (For (Assignment (ID)(Constant))(BinaryOp (ID)(ArrayRef (StructRef (ArrayRef (ID)(ID))(ID))(ID)))(UnaryOp (ID))(FuncCall (ID)(ExprList (Constant)(UnaryOp (ArrayRef (StructRef (ArrayRef (ID)(ID))(ID))(ID))))))))))(For (Assignment (ID)(Constant))(BinaryOp (ID)(ID))(UnaryOp (ID))(Assignment (StructRef (ArrayRef (ID)(ID))(ID))(Constant)))(For (Assignment (ID)(Constant))(BinaryOp (ID)(ID))(UnaryOp (ID))(If (BinaryOp (StructRef (ArrayRef (ID)(ID))(ID))(Constant))(FuncCall (ID)(ExprList (ID)(ID)))))(For (Assignment (ID)(Constant))(BinaryOp (ID)(ID))(UnaryOp (ID))(Compound (FuncCall (ID)(ExprList (Constant)(ArrayRef (StructRef (ArrayRef (ID)(ID))(ID))(ID))(StructRef (ArrayRef (ID)(ID))(ID))(StructRef (ArrayRef (ID)(ID))(ID))))))(Return (Constant))))) |ET| 
-0.21065303452606942702374226428219  |BT| (FileAST (Decl (FuncDecl (ParamList (Decl (PtrDecl (TypeDecl (IdentifierType))))(Decl (PtrDecl (TypeDecl (IdentifierType))))(Decl (TypeDecl (IdentifierType)))(Decl (TypeDecl (IdentifierType)))(Decl (TypeDecl (IdentifierType))))(TypeDecl (IdentifierType))))(Decl (TypeDecl (IdentifierType)))(Decl (ArrayDecl (TypeDecl (IdentifierType))(Constant))(InitList (Constant)))(FuncDef (Decl (FuncDecl (ParamList (Typename (TypeDecl (IdentifierType))))(TypeDecl (IdentifierType))))(Compound (Decl (TypeDecl (IdentifierType)))(Decl (TypeDecl (IdentifierType)))(Decl (TypeDecl (IdentifierType)))(Decl (TypeDecl (IdentifierType)))(Decl (TypeDecl (IdentifierType)))(Decl (TypeDecl (IdentifierType)))(Decl (ArrayDecl (TypeDecl (IdentifierType))(Constant))(InitList (Constant)))(Decl (PtrDecl (TypeDecl (IdentifierType)))(Constant))(Decl (ArrayDecl (TypeDecl (IdentifierType))(Constant))(InitList (Constant)))(FuncCall (ID)(ExprList (Constant)(UnaryOp (ID))))(Assignment (ID)(Cast (Typename (PtrDecl (TypeDecl (IdentifierType))))(FuncCall (ID)(ExprList (BinaryOp (BinaryOp (UnaryOp (Typename (TypeDecl (IdentifierType))))(ID))(ID))))))(Assignment (ID)(Constant))(For (Assignment (ID)(Constant))(BinaryOp (ID)(ID))(UnaryOp (ID))(Compound (FuncCall (ID)(ExprList (Constant)(UnaryOp (ID))))(FuncCall (ID)(ExprList (Constant)(UnaryOp (ID))))(For (Assignment (ID)(Constant))(BinaryOp (ID)(ID))(UnaryOp (ID))(Compound (If (BinaryOp (ID)(ID))(Compound (FuncCall (ID)(ExprList (Constant)(UnaryOp (ArrayRef (ID)(ID))))))(Compound (Assignment (ArrayRef (ID)(ID))(Constant))))))(For (Assignment (ID)(Constant))(BinaryOp (ID)(ID))(UnaryOp (ID))(Compound (If (BinaryOp (BinaryOp (ID)(Constant))(ArrayRef (ID)(ID)))(Compound (Assignment (ArrayRef (ID)(BinaryOp (BinaryOp (ID)(ID))(ID)))(Constant))(UnaryOp (ID)))(Compound (Assignment (ArrayRef (ID)(BinaryOp (BinaryOp (ID)(ID))(ID)))(Constant))))))(Assignment (ID)(Constant))))(Assignment (ID)(Constant))(For (Assignment (ID)(Constant))(BinaryOp (ID)(ID))(UnaryOp (ID))(Compound (If (BinaryOp (ArrayRef (ID)(ID))(Constant))(Compound (FuncCall (ID)(ExprList (ID)(ID)(ID)(Constant)(ID)))))))(For (Assignment (ID)(Constant))(BinaryOp (ID)(ID))(UnaryOp (ID))(Compound (FuncCall (ID)(ExprList (Constant)(BinaryOp (ID)(Constant))(ArrayRef (ID)(ID))(ArrayRef (ID)(ID))))))(FuncCall (ID)(ExprList (ID)))(Return (Constant))))(FuncDef (Decl (FuncDecl (ParamList (Decl (PtrDecl (TypeDecl (IdentifierType))))(Decl (PtrDecl (TypeDecl (IdentifierType))))(Decl (TypeDecl (IdentifierType)))(Decl (TypeDecl (IdentifierType)))(Decl (TypeDecl (IdentifierType))))(TypeDecl (IdentifierType))))(Compound (Decl (TypeDecl (IdentifierType)))(If (BinaryOp (BinaryOp (ArrayRef (ID)(ID))(Constant))(BinaryOp (ArrayRef (ID)(ID))(ID)))(Compound (Return))(If (BinaryOp (ArrayRef (ID)(ID))(Constant))(Compound (Assignment (ArrayRef (ID)(ID))(ID)))(Compound (Return))))(UnaryOp (ID))(UnaryOp (ID))(For (Assignment (ID)(Constant))(BinaryOp (ID)(ID))(UnaryOp (ID))(Compound (If (BinaryOp (BinaryOp (BinaryOp (ArrayRef (ID)(BinaryOp (BinaryOp (ID)(ID))(ID)))(Constant))(BinaryOp (ArrayRef (ID)(ID))(Constant)))(BinaryOp (ID)(ID)))(Compound (FuncCall (ID)(ExprList (ID)(ID)(ID)(ID)(ID)))))))(Assignment (ArrayRef (ID)(ID))(ID))(UnaryOp (ID))))) |ET| 
-0.097740962707476508608550602730247  |BT| (FileAST (Decl (TypeDecl (IdentifierType)))(Decl (ArrayDecl (ArrayDecl (TypeDecl (IdentifierType))(Constant))(Constant)))(Decl (TypeDecl (IdentifierType)))(Decl (ArrayDecl (TypeDecl (IdentifierType))(Constant)))(Decl (ArrayDecl (TypeDecl (IdentifierType))(Constant)))(Decl (ArrayDecl (TypeDecl (IdentifierType))(Constant)))(FuncDef (Decl (FuncDecl (ParamList (Decl (TypeDecl (IdentifierType))))(TypeDecl (IdentifierType))))(Compound (Decl (TypeDecl (IdentifierType)))(Assignment (ArrayRef (ID)(ID))(Constant))(Assignment (ArrayRef (ID)(ID))(UnaryOp (ID)))(For (Assignment (ID)(Constant))(BinaryOp (ID)(ID))(UnaryOp (ID))(Compound (If (BinaryOp (ArrayRef (ArrayRef (ID)(ID))(ID))(Constant))(Continue))(If (BinaryOp (ArrayRef (ID)(ID))(Constant))(Compound (FuncCall (ID)(ExprList (ID)))))))(Assignment (ArrayRef (ID)(ID))(Constant))(Assignment (ArrayRef (ID)(ID))(UnaryOp (ID)))))(FuncDef (Decl (FuncDecl (TypeDecl (IdentifierType))))(Compound (Decl (TypeDecl (IdentifierType)))(For (Assignment (ID)(Constant))(BinaryOp (ID)(ID))(UnaryOp (ID))(Assignment (ArrayRef (ID)(ID))(Constant)))(Assignment (ID)(Constant))(For (Assignment (ID)(Constant))(BinaryOp (ID)(ID))(UnaryOp (ID))(Compound (If (BinaryOp (ArrayRef (ID)(ID))(Constant))(FuncCall (ID)(ExprList (ID))))))(For (Assignment (ID)(Constant))(BinaryOp (ID)(ID))(UnaryOp (ID))(Compound (FuncCall (ID)(ExprList (Constant)(BinaryOp (ID)(Constant))(ArrayRef (ID)(ID))(ArrayRef (ID)(ID))))))))(FuncDef (Decl (FuncDecl (TypeDecl (IdentifierType))))(Compound (Decl (TypeDecl (IdentifierType)))(Decl (TypeDecl (IdentifierType)))(Decl (TypeDecl (IdentifierType)))(Decl (TypeDecl (IdentifierType)))(Decl (TypeDecl (IdentifierType)))(FuncCall (ID)(ExprList (Constant)(UnaryOp (ID))))(For (Assignment (ID)(Constant))(BinaryOp (ID)(ID))(UnaryOp (ID))(Compound (For (Assignment (ID)(Constant))(BinaryOp (ID)(ID))(UnaryOp (ID))(Compound (Assignment (ArrayRef (ArrayRef (ID)(ID))(ID))(Constant))))))(For (Assignment (ID)(Constant))(BinaryOp (ID)(ID))(UnaryOp (ID))(Compound (FuncCall (ID)(ExprList (Constant)(UnaryOp (ID))(UnaryOp (ID))))(UnaryOp (ID))(For (Assignment (ID)(Constant))(BinaryOp (ID)(ID))(UnaryOp (ID))(Compound (FuncCall (ID)(ExprList (Constant)(UnaryOp (ID))))(UnaryOp (ID))(Assignment (ArrayRef (ArrayRef (ID)(ID))(ID))(Constant))))))(FuncCall (ID))(Return (Constant))))) |ET| 
1  |BT| (FileAST (Decl (FuncDecl (ParamList (Typename (TypeDecl (IdentifierType))))(TypeDecl (IdentifierType))))(FuncDef (Decl (FuncDecl (TypeDecl (IdentifierType))))(Compound (Decl (TypeDecl (IdentifierType)))(Decl (TypeDecl (IdentifierType)))(Decl (TypeDecl (IdentifierType)))(Decl (TypeDecl (IdentifierType))(Constant))(FuncCall (ID)(ExprList (Constant)(UnaryOp (ID))))(Decl (TypeDecl (IdentifierType)))(Assignment (ID)(BinaryOp (ID)(Constant)))(Decl (ArrayDecl (TypeDecl (IdentifierType))(ID)))(For (Assignment (ID)(Constant))(BinaryOp (ID)(ID))(UnaryOp (ID))(FuncCall (ID)(ExprList (Constant)(UnaryOp (ArrayRef (ID)(ID))))))(Decl (TypeDecl (IdentifierType)))(FuncCall (ID)(ExprList (Constant)(UnaryOp (ID))))(Decl (ArrayDecl (TypeDecl (IdentifierType))(ID)))(For (Assignment (ID)(Constant))(BinaryOp (ID)(ID))(UnaryOp (ID))(FuncCall (ID)(ExprList (Constant)(UnaryOp (ArrayRef (ID)(ID))))))(For (Assignment (ID)(Constant))(BinaryOp (ID)(ID))(UnaryOp (ID))(Compound (Assignment (ID)(Constant))(While (BinaryOp (ID)(ID))(Compound (If (BinaryOp (ArrayRef (ID)(ID))(ArrayRef (ID)(ID)))(Compound (UnaryOp (ID))(Break)))(UnaryOp (ID))))))(FuncCall (ID)(ExprList (Constant)(ID)))(Return (Constant))))) |ET| 
0.39603046720641493783077180523833  |BT| (FileAST (Decl (FuncDecl (ParamList (Typename (PtrDecl (TypeDecl (IdentifierType))))(Typename (TypeDecl (IdentifierType)))(Typename (TypeDecl (IdentifierType))))(TypeDecl (IdentifierType))))(FuncDef (Decl (FuncDecl (TypeDecl (IdentifierType))))(Compound (Decl (TypeDecl (IdentifierType)))(Decl (TypeDecl (IdentifierType)))(Decl (TypeDecl (IdentifierType)))(Decl (TypeDecl (IdentifierType))(Constant))(Decl (TypeDecl (IdentifierType))(Constant))(FuncCall (ID)(ExprList (Constant)(UnaryOp (ID))))(Decl (ArrayDecl (TypeDecl (IdentifierType))(ID)))(For (Assignment (ID)(Constant))(BinaryOp (ID)(ID))(UnaryOp (ID))(Compound (FuncCall (ID)(ExprList (Constant)(UnaryOp (ArrayRef (ID)(ID)))))))(FuncCall (ID)(ExprList (Constant)(UnaryOp (ID))))(Decl (ArrayDecl (TypeDecl (IdentifierType))(ID)))(For (Assignment (ID)(Constant))(BinaryOp (ID)(ID))(UnaryOp (ID))(Compound (FuncCall (ID)(ExprList (Constant)(UnaryOp (ArrayRef (ID)(ID)))))))(For (Assignment (ID)(Constant))(BinaryOp (ID)(ID))(UnaryOp (ID))(Compound (If (BinaryOp (FuncCall (ID)(ExprList (ID)(ID)(ArrayRef (ID)(ID))))(Constant))(Compound (UnaryOp (ID))))))(FuncCall (ID)(ExprList (Constant)(ID)))(Return (Constant))))(FuncDef (Decl (FuncDecl (ParamList (Decl (PtrDecl (TypeDecl (IdentifierType))))(Decl (TypeDecl (IdentifierType)))(Decl (TypeDecl (IdentifierType))))(TypeDecl (IdentifierType))))(Compound (Decl (TypeDecl (IdentifierType)))(For (Assignment (ID)(Constant))(BinaryOp (ID)(ID))(UnaryOp (ID))(Compound (If (BinaryOp (ArrayRef (ID)(ID))(ID))(Return (Constant)))))(Return (Constant))))) |ET| 
0.37012133340850750240491606746218  |BT| (FileAST (FuncDef (Decl (FuncDecl (TypeDecl (IdentifierType))))(Compound (Decl (TypeDecl (IdentifierType)))(Decl (TypeDecl (IdentifierType)))(Decl (TypeDecl (IdentifierType))(Constant))(Decl (TypeDecl (IdentifierType)))(Decl (TypeDecl (IdentifierType)))(FuncCall (ID)(ExprList (Constant)(UnaryOp (ID))))(Decl (ArrayDecl (TypeDecl (IdentifierType))(ID)))(For (Assignment (ID)(Constant))(BinaryOp (ID)(ID))(UnaryOp (ID))(Compound (FuncCall (ID)(ExprList (Constant)(UnaryOp (ArrayRef (ID)(ID)))))))(FuncCall (ID)(ExprList (Constant)(UnaryOp (ID))))(Decl (ArrayDecl (TypeDecl (IdentifierType))(ID)))(For (Assignment (ID)(Constant))(BinaryOp (ID)(ID))(UnaryOp (ID))(Compound (FuncCall (ID)(ExprList (Constant)(UnaryOp (ArrayRef (ID)(ID)))))))(For (Assignment (ID)(Constant))(BinaryOp (ID)(ID))(UnaryOp (ID))(Compound (For (Assignment (ID)(Constant))(BinaryOp (ID)(ID))(UnaryOp (ID))(Compound (If (BinaryOp (ArrayRef (ID)(ID))(ArrayRef (ID)(ID)))(Compound (UnaryOp (ID))(Break)))))))(FuncCall (ID)(ExprList (Constant)(ID)))(Return (Constant))))) |ET| 
0.75962236507610736424567221547477  |BT| (FileAST (FuncDef (Decl (FuncDecl (TypeDecl (IdentifierType))))(Compound (Decl (TypeDecl (IdentifierType)))(Decl (TypeDecl (IdentifierType)))(Decl (TypeDecl (IdentifierType)))(Decl (TypeDecl (IdentifierType)))(Decl (ArrayDecl (TypeDecl (IdentifierType))(Constant)))(Decl (ArrayDecl (TypeDecl (IdentifierType))(Constant)))(Decl (TypeDecl (IdentifierType))(Constant))(FuncCall (ID)(ExprList (Constant)(UnaryOp (ID))))(For (Assignment (ID)(Constant))(BinaryOp (ID)(ID))(UnaryOp (ID))(FuncCall (ID)(ExprList (Constant)(UnaryOp (ArrayRef (ID)(ID))))))(FuncCall (ID)(ExprList (Constant)(UnaryOp (ID))))(For (Assignment (ID)(Constant))(BinaryOp (ID)(ID))(UnaryOp (ID))(FuncCall (ID)(ExprList (Constant)(UnaryOp (ArrayRef (ID)(ID))))))(For (Assignment (ID)(Constant))(BinaryOp (ID)(ID))(UnaryOp (ID))(For (Assignment (ID)(Constant))(BinaryOp (ID)(ID))(UnaryOp (ID))(If (BinaryOp (ArrayRef (ID)(ID))(ArrayRef (ID)(ID)))(Compound (UnaryOp (ID))(Break)))))(FuncCall (ID)(ExprList (Constant)(ID)))(Return (Constant))))) |ET| 
1  |BT| (FileAST (FuncDef (Decl (FuncDecl (ParamList (Decl (PtrDecl (TypeDecl (IdentifierType))))(Decl (PtrDecl (TypeDecl (IdentifierType)))))(TypeDecl (IdentifierType))))(Compound (Return (BinaryOp (UnaryOp (Cast (Typename (PtrDecl (TypeDecl (IdentifierType))))(ID)))(UnaryOp (Cast (Typename (PtrDecl (TypeDecl (IdentifierType))))(ID)))))))(FuncDef (Decl (FuncDecl (ParamList (Typename (TypeDecl (IdentifierType))))(TypeDecl (IdentifierType))))(Compound (Decl (ArrayDecl (TypeDecl (IdentifierType))(Constant)))(Decl (ArrayDecl (TypeDecl (IdentifierType))(Constant)))(Decl (ArrayDecl (TypeDecl (IdentifierType))(Constant)))(Decl (TypeDecl (IdentifierType)))(Decl (TypeDecl (IdentifierType)))(Decl (TypeDecl (IdentifierType)))(Decl (TypeDecl (IdentifierType)))(Decl (TypeDecl (IdentifierType)))(Decl (TypeDecl (IdentifierType)))(FuncCall (ID)(ExprList (Constant)(UnaryOp (ID))))(For (Assignment (ID)(Constant))(BinaryOp (ID)(ID))(UnaryOp (ID))(Compound (FuncCall (ID)(ExprList (Constant)(UnaryOp (ArrayRef (ID)(ID)))))))(FuncCall (ID)(ExprList (Constant)(UnaryOp (ID))))(For (Assignment (ID)(Constant))(BinaryOp (ID)(ID))(UnaryOp (ID))(Compound (FuncCall (ID)(ExprList (Constant)(UnaryOp (ArrayRef (ID)(ID)))))))(FuncCall (ID)(ExprList (Cast (Typename (PtrDecl (TypeDecl (IdentifierType))))(ID))(ID)(UnaryOp (ArrayRef (ID)(Constant)))(ID)))(FuncCall (ID)(ExprList (Cast (Typename (PtrDecl (TypeDecl (IdentifierType))))(ID))(ID)(UnaryOp (ArrayRef (ID)(Constant)))(ID)))(Assignment (ID)(Assignment (ID)(Assignment (ID)(Constant))))(While (BinaryOp (BinaryOp (ID)(ID))(BinaryOp (ID)(ID)))(Compound (If (BinaryOp (ArrayRef (ID)(ID))(ArrayRef (ID)(ID)))(Compound (Assignment (ArrayRef (ID)(ID))(ArrayRef (ID)(ID)))(UnaryOp (ID))(UnaryOp (ID))(UnaryOp (ID)))(If (BinaryOp (ArrayRef (ID)(ID))(ArrayRef (ID)(ID)))(Compound (UnaryOp (ID)))(If (BinaryOp (ArrayRef (ID)(ID))(ArrayRef (ID)(ID)))(Compound (UnaryOp (ID))))))))(FuncCall (ID)(ExprList (Constant)(ID)))(Return (Constant))))) |ET| 
-1  |BT| (FileAST (Decl (ArrayDecl (ArrayDecl (TypeDecl (IdentifierType))(Constant))(Constant)))(Decl (ArrayDecl (TypeDecl (IdentifierType))(Constant)))(Decl (ArrayDecl (TypeDecl (IdentifierType))(Constant)))(Decl (TypeDecl (IdentifierType)))(FuncDef (Decl (FuncDecl (ParamList (Decl (TypeDecl (IdentifierType))))(TypeDecl (IdentifierType))))(Compound (Assignment (ArrayRef (ID)(ID))(UnaryOp (ID)))(For (DeclList (Decl (TypeDecl (IdentifierType))(Constant))(Decl (TypeDecl (IdentifierType))))(BinaryOp (Assignment (ID)(ArrayRef (ArrayRef (ID)(ID))(ID)))(Constant))(UnaryOp (ID))(Compound (If (BinaryOp (ArrayRef (ID)(ID))(Constant))(Continue))(FuncCall (ID)(ExprList (ID)))))(Assignment (ArrayRef (ID)(ID))(UnaryOp (ID)))))(FuncDef (Decl (FuncDecl (TypeDecl (IdentifierType))))(Compound (Decl (TypeDecl (IdentifierType)))(Decl (TypeDecl (IdentifierType)))(Decl (TypeDecl (IdentifierType)))(FuncCall (ID)(ExprList (Constant)(UnaryOp (ID))))(For (DeclList (Decl (TypeDecl (IdentifierType))(Constant)))(BinaryOp (ID)(ID))(UnaryOp (ID))(Compound (FuncCall (ID)(ExprList (Constant)(UnaryOp (ID))(UnaryOp (ID))))(For (DeclList (Decl (TypeDecl (IdentifierType))(Constant)))(BinaryOp (ID)(ID))(UnaryOp (ID))(Compound (FuncCall (ID)(ExprList (Constant)(UnaryOp (ArrayRef (ArrayRef (ID)(ID))(ID)))))))))(For (DeclList (Decl (TypeDecl (IdentifierType))(Constant)))(BinaryOp (ID)(ID))(UnaryOp (ID))(Compound (If (BinaryOp (ArrayRef (ID)(ID))(Constant))(FuncCall (ID)(ExprList (ID))))(FuncCall (ID)(ExprList (Constant)(ID)(ArrayRef (ID)(ID))(ArrayRef (ID)(ID))))))(Return (Constant))))) |ET| 
1  |BT| (FileAST (FuncDef (Decl (FuncDecl (TypeDecl (IdentifierType))))(Compound (Decl (TypeDecl (IdentifierType)))(FuncCall (ID)(ExprList (Constant)(UnaryOp (ID))))(Return (ID))))(FuncDef (Decl (FuncDecl (TypeDecl (IdentifierType))))(Compound (Decl (TypeDecl (IdentifierType)))(FuncCall (ID)(ExprList (Constant)(UnaryOp (ID))))(Return (ID))))(FuncDef (Decl (FuncDecl (TypeDecl (IdentifierType))))(Compound (Decl (TypeDecl (IdentifierType)))(FuncCall (ID)(ExprList (Constant)(UnaryOp (ID))))(Return (ID))))(FuncDef (Decl (FuncDecl (ParamList (Decl (PtrDecl (TypeDecl (IdentifierType))))(Decl (TypeDecl (IdentifierType))))(TypeDecl (IdentifierType))))(Compound (Decl (TypeDecl (IdentifierType))(Constant))(For (DeclList (Decl (TypeDecl (IdentifierType))(Constant)))(BinaryOp (ID)(ID))(UnaryOp (ID))(Compound (If (BinaryOp (ArrayRef (ID)(ID))(ID))(Compound (Assignment (ID)(ArrayRef (ID)(ID)))))))(Return (ID))))(FuncDef (Decl (FuncDecl (ParamList (Decl (PtrDecl (TypeDecl (IdentifierType))))(Decl (TypeDecl (IdentifierType))))(TypeDecl (IdentifierType))))(Compound (Decl (TypeDecl (IdentifierType))(ID))(For (DeclList (Decl (TypeDecl (IdentifierType))(Constant)))(BinaryOp (ID)(ID))(UnaryOp (ID))(Compound (If (BinaryOp (ArrayRef (ID)(ID))(ID))(Compound (Assignment (ID)(ArrayRef (ID)(ID)))))))(Return (ID))))(FuncDef (Decl (FuncDecl (ParamList (Decl (PtrDecl (TypeDecl (IdentifierType))))(Decl (TypeDecl (IdentifierType))))(TypeDecl (IdentifierType))))(Compound (Decl (TypeDecl (IdentifierType))(ID))(For (DeclList (Decl (TypeDecl (IdentifierType))(Constant)))(BinaryOp (ID)(ID))(UnaryOp (ID))(Compound (If (BinaryOp (ArrayRef (ID)(ID))(ID))(Compound (Assignment (ID)(ArrayRef (ID)(ID)))))))(Return (ID))))(FuncDef (Decl (FuncDecl (ParamList (Decl (PtrDecl (TypeDecl (IdentifierType))))(Decl (TypeDecl (IdentifierType))))(TypeDecl (IdentifierType))))(Compound (Decl (TypeDecl (IdentifierType))(ID))(For (DeclList (Decl (TypeDecl (IdentifierType))(Constant)))(BinaryOp (ID)(ID))(UnaryOp (ID))(Compound (If (BinaryOp (ArrayRef (ID)(ID))(ID))(Compound (Assignment (ID)(ArrayRef (ID)(ID)))))))(Return (ID))))(FuncDef (Decl (FuncDecl (ParamList (Decl (PtrDecl (TypeDecl (IdentifierType))))(Decl (TypeDecl (IdentifierType))))(TypeDecl (IdentifierType))))(Compound (Decl (TypeDecl (IdentifierType))(Constant))(For (DeclList (Decl (TypeDecl (IdentifierType))(Constant)))(BinaryOp (ID)(ID))(UnaryOp (ID))(Compound (Assignment (ID)(ArrayRef (ID)(ID)))))(Return (ID))))(FuncDef (Decl (FuncDecl (ParamList (Decl (PtrDecl (TypeDecl (IdentifierType))))(Decl (TypeDecl (IdentifierType))))(TypeDecl (IdentifierType))))(Compound (Decl (TypeDecl (IdentifierType))(Constant))(For (DeclList (Decl (TypeDecl (IdentifierType))(Constant)))(BinaryOp (ID)(ID))(UnaryOp (ID))(Compound (Assignment (ID)(ArrayRef (ID)(ID)))))(Return (ID))))(FuncDef (Decl (FuncDecl (ParamList (Decl (PtrDecl (TypeDecl (IdentifierType))))(Decl (TypeDecl (IdentifierType))))(TypeDecl (IdentifierType))))(Compound (If (BinaryOp (ID)(Constant))(Compound (FuncCall (ID)(ExprList (Constant)))(Return))(Compound (FuncCall (ID)(ExprList (Constant)(ArrayRef (ID)(Constant))))(For (DeclList (Decl (TypeDecl (IdentifierType))(Constant)))(BinaryOp (ID)(ID))(UnaryOp (ID))(Compound (FuncCall (ID)(ExprList (Constant)(ArrayRef (ID)(ID))))))(FuncCall (ID)(ExprList (Constant)))))))(FuncDef (Decl (FuncDecl (ParamList (Decl (PtrDecl (TypeDecl (IdentifierType))))(Decl (TypeDecl (IdentifierType))))(TypeDecl (IdentifierType))))(Compound (If (BinaryOp (ID)(Constant))(Compound (FuncCall (ID)(ExprList (Constant)))(Return))(Compound (FuncCall (ID)(ExprList (Constant)(ArrayRef (ID)(Constant))))(For (DeclList (Decl (TypeDecl (IdentifierType))(Constant)))(BinaryOp (ID)(ID))(UnaryOp (ID))(Compound (FuncCall (ID)(ExprList (Constant)(ArrayRef (ID)(ID))))))(FuncCall (ID)(ExprList (Constant)))))))(FuncDef (Decl (FuncDecl (ParamList (Decl (PtrDecl (TypeDecl (IdentifierType))))(Decl (TypeDecl (IdentifierType))))(TypeDecl (IdentifierType))))(Compound (If (BinaryOp (ID)(Constant))(Compound (FuncCall (ID)(ExprList (Constant)))(Return))(Compound (FuncCall (ID)(ExprList (Constant)(ArrayRef (ID)(Constant))))(For (DeclList (Decl (TypeDecl (IdentifierType))(Constant)))(BinaryOp (ID)(ID))(UnaryOp (ID))(Compound (FuncCall (ID)(ExprList (Constant)(ArrayRef (ID)(ID))))))(FuncCall (ID)(ExprList (Constant)))))))(FuncDef (Decl (FuncDecl (ParamList (Decl (TypeDecl (IdentifierType))))(TypeDecl (IdentifierType))))(Compound (If (BinaryOp (ID)(Constant))(Compound (Return (Constant))))(While (Constant)(Compound (If (BinaryOp (ID)(Constant))(Compound (Break)))(If (BinaryOp (BinaryOp (ID)(Constant))(Constant))(Compound (Return (Constant))))(Assignment (ID)(Constant))))(Return (Constant))))(FuncDef (Decl (FuncDecl (ParamList (Decl (PtrDecl (TypeDecl (IdentifierType))))(Decl (TypeDecl (IdentifierType))))(TypeDecl (IdentifierType))))(Compound (For (DeclList (Decl (TypeDecl (IdentifierType))(Constant)))(BinaryOp (ID)(BinaryOp (ID)(Constant)))(UnaryOp (ID))(Compound (Decl (TypeDecl (IdentifierType))(ArrayRef (ID)(ID)))(Assignment (ArrayRef (ID)(ID))(ArrayRef (ID)(BinaryOp (BinaryOp (ID)(Constant))(ID))))(Assignment (ArrayRef (ID)(BinaryOp (BinaryOp (ID)(Constant))(ID)))(ID))))))(Decl (Struct (Decl (PtrDecl (TypeDecl (IdentifierType))))(Decl (TypeDecl (IdentifierType)))(Decl (TypeDecl (IdentifierType)))))(FuncDef (Decl (FuncDecl (ParamList (Decl (PtrDecl (TypeDecl (Struct))))(Decl (PtrDecl (TypeDecl (IdentifierType))))(Decl (TypeDecl (IdentifierType))))(TypeDecl (IdentifierType))))(Compound (Assignment (StructRef (ID)(ID))(Constant))(Assignment (StructRef (ID)(ID))(ID))(Assignment (StructRef (ID)(ID))(ID))))(FuncDef (Decl (FuncDecl (ParamList (Decl (PtrDecl (TypeDecl (Struct)))))(TypeDecl (IdentifierType))))(Compound (Return (BinaryOp (StructRef (ID)(ID))(Constant)))))(FuncDef (Decl (FuncDecl (ParamList (Decl (PtrDecl (TypeDecl (Struct)))))(TypeDecl (IdentifierType))))(Compound (Return (BinaryOp (StructRef (ID)(ID))(StructRef (ID)(ID))))))(FuncDef (Decl (FuncDecl (ParamList (Decl (PtrDecl (TypeDecl (Struct))))(Decl (TypeDecl (IdentifierType))))(TypeDecl (IdentifierType))))(Compound (If (FuncCall (ID)(ExprList (ID)))(Compound (Return (UnaryOp (Constant)))))(Assignment (ArrayRef (StructRef (ID)(ID))(BinaryOp (StructRef (ID)(ID))(Constant)))(ID))(Assignment (StructRef (ID)(ID))(Constant))(Return (Constant))))(FuncDef (Decl (FuncDecl (ParamList (Decl (PtrDecl (TypeDecl (Struct))))(Decl (PtrDecl (TypeDecl (IdentifierType)))))(TypeDecl (IdentifierType))))(Compound (If (FuncCall (ID)(ExprList (ID)))(Compound (Return (UnaryOp (Constant)))))(Assignment (UnaryOp (ID))(ArrayRef (StructRef (ID)(ID))(StructRef (ID)(ID))))(Assignment (StructRef (ID)(ID))(Constant))(Return (UnaryOp (ID)))))(FuncDef (Decl (FuncDecl (ParamList (Decl (PtrDecl (TypeDecl (Struct)))))(TypeDecl (IdentifierType))))(Compound (For (DeclList (Decl (TypeDecl (IdentifierType))(Constant)))(BinaryOp (ID)(BinaryOp (StructRef (ID)(ID))(Constant)))(UnaryOp (ID))(Compound (If (BinaryOp (ID)(Constant))(Compound (FuncCall (ID)(ExprList (Constant)(ArrayRef (StructRef (ID)(ID))(ID)))))(Compound (FuncCall (ID)(ExprList (Constant)(ArrayRef (StructRef (ID)(ID))(ID))))))))(FuncCall (ID)(ExprList (Constant)))))(Decl (Struct (Decl (PtrDecl (TypeDecl (IdentifierType))))(Decl (TypeDecl (IdentifierType)))))(Decl (Struct (Decl (PtrDecl (TypeDecl (Struct))))(Decl (TypeDecl (IdentifierType)))(Decl (TypeDecl (IdentifierType)))(Decl (TypeDecl (IdentifierType)))))(FuncDef (Decl (FuncDecl (ParamList (Decl (PtrDecl (TypeDecl (Struct))))(Decl (PtrDecl (TypeDecl (Struct))))(Decl (TypeDecl (IdentifierType))))(TypeDecl (IdentifierType))))(Compound (Assignment (StructRef (ID)(ID))(ID))(Assignment (StructRef (ID)(ID))(Constant))(Assignment (StructRef (ID)(ID))(Constant))(Assignment (StructRef (ID)(ID))(ID))))(FuncDef (Decl (FuncDecl (ParamList (Decl (PtrDecl (TypeDecl (Struct)))))(TypeDecl (IdentifierType))))(Compound (Return (BinaryOp (StructRef (ID)(ID))(StructRef (ID)(ID))))))(FuncDef (Decl (FuncDecl (ParamList (Decl (PtrDecl (TypeDecl (Struct)))))(TypeDecl (IdentifierType))))(Compound (Return (BinaryOp (StructRef (ID)(ID))(BinaryOp (BinaryOp (StructRef (ID)(ID))(Constant))(StructRef (ID)(ID)))))))(FuncDef (Decl (FuncDecl (ParamList (Decl (PtrDecl (TypeDecl (Struct))))(Decl (PtrDecl (TypeDecl (IdentifierType))))(Decl (TypeDecl (IdentifierType))))(TypeDecl (IdentifierType))))(Compound (If (FuncCall (ID)(ExprList (ID)))(Compound (Return (UnaryOp (Constant)))))(Assignment (StructRef (ArrayRef (StructRef (ID)(ID))(StructRef (ID)(ID)))(ID))(ID))(Assignment (StructRef (ArrayRef (StructRef (ID)(ID))(StructRef (ID)(ID)))(ID))(ID))(Assignment (StructRef (ID)(ID))(Constant))(Assignment (StructRef (ID)(ID))(StructRef (ID)(ID)))(Return (Constant))))(FuncDef (Decl (FuncDecl (ParamList (Decl (PtrDecl (TypeDecl (Struct))))(Decl (PtrDecl (TypeDecl (Struct)))))(TypeDecl (IdentifierType))))(Compound (If (FuncCall (ID)(ExprList (ID)))(Compound (Return (UnaryOp (Constant)))))(Assignment (UnaryOp (ID))(ArrayRef (StructRef (ID)(ID))(StructRef (ID)(ID))))(Assignment (StructRef (ID)(ID))(Constant))(Assignment (StructRef (ID)(ID))(StructRef (ID)(ID)))(Return (Constant))))(Decl (Struct (Decl (TypeDecl (IdentifierType)))(Decl (PtrDecl (TypeDecl (Struct))))(Decl (PtrDecl (TypeDecl (Struct))))))(Decl (Struct (Decl (PtrDecl (TypeDecl (Struct))))(Decl (PtrDecl (TypeDecl (Struct))))))(FuncDef (Decl (FuncDecl (ParamList (Decl (PtrDecl (TypeDecl (Struct)))))(TypeDecl (IdentifierType))))(Compound (Assignment (StructRef (ID)(ID))(Constant))(Assignment (StructRef (ID)(ID))(Constant))))(FuncDef (Decl (FuncDecl (ParamList (Decl (PtrDecl (TypeDecl (Struct))))(Decl (PtrDecl (TypeDecl (Struct))))(Decl (TypeDecl (IdentifierType))))(TypeDecl (IdentifierType))))(Compound (Assignment (StructRef (ID)(ID))(ID))(If (BinaryOp (StructRef (ID)(ID))(Constant))(Compound (FuncCall (ID)(ExprList (BinaryOp (StructRef (ID)(ID))(Constant))))(Assignment (StructRef (ID)(ID))(Constant))(Assignment (StructRef (ID)(ID))(Constant))(Assignment (StructRef (ID)(ID))(ID))(Assignment (StructRef (ID)(ID))(ID)))(Compound (Assignment (StructRef (StructRef (ID)(ID))(ID))(ID))(Assignment (StructRef (ID)(ID))(StructRef (ID)(ID)))(Assignment (StructRef (ID)(ID))(ID))(Assignment (StructRef (StructRef (ID)(ID))(ID))(Constant))))))(FuncDef (Decl (FuncDecl (ParamList (Decl (PtrDecl (TypeDecl (Struct))))(Decl (PtrDecl (TypeDecl (Struct)))))(TypeDecl (IdentifierType))))(Compound (If (BinaryOp (BinaryOp (StructRef (ID)(ID))(Constant))(BinaryOp (StructRef (ID)(ID))(Constant)))(Compound (Assignment (StructRef (ID)(ID))(Constant))(Assignment (StructRef (ID)(ID))(Constant)))(If (BinaryOp (ID)(StructRef (ID)(ID)))(Compound (Assignment (StructRef (StructRef (ID)(ID))(ID))(Constant))(Assignment (StructRef (ID)(ID))(StructRef (ID)(ID))))(If (BinaryOp (ID)(StructRef (ID)(ID)))(Compound (Assignment (StructRef (StructRef (ID)(ID))(ID))(Constant))(Assignment (StructRef (ID)(ID))(StructRef (ID)(ID))))(Compound (Assignment (StructRef (StructRef (ID)(ID))(ID))(StructRef (ID)(ID)))(Assignment (StructRef (StructRef (ID)(ID))(ID))(StructRef (ID)(ID)))))))))(FuncDef (Decl (FuncDecl (ParamList (Decl (PtrDecl (TypeDecl (Struct))))(Decl (TypeDecl (IdentifierType))))(PtrDecl (TypeDecl (Struct)))))(Compound (Decl (PtrDecl (TypeDecl (Struct)))(StructRef (ID)(ID)))(While (Constant)(Compound (If (BinaryOp (ID)(Constant))(Compound (Break)))(If (BinaryOp (StructRef (ID)(ID))(ID))(Compound (FuncCall (ID)(ExprList (ID)(ID)))(Return (ID))))(Assignment (ID)(StructRef (ID)(ID)))))(Return (Constant))))(FuncDef (Decl (FuncDecl (ParamList (Decl (PtrDecl (TypeDecl (Struct)))))(PtrDecl (TypeDecl (Struct)))))(Compound (Decl (PtrDecl (TypeDecl (Struct)))(StructRef (ID)(ID)))(FuncCall (ID)(ExprList (ID)(ID)))(Return (ID))))(FuncDef (Decl (FuncDecl (ParamList (Decl (PtrDecl (TypeDecl (Struct)))))(PtrDecl (TypeDecl (Struct)))))(Compound (Decl (PtrDecl (TypeDecl (Struct)))(StructRef (ID)(ID)))(FuncCall (ID)(ExprList (ID)(ID)))(Return (ID))))(FuncDef (Decl (FuncDecl (ParamList (Decl (PtrDecl (TypeDecl (Struct)))))(TypeDecl (IdentifierType))))(Compound (Decl (PtrDecl (TypeDecl (Struct)))(StructRef (ID)(ID)))(While (Constant)(Compound (If (BinaryOp (ID)(Constant))(Compound (Break)))(If (BinaryOp (ID)(StructRef (ID)(ID)))(Compound (FuncCall (ID)(ExprList (Constant)(StructRef (ID)(ID)))))(Compound (FuncCall (ID)(ExprList (Constant)(StructRef (ID)(ID))))))(Assignment (ID)(StructRef (ID)(ID)))))(FuncCall (ID)(ExprList (Constant)))))(FuncDef (Decl (FuncDecl (ParamList (Decl (PtrDecl (TypeDecl (IdentifierType))))(Decl (TypeDecl (IdentifierType)))(Decl (TypeDecl (IdentifierType))))(TypeDecl (IdentifierType))))(Compound (Decl (TypeDecl (IdentifierType))(Constant))(Assignment (ArrayRef (ID)(ID))(ID))(While (BinaryOp (ArrayRef (ID)(ID))(ID))(Compound (Assignment (ID)(Constant))))(If (BinaryOp (ID)(ID))(Compound (Return (UnaryOp (Constant)))))(Return (ID))))(FuncDef (Decl (FuncDecl (ParamList (Typename (TypeDecl (IdentifierType))))(TypeDecl (IdentifierType))))(Compound (Decl (TypeDecl (IdentifierType))(FuncCall (ID)))(Decl (PtrDecl (TypeDecl (IdentifierType)))(Cast (Typename (PtrDecl (TypeDecl (IdentifierType))))(FuncCall (ID)(ExprList (BinaryOp (UnaryOp (Typename (TypeDecl (IdentifierType))))(BinaryOp (ID)(Constant)))))))(For (DeclList (Decl (TypeDecl (IdentifierType))(Constant)))(BinaryOp (ID)(ID))(UnaryOp (ID))(Compound (Assignment (ArrayRef (ID)(ID))(FuncCall (ID)))))(Decl (TypeDecl (IdentifierType))(FuncCall (ID)))(Decl (PtrDecl (TypeDecl (IdentifierType)))(Cast (Typename (PtrDecl (TypeDecl (IdentifierType))))(FuncCall (ID)(ExprList (BinaryOp (UnaryOp (Typename (TypeDecl (IdentifierType))))(ID))))))(For (DeclList (Decl (TypeDecl (IdentifierType))(Constant)))(BinaryOp (ID)(ID))(UnaryOp (ID))(Compound (Assignment (ArrayRef (ID)(ID))(FuncCall (ID)))))(Decl (TypeDecl (IdentifierType))(Constant))(For (DeclList (Decl (TypeDecl (IdentifierType))(Constant)))(BinaryOp (ID)(ID))(UnaryOp (ID))(Compound (If (BinaryOp (FuncCall (ID)(ExprList (ID)(ID)(ArrayRef (ID)(ID))))(UnaryOp (Constant)))(Compound (Assignment (ID)(Constant))))))(FuncCall (ID)(ExprList (Constant)(ID)))(FuncCall (ID)(ExprList (ID)))(FuncCall (ID)(ExprList (ID)))(Return (Constant))))) |ET| 
-1  |BT| (FileAST (Decl (ArrayDecl (ArrayDecl (TypeDecl (IdentifierType))(Constant))(Constant)))(Decl (ArrayDecl (TypeDecl (IdentifierType))(Constant)))(Decl (ArrayDecl (TypeDecl (IdentifierType))(Constant)))(Decl (TypeDecl (IdentifierType))(Constant))(FuncDef (Decl (FuncDecl (ParamList (Decl (TypeDecl (IdentifierType))))(TypeDecl (IdentifierType))))(Compound (Decl (TypeDecl (IdentifierType)))(If (BinaryOp (ArrayRef (ID)(ID))(Constant))(Compound (Assignment (ArrayRef (ID)(ID))(ID))(UnaryOp (ID))(For (Assignment (ID)(Constant))(BinaryOp (ArrayRef (ArrayRef (ID)(ID))(ID))(UnaryOp (Constant)))(UnaryOp (ID))(If (BinaryOp (ArrayRef (ID)(ArrayRef (ArrayRef (ID)(ID))(ID)))(Constant))(FuncCall (ID)(ExprList (ArrayRef (ArrayRef (ID)(ID))(ID))))))(Assignment (ArrayRef (ID)(ID))(ID))(UnaryOp (ID))))))(FuncDef (Decl (FuncDecl (TypeDecl (IdentifierType))))(Compound (Decl (TypeDecl (IdentifierType)))(Decl (TypeDecl (IdentifierType)))(Decl (TypeDecl (IdentifierType)))(Decl (TypeDecl (IdentifierType)))(Decl (TypeDecl (IdentifierType)))(FuncCall (ID)(ExprList (Constant)(UnaryOp (ID))))(For (Assignment (ID)(Constant))(BinaryOp (ID)(ID))(UnaryOp (ID))(Compound (FuncCall (ID)(ExprList (Constant)(UnaryOp (ID))(UnaryOp (ID))))(For (Assignment (ID)(Constant))(BinaryOp (ID)(ID))(UnaryOp (ID))(FuncCall (ID)(ExprList (Constant)(UnaryOp (ArrayRef (ArrayRef (ID)(ID))(ID))))))(Assignment (ArrayRef (ArrayRef (ID)(ID))(ID))(UnaryOp (Constant)))))(For (Assignment (ID)(Constant))(BinaryOp (ID)(ID))(UnaryOp (ID))(FuncCall (ID)(ExprList (ID))))(For (Assignment (ID)(Constant))(BinaryOp (ID)(ID))(UnaryOp (ID))(FuncCall (ID)(ExprList (Constant)(ID)(ArrayRef (ID)(ID))(ArrayRef (ID)(ID)))))(Return (Constant))))) |ET| 
1  |BT| (FileAST (FuncDef (Decl (FuncDecl (ParamList (Decl (PtrDecl (TypeDecl (IdentifierType))))(Decl (PtrDecl (TypeDecl (IdentifierType)))))(TypeDecl (IdentifierType))))(Compound (Decl (TypeDecl (IdentifierType)))(Assignment (ID)(UnaryOp (ID)))(Assignment (UnaryOp (ID))(UnaryOp (ID)))(Assignment (UnaryOp (ID))(ID))))(FuncDef (Decl (FuncDecl (ParamList (Decl (ArrayDecl (TypeDecl (IdentifierType))))(Decl (TypeDecl (IdentifierType))))(TypeDecl (IdentifierType))))(Compound (Decl (TypeDecl (IdentifierType)))(For (Assignment (ID)(Constant))(BinaryOp (ID)(ID))(UnaryOp (ID))(Compound (FuncCall (ID)(ExprList (Constant)(ArrayRef (ID)(ID))))(If (BinaryOp (ID)(BinaryOp (ID)(Constant)))(FuncCall (ID)(ExprList (Constant))))))(FuncCall (ID)(ExprList (Constant)))))(FuncDef (Decl (FuncDecl (ParamList (Decl (ArrayDecl (TypeDecl (IdentifierType))))(Decl (TypeDecl (IdentifierType))))(TypeDecl (IdentifierType))))(Compound (Decl (TypeDecl (IdentifierType)))(Decl (TypeDecl (IdentifierType)))(Decl (TypeDecl (IdentifierType)))(For (Assignment (ID)(Constant))(BinaryOp (ID)(ID))(UnaryOp (ID))(Compound (Assignment (ID)(ID))(While (BinaryOp (BinaryOp (ID)(Constant))(BinaryOp (ArrayRef (ID)(BinaryOp (ID)(Constant)))(ArrayRef (ID)(ID))))(Compound (Assignment (ID)(ArrayRef (ID)(BinaryOp (ID)(Constant))))(Assignment (ArrayRef (ID)(BinaryOp (ID)(Constant)))(ArrayRef (ID)(ID)))(Assignment (ArrayRef (ID)(ID))(ID))(UnaryOp (ID))))(FuncCall (ID)(ExprList (ID)(ID)))))))(FuncDef (Decl (FuncDecl (ParamList (Decl (ArrayDecl (TypeDecl (IdentifierType))))(Decl (TypeDecl (IdentifierType)))(Decl (PtrDecl (TypeDecl (IdentifierType)))))(TypeDecl (IdentifierType))))(Compound (Decl (TypeDecl (IdentifierType))(Constant))(Decl (TypeDecl (IdentifierType)))(Decl (TypeDecl (IdentifierType)))(Decl (TypeDecl (IdentifierType)))(For (Assignment (ID)(Constant))(BinaryOp (ID)(ID))(UnaryOp (ID))(Compound (For (Assignment (ID)(BinaryOp (ID)(Constant)))(BinaryOp (ID)(Constant))(UnaryOp (ID))(Compound (If (BinaryOp (ArrayRef (ID)(BinaryOp (ID)(Constant)))(ArrayRef (ID)(ID)))(Compound (Assignment (ID)(ArrayRef (ID)(BinaryOp (ID)(Constant))))(Assignment (ArrayRef (ID)(BinaryOp (ID)(Constant)))(ArrayRef (ID)(ID)))(Assignment (ArrayRef (ID)(ID))(ID))(Assignment (ID)(Constant))(UnaryOp (UnaryOp (ID)))))))(If (BinaryOp (ID)(Constant))(Break)(Assignment (ID)(Constant)))))))(FuncDef (Decl (FuncDecl (ParamList (Decl (ArrayDecl (TypeDecl (IdentifierType))))(Decl (TypeDecl (IdentifierType)))(Decl (PtrDecl (TypeDecl (IdentifierType)))))(TypeDecl (IdentifierType))))(Compound (Decl (TypeDecl (IdentifierType)))(Decl (TypeDecl (IdentifierType)))(Decl (TypeDecl (IdentifierType)))(Decl (TypeDecl (IdentifierType)))(For (Assignment (ID)(Constant))(BinaryOp (ID)(ID))(UnaryOp (ID))(Compound (Assignment (ID)(ID))(For (Assignment (ID)(ID))(BinaryOp (ID)(ID))(UnaryOp (ID))(Compound (If (BinaryOp (ArrayRef (ID)(ID))(ArrayRef (ID)(ID)))(Assignment (ID)(ID)))))(If (BinaryOp (ID)(ID))(Compound (Assignment (ID)(ArrayRef (ID)(ID)))(Assignment (ArrayRef (ID)(ID))(ArrayRef (ID)(ID)))(Assignment (ArrayRef (ID)(ID))(ID))(UnaryOp (UnaryOp (ID)))))))))(FuncDef (Decl (FuncDecl (ParamList (Decl (ArrayDecl (TypeDecl (IdentifierType))))(Decl (TypeDecl (IdentifierType)))(Decl (TypeDecl (IdentifierType))))(TypeDecl (IdentifierType))))(Compound (Decl (TypeDecl (IdentifierType)))(Decl (TypeDecl (IdentifierType)))(Decl (TypeDecl (IdentifierType)))(ExprList (Assignment (ID)(Constant))(Assignment (ID)(BinaryOp (ID)(Constant))))(While (BinaryOp (ID)(ID))(Compound (Assignment (ID)(BinaryOp (BinaryOp (ID)(ID))(Constant)))(If (BinaryOp (ArrayRef (ID)(ID))(ID))(Return (Constant))(If (BinaryOp (ArrayRef (ID)(ID))(ID))(Assignment (ID)(BinaryOp (ID)(Constant)))(If (BinaryOp (ArrayRef (ID)(ID))(ID))(Assignment (ID)(BinaryOp (ID)(Constant))))))))(Return (Constant))))(Decl (ArrayDecl (TypeDecl (IdentifierType))(Constant)))(Decl (TypeDecl (IdentifierType)))(FuncDef (Decl (FuncDecl (TypeDecl (IdentifierType))))(Compound (Assignment (ID)(Constant))))(FuncDef (Decl (FuncDecl (TypeDecl (IdentifierType))))(Compound (If (BinaryOp (ID)(Constant))(Compound (FuncCall (ID)(ExprList (Constant)))(Return (Constant))))(Return (Constant))))(FuncDef (Decl (FuncDecl (ParamList (Decl (TypeDecl (IdentifierType))))(TypeDecl (IdentifierType))))(Compound (Assignment (ArrayRef (ID)(UnaryOp (ID)))(ID))))(FuncDef (Decl (FuncDecl (TypeDecl (IdentifierType))))(Compound (Decl (TypeDecl (IdentifierType)))(Assignment (ID)(ArrayRef (ID)(UnaryOp (ID))))(Return (ID))))(FuncDef (Decl (FuncDecl (TypeDecl (IdentifierType))))(Compound (Decl (TypeDecl (IdentifierType)))(Decl (TypeDecl (IdentifierType)))(Decl (TypeDecl (IdentifierType)))(Decl (TypeDecl (IdentifierType)))(Decl (ArrayDecl (TypeDecl (IdentifierType))(Constant)))(Decl (ArrayDecl (TypeDecl (IdentifierType))(Constant)))(Decl (TypeDecl (IdentifierType))(Constant))(FuncCall (ID)(ExprList (Constant)(UnaryOp (ID))))(For (Assignment (ID)(Constant))(BinaryOp (ID)(ID))(UnaryOp (ID))(FuncCall (ID)(ExprList (Constant)(UnaryOp (ArrayRef (ID)(ID))))))(FuncCall (ID)(ExprList (Constant)(UnaryOp (ID))))(For (Assignment (ID)(Constant))(BinaryOp (ID)(ID))(UnaryOp (ID))(FuncCall (ID)(ExprList (Constant)(UnaryOp (ArrayRef (ID)(ID))))))(For (Assignment (ID)(Constant))(BinaryOp (ID)(ID))(UnaryOp (ID))(Compound (For (Assignment (ID)(Constant))(BinaryOp (ID)(ID))(UnaryOp (ID))(Compound (If (BinaryOp (ArrayRef (ID)(ID))(ArrayRef (ID)(ID)))(Compound (UnaryOp (ID))(Break)))))))(FuncCall (ID)(ExprList (Constant)(ID)))(Return (Constant))))) |ET| 
-0.87325529078742925026546117805992  |BT| (FileAST (FuncDef (Decl (FuncDecl (ParamList (Decl (TypeDecl (IdentifierType)))(Decl (TypeDecl (IdentifierType)))(Decl (ArrayDecl (ArrayDecl (TypeDecl (IdentifierType))(Constant))(Constant)))(Decl (PtrDecl (TypeDecl (IdentifierType))))(Decl (PtrDecl (TypeDecl (IdentifierType)))))(TypeDecl (IdentifierType))))(Compound (Decl (PtrDecl (TypeDecl (IdentifierType))))(Assignment (ArrayRef (ID)(ID))(UnaryOp (ID)))(For (Assignment (ID)(ArrayRef (ID)(ID)))(BinaryOp (UnaryOp (ID))(Constant))(UnaryOp (ID))(Compound (If (UnaryOp (ArrayRef (ID)(UnaryOp (ID))))(Compound (Assignment (ID)(FuncCall (ID)(ExprList (UnaryOp (ID))(ID)(ID)(ID)(ID))))))))(Assignment (ArrayRef (ID)(ID))(UnaryOp (ID)))(Return (ID))))(FuncDef (Decl (FuncDecl (ParamList (Typename (TypeDecl (IdentifierType))))(TypeDecl (IdentifierType))))(Compound (Decl (TypeDecl (IdentifierType)))(Decl (TypeDecl (IdentifierType)))(Decl (TypeDecl (IdentifierType)))(Decl (TypeDecl (IdentifierType)))(Decl (TypeDecl (IdentifierType)))(Decl (TypeDecl (IdentifierType))(Constant))(Decl (ArrayDecl (TypeDecl (IdentifierType))(Constant))(InitList (Constant)))(Decl (ArrayDecl (TypeDecl (IdentifierType))(Constant))(InitList (Constant)))(Decl (ArrayDecl (ArrayDecl (TypeDecl (IdentifierType))(Constant))(Constant))(InitList (InitList (Constant))))(FuncCall (ID)(ExprList (Constant)(UnaryOp (ID))))(For (Assignment (ID)(Constant))(BinaryOp (ID)(ID))(UnaryOp (ID))(Compound (FuncCall (ID)(ExprList (Constant)(UnaryOp (ID))(UnaryOp (ID))))(For (Assignment (ID)(Constant))(BinaryOp (ID)(ID))(UnaryOp (ID))(Compound (FuncCall (ID)(ExprList (Constant)(UnaryOp (ArrayRef (ArrayRef (ID)(ID))(ID)))))))))(For (Assignment (ID)(Constant))(BinaryOp (ID)(ID))(UnaryOp (ID))(Compound (If (UnaryOp (ArrayRef (ID)(ID)))(Compound (Assignment (ID)(FuncCall (ID)(ExprList (ID)(ID)(ID)(ID)(ID))))))))(For (Assignment (ID)(Constant))(BinaryOp (ID)(ID))(UnaryOp (ID))(Compound (FuncCall (ID)(ExprList (Constant)(ID)(ArrayRef (ID)(ID))(ArrayRef (ID)(ID))))))(Return (Constant))))) |ET| 
1  |BT| (FileAST (FuncDef (Decl (FuncDecl (TypeDecl (IdentifierType))))(Compound (Decl (TypeDecl (IdentifierType)))(Decl (ArrayDecl (TypeDecl (IdentifierType))(Constant)))(Decl (TypeDecl (IdentifierType)))(Decl (ArrayDecl (TypeDecl (IdentifierType))(Constant)))(Decl (TypeDecl (IdentifierType)))(Decl (TypeDecl (IdentifierType)))(Decl (TypeDecl (IdentifierType))(Constant))(FuncCall (ID)(ExprList (Constant)(UnaryOp (ID))))(For (Assignment (ID)(Constant))(BinaryOp (ID)(ID))(UnaryOp (ID))(FuncCall (ID)(ExprList (Constant)(UnaryOp (ArrayRef (ID)(ID))))))(FuncCall (ID)(ExprList (Constant)(UnaryOp (ID))))(For (Assignment (ID)(Constant))(BinaryOp (ID)(ID))(UnaryOp (ID))(FuncCall (ID)(ExprList (Constant)(UnaryOp (ArrayRef (ID)(ID))))))(For (Assignment (ID)(Constant))(BinaryOp (ID)(ID))(UnaryOp (ID))(Compound (For (Assignment (ID)(BinaryOp (ID)(Constant)))(BinaryOp (ID)(ID))(UnaryOp (ID))(Compound (If (BinaryOp (ArrayRef (ID)(ID))(ArrayRef (ID)(ID)))(Assignment (ArrayRef (ID)(ID))(UnaryOp (Constant))))))))(For (Assignment (ID)(Constant))(BinaryOp (ID)(ID))(UnaryOp (ID))(Compound (For (Assignment (ID)(BinaryOp (ID)(Constant)))(BinaryOp (ID)(ID))(UnaryOp (ID))(Compound (If (BinaryOp (ArrayRef (ID)(ID))(ArrayRef (ID)(ID)))(Assignment (ArrayRef (ID)(ID))(UnaryOp (Constant))))))))(For (Assignment (ID)(Constant))(BinaryOp (ID)(ID))(UnaryOp (ID))(Compound (For (Assignment (ID)(Constant))(BinaryOp (ID)(ID))(UnaryOp (ID))(Compound (If (BinaryOp (ArrayRef (ID)(ID))(ArrayRef (ID)(ID)))(UnaryOp (ID)))))))(FuncCall (ID)(ExprList (Constant)(ID)))(Return (Constant))))) |ET| 
-0.17472541700008836773605480630067  |BT| (FileAST (Decl (Struct (Decl (TypeDecl (IdentifierType)))(Decl (TypeDecl (IdentifierType)))(Decl (TypeDecl (IdentifierType)))(Decl (TypeDecl (IdentifierType)))(Decl (PtrDecl (PtrDecl (TypeDecl (Struct)))))))(Decl (ArrayDecl (TypeDecl (IdentifierType))(Constant)))(Decl (ArrayDecl (ArrayDecl (TypeDecl (IdentifierType))(Constant))(Constant)))(Decl (TypeDecl (IdentifierType)))(FuncDef (Decl (FuncDecl (ParamList (Decl (PtrDecl (TypeDecl (IdentifierType)))))(TypeDecl (IdentifierType))))(Compound (Decl (TypeDecl (IdentifierType)))(FuncCall (ID)(ExprList (Constant)(StructRef (ID)(ID))(StructRef (ID)(ID))))(For (Assignment (ID)(Constant))(BinaryOp (ID)(StructRef (ID)(ID)))(UnaryOp (ID))(FuncCall (ID)(ExprList (Constant)(StructRef (ArrayRef (StructRef (ID)(ID))(ID))(ID)))))(FuncCall (ID)(ExprList (Constant)))))(FuncDef (Decl (FuncDecl (ParamList (Decl (PtrDecl (TypeDecl (IdentifierType)))))(TypeDecl (IdentifierType))))(Compound (Decl (TypeDecl (IdentifierType)))(If (StructRef (ID)(ID))(Return))(Assignment (StructRef (ID)(ID))(UnaryOp (ID)))(If (StructRef (ID)(ID))(For (Assignment (ID)(Constant))(BinaryOp (ID)(StructRef (ID)(ID)))(UnaryOp (ID))(FuncCall (ID)(ExprList (ArrayRef (StructRef (ID)(ID))(ID))))))(If (UnaryOp (StructRef (ID)(ID)))(Assignment (StructRef (ID)(ID))(UnaryOp (ID))))))(FuncDef (Decl (FuncDecl (ParamList (Decl (PtrDecl (TypeDecl (IdentifierType)))))(TypeDecl (IdentifierType))))(Compound (Decl (TypeDecl (IdentifierType)))(Decl (TypeDecl (IdentifierType)))(Decl (TypeDecl (IdentifierType)))(Decl (TypeDecl (IdentifierType)))(Decl (TypeDecl (IdentifierType)))(Decl (TypeDecl (IdentifierType)))(Decl (ArrayDecl (TypeDecl (IdentifierType))(Constant)))(Decl (PtrDecl (TypeDecl (IdentifierType))))(Decl (PtrDecl (TypeDecl (IdentifierType))))(FuncCall (ID)(ExprList (ID)(BinaryOp (UnaryOp (ID))(Constant))(ID)))(FuncCall (ID)(ExprList (ID)(Constant)(UnaryOp (ID))))(Assignment (ID)(FuncCall (ID)(ExprList (BinaryOp (ID)(UnaryOp (Typename (TypeDecl (IdentifierType))))))))(FuncCall (ID)(ExprList (ID)(Constant)(UnaryOp (Typename (TypeDecl (IdentifierType))))))(For (Assignment (ID)(Assignment (ID)(Constant)))(BinaryOp (ID)(ID))(UnaryOp (ID))(Compound (FuncCall (ID)(ExprList (ID)(Constant)(UnaryOp (ID))))(FuncCall (ID)(ExprList (ID)(Constant)(UnaryOp (ID))))(Assignment (ID)(UnaryOp (ArrayRef (ID)(BinaryOp (ID)(Constant)))))(Assignment (StructRef (ID)(ID))(ID))(Assignment (StructRef (ID)(ID))(ID))(Assignment (StructRef (ID)(ID))(FuncCall (ID)(ExprList (BinaryOp (ID)(UnaryOp (Typename (PtrDecl (TypeDecl (IdentifierType)))))))))(For (Assignment (ID)(Constant))(BinaryOp (ID)(ID))(UnaryOp (ID))(Compound (FuncCall (ID)(ExprList (ID)(Constant)(UnaryOp (ID))))(Assignment (ArrayRef (StructRef (ID)(ID))(ID))(UnaryOp (ArrayRef (ID)(BinaryOp (ID)(Constant)))))))))(For (Assignment (ID)(Constant))(BinaryOp (ID)(ID))(UnaryOp (ID))(FuncCall (ID)(ExprList (UnaryOp (ArrayRef (ID)(ID))))))(For (Assignment (ID)(Constant))(BinaryOp (ID)(ID))(UnaryOp (ID))(Compound (Assignment (ID)(UnaryOp (ArrayRef (ID)(ID))))(If (StructRef (ID)(ID))(FuncCall (ID)(ExprList (Constant)(StructRef (ID)(ID))(StructRef (ID)(ID))(StructRef (ID)(ID)))))))))(FuncDef (Decl (FuncDecl (TypeDecl (IdentifierType))))(Compound (FuncCall (ID)(ExprList (ID)))(Return (Constant))))) |ET| 
1  |BT| (FileAST (FuncDef (Decl (FuncDecl (ParamList (Typename (TypeDecl (IdentifierType))))(TypeDecl (IdentifierType))))(Compound (Decl (TypeDecl (IdentifierType)))(Decl (ArrayDecl (TypeDecl (IdentifierType))(Constant)))(Decl (TypeDecl (IdentifierType)))(Decl (ArrayDecl (TypeDecl (IdentifierType))(Constant)))(Decl (TypeDecl (IdentifierType)))(Decl (TypeDecl (IdentifierType)))(Decl (TypeDecl (IdentifierType)))(Assignment (ID)(Constant))(While (Constant)(Compound (FuncCall (ID)(ExprList (Constant)(UnaryOp (ID))))(If (BinaryOp (ID)(Constant))(Compound (Break))(Compound (FuncCall (ID)(ExprList (Constant)))))))(For (Assignment (ID)(Constant))(BinaryOp (ID)(ID))(UnaryOp (ID))(Compound (While (Constant)(Compound (FuncCall (ID)(ExprList (Constant)(UnaryOp (ArrayRef (ID)(ID)))))(If (BinaryOp (BinaryOp (ArrayRef (ID)(ID))(Constant))(BinaryOp (ArrayRef (ID)(ID))(Constant)))(Compound (Break))(Compound (FuncCall (ID)(ExprList (Constant)))))))))(While (Constant)(Compound (FuncCall (ID)(ExprList (Constant)(UnaryOp (ID))))(If (BinaryOp (ID)(Constant))(Compound (Break))(Compound (FuncCall (ID)(ExprList (Constant)))))))(For (Assignment (ID)(Constant))(BinaryOp (ID)(ID))(UnaryOp (ID))(Compound (While (Constant)(Compound (FuncCall (ID)(ExprList (Constant)(UnaryOp (ArrayRef (ID)(ID)))))(If (BinaryOp (BinaryOp (ArrayRef (ID)(ID))(Constant))(BinaryOp (ArrayRef (ID)(ID))(Constant)))(Compound (Break))(Compound (FuncCall (ID)(ExprList (Constant)))))))))(For (Assignment (ID)(Constant))(BinaryOp (ID)(ID))(UnaryOp (ID))(Compound (For (Assignment (ID)(Constant))(BinaryOp (ID)(ID))(UnaryOp (ID))(Compound (If (BinaryOp (ArrayRef (ID)(ID))(ArrayRef (ID)(ID)))(Compound (UnaryOp (ID))(Break))(Compound))))))(FuncCall (ID)(ExprList (Constant)(ID)))(Return (Constant))))) |ET| 
-0.87504056065877267034380793120363  |BT| (FileAST (Decl (ArrayDecl (ArrayDecl (TypeDecl (IdentifierType))(Constant))(Constant)))(Decl (ArrayDecl (TypeDecl (IdentifierType))(Constant)))(Decl (ArrayDecl (TypeDecl (IdentifierType))(Constant)))(Decl (TypeDecl (IdentifierType))(Constant))(Decl (TypeDecl (IdentifierType)))(FuncDef (Decl (FuncDecl (ParamList (ID))(TypeDecl (IdentifierType))))(Compound (Decl (TypeDecl (IdentifierType)))(UnaryOp (ID))(Assignment (ArrayRef (ID)(ID))(ID))(For (Assignment (ID)(Constant))(BinaryOp (ID)(ID))(UnaryOp (ID))(Compound (If (BinaryOp (BinaryOp (ArrayRef (ArrayRef (ID)(ID))(ID))(Constant))(BinaryOp (ArrayRef (ID)(ID))(Constant)))(Compound (FuncCall (ID)(ExprList (ID)))))))(UnaryOp (ID))(Assignment (ArrayRef (ID)(ID))(ID))))(FuncDef (Decl (FuncDecl (TypeDecl (IdentifierType))))(Compound (Decl (TypeDecl (IdentifierType)))(Decl (TypeDecl (IdentifierType)))(Decl (TypeDecl (IdentifierType)))(Decl (TypeDecl (IdentifierType)))(Decl (TypeDecl (IdentifierType)))(FuncCall (ID)(ExprList (Constant)(UnaryOp (ID))))(For (Assignment (ID)(Constant))(BinaryOp (ID)(ID))(UnaryOp (ID))(Compound (FuncCall (ID)(ExprList (Constant)(UnaryOp (ID))))(FuncCall (ID)(ExprList (Constant)(UnaryOp (ID))))(For (Assignment (ID)(Constant))(BinaryOp (ID)(ID))(UnaryOp (ID))(Compound (FuncCall (ID)(ExprList (Constant)(UnaryOp (ID))))(Assignment (ArrayRef (ArrayRef (ID)(BinaryOp (ID)(Constant)))(BinaryOp (ID)(Constant)))(Constant))))))(For (Assignment (ID)(Constant))(BinaryOp (ID)(ID))(UnaryOp (ID))(Compound (If (BinaryOp (ArrayRef (ID)(ID))(Constant))(FuncCall (ID)(ExprList (ID))))))(For (Assignment (ID)(Constant))(BinaryOp (ID)(ID))(UnaryOp (ID))(Compound (FuncCall (ID)(ExprList (Constant)(BinaryOp (ID)(Constant))(ArrayRef (ID)(ID))(ArrayRef (ID)(ID))))))(Return (Constant))))) |ET| 
1  |BT| (FileAST (Decl (FuncDecl (ParamList (Typename (PtrDecl (TypeDecl (IdentifierType))))(Typename (TypeDecl (IdentifierType))))(TypeDecl (IdentifierType))))(Decl (TypeDecl (IdentifierType)))(FuncDef (Decl (FuncDecl (TypeDecl (IdentifierType))))(Compound (Decl (TypeDecl (IdentifierType)))(Decl (ArrayDecl (TypeDecl (IdentifierType))(Constant)))(Decl (ArrayDecl (TypeDecl (IdentifierType))(Constant)))(Decl (TypeDecl (IdentifierType)))(Decl (TypeDecl (IdentifierType)))(Decl (TypeDecl (IdentifierType)))(Assignment (ID)(Constant))(FuncCall (ID)(ExprList (Constant)(UnaryOp (ID))))(If (BinaryOp (BinaryOp (ID)(Constant))(BinaryOp (Constant)(ID)))(FuncCall (ID)(ExprList (Constant))))(For (Assignment (ID)(Constant))(BinaryOp (ID)(ID))(UnaryOp (ID))(Compound (FuncCall (ID)(ExprList (Constant)(UnaryOp (ArrayRef (ID)(ID)))))(If (BinaryOp (BinaryOp (ArrayRef (ID)(ID))(Constant))(BinaryOp (Constant)(ArrayRef (ID)(ID))))(FuncCall (ID)(ExprList (Constant))))))(FuncCall (ID)(ExprList (Constant)(UnaryOp (ID))))(If (BinaryOp (BinaryOp (ID)(Constant))(BinaryOp (Constant)(ID)))(FuncCall (ID)(ExprList (Constant))))(For (Assignment (ID)(Constant))(BinaryOp (ID)(ID))(UnaryOp (ID))(Compound (FuncCall (ID)(ExprList (Constant)(UnaryOp (ArrayRef (ID)(ID)))))(If (BinaryOp (BinaryOp (ArrayRef (ID)(ID))(Constant))(BinaryOp (Constant)(ArrayRef (ID)(ID))))(FuncCall (ID)(ExprList (Constant))))))(For (Assignment (ID)(Constant))(BinaryOp (ID)(ID))(UnaryOp (ID))(Compound (For (Assignment (ID)(Constant))(BinaryOp (ID)(ID))(UnaryOp (ID))(Compound (If (BinaryOp (ID)(ID))(Continue))(If (BinaryOp (ArrayRef (ID)(ID))(ArrayRef (ID)(ID)))(FuncCall (ID)(ExprList (Constant))))))))(For (Assignment (ID)(Constant))(BinaryOp (ID)(ID))(UnaryOp (ID))(Compound (If (BinaryOp (FuncCall (ID)(ExprList (ID)(ArrayRef (ID)(ID))))(Constant))(UnaryOp (ID)))))(FuncCall (ID)(ExprList (Constant)(ID)))(Return (Constant))))(FuncDef (Decl (FuncDecl (ParamList (Decl (PtrDecl (TypeDecl (IdentifierType))))(Decl (TypeDecl (IdentifierType))))(TypeDecl (IdentifierType))))(Compound (Decl (TypeDecl (IdentifierType)))(For (Assignment (ID)(Constant))(BinaryOp (ID)(ID))(UnaryOp (ID))(Compound (If (BinaryOp (ArrayRef (ID)(ID))(ID))(Return (Constant)))))(Return (Constant))))) |ET| 
-0.45937607970847821325932613945042  |BT| (FileAST (Decl (FuncDecl (ParamList (Typename (TypeDecl (IdentifierType))))(TypeDecl (IdentifierType))))(Decl (TypeDecl (IdentifierType))(Constant))(Decl (ArrayDecl (TypeDecl (IdentifierType))(BinaryOp (Constant)(Constant))))(Decl (ArrayDecl (TypeDecl (IdentifierType))(BinaryOp (Constant)(Constant))))(Decl (ArrayDecl (ArrayDecl (TypeDecl (IdentifierType))(BinaryOp (Constant)(Constant)))(BinaryOp (Constant)(Constant))))(Decl (TypeDecl (IdentifierType)))(FuncDef (Decl (FuncDecl (TypeDecl (IdentifierType))))(Compound (Decl (TypeDecl (IdentifierType)))(Decl (TypeDecl (IdentifierType)))(Decl (TypeDecl (IdentifierType)))(Decl (TypeDecl (IdentifierType)))(Decl (TypeDecl (IdentifierType)))(FuncCall (ID)(ExprList (Constant)(UnaryOp (ID))))(If (BinaryOp (BinaryOp (ID)(Constant))(BinaryOp (ID)(Constant)))(FuncCall (ID)(ExprList (Constant))))(Assignment (ArrayRef (ID)(Constant))(Assignment (ArrayRef (ID)(Constant))(Constant)))(For (Assignment (ID)(Constant))(BinaryOp (ID)(ID))(UnaryOp (ID))(Compound (Assignment (ArrayRef (ID)(BinaryOp (ID)(Constant)))(Assignment (ArrayRef (ID)(BinaryOp (ID)(Constant)))(Constant)))(FuncCall (ID)(ExprList (Constant)(UnaryOp (ID))(UnaryOp (ID))))(For (Assignment (ID)(Constant))(BinaryOp (ID)(ID))(UnaryOp (ID))(Compound (FuncCall (ID)(ExprList (Constant)(UnaryOp (ID))))(Assignment (ArrayRef (ArrayRef (ID)(ID))(ID))(Constant))))))(FuncCall (ID)(ExprList (Constant)))(For (Assignment (ID)(Constant))(BinaryOp (ID)(ID))(UnaryOp (ID))(Compound (If (BinaryOp (ArrayRef (ID)(ID))(Constant))(Compound (UnaryOp (ID))(FuncCall (ID)(ExprList (ID)))))(FuncCall (ID)(ExprList (Constant)(ID)(ArrayRef (ID)(ID))(ArrayRef (ID)(ID))))))(Return (Constant))))(FuncDef (Decl (FuncDecl (ParamList (Decl (TypeDecl (IdentifierType))))(TypeDecl (IdentifierType))))(Compound (Decl (TypeDecl (IdentifierType)))(Decl (TypeDecl (IdentifierType)))(Assignment (ArrayRef (ID)(ID))(ID))(For (Assignment (ID)(Constant))(BinaryOp (ID)(ID))(UnaryOp (ID))(Compound (If (BinaryOp (BinaryOp (ArrayRef (ArrayRef (ID)(ID))(ID))(Constant))(BinaryOp (ArrayRef (ID)(ID))(Constant)))(Compound (UnaryOp (ID))(FuncCall (ID)(ExprList (ID)))))))(UnaryOp (ID))(Assignment (ArrayRef (ID)(ID))(ID))))) |ET| 
1  |BT| (FileAST (FuncDef (Decl (FuncDecl (ParamList (Typename (TypeDecl (IdentifierType))))(TypeDecl (IdentifierType))))(Compound (Decl (TypeDecl (IdentifierType)))(Decl (ArrayDecl (TypeDecl (IdentifierType))(Constant)))(Decl (TypeDecl (IdentifierType)))(Decl (TypeDecl (IdentifierType))(Constant))(Decl (ArrayDecl (TypeDecl (IdentifierType))(Constant)))(Decl (TypeDecl (IdentifierType)))(Decl (TypeDecl (IdentifierType))(Constant))(Decl (TypeDecl (IdentifierType)))(Decl (TypeDecl (IdentifierType)))(Decl (TypeDecl (IdentifierType)))(Decl (TypeDecl (IdentifierType)))(FuncCall (ID)(ExprList (Constant)(UnaryOp (ID))))(Assignment (ID)(Constant))(Assignment (ID)(ID))(While (UnaryOp (ID))(Compound (FuncCall (ID)(ExprList (Constant)(UnaryOp (ArrayRef (ID)(ID)))))(UnaryOp (ID))))(FuncCall (ID)(ExprList (Constant)(UnaryOp (ID))))(Assignment (ID)(ID))(Assignment (ID)(Constant))(While (UnaryOp (ID))(Compound (FuncCall (ID)(ExprList (Constant)(UnaryOp (ArrayRef (ID)(ID)))))(UnaryOp (ID))))(While (BinaryOp (ID)(Constant))(Compound (Assignment (ID)(Constant))(For (Assignment (ID)(BinaryOp (ID)(Constant)))(BinaryOp (ID)(Constant))(UnaryOp (ID))(Compound (If (BinaryOp (ArrayRef (ID)(ID))(ArrayRef (ID)(BinaryOp (ID)(Constant))))(Compound (Assignment (ID)(ArrayRef (ID)(ID)))(Assignment (ArrayRef (ID)(ID))(ArrayRef (ID)(BinaryOp (ID)(Constant))))(Assignment (ArrayRef (ID)(BinaryOp (ID)(Constant)))(ID))(Assignment (ID)(Constant))))))))(For (Assignment (ID)(Constant))(BinaryOp (ID)(ID))(UnaryOp (ID))(Compound (For (Assignment (ID)(Constant))(BinaryOp (ID)(ID))(UnaryOp (ID))(Compound (If (BinaryOp (ArrayRef (ID)(ID))(ArrayRef (ID)(ID)))(Break))))(If (BinaryOp (ID)(ID))(UnaryOp (ID)))))(FuncCall (ID)(ExprList (Constant)(ID)))))) |ET| 
-0.19773925341884016071425378413551  |BT| (FileAST (FuncDef (Decl (FuncDecl (ParamList (Typename (TypeDecl (IdentifierType))))(TypeDecl (IdentifierType))))(Compound (Decl (TypeDecl (IdentifierType)))(Decl (ArrayDecl (TypeDecl (IdentifierType))(Constant)))(If (UnaryOp (FuncCall (ID)(ExprList (ID)(Constant)(ID))))(Return (Constant)))(FuncCall (ID)(ExprList (ID)(Constant)(UnaryOp (ID))))(Return (ID))))(FuncDef (Decl (FuncDecl (ParamList (Decl (PtrDecl (TypeDecl (IdentifierType))))(Decl (PtrDecl (TypeDecl (IdentifierType))))(Decl (PtrDecl (TypeDecl (IdentifierType)))))(TypeDecl (IdentifierType))))(Compound (Decl (ArrayDecl (TypeDecl (IdentifierType))(Constant)))(Decl (TypeDecl (IdentifierType)))(Decl (PtrDecl (TypeDecl (IdentifierType))))(If (UnaryOp (FuncCall (ID)(ExprList (ID)(Constant)(ID))))(Return (UnaryOp (Constant))))(Assignment (ID)(FuncCall (ID)(ExprList (ID)(Constant))))(Decl (TypeDecl (IdentifierType))(FuncCall (ID)(ExprList (ID)(Constant)(Constant))))(Assignment (ID)(FuncCall (ID)(ExprList (Constant)(Constant))))(Decl (TypeDecl (IdentifierType))(FuncCall (ID)(ExprList (ID)(Constant)(Constant))))(For (Assignment (ID)(Constant))(BinaryOp (ID)(ID))(UnaryOp (ID))(Compound (Assignment (ID)(FuncCall (ID)(ExprList (Constant)(Constant))))(Assignment (ArrayRef (ID)(ID))(FuncCall (ID)(ExprList (ID)(Constant)(Constant))))))(Assignment (UnaryOp (ID))(ID))(Assignment (UnaryOp (ID))(ID))(Return (Constant))))(Decl (ArrayDecl (TypeDecl (IdentifierType))(BinaryOp (Constant)(Constant))))(Decl (ArrayDecl (TypeDecl (IdentifierType))(BinaryOp (Constant)(Constant))))(Decl (TypeDecl (IdentifierType))(Constant))(FuncDef (Decl (FuncDecl (ParamList (Decl (ArrayDecl (ArrayDecl (TypeDecl (IdentifierType))(BinaryOp (Constant)(Constant)))))(Decl (TypeDecl (IdentifierType)))(Decl (TypeDecl (IdentifierType))))(TypeDecl (IdentifierType))))(Compound (Decl (TypeDecl (IdentifierType)))(Assignment (ArrayRef (ID)(ID))(UnaryOp (ID)))(For (Assignment (ID)(Constant))(BinaryOp (ID)(ID))(UnaryOp (ID))(Compound (If (UnaryOp (ArrayRef (ArrayRef (ID)(ID))(ID)))(Continue))(If (ArrayRef (ID)(ID))(Continue))(FuncCall (ID)(ExprList (ID)(ID)(ID)))))(Assignment (ArrayRef (ID)(ID))(UnaryOp (ID)))(Return (Constant))))(FuncDef (Decl (FuncDecl (ParamList (Typename (TypeDecl (IdentifierType))))(TypeDecl (IdentifierType))))(Compound (Decl (TypeDecl (IdentifierType))(FuncCall (ID)))(Decl (ArrayDecl (ArrayDecl (TypeDecl (IdentifierType))(BinaryOp (Constant)(Constant)))(BinaryOp (Constant)(Constant))))(Decl (TypeDecl (IdentifierType)))(Decl (TypeDecl (IdentifierType)))(For (Assignment (ID)(Constant))(BinaryOp (ID)(ID))(UnaryOp (ID))(Compound (Decl (ArrayDecl (TypeDecl (IdentifierType))(Constant)))(Decl (TypeDecl (IdentifierType)))(Decl (TypeDecl (IdentifierType)))(FuncCall (ID)(ExprList (ID)(UnaryOp (ID))(UnaryOp (ID))))(For (Assignment (ID)(Constant))(BinaryOp (ID)(ID))(UnaryOp (ID))(Compound (Assignment (ArrayRef (ArrayRef (ID)(ID))(ArrayRef (ID)(ID)))(Constant))))))(For (Assignment (ID)(Constant))(BinaryOp (ID)(ID))(UnaryOp (ID))(Compound (If (UnaryOp (ArrayRef (ID)(ID)))(Compound (FuncCall (ID)(ExprList (ID)(ID)(ID)))))))(For (Assignment (ID)(Constant))(BinaryOp (ID)(ID))(UnaryOp (ID))(Compound (FuncCall (ID)(ExprList (Constant)(ID)(ArrayRef (ID)(ID))(ArrayRef (ID)(ID))))))(Return (Constant))))) |ET| 
1  |BT| (FileAST (FuncDef (Decl (FuncDecl (TypeDecl (IdentifierType))))(Compound (Decl (TypeDecl (IdentifierType)))(Decl (TypeDecl (IdentifierType)))(Decl (PtrDecl (TypeDecl (IdentifierType))))(Decl (PtrDecl (TypeDecl (IdentifierType))))(Decl (ArrayDecl (TypeDecl (IdentifierType))(Constant)))(Decl (TypeDecl (IdentifierType))(Constant))(Decl (TypeDecl (IdentifierType)))(Decl (TypeDecl (IdentifierType)))(Decl (TypeDecl (IdentifierType)))(Decl (TypeDecl (IdentifierType))(Constant))(FuncCall (ID)(ExprList (Constant)(UnaryOp (ID))))(Assignment (ID)(Cast (Typename (PtrDecl (TypeDecl (IdentifierType))))(FuncCall (ID)(ExprList (BinaryOp (ID)(UnaryOp (Typename (TypeDecl (IdentifierType)))))))))(For (Assignment (ID)(Constant))(BinaryOp (ID)(ID))(UnaryOp (ID))(FuncCall (ID)(ExprList (Constant)(UnaryOp (ArrayRef (ID)(ID))))))(FuncCall (ID)(ExprList (Constant)(UnaryOp (ID))))(Assignment (ID)(Cast (Typename (PtrDecl (TypeDecl (IdentifierType))))(FuncCall (ID)(ExprList (BinaryOp (ID)(UnaryOp (Typename (TypeDecl (IdentifierType)))))))))(For (Assignment (ID)(Constant))(BinaryOp (ID)(ID))(UnaryOp (ID))(FuncCall (ID)(ExprList (Constant)(UnaryOp (ArrayRef (ID)(ID))))))(For (Assignment (ID)(Constant))(BinaryOp (ID)(ID))(UnaryOp (ID))(Compound (Assignment (ID)(Constant))(For (Assignment (ID)(Constant))(BinaryOp (ID)(ID))(UnaryOp (ID))(Compound (If (BinaryOp (ArrayRef (ID)(ID))(ArrayRef (ID)(ID)))(Compound (For (Assignment (ID)(Constant))(BinaryOp (ID)(ID))(UnaryOp (ID))(Compound (If (BinaryOp (ArrayRef (ID)(ID))(ArrayRef (ID)(ID)))(Assignment (ID)(Constant)))))(If (BinaryOp (ID)(Constant))(Break))(Assignment (ArrayRef (ID)(UnaryOp (ID)))(ArrayRef (ID)(ID)))(Break)))))))(FuncCall (ID)(ExprList (Constant)(ID)))(FuncCall (ID)(ExprList (ID)))(FuncCall (ID)(ExprList (ID)))(Return (Constant))))) |ET| 
-0.50549533887571584944709002229501  |BT| (FileAST (FuncDef (Decl (FuncDecl (TypeDecl (IdentifierType))))(Compound (Decl (TypeDecl (IdentifierType))(Constant))(Decl (TypeDecl (IdentifierType))(FuncCall (ID)))(If (BinaryOp (BinaryOp (ID)(Constant))(BinaryOp (Constant)(ID)))(Return (ID)))(While (BinaryOp (BinaryOp (Constant)(ID))(BinaryOp (ID)(Constant)))(ExprList (Assignment (ID)(BinaryOp (BinaryOp (Constant)(ID))(BinaryOp (ID)(Constant))))(Assignment (ID)(FuncCall (ID)))))(Return (ID))))(FuncDef (Decl (FuncDecl (ParamList (Decl (TypeDecl (IdentifierType))))(TypeDecl (IdentifierType))))(Compound (If (UnaryOp (ID))(Compound (FuncCall (ID)(ExprList (Constant)))(Return)))(Decl (ArrayDecl (TypeDecl (IdentifierType))(Constant)))(Decl (TypeDecl (IdentifierType))(Constant))(While (ID)(ExprList (Assignment (ArrayRef (ID)(UnaryOp (ID)))(Cast (Typename (TypeDecl (IdentifierType)))(BinaryOp (BinaryOp (ID)(Constant))(Constant))))(Assignment (ID)(Constant))))(While (UnaryOp (ID))(FuncCall (ID)(ExprList (ArrayRef (ID)(ID)))))))(FuncDef (Decl (FuncDecl (ParamList (Decl (ArrayDecl (ArrayDecl (TypeDecl (IdentifierType))(Constant))(Constant)))(Decl (TypeDecl (IdentifierType)))(Decl (PtrDecl (TypeDecl (IdentifierType))))(Decl (PtrDecl (TypeDecl (IdentifierType))))(Decl (TypeDecl (IdentifierType))))(TypeDecl (IdentifierType))))(Compound (Decl (TypeDecl (IdentifierType))(Constant))(Assignment (ArrayRef (ID)(ID))(UnaryOp (ID)))(For (DeclList (Decl (TypeDecl (IdentifierType))(Constant)))(BinaryOp (ID)(ID))(UnaryOp (ID))(Compound (If (BinaryOp (UnaryOp (ArrayRef (ArrayRef (ID)(ID))(ID)))(ArrayRef (ID)(ID)))(Continue))(FuncCall (ID)(ExprList (ID)(ID)(ID)(ID)(ID)))))(Assignment (ArrayRef (ID)(ID))(UnaryOp (ID)))))(FuncDef (Decl (FuncDecl (ParamList (Decl (TypeDecl (IdentifierType)))(Decl (PtrDecl (PtrDecl (TypeDecl (IdentifierType))))))(TypeDecl (IdentifierType))))(Compound (Decl (TypeDecl (IdentifierType))(FuncCall (ID)))(Decl (ArrayDecl (ArrayDecl (TypeDecl (IdentifierType))(Constant))(Constant))(InitList))(For (DeclList (Decl (TypeDecl (IdentifierType))(Constant)))(BinaryOp (ID)(ID))(UnaryOp (ID))(Compound (Decl (TypeDecl (IdentifierType))(BinaryOp (FuncCall (ID))(Constant)))(Decl (TypeDecl (IdentifierType))(FuncCall (ID)))(For (DeclList (Decl (TypeDecl (IdentifierType))(Constant)))(BinaryOp (ID)(ID))(UnaryOp (ID))(Assignment (ArrayRef (ArrayRef (ID)(ID))(BinaryOp (FuncCall (ID))(Constant)))(Constant)))))(Decl (ArrayDecl (TypeDecl (IdentifierType))(Constant)))(Decl (ArrayDecl (TypeDecl (IdentifierType))(Constant))(InitList))(For (DeclList (Decl (TypeDecl (IdentifierType))(Constant)))(BinaryOp (ID)(ID))(UnaryOp (ID))(If (UnaryOp (ArrayRef (ID)(ID)))(FuncCall (ID)(ExprList (ID)(ID)(ID)(ID)(ID)))))(For (DeclList (Decl (TypeDecl (IdentifierType))(Constant)))(BinaryOp (ID)(ID))(UnaryOp (ID))(Compound (ExprList (FuncCall (ID)(ExprList (BinaryOp (ID)(Constant))))(FuncCall (ID)(ExprList (Constant))))(ExprList (FuncCall (ID)(ExprList (ArrayRef (ID)(ID))))(FuncCall (ID)(ExprList (Constant))))(ExprList (FuncCall (ID)(ExprList (ArrayRef (ID)(ID))))(FuncCall (ID)(ExprList (Constant))))))(Return (Constant))))) |ET| 
1  |BT| (FileAST (Decl (FuncDecl (ParamList (Typename (PtrDecl (TypeDecl (IdentifierType))))(Typename (TypeDecl (IdentifierType)))(Typename (TypeDecl (IdentifierType))))(TypeDecl (IdentifierType))))(FuncDef (Decl (FuncDecl (TypeDecl (IdentifierType))))(Compound (Decl (TypeDecl (IdentifierType)))(Decl (TypeDecl (IdentifierType)))(Decl (TypeDecl (IdentifierType)))(Decl (TypeDecl (IdentifierType)))(Decl (PtrDecl (TypeDecl (IdentifierType))))(Decl (PtrDecl (TypeDecl (IdentifierType))))(FuncCall (ID)(ExprList (Constant)(UnaryOp (ID))))(If (BinaryOp (ID)(Constant))(FuncCall (ID)(ExprList (Constant))))(Assignment (ID)(FuncCall (ID)(ExprList (BinaryOp (BinaryOp (ID)(Constant))(UnaryOp (Typename (TypeDecl (IdentifierType))))))))(For (Assignment (ID)(Constant))(BinaryOp (ID)(ID))(UnaryOp (ID))(Compound (FuncCall (ID)(ExprList (Constant)(UnaryOp (ArrayRef (ID)(ID)))))(If (BinaryOp (ArrayRef (ID)(ID))(Constant))(FuncCall (ID)(ExprList (Constant))))))(FuncCall (ID)(ExprList (Constant)(UnaryOp (ID))))(If (BinaryOp (ID)(Constant))(FuncCall (ID)(ExprList (Constant))))(Assignment (ID)(FuncCall (ID)(ExprList (BinaryOp (ID)(UnaryOp (Typename (TypeDecl (IdentifierType))))))))(For (Assignment (ID)(Constant))(BinaryOp (ID)(ID))(UnaryOp (ID))(Compound (FuncCall (ID)(ExprList (Constant)(UnaryOp (ArrayRef (ID)(ID)))))(If (BinaryOp (ArrayRef (ID)(ID))(Constant))(FuncCall (ID)(ExprList (Constant))))(For (Assignment (ID)(Constant))(BinaryOp (ID)(ID))(UnaryOp (ID))(Compound (If (BinaryOp (ArrayRef (ID)(ID))(ArrayRef (ID)(ID)))(FuncCall (ID)(ExprList (Constant))))))))(Assignment (ID)(Constant))(For (Assignment (ID)(Constant))(BinaryOp (ID)(ID))(UnaryOp (ID))(Compound (If (FuncCall (ID)(ExprList (ID)(ArrayRef (ID)(ID))(ID)))(UnaryOp (ID)))))(FuncCall (ID)(ExprList (Constant)(ID)))(Return (Constant))))(FuncDef (Decl (FuncDecl (ParamList (Decl (PtrDecl (TypeDecl (IdentifierType))))(Decl (TypeDecl (IdentifierType)))(Decl (TypeDecl (IdentifierType))))(TypeDecl (IdentifierType))))(Compound (Decl (TypeDecl (IdentifierType))(Constant))(Assignment (ArrayRef (ID)(ID))(ID))(While (BinaryOp (ArrayRef (ID)(ID))(ID))(Compound (UnaryOp (ID))))(If (BinaryOp (ID)(ID))(Return (Constant)))(Return (Constant))))) |ET| 
-0.2033521201964234581538448765059  |BT| (FileAST (FuncDef (Decl (FuncDecl (ParamList (Decl (PtrDecl (PtrDecl (TypeDecl (IdentifierType)))))(Decl (TypeDecl (IdentifierType)))(Decl (PtrDecl (TypeDecl (IdentifierType))))(Decl (PtrDecl (TypeDecl (IdentifierType))))(Decl (TypeDecl (IdentifierType)))(Decl (PtrDecl (TypeDecl (IdentifierType)))))(TypeDecl (IdentifierType))))(Compound (Decl (TypeDecl (IdentifierType)))(Assignment (ArrayRef (ID)(ID))(UnaryOp (ID)))(UnaryOp (UnaryOp (ID)))(For (Assignment (ID)(Constant))(BinaryOp (ID)(ID))(UnaryOp (ID))(Compound (If (BinaryOp (BinaryOp (ArrayRef (ArrayRef (ID)(ID))(ID))(Constant))(BinaryOp (ArrayRef (ID)(ID))(Constant)))(Compound (FuncCall (ID)(ExprList (ID)(ID)(ID)(ID)(ID)(ID)))))))(Assignment (ArrayRef (ID)(ID))(UnaryOp (ID)))(UnaryOp (UnaryOp (ID)))))(FuncDef (Decl (FuncDecl (TypeDecl (IdentifierType))))(Compound (Decl (TypeDecl (IdentifierType)))(Decl (TypeDecl (IdentifierType)))(Decl (TypeDecl (IdentifierType)))(Decl (PtrDecl (PtrDecl (TypeDecl (IdentifierType)))))(Decl (TypeDecl (IdentifierType)))(Decl (TypeDecl (IdentifierType)))(Decl (TypeDecl (IdentifierType)))(FuncCall (ID)(ExprList (Constant)(UnaryOp (ID))))(Assignment (ID)(Cast (Typename (PtrDecl (PtrDecl (TypeDecl (IdentifierType)))))(FuncCall (ID)(ExprList (BinaryOp (UnaryOp (Typename (PtrDecl (TypeDecl (IdentifierType)))))(ID))))))(For (Assignment (ID)(Constant))(BinaryOp (ID)(ID))(UnaryOp (ID))(Compound (Assignment (ArrayRef (ID)(ID))(Cast (Typename (PtrDecl (TypeDecl (IdentifierType))))(FuncCall (ID)(ExprList (BinaryOp (UnaryOp (Typename (TypeDecl (IdentifierType))))(ID))))))(For (Assignment (ID)(Constant))(BinaryOp (ID)(ID))(UnaryOp (ID))(Assignment (ArrayRef (ArrayRef (ID)(ID))(ID))(Constant)))))(For (Assignment (ID)(Constant))(BinaryOp (ID)(ID))(UnaryOp (ID))(Compound (FuncCall (ID)(ExprList (Constant)(UnaryOp (ID))))(FuncCall (ID)(ExprList (Constant)(UnaryOp (ID))))(For (Assignment (ID)(Constant))(BinaryOp (ID)(ID))(UnaryOp (ID))(Compound (FuncCall (ID)(ExprList (Constant)(UnaryOp (ID))))(Assignment (ArrayRef (ArrayRef (ID)(BinaryOp (ID)(Constant)))(BinaryOp (ID)(Constant)))(Constant))))))(Decl (PtrDecl (TypeDecl (IdentifierType))))(Decl (PtrDecl (TypeDecl (IdentifierType))))(Decl (TypeDecl (IdentifierType)))(Assignment (ID)(Cast (Typename (PtrDecl (TypeDecl (IdentifierType))))(FuncCall (ID)(ExprList (ID)(UnaryOp (Typename (TypeDecl (IdentifierType))))))))(Assignment (ID)(Cast (Typename (PtrDecl (TypeDecl (IdentifierType))))(FuncCall (ID)(ExprList (ID)(UnaryOp (Typename (TypeDecl (IdentifierType))))))))(Assignment (ID)(Constant))(For (Assignment (ID)(Constant))(BinaryOp (ID)(ID))(UnaryOp (ID))(Compound (If (BinaryOp (ArrayRef (ID)(ID))(Constant))(Compound (FuncCall (ID)(ExprList (ID)(ID)(ID)(ID)(ID)(UnaryOp (ID))))))))(For (Assignment (ID)(Constant))(BinaryOp (ID)(ID))(UnaryOp (ID))(Compound (FuncCall (ID)(ExprList (Constant)(BinaryOp (ID)(Constant))))(FuncCall (ID)(ExprList (Constant)(ArrayRef (ID)(ID))))(FuncCall (ID)(ExprList (Constant)(ArrayRef (ID)(ID))))))(FuncCall (ID)(ExprList (ID)))(FuncCall (ID)(ExprList (ID)))(FuncCall (ID)(ExprList (ID)))(Return (Constant))))) |ET| 
1  |BT| (FileAST (FuncDef (Decl (FuncDecl (TypeDecl (IdentifierType))))(Compound (Decl (TypeDecl (IdentifierType)))(Decl (TypeDecl (IdentifierType)))(Decl (TypeDecl (IdentifierType)))(Decl (TypeDecl (IdentifierType)))(Decl (TypeDecl (IdentifierType)))(Decl (TypeDecl (IdentifierType)))(Decl (TypeDecl (IdentifierType)))(Decl (TypeDecl (IdentifierType)))(Decl (TypeDecl (IdentifierType))(Constant))(Decl (ArrayDecl (TypeDecl (IdentifierType))(Constant)))(Decl (ArrayDecl (TypeDecl (IdentifierType))(Constant)))(FuncCall (ID)(ExprList (Constant)(UnaryOp (ID))))(For (Assignment (ID)(Constant))(BinaryOp (ID)(ID))(UnaryOp (ID))(Compound (FuncCall (ID)(ExprList (Constant)(UnaryOp (ArrayRef (ID)(ID)))))))(FuncCall (ID)(ExprList (Constant)(UnaryOp (ID))))(For (Assignment (ID)(Constant))(BinaryOp (ID)(ID))(UnaryOp (ID))(Compound (FuncCall (ID)(ExprList (Constant)(UnaryOp (ArrayRef (ID)(ID)))))))(For (Assignment (ID)(Constant))(BinaryOp (ID)(ID))(UnaryOp (ID))(Compound (Assignment (ID)(Constant))(Assignment (ID)(ArrayRef (ID)(ID)))(Assignment (ArrayRef (ID)(ID))(ID))(While (BinaryOp (ArrayRef (ID)(ID))(ID))(Compound (UnaryOp (ID))(If (BinaryOp (ID)(ID))(Compound (Break)))(If (BinaryOp (ID)(ArrayRef (ID)(ID)))(Compound (UnaryOp (ID))))))(If (BinaryOp (ID)(Constant))(Compound (UnaryOp (ID))))))(FuncCall (ID)(ExprList (Constant)(ID)))(Return (Constant))))) |ET| 
-0.70331421520826142845805861725239  |BT| (FileAST (Decl (ArrayDecl (ArrayDecl (TypeDecl (IdentifierType))(BinaryOp (Constant)(Constant)))(BinaryOp (Constant)(Constant))))(Decl (ArrayDecl (TypeDecl (IdentifierType))(BinaryOp (Constant)(Constant))))(Decl (ArrayDecl (TypeDecl (IdentifierType))(BinaryOp (Constant)(Constant))))(Decl (TypeDecl (IdentifierType)))(Decl (TypeDecl (IdentifierType)))(FuncDef (Decl (FuncDecl (ParamList (Decl (TypeDecl (IdentifierType))))(TypeDecl (IdentifierType))))(Compound (Decl (TypeDecl (IdentifierType)))(If (BinaryOp (ID)(Constant))(UnaryOp (ID)))(Assignment (ArrayRef (ID)(ID))(ID))(For (Assignment (ID)(Constant))(BinaryOp (ID)(ID))(UnaryOp (ID))(Compound (If (BinaryOp (BinaryOp (ArrayRef (ArrayRef (ID)(ID))(ID))(Constant))(BinaryOp (ArrayRef (ID)(ID))(Constant)))(Compound (FuncCall (ID)(ExprList (ID)))))))(If (BinaryOp (ID)(Constant))(UnaryOp (ID)))(Assignment (ArrayRef (ID)(ID))(ID))))(FuncDef (Decl (FuncDecl (TypeDecl (IdentifierType))))(Compound (Decl (TypeDecl (IdentifierType)))(Decl (TypeDecl (IdentifierType)))(FuncCall (ID)(ExprList (Constant)(UnaryOp (ID))))(For (Assignment (ID)(Constant))(BinaryOp (ID)(ID))(UnaryOp (ID))(Compound (Assignment (ArrayRef (ArrayRef (ID)(Constant))(ID))(Constant))))(Decl (TypeDecl (IdentifierType)))(Decl (TypeDecl (IdentifierType)))(Decl (TypeDecl (IdentifierType)))(For (Assignment (ID)(Constant))(BinaryOp (ID)(ID))(UnaryOp (ID))(Compound (FuncCall (ID)(ExprList (Constant)(UnaryOp (ID))(UnaryOp (ID))))(For (Assignment (ID)(Constant))(BinaryOp (ID)(ID))(UnaryOp (ID))(Compound (FuncCall (ID)(ExprList (Constant)(UnaryOp (ID))))(Assignment (ArrayRef (ArrayRef (ID)(ID))(ID))(Constant))))))(FuncCall (ID)(ExprList (Constant)))(For (Assignment (ID)(Constant))(BinaryOp (ID)(ID))(UnaryOp (ID))(Compound (FuncCall (ID)(ExprList (Constant)(ID)(ArrayRef (ID)(ID))(ArrayRef (ID)(ID))))))(Return (Constant))))) |ET| 
1  |BT| (FileAST (Decl (Struct (Decl (TypeDecl (IdentifierType)))(Decl (PtrDecl (TypeDecl (Struct))))))(FuncDef (Decl (FuncDecl (TypeDecl (IdentifierType))))(Compound (Decl (TypeDecl (IdentifierType)))(Decl (TypeDecl (IdentifierType)))(Decl (PtrDecl (TypeDecl (Struct))))(Decl (PtrDecl (TypeDecl (IdentifierType))))(Decl (PtrDecl (TypeDecl (Struct))))(Decl (TypeDecl (IdentifierType)))(Decl (TypeDecl (IdentifierType)))(Decl (TypeDecl (IdentifierType))(Constant))(Assignment (ID)(Cast (Typename (PtrDecl (TypeDecl (Struct))))(FuncCall (ID)(ExprList (UnaryOp (Typename (TypeDecl (Struct))))))))(Assignment (StructRef (ID)(ID))(Constant))(FuncCall (ID)(ExprList (Constant)(UnaryOp (ID))))(For (Assignment (ID)(Constant))(BinaryOp (ID)(ID))(UnaryOp (ID))(Compound (FuncCall (ID)(ExprList (Constant)(UnaryOp (ID))))(For (Assignment (ID)(ID))(BinaryOp (StructRef (ID)(ID))(Constant))(Assignment (ID)(StructRef (ID)(ID)))(Compound (If (BinaryOp (StructRef (StructRef (ID)(ID))(ID))(ID))(Break))))(If (BinaryOp (StructRef (ID)(ID))(Constant))(Compound (Assignment (StructRef (ID)(ID))(Cast (Typename (PtrDecl (TypeDecl (Struct))))(FuncCall (ID)(ExprList (UnaryOp (Typename (TypeDecl (Struct))))))))(Assignment (StructRef (StructRef (ID)(ID))(ID))(ID))(Assignment (StructRef (StructRef (ID)(ID))(ID))(Constant))))))(FuncCall (ID)(ExprList (Constant)(UnaryOp (ID))))(Assignment (ID)(Cast (Typename (PtrDecl (TypeDecl (IdentifierType))))(FuncCall (ID)(ExprList (BinaryOp (UnaryOp (Typename (TypeDecl (IdentifierType))))(ID))))))(For (Assignment (ID)(Constant))(BinaryOp (ID)(ID))(UnaryOp (ID))(Compound (FuncCall (ID)(ExprList (Constant)(UnaryOp (ArrayRef (ID)(ID)))))))(For (Assignment (ID)(StructRef (ID)(ID)))(BinaryOp (ID)(Constant))(Assignment (ID)(StructRef (ID)(ID)))(Compound (For (Assignment (ID)(Constant))(BinaryOp (ID)(ID))(UnaryOp (ID))(Compound (If (BinaryOp (StructRef (ID)(ID))(ArrayRef (ID)(ID)))(Compound (UnaryOp (ID))(Break)))))))(FuncCall (ID)(ExprList (Constant)(ID)))))) |ET| 
-0.15651536775993368788562065674341  |BT| (FileAST (Decl (Struct (Decl (TypeDecl (IdentifierType)))(Decl (TypeDecl (IdentifierType)))(Decl (ArrayDecl (TypeDecl (IdentifierType))(BinaryOp (Constant)(Constant))))))(FuncDef (Decl (FuncDecl (ParamList (Decl (PtrDecl (TypeDecl (Struct))))(Decl (TypeDecl (IdentifierType))))(TypeDecl (IdentifierType))))(Compound (FuncCall (ID)(ExprList (ID)(Constant)(UnaryOp (Typename (TypeDecl (Struct))))))(Assignment (StructRef (ID)(ID))(ID))(Assignment (StructRef (ID)(ID))(Constant))(Return)))(FuncDef (Decl (FuncDecl (ParamList (Decl (PtrDecl (TypeDecl (Struct)))))(TypeDecl (IdentifierType))))(Compound (Assignment (StructRef (ID)(ID))(Constant))(Return)))(FuncDef (Decl (FuncDecl (ParamList (Decl (PtrDecl (TypeDecl (Struct))))(Decl (TypeDecl (IdentifierType))))(TypeDecl (IdentifierType))))(Compound (Assignment (ArrayRef (StructRef (ID)(ID))(ID))(Constant))(UnaryOp (StructRef (ID)(ID)))(Return)))(Decl (Struct (Decl (TypeDecl (IdentifierType)))(Decl (ArrayDecl (TypeDecl (Struct))(BinaryOp (Constant)(Constant))))))(FuncDef (Decl (FuncDecl (ParamList (Decl (PtrDecl (TypeDecl (Struct)))))(TypeDecl (IdentifierType))))(Compound (Decl (TypeDecl (IdentifierType)))(Assignment (StructRef (ID)(ID))(Constant))(For (Assignment (ID)(Constant))(BinaryOp (ID)(Constant))(UnaryOp (ID))(Compound (FuncCall (ID)(ExprList (UnaryOp (ArrayRef (StructRef (ID)(ID))(ID)))))))(Return)))(FuncDef (Decl (FuncDecl (ParamList (Decl (PtrDecl (TypeDecl (Struct))))(Decl (TypeDecl (IdentifierType)))(Decl (TypeDecl (IdentifierType))))(TypeDecl (IdentifierType))))(Compound (FuncCall (ID)(ExprList (UnaryOp (ArrayRef (StructRef (ID)(ID))(ID)))(ID)))(Return)))(FuncDef (Decl (FuncDecl (ParamList (Decl (PtrDecl (TypeDecl (Struct))))(Decl (PtrDecl (TypeDecl (Struct)))))(TypeDecl (IdentifierType))))(Compound (FuncCall (ID)(ExprList (UnaryOp (ArrayRef (StructRef (ID)(ID))(StructRef (ID)(ID))))(ID)(UnaryOp (Typename (TypeDecl (Struct))))))(UnaryOp (StructRef (ID)(ID)))(FuncCall (ID)(ExprList (ID)(Constant)(StructRef (ID)(ID))))(Return)))(Decl (Struct (Decl (ArrayDecl (TypeDecl (IdentifierType))(BinaryOp (Constant)(Constant))))(Decl (ArrayDecl (TypeDecl (IdentifierType))(BinaryOp (Constant)(Constant))))))(FuncDef (Decl (FuncDecl (ParamList (Decl (PtrDecl (TypeDecl (Struct)))))(TypeDecl (IdentifierType))))(Compound (FuncCall (ID)(ExprList (ID)(Constant)(UnaryOp (Typename (TypeDecl (Struct))))))(Return)))(FuncDef (Decl (FuncDecl (ParamList (Decl (PtrDecl (TypeDecl (Struct))))(Decl (PtrDecl (TypeDecl (Struct))))(Decl (TypeDecl (IdentifierType)))(Decl (TypeDecl (IdentifierType))))(TypeDecl (IdentifierType))))(Compound (Decl (TypeDecl (IdentifierType)))(Assignment (ArrayRef (StructRef (ID)(ID))(ID))(UnaryOp (ID)))(For (Assignment (ID)(Constant))(BinaryOp (ID)(StructRef (ID)(ID)))(UnaryOp (ID))(Compound (If (BinaryOp (ArrayRef (StructRef (ArrayRef (StructRef (ID)(ID))(ID))(ID))(ID))(UnaryOp (ArrayRef (StructRef (ID)(ID))(ID))))(Compound (Assignment (ID)(FuncCall (ID)(ExprList (ID)(ID)(ID)(ID))))))))(Assignment (ArrayRef (StructRef (ID)(ID))(ID))(UnaryOp (ID)))(Return (ID))))(FuncDef (Decl (FuncDecl (ParamList (Decl (PtrDecl (TypeDecl (Struct))))(Decl (PtrDecl (TypeDecl (Struct))))(Decl (TypeDecl (IdentifierType))))(TypeDecl (IdentifierType))))(Compound (Decl (TypeDecl (IdentifierType))(Constant))(FuncCall (ID)(ExprList (ID)))(Assignment (ID)(FuncCall (ID)(ExprList (ID)(ID)(ID)(ID))))(Return)))(FuncDef (Decl (FuncDecl (ParamList (Decl (PtrDecl (TypeDecl (Struct))))(Decl (PtrDecl (TypeDecl (Struct)))))(TypeDecl (IdentifierType))))(Compound (Decl (TypeDecl (IdentifierType)))(For (Assignment (ID)(Constant))(BinaryOp (ID)(StructRef (ID)(ID)))(UnaryOp (ID))(Compound (FuncCall (ID)(ExprList (Constant)(ID)(ArrayRef (StructRef (ID)(ID))(ID))(ArrayRef (StructRef (ID)(ID))(ID))))))(Return)))(FuncDef (Decl (FuncDecl (ParamList (Decl (TypeDecl (IdentifierType)))(Decl (ArrayDecl (PtrDecl (TypeDecl (IdentifierType))))))(TypeDecl (IdentifierType))))(Compound (Decl (TypeDecl (Struct)))(Decl (TypeDecl (Struct)))(Decl (TypeDecl (IdentifierType)))(Decl (TypeDecl (IdentifierType)))(Decl (TypeDecl (IdentifierType)))(FuncCall (ID)(ExprList (UnaryOp (ID))))(FuncCall (ID)(ExprList (Constant)(UnaryOp (ID))))(For (Assignment (ID)(Constant))(BinaryOp (ID)(ID))(UnaryOp (ID))(Compound (Decl (TypeDecl (Struct)))(Decl (TypeDecl (IdentifierType)))(Decl (TypeDecl (IdentifierType)))(FuncCall (ID)(ExprList (Constant)(UnaryOp (ID))(UnaryOp (ID))))(FuncCall (ID)(ExprList (UnaryOp (ID))(ID)))(FuncCall (ID)(ExprList (UnaryOp (ID))(UnaryOp (ID))))(For (Assignment (ID)(Constant))(BinaryOp (ID)(ID))(UnaryOp (ID))(Compound (Decl (TypeDecl (IdentifierType)))(FuncCall (ID)(ExprList (Constant)(UnaryOp (ID))))(FuncCall (ID)(ExprList (UnaryOp (ID))(ID)(ID)))))(FuncCall (ID)(ExprList (ID)))))(FuncCall (ID)(ExprList (UnaryOp (ID))(UnaryOp (ID))(Constant)))(FuncCall (ID)(ExprList (UnaryOp (ID))(UnaryOp (ID))))(Return (Constant))))) |ET| 
1  |BT| (FileAST (FuncDef (Decl (FuncDecl (ParamList (Decl (ArrayDecl (TypeDecl (IdentifierType))))(Decl (TypeDecl (IdentifierType))))(TypeDecl (IdentifierType))))(Compound (Decl (ArrayDecl (TypeDecl (IdentifierType))(ID)))(Decl (TypeDecl (IdentifierType))(Constant))(Decl (TypeDecl (IdentifierType))(Constant))(For (DeclList (Decl (TypeDecl (IdentifierType))(Constant)))(BinaryOp (ID)(ID))(UnaryOp (ID))(Compound (Assignment (ArrayRef (ID)(ID))(ArrayRef (ID)(ID)))(For (DeclList (Decl (TypeDecl (IdentifierType))(Constant)))(BinaryOp (ID)(ID))(UnaryOp (ID))(Compound (If (BinaryOp (ArrayRef (ID)(ID))(ArrayRef (ID)(ID)))(UnaryOp (ID)))))(If (BinaryOp (ID)(Constant))(Assignment (ArrayRef (ID)(ID))(Constant)))(Assignment (ID)(Constant))))(FuncCall (ID)(ExprList (ID)(ID)(BinaryOp (ID)(UnaryOp (Typename (TypeDecl (IdentifierType)))))))))(FuncDef (Decl (FuncDecl (TypeDecl (IdentifierType))))(Compound (Decl (PtrDecl (TypeDecl (IdentifierType))))(Decl (PtrDecl (TypeDecl (IdentifierType))))(Decl (TypeDecl (IdentifierType)))(Decl (TypeDecl (IdentifierType)))(Decl (TypeDecl (IdentifierType))(Constant))(FuncCall (ID)(ExprList (Constant)(UnaryOp (ID))))(Assignment (ID)(FuncCall (ID)(ExprList (BinaryOp (UnaryOp (Typename (TypeDecl (IdentifierType))))(ID)))))(For (DeclList (Decl (TypeDecl (IdentifierType))(Constant)))(BinaryOp (ID)(ID))(UnaryOp (ID))(Compound (FuncCall (ID)(ExprList (Constant)(UnaryOp (ArrayRef (ID)(ID)))))))(FuncCall (ID)(ExprList (ID)(ID)))(FuncCall (ID)(ExprList (Constant)(UnaryOp (ID))))(Assignment (ID)(FuncCall (ID)(ExprList (BinaryOp (UnaryOp (Typename (TypeDecl (IdentifierType))))(ID)))))(For (DeclList (Decl (TypeDecl (IdentifierType))(Constant)))(BinaryOp (ID)(ID))(UnaryOp (ID))(Compound (FuncCall (ID)(ExprList (Constant)(UnaryOp (ArrayRef (ID)(ID)))))))(For (DeclList (Decl (TypeDecl (IdentifierType))(Constant)))(BinaryOp (ID)(ID))(UnaryOp (ID))(Compound (For (DeclList (Decl (TypeDecl (IdentifierType))(Constant)))(BinaryOp (ID)(ID))(UnaryOp (ID))(Compound (If (BinaryOp (ArrayRef (ID)(ID))(Constant))(Continue))(If (BinaryOp (ArrayRef (ID)(ID))(ArrayRef (ID)(ID)))(Compound (UnaryOp (ID))))))))(FuncCall (ID)(ExprList (Constant)(ID)))(Return (Constant))))) |ET| 
-0.74810700807630148290172655833885  |BT| (FileAST (FuncDef (Decl (FuncDecl (ParamList (Decl (PtrDecl (TypeDecl (IdentifierType))))(Decl (TypeDecl (IdentifierType)))(Decl (TypeDecl (IdentifierType)))(Decl (TypeDecl (IdentifierType))))(TypeDecl (IdentifierType))))(Compound (If (BinaryOp (ID)(Constant))(Return))(Decl (PtrDecl (TypeDecl (IdentifierType)))(UnaryOp (ArrayRef (ID)(BinaryOp (ID)(Constant)))))(Assignment (StructRef (ID)(ID))(ID))(If (ID)(FuncCall (ID)(ExprList (StructRef (ID)(ID)))))(If (BinaryOp (StructRef (ID)(ID))(Constant))(Compound (Decl (TypeDecl (IdentifierType)))(For (Assignment (ID)(Constant))(BinaryOp (ID)(StructRef (ID)(ID)))(UnaryOp (ID))(Compound (Decl (TypeDecl (IdentifierType))(ArrayRef (StructRef (ID)(ID))(ID)))(If (BinaryOp (StructRef (ArrayRef (ID)(BinaryOp (ID)(Constant)))(ID))(ID))(Compound (FuncCall (ID)(ExprList (ID)(ID)(ID)(ID)))))))))(If (ID)(FuncCall (ID)(ExprList (StructRef (ID)(ID)))))(Return)))(Decl (ArrayDecl (TypeDecl (IdentifierType))(Constant)))(Decl (TypeDecl (IdentifierType))(Constant))(Decl (ArrayDecl (ArrayDecl (TypeDecl (IdentifierType))(Constant))(Constant)))(FuncDef (Decl (FuncDecl (ParamList (Decl (TypeDecl (IdentifierType))))(TypeDecl (IdentifierType))))(Compound (UnaryOp (ID))(Assignment (ArrayRef (ArrayRef (ID)(BinaryOp (ID)(Constant)))(Constant))(ID))))(FuncDef (Decl (FuncDecl (ParamList (Decl (TypeDecl (IdentifierType))))(TypeDecl (IdentifierType))))(Compound (UnaryOp (ID))(Assignment (ArrayRef (ArrayRef (ID)(BinaryOp (ID)(Constant)))(Constant))(ID))))(FuncDef (Decl (FuncDecl (ParamList (Typename (TypeDecl (IdentifierType))))(TypeDecl (IdentifierType))))(Compound (Decl (TypeDecl (IdentifierType)))(FuncCall (ID)(ExprList (Constant)(UnaryOp (ID))))(Decl (TypeDecl (IdentifierType)))(Decl (TypeDecl (IdentifierType)))(For (Assignment (ID)(Constant))(BinaryOp (ID)(ID))(UnaryOp (ID))(Compound (FuncCall (ID)(ExprList (Constant)(UnaryOp (StructRef (ArrayRef (ID)(ID))(ID)))))(FuncCall (ID)(ExprList (Constant)(UnaryOp (StructRef (ArrayRef (ID)(ID))(ID)))))(For (Assignment (ID)(Constant))(BinaryOp (ID)(StructRef (ArrayRef (ID)(ID))(ID)))(UnaryOp (ID))(Compound (FuncCall (ID)(ExprList (Constant)(UnaryOp (ArrayRef (StructRef (ArrayRef (ID)(ID))(ID))(ID)))))))(Assignment (StructRef (ArrayRef (ID)(ID))(ID))(ID))))(For (Assignment (ID)(Constant))(BinaryOp (ID)(ID))(UnaryOp (ID))(Compound (If (BinaryOp (StructRef (ArrayRef (ID)(ID))(ID))(ID))(Compound (FuncCall (ID)(ExprList (ID)(BinaryOp (ID)(Constant))(ID)(ID)))))))(For (Assignment (ID)(Constant))(BinaryOp (ID)(ID))(UnaryOp (ID))(Compound (FuncCall (ID)(ExprList (Constant)(BinaryOp (ID)(Constant))(ArrayRef (ArrayRef (ID)(ID))(Constant))(ArrayRef (ArrayRef (ID)(ID))(Constant))))))(Return (Constant))))) |ET| 
1  |BT| (FileAST (FuncDef (Decl (FuncDecl (ParamList (Decl (PtrDecl (TypeDecl (IdentifierType))))(Decl (PtrDecl (TypeDecl (IdentifierType)))))(TypeDecl (IdentifierType))))(Compound (Return (BinaryOp (UnaryOp (Cast (Typename (PtrDecl (TypeDecl (IdentifierType))))(ID)))(UnaryOp (Cast (Typename (PtrDecl (TypeDecl (IdentifierType))))(ID)))))))(FuncDef (Decl (FuncDecl (ParamList (Decl (PtrDecl (TypeDecl (IdentifierType))))(Decl (PtrDecl (TypeDecl (IdentifierType)))))(PtrDecl (TypeDecl (IdentifierType)))))(Compound (Decl (TypeDecl (IdentifierType)))(Decl (TypeDecl (IdentifierType)))(Decl (TypeDecl (IdentifierType))(ArrayRef (ID)(Constant)))(For (ExprList (Assignment (ID)(Constant))(Assignment (ID)(Constant)))(BinaryOp (ID)(UnaryOp (ID)))(UnaryOp (ID))(Compound (If (BinaryOp (ID)(ArrayRef (ID)(ID)))(Compound (Assignment (ArrayRef (ID)(ID))(ArrayRef (ID)(ID)))(Assignment (ID)(ArrayRef (ID)(ID)))(UnaryOp (ID))))))(Assignment (UnaryOp (ID))(ID))(Return (ID))))(FuncDef (Decl (FuncDecl (ParamList (Typename (TypeDecl (IdentifierType))))(TypeDecl (IdentifierType))))(Compound (Decl (TypeDecl (IdentifierType)))(Decl (TypeDecl (IdentifierType)))(Decl (TypeDecl (IdentifierType)))(Decl (TypeDecl (IdentifierType)))(Decl (TypeDecl (IdentifierType))(Constant))(Decl (ArrayDecl (TypeDecl (IdentifierType))(Constant)))(Decl (ArrayDecl (TypeDecl (IdentifierType))(Constant)))(FuncCall (ID)(ExprList (Constant)(UnaryOp (ID))))(For (Assignment (ID)(Constant))(BinaryOp (ID)(ID))(UnaryOp (ID))(Compound (FuncCall (ID)(ExprList (Constant)(UnaryOp (ArrayRef (ID)(ID)))))))(FuncCall (ID)(ExprList (Constant)(UnaryOp (ID))))(For (Assignment (ID)(Constant))(BinaryOp (ID)(ID))(UnaryOp (ID))(Compound (FuncCall (ID)(ExprList (Constant)(UnaryOp (ArrayRef (ID)(ID)))))))(FuncCall (ID)(ExprList (ID)(ID)(UnaryOp (Typename (TypeDecl (IdentifierType))))(ID)))(FuncCall (ID)(ExprList (ID)(UnaryOp (ID))))(For (Assignment (ID)(Constant))(BinaryOp (ID)(ID))(UnaryOp (ID))(Compound (For (Assignment (ID)(Constant))(BinaryOp (ID)(ID))(UnaryOp (ID))(Compound (If (BinaryOp (ArrayRef (ID)(ID))(ArrayRef (ID)(ID)))(Compound (UnaryOp (ID))))))))(FuncCall (ID)(ExprList (Constant)(ID)))(Return (Constant))))) |ET| 
-0.42957645572146180290573624915851  |BT| (FileAST (Decl (TypeDecl (IdentifierType)))(Decl (ArrayDecl (TypeDecl (IdentifierType))(Constant)))(Decl (ArrayDecl (TypeDecl (IdentifierType))(Constant)))(Decl (ArrayDecl (TypeDecl (IdentifierType))(Constant)))(Decl (ArrayDecl (ArrayDecl (TypeDecl (IdentifierType))(Constant))(Constant)))(FuncDef (Decl (FuncDecl (ParamList (Decl (TypeDecl (IdentifierType)))(Decl (ArrayDecl (ArrayDecl (TypeDecl (IdentifierType))(Constant))(Constant))))(TypeDecl (IdentifierType))))(Compound (For (DeclList (Decl (TypeDecl (IdentifierType))(Constant)))(BinaryOp (ID)(ID))(UnaryOp (ID))(Compound (For (DeclList (Decl (TypeDecl (IdentifierType))(Constant)))(BinaryOp (ID)(ID))(UnaryOp (ID))(Compound (Assignment (ArrayRef (ArrayRef (ID)(ID))(ID))(Constant))))))))(FuncDef (Decl (FuncDecl (ParamList (Decl (TypeDecl (IdentifierType)))(Decl (ArrayDecl (TypeDecl (IdentifierType))))(Decl (ArrayDecl (TypeDecl (IdentifierType)))))(TypeDecl (IdentifierType))))(Compound (For (DeclList (Decl (TypeDecl (IdentifierType))(Constant)))(BinaryOp (ID)(ID))(UnaryOp (ID))(Compound (FuncCall (ID)(ExprList (Constant)(BinaryOp (ID)(Constant))(ArrayRef (ID)(ID))(ArrayRef (ID)(ID))))))))(FuncDef (Decl (FuncDecl (ParamList (Decl (TypeDecl (IdentifierType)))(Decl (TypeDecl (IdentifierType))))(TypeDecl (IdentifierType))))(Compound (Assignment (ArrayRef (ID)(ID))(Constant))(Assignment (ArrayRef (ID)(ID))(UnaryOp (ID)))(For (DeclList (Decl (TypeDecl (IdentifierType))(Constant)))(BinaryOp (ID)(ID))(UnaryOp (ID))(Compound (If (BinaryOp (ArrayRef (ArrayRef (ID)(ID))(ID))(Constant))(Continue))(If (BinaryOp (ArrayRef (ID)(ID))(Constant))(Compound (FuncCall (ID)(ExprList (ID)(ID)))))))(Assignment (ArrayRef (ID)(ID))(Constant))(Assignment (ArrayRef (ID)(ID))(UnaryOp (ID)))))(FuncDef (Decl (FuncDecl (ParamList (Decl (TypeDecl (IdentifierType))))(TypeDecl (IdentifierType))))(Compound (For (DeclList (Decl (TypeDecl (IdentifierType))(Constant)))(BinaryOp (ID)(ID))(UnaryOp (ID))(Compound (Assignment (ArrayRef (ID)(ID))(Constant))))(Assignment (ID)(Constant))(For (DeclList (Decl (TypeDecl (IdentifierType))(Constant)))(BinaryOp (ID)(ID))(UnaryOp (ID))(Compound (If (BinaryOp (ArrayRef (ID)(ID))(Constant))(Compound (FuncCall (ID)(ExprList (ID)(ID)))))))))(FuncDef (Decl (FuncDecl (TypeDecl (IdentifierType))))(Compound (Decl (TypeDecl (IdentifierType)))(Decl (TypeDecl (IdentifierType)))(Decl (TypeDecl (IdentifierType)))(Decl (TypeDecl (IdentifierType)))(FuncCall (ID)(ExprList (Constant)(UnaryOp (ID))))(FuncCall (ID)(ExprList (ID)(ID)))(For (DeclList (Decl (TypeDecl (IdentifierType))(Constant)))(BinaryOp (ID)(ID))(UnaryOp (ID))(Compound (FuncCall (ID)(ExprList (Constant)(UnaryOp (ID))))(FuncCall (ID)(ExprList (Constant)(UnaryOp (ID))))(For (DeclList (Decl (TypeDecl (IdentifierType))(Constant)))(BinaryOp (ID)(ID))(UnaryOp (ID))(Compound (FuncCall (ID)(ExprList (Constant)(UnaryOp (ID))))(Assignment (ArrayRef (ArrayRef (ID)(ID))(BinaryOp (ID)(Constant)))(Constant))))))(FuncCall (ID)(ExprList (ID)))(FuncCall (ID)(ExprList (ID)(ID)(ID)))(Return (Constant))))) |ET| 
1  |BT| (FileAST (FuncDef (Decl (FuncDecl (TypeDecl (IdentifierType))))(Compound (Decl (TypeDecl (IdentifierType)))(Decl (ArrayDecl (TypeDecl (IdentifierType))(Constant)))(Decl (TypeDecl (IdentifierType)))(Decl (ArrayDecl (TypeDecl (IdentifierType))(Constant)))(Decl (TypeDecl (IdentifierType)))(Decl (TypeDecl (IdentifierType)))(Decl (TypeDecl (IdentifierType)))(Decl (TypeDecl (IdentifierType))(Constant))(FuncCall (ID)(ExprList (Constant)(UnaryOp (ID))))(For (Assignment (ID)(Constant))(BinaryOp (ID)(ID))(UnaryOp (ID))(FuncCall (ID)(ExprList (Constant)(UnaryOp (ArrayRef (ID)(ID))))))(FuncCall (ID)(ExprList (Constant)(UnaryOp (ID))))(For (Assignment (ID)(Constant))(BinaryOp (ID)(ID))(UnaryOp (ID))(FuncCall (ID)(ExprList (Constant)(UnaryOp (ArrayRef (ID)(ID))))))(For (Assignment (ID)(Constant))(BinaryOp (ID)(ID))(UnaryOp (ID))(Compound (For (Assignment (ID)(BinaryOp (ID)(Constant)))(BinaryOp (ID)(Constant))(UnaryOp (ID))(Compound (If (BinaryOp (ArrayRef (ID)(ID))(ArrayRef (ID)(ID)))(Compound (Assignment (ID)(Constant))(Assignment (ID)(BinaryOp (ID)(Constant)))))))(For (Assignment (ID)(Constant))(BinaryOp (ID)(ID))(UnaryOp (ID))(Compound (For (Assignment (ID)(BinaryOp (ID)(Constant)))(BinaryOp (ID)(Constant))(UnaryOp (ID))(Compound (If (BinaryOp (ArrayRef (ID)(ID))(ArrayRef (ID)(ID)))(Compound (Assignment (ID)(Constant))(Assignment (ID)(BinaryOp (ID)(Constant)))))))(If (BinaryOp (ArrayRef (ID)(ID))(ArrayRef (ID)(ID)))(Compound (Assignment (ID)(Constant))))))))(FuncCall (ID)(ExprList (Constant)(ID)))(Return (Constant))))) |ET| 
-0.65800813666205926200092335420777  |BT| (FileAST (Decl (ArrayDecl (ArrayDecl (TypeDecl (IdentifierType))(BinaryOp (Constant)(Constant)))(BinaryOp (Constant)(Constant))))(Decl (ArrayDecl (TypeDecl (IdentifierType))(BinaryOp (Constant)(Constant))))(Decl (ArrayDecl (TypeDecl (IdentifierType))(BinaryOp (Constant)(Constant))))(Decl (ArrayDecl (TypeDecl (IdentifierType))(BinaryOp (Constant)(Constant))))(Decl (TypeDecl (IdentifierType)))(Decl (TypeDecl (IdentifierType)))(FuncDef (Decl (FuncDecl (ParamList (Decl (TypeDecl (IdentifierType))))(TypeDecl (IdentifierType))))(Compound (Decl (TypeDecl (IdentifierType)))(Assignment (ArrayRef (ID)(ID))(UnaryOp (ID)))(For (Assignment (ID)(Constant))(BinaryOp (ID)(ArrayRef (ID)(ID)))(UnaryOp (ID))(If (UnaryOp (ArrayRef (ID)(ArrayRef (ArrayRef (ID)(ID))(ID))))(FuncCall (ID)(ExprList (ArrayRef (ArrayRef (ID)(ID))(ID))))))(Assignment (ArrayRef (ID)(ID))(UnaryOp (ID)))))(FuncDef (Decl (FuncDecl (TypeDecl (IdentifierType))))(Compound (Decl (TypeDecl (IdentifierType)))(Decl (TypeDecl (IdentifierType)))(Decl (TypeDecl (IdentifierType)))(Decl (TypeDecl (IdentifierType)))(FuncCall (ID)(ExprList (Constant)(UnaryOp (ID))))(Assignment (ID)(Constant))(For (Assignment (ID)(Constant))(BinaryOp (ID)(ID))(UnaryOp (ID))(Compound (Assignment (ArrayRef (ID)(ID))(Assignment (ArrayRef (ID)(ID))(Constant)))(FuncCall (ID)(ExprList (Constant)(UnaryOp (ID))))(FuncCall (ID)(ExprList (Constant)(UnaryOp (ArrayRef (ID)(ID)))))(For (Assignment (ID)(Constant))(BinaryOp (ID)(ArrayRef (ID)(ID)))(UnaryOp (ID))(FuncCall (ID)(ExprList (Constant)(UnaryOp (ArrayRef (ArrayRef (ID)(ID))(ID))))))))(For (Assignment (ID)(Constant))(BinaryOp (ID)(ID))(UnaryOp (ID))(If (UnaryOp (ArrayRef (ID)(ID)))(FuncCall (ID)(ExprList (ID)))))(For (Assignment (ID)(Constant))(BinaryOp (ID)(ID))(UnaryOp (ID))(FuncCall (ID)(ExprList (Constant)(ID)(ArrayRef (ID)(ID))(ArrayRef (ID)(ID)))))(Return (Constant))))) |ET| 
1  |BT| (FileAST (Decl (FuncDecl (ParamList (Typename (TypeDecl (IdentifierType))))(TypeDecl (IdentifierType))))(Decl (TypeDecl (IdentifierType)))(Decl (PtrDecl (TypeDecl (IdentifierType))))(FuncDef (Decl (FuncDecl (TypeDecl (IdentifierType))))(Compound (Decl (TypeDecl (IdentifierType)))(Decl (TypeDecl (IdentifierType)))(Decl (TypeDecl (IdentifierType)))(Decl (TypeDecl (IdentifierType))(Constant))(Decl (PtrDecl (TypeDecl (IdentifierType))))(FuncCall (ID)(ExprList (Constant)(UnaryOp (ID))))(Assignment (ID)(Cast (Typename (PtrDecl (TypeDecl (IdentifierType))))(FuncCall (ID)(ExprList (BinaryOp (UnaryOp (Typename (TypeDecl (IdentifierType))))(ID))))))(If (BinaryOp (ID)(Constant))(FuncCall (ID)(ExprList (Constant))))(For (Assignment (ID)(Constant))(BinaryOp (ID)(ID))(UnaryOp (ID))(Compound (FuncCall (ID)(ExprList (Constant)(UnaryOp (ArrayRef (ID)(ID)))))))(FuncCall (ID)(ExprList (Constant)(UnaryOp (ID))))(Assignment (ID)(Cast (Typename (PtrDecl (TypeDecl (IdentifierType))))(FuncCall (ID)(ExprList (BinaryOp (UnaryOp (Typename (TypeDecl (IdentifierType))))(ID))))))(If (BinaryOp (ID)(Constant))(FuncCall (ID)(ExprList (Constant))))(For (Assignment (ID)(Constant))(BinaryOp (ID)(ID))(UnaryOp (ID))(Compound (FuncCall (ID)(ExprList (Constant)(UnaryOp (ArrayRef (ID)(ID)))))))(For (Assignment (ID)(Constant))(BinaryOp (ID)(ID))(UnaryOp (ID))(Compound (Assignment (ID)(FuncCall (ID)(ExprList (ArrayRef (ID)(ID)))))(If (BinaryOp (ID)(UnaryOp (Constant)))(UnaryOp (ID)))))(FuncCall (ID)(ExprList (Constant)(ID)))(Return (Constant))))(FuncDef (Decl (FuncDecl (ParamList (Decl (TypeDecl (IdentifierType))))(TypeDecl (IdentifierType))))(Compound (Decl (TypeDecl (IdentifierType)))(Assignment (ID)(Constant))(Assignment (ArrayRef (ID)(ID))(ID))(While (BinaryOp (ArrayRef (ID)(ID))(ID))(Compound (UnaryOp (ID))(If (BinaryOp (ID)(ID))(Return (UnaryOp (Constant))))))(Return (ID))))) |ET| 
