SVM-light Version V5.01-TK-1.5
5 # kernel type
3 # kernel parameter -d 
1 # kernel parameter -g 
1 # kernel parameter -s 
1 # kernel parameter -r 
empty# kernel parameter -u 
0.4 # kernel parameter -L 
1 # kernel parameter -T 
T # kernel parameter -C 
1 # kernel parameter -F 
1 # kernel parameter -S 
0.400000 # kernel parameter -M 
3 # kernel parameter -N 
S # kernel parameter -V 
S # kernel parameter -W 
0 # kernel parameter -U 
0 # highest feature index 
600 # number of training documents 
415 # number of support vectors plus 1 
0.78373679 # threshold b, each following line is a SV (starting with alpha*y)
-0.22756659309768248466987472511391  |BT| (FileAST (Decl (TypeDecl (IdentifierType))(BinaryOp (Constant)(Constant)))(Decl (TypeDecl (IdentifierType)))(Decl (ArrayDecl (ArrayDecl (TypeDecl (IdentifierType))(Constant))(Constant)))(Decl (ArrayDecl (TypeDecl (IdentifierType))(Constant)))(Decl (ArrayDecl (TypeDecl (IdentifierType))(Constant)))(Decl (ArrayDecl (TypeDecl (IdentifierType))(Constant)))(Decl (TypeDecl (IdentifierType)))(Decl (ArrayDecl (TypeDecl (IdentifierType))(BinaryOp (Constant)(Constant))))(Decl (TypeDecl (IdentifierType)))(Decl (TypeDecl (IdentifierType)))(FuncDef (Decl (FuncDecl (TypeDecl (IdentifierType))))(Compound (Assignment (ID)(Assignment (ID)(Constant)))))(FuncDef (Decl (FuncDecl (ParamList (Decl (TypeDecl (IdentifierType))))(TypeDecl (IdentifierType))))(Compound (Assignment (ArrayRef (ID)(UnaryOp (ID)))(ID))))(FuncDef (Decl (FuncDecl (TypeDecl (IdentifierType))))(Compound (Return (BinaryOp (ID)(ID)))))(FuncDef (Decl (FuncDecl (TypeDecl (IdentifierType))))(Compound (Decl (TypeDecl (IdentifierType))(ArrayRef (ID)(UnaryOp (ID))))(Return (ID))))(FuncDef (Decl (FuncDecl (ParamList (Decl (TypeDecl (IdentifierType))))(TypeDecl (IdentifierType))))(Compound (Decl (TypeDecl (IdentifierType)))(Decl (TypeDecl (IdentifierType)))(Decl (TypeDecl (IdentifierType)))(Decl (TypeDecl (IdentifierType)))(FuncCall (ID))(FuncCall (ID)(ExprList (ID)))(For (Assignment (ID)(Constant))(BinaryOp (ID)(ID))(UnaryOp (ID))(Assignment (ArrayRef (ID)(ID))(ID)))(For (Assignment (ID)(Constant))(BinaryOp (ID)(ID))(UnaryOp (ID))(UnaryOp (ID)))(Assignment (ArrayRef (ID)(ID))(Constant))(While (UnaryOp (FuncCall (ID)))(Compound (Assignment (ID)(FuncCall (ID)))(For (Assignment (ID)(Constant))(BinaryOp (ID)(ID))(UnaryOp (ID))(Compound (If (BinaryOp (ArrayRef (ArrayRef (ID)(ID))(ID))(Constant))(Continue))(If (BinaryOp (ArrayRef (ID)(ID))(ID))(Continue))(Assignment (ArrayRef (ID)(ID))(BinaryOp (ArrayRef (ID)(ID))(Constant)))(FuncCall (ID)(ExprList (ID)))))))(For (Assignment (ID)(Constant))(BinaryOp (ID)(ID))(UnaryOp (ID))(Compound (FuncCall (ID)(ExprList (Constant)(BinaryOp (ID)(Constant))(TernaryOp (BinaryOp (ArrayRef (ID)(ID))(ID))(UnaryOp (Constant))(ArrayRef (ID)(ID)))))))))(FuncDef (Decl (FuncDecl (TypeDecl (IdentifierType))))(Compound (Decl (TypeDecl (IdentifierType)))(Decl (TypeDecl (IdentifierType)))(Decl (TypeDecl (IdentifierType)))(Decl (TypeDecl (IdentifierType)))(Decl (TypeDecl (IdentifierType)))(FuncCall (ID)(ExprList (Constant)(UnaryOp (ID))))(For (Assignment (ID)(Constant))(BinaryOp (ID)(ID))(UnaryOp (ID))(Compound (For (Assignment (ID)(Constant))(BinaryOp (ID)(ID))(UnaryOp (ID))(Assignment (ArrayRef (ArrayRef (ID)(ID))(ID))(Constant)))))(For (Assignment (ID)(Constant))(BinaryOp (ID)(ID))(UnaryOp (ID))(Compound (FuncCall (ID)(ExprList (Constant)(UnaryOp (ID))(UnaryOp (ID))))(UnaryOp (ID))(For (Assignment (ID)(Constant))(BinaryOp (ID)(ID))(UnaryOp (ID))(Compound (FuncCall (ID)(ExprList (Constant)(UnaryOp (ID))))(UnaryOp (ID))(Assignment (ArrayRef (ArrayRef (ID)(ID))(ID))(Constant))))))(FuncCall (ID)(ExprList (Constant)))(Return (Constant))))) |ET| 
-0.25891428340838212873720181050885  |BT| (FileAST (Decl (TypeDecl (IdentifierType)))(Decl (ArrayDecl (ArrayDecl (TypeDecl (IdentifierType))(Constant))(Constant)))(Decl (ArrayDecl (TypeDecl (IdentifierType))(Constant)))(Decl (ArrayDecl (TypeDecl (IdentifierType))(Constant)))(Decl (ArrayDecl (TypeDecl (IdentifierType))(Constant)))(Decl (TypeDecl (IdentifierType))(Constant))(Decl (TypeDecl (IdentifierType))(Constant))(FuncDef (Decl (FuncDecl (ParamList (Decl (TypeDecl (IdentifierType))))(TypeDecl (IdentifierType))))(Compound (Assignment (ArrayRef (ID)(ID))(ID))(Assignment (ID)(BinaryOp (BinaryOp (ID)(Constant))(Constant)))))(FuncDef (Decl (FuncDecl (ParamList (Typename (TypeDecl (IdentifierType))))(TypeDecl (IdentifierType))))(Compound (Decl (TypeDecl (IdentifierType)))(Assignment (ID)(ArrayRef (ID)(ID)))(Assignment (ID)(BinaryOp (BinaryOp (ID)(Constant))(Constant)))(Return (ID))))(FuncDef (Decl (FuncDecl (ParamList (Decl (TypeDecl (IdentifierType))))(TypeDecl (IdentifierType))))(Compound (Decl (TypeDecl (IdentifierType)))(Decl (TypeDecl (IdentifierType)))(Decl (TypeDecl (IdentifierType)))(For (Assignment (ID)(Constant))(BinaryOp (ID)(ID))(UnaryOp (ID))(Compound (Assignment (ArrayRef (ID)(ID))(Constant))(Assignment (ArrayRef (ID)(ID))(Constant))))(Assignment (ArrayRef (ID)(ID))(Constant))(Assignment (ArrayRef (ID)(ID))(Constant))(FuncCall (ID)(ExprList (ID)))(While (BinaryOp (ID)(ID))(Compound (Assignment (ID)(FuncCall (ID)))(For (Assignment (ID)(Constant))(BinaryOp (ID)(ID))(UnaryOp (ID))(Compound (If (BinaryOp (BinaryOp (ArrayRef (ArrayRef (ID)(ID))(ID))(Constant))(BinaryOp (ArrayRef (ID)(ID))(Constant)))(Compound (Assignment (ArrayRef (ID)(ID))(Constant))(Assignment (ArrayRef (ID)(ID))(BinaryOp (ArrayRef (ID)(ID))(Constant)))(FuncCall (ID)(ExprList (ID)))))))(Assignment (ArrayRef (ID)(ID))(Constant))))))(FuncDef (Decl (FuncDecl (TypeDecl (IdentifierType))))(Compound (Decl (TypeDecl (IdentifierType)))(Decl (TypeDecl (IdentifierType)))(Decl (TypeDecl (IdentifierType)))(Decl (TypeDecl (IdentifierType)))(Decl (TypeDecl (IdentifierType)))(FuncCall (ID)(ExprList (Constant)(UnaryOp (ID))))(If (BinaryOp (BinaryOp (ID)(Constant))(BinaryOp (ID)(Constant)))(FuncCall (ID)(ExprList (Constant))))(For (Assignment (ID)(Constant))(BinaryOp (ID)(ID))(UnaryOp (ID))(Compound (For (Assignment (ID)(Constant))(BinaryOp (ID)(ID))(UnaryOp (ID))(Compound (Assignment (ArrayRef (ArrayRef (ID)(ID))(ID))(Constant))))))(For (Assignment (ID)(Constant))(BinaryOp (ID)(ID))(UnaryOp (ID))(Compound (FuncCall (ID)(ExprList (Constant)(UnaryOp (ID))(UnaryOp (ID))))(UnaryOp (ID))(For (Assignment (ID)(Constant))(BinaryOp (ID)(ID))(UnaryOp (ID))(Compound (FuncCall (ID)(ExprList (Constant)(UnaryOp (ID))))(UnaryOp (ID))(Assignment (ArrayRef (ArrayRef (ID)(ID))(ID))(Constant))))))(FuncCall (ID)(ExprList (Constant)))(For (Assignment (ID)(Constant))(BinaryOp (ID)(ID))(UnaryOp (ID))(Compound (If (BinaryOp (ArrayRef (ID)(ID))(Constant))(Assignment (ArrayRef (ID)(ID))(UnaryOp (Constant))))(FuncCall (ID)(ExprList (Constant)(BinaryOp (ID)(Constant))(ArrayRef (ID)(ID))))))(Return (Constant))))) |ET| 
-0.84478715663116632494933355701505  |BT| (FileAST (Decl (ArrayDecl (ArrayDecl (TypeDecl (IdentifierType))(Constant))(Constant)))(Decl (ArrayDecl (TypeDecl (IdentifierType))(Constant)))(Decl (ArrayDecl (TypeDecl (IdentifierType))(Constant)))(FuncDef (Decl (FuncDecl (ParamList (Decl (TypeDecl (IdentifierType)))(Decl (TypeDecl (IdentifierType))))(TypeDecl (IdentifierType))))(Compound (Decl (TypeDecl (IdentifierType)))(Assignment (ArrayRef (ID)(ID))(ID))(For (Assignment (ID)(Constant))(BinaryOp (ID)(ArrayRef (ID)(ID)))(UnaryOp (ID))(Compound (If (BinaryOp (ArrayRef (ID)(ArrayRef (ArrayRef (ID)(ID))(ID)))(ID))(Compound (FuncCall (ID)(ExprList (ArrayRef (ArrayRef (ID)(ID))(ID))(BinaryOp (ID)(Constant))))))))))(FuncDef (Decl (FuncDecl (ParamList (Typename (TypeDecl (IdentifierType))))(TypeDecl (IdentifierType))))(Compound (Decl (TypeDecl (IdentifierType)))(Decl (TypeDecl (IdentifierType)))(Decl (TypeDecl (IdentifierType)))(Decl (TypeDecl (IdentifierType)))(FuncCall (ID)(ExprList (Constant)(UnaryOp (ID))))(For (Assignment (ID)(Constant))(BinaryOp (ID)(ID))(UnaryOp (ID))(Compound (Assignment (ArrayRef (ID)(ID))(Constant))(For (Assignment (ID)(Constant))(BinaryOp (ID)(ID))(UnaryOp (ID))(Compound (Assignment (ArrayRef (ArrayRef (ID)(ID))(ID))(Constant))))))(For (Assignment (ID)(Constant))(BinaryOp (ID)(ID))(UnaryOp (ID))(Compound (FuncCall (ID)(ExprList (Constant)(UnaryOp (ID))))(FuncCall (ID)(ExprList (Constant)(UnaryOp (ArrayRef (ID)(ID)))))(For (Assignment (ID)(Constant))(BinaryOp (ID)(ArrayRef (ID)(ID)))(UnaryOp (ID))(Compound (FuncCall (ID)(ExprList (Constant)(UnaryOp (ArrayRef (ArrayRef (ID)(ID))(ID)))))))))(FuncCall (ID)(ExprList (Constant)(Constant)))(For (Assignment (ID)(Constant))(BinaryOp (ID)(ID))(UnaryOp (ID))(Compound (If (BinaryOp (ArrayRef (ID)(ID))(Constant))(Compound (Assignment (ArrayRef (ID)(ID))(UnaryOp (Constant)))))(FuncCall (ID)(ExprList (Constant)(ID)(ArrayRef (ID)(ID))))))(Return (Constant))))) |ET| 
-0.31578871945860631509361837743199  |BT| (FileAST (Decl (TypeDecl (IdentifierType)))(Decl (ArrayDecl (ArrayDecl (TypeDecl (IdentifierType))(Constant))(Constant)))(Decl (ArrayDecl (TypeDecl (IdentifierType))(Constant)))(Decl (ArrayDecl (TypeDecl (IdentifierType))(Constant)))(Decl (ArrayDecl (TypeDecl (IdentifierType))(Constant)))(Decl (TypeDecl (IdentifierType)))(Decl (TypeDecl (IdentifierType)))(FuncDef (Decl (FuncDecl (ParamList (Decl (TypeDecl (IdentifierType))))(TypeDecl (IdentifierType))))(Compound (Assignment (ArrayRef (ID)(ID))(ID))(Assignment (ID)(BinaryOp (BinaryOp (ID)(Constant))(Constant)))))(FuncDef (Decl (FuncDecl (ParamList (Typename (TypeDecl (IdentifierType))))(TypeDecl (IdentifierType))))(Compound (Decl (TypeDecl (IdentifierType)))(Assignment (ID)(ID))(Assignment (ID)(BinaryOp (BinaryOp (ID)(Constant))(Constant)))(Return (ArrayRef (ID)(ID)))))(FuncDef (Decl (FuncDecl (ParamList (Decl (TypeDecl (IdentifierType))))(TypeDecl (IdentifierType))))(Compound (Decl (TypeDecl (IdentifierType)))(Decl (TypeDecl (IdentifierType)))(Decl (TypeDecl (IdentifierType)))(Assignment (ArrayRef (ID)(ID))(Constant))(Assignment (ArrayRef (ID)(ID))(Constant))(FuncCall (ID)(ExprList (ID)))(While (BinaryOp (ID)(ID))(Compound (Assignment (ID)(FuncCall (ID)))(For (Assignment (ID)(Constant))(BinaryOp (ID)(ID))(UnaryOp (ID))(Compound (If (BinaryOp (BinaryOp (ArrayRef (ArrayRef (ID)(ID))(ID))(Constant))(BinaryOp (ArrayRef (ID)(ID))(Constant)))(Compound (Assignment (ArrayRef (ID)(ID))(Constant))(Assignment (ArrayRef (ID)(ID))(BinaryOp (ArrayRef (ID)(ID))(Constant)))(FuncCall (ID)(ExprList (ID)))))))(Assignment (ArrayRef (ID)(ID))(Constant))))))(FuncDef (Decl (FuncDecl (TypeDecl (IdentifierType))))(Compound (Decl (TypeDecl (IdentifierType)))(Decl (TypeDecl (IdentifierType)))(Decl (TypeDecl (IdentifierType)))(Decl (TypeDecl (IdentifierType)))(Decl (TypeDecl (IdentifierType)))(FuncCall (ID)(ExprList (Constant)(UnaryOp (ID))))(For (Assignment (ID)(Constant))(BinaryOp (ID)(ID))(UnaryOp (ID))(Compound (Assignment (ArrayRef (ID)(ID))(UnaryOp (Constant)))(Assignment (ArrayRef (ID)(ID))(Constant))(For (Assignment (ID)(Constant))(BinaryOp (ID)(ID))(UnaryOp (ID))(Compound (Assignment (ArrayRef (ArrayRef (ID)(ID))(ID))(Constant))))))(For (Assignment (ID)(Constant))(BinaryOp (ID)(ID))(UnaryOp (ID))(Compound (FuncCall (ID)(ExprList (Constant)(UnaryOp (ID))(UnaryOp (ID))))(For (Assignment (ID)(Constant))(BinaryOp (ID)(ID))(UnaryOp (ID))(Compound (FuncCall (ID)(ExprList (Constant)(UnaryOp (ID))))(Assignment (ArrayRef (ArrayRef (ID)(ID))(ID))(Constant))))))(FuncCall (ID)(ExprList (Constant)))(For (Assignment (ID)(Constant))(BinaryOp (ID)(ID))(UnaryOp (ID))(Compound (FuncCall (ID)(ExprList (Constant)(ID)(ArrayRef (ID)(ID))))))(Return (Constant))))) |ET| 
-0.1448781883566063743984386746888  |BT| (FileAST (Decl (TypeDecl (IdentifierType))(BinaryOp (Constant)(Constant)))(Decl (TypeDecl (IdentifierType)))(Decl (ArrayDecl (ArrayDecl (TypeDecl (IdentifierType))(Constant))(Constant)))(Decl (ArrayDecl (TypeDecl (IdentifierType))(Constant)))(Decl (ArrayDecl (TypeDecl (IdentifierType))(Constant)))(Decl (ArrayDecl (TypeDecl (IdentifierType))(Constant)))(Decl (TypeDecl (IdentifierType)))(Decl (ArrayDecl (TypeDecl (IdentifierType))(BinaryOp (Constant)(Constant))))(Decl (TypeDecl (IdentifierType)))(Decl (TypeDecl (IdentifierType)))(FuncDef (Decl (FuncDecl (TypeDecl (IdentifierType))))(Compound (Assignment (ID)(Assignment (ID)(Constant)))))(FuncDef (Decl (FuncDecl (ParamList (Decl (TypeDecl (IdentifierType))))(TypeDecl (IdentifierType))))(Compound (Assignment (ArrayRef (ID)(UnaryOp (ID)))(ID))))(FuncDef (Decl (FuncDecl (TypeDecl (IdentifierType))))(Compound (Return (BinaryOp (ID)(ID)))))(FuncDef (Decl (FuncDecl (TypeDecl (IdentifierType))))(Compound (Decl (TypeDecl (IdentifierType))(ArrayRef (ID)(UnaryOp (ID))))(Return (ID))))(FuncDef (Decl (FuncDecl (ParamList (Decl (TypeDecl (IdentifierType))))(TypeDecl (IdentifierType))))(Compound (Decl (TypeDecl (IdentifierType)))(Decl (TypeDecl (IdentifierType)))(Decl (TypeDecl (IdentifierType)))(FuncCall (ID))(FuncCall (ID)(ExprList (ID)))(For (Assignment (ID)(Constant))(BinaryOp (ID)(ID))(UnaryOp (ID))(Assignment (ArrayRef (ID)(ID))(ID)))(Assignment (ArrayRef (ID)(ID))(Constant))(While (UnaryOp (FuncCall (ID)))(Compound (Assignment (ID)(FuncCall (ID)))(For (Assignment (ID)(Constant))(BinaryOp (ID)(ID))(UnaryOp (ID))(Compound (If (BinaryOp (ArrayRef (ArrayRef (ID)(ID))(ID))(Constant))(Continue))(If (BinaryOp (ArrayRef (ID)(ID))(ID))(Continue))(Assignment (ArrayRef (ID)(ID))(BinaryOp (ArrayRef (ID)(ID))(Constant)))(FuncCall (ID)(ExprList (ID)))))))(For (Assignment (ID)(Constant))(BinaryOp (ID)(ID))(UnaryOp (ID))(Compound (FuncCall (ID)(ExprList (Constant)(BinaryOp (ID)(Constant))))(If (BinaryOp (ArrayRef (ID)(ID))(ID))(Compound (FuncCall (ID)(ExprList (Constant)(UnaryOp (Constant)))))(Compound (FuncCall (ID)(ExprList (Constant)(ArrayRef (ID)(ID))))))))))(FuncDef (Decl (FuncDecl (TypeDecl (IdentifierType))))(Compound (Decl (TypeDecl (IdentifierType)))(Decl (TypeDecl (IdentifierType)))(Decl (TypeDecl (IdentifierType)))(Decl (TypeDecl (IdentifierType)))(Decl (TypeDecl (IdentifierType)))(FuncCall (ID)(ExprList (Constant)(UnaryOp (ID))))(For (Assignment (ID)(Constant))(BinaryOp (ID)(ID))(UnaryOp (ID))(Compound (For (Assignment (ID)(Constant))(BinaryOp (ID)(ID))(UnaryOp (ID))(Assignment (ArrayRef (ArrayRef (ID)(ID))(ID))(Constant)))))(For (Assignment (ID)(Constant))(BinaryOp (ID)(ID))(UnaryOp (ID))(Compound (FuncCall (ID)(ExprList (Constant)(UnaryOp (ID))(UnaryOp (ID))))(UnaryOp (ID))(For (Assignment (ID)(Constant))(BinaryOp (ID)(ID))(UnaryOp (ID))(Compound (FuncCall (ID)(ExprList (Constant)(UnaryOp (ID))))(UnaryOp (ID))(Assignment (ArrayRef (ArrayRef (ID)(ID))(ID))(Constant))))))(FuncCall (ID)(ExprList (Constant)))(Return (Constant))))) |ET| 
1  |BT| (FileAST (Decl (FuncDecl (ParamList (Typename (TypeDecl (IdentifierType))))(TypeDecl (IdentifierType))))(FuncDef (Decl (FuncDecl (TypeDecl (IdentifierType))))(Compound (Decl (TypeDecl (IdentifierType)))(Decl (TypeDecl (IdentifierType)))(Decl (TypeDecl (IdentifierType)))(Decl (TypeDecl (IdentifierType))(Constant))(FuncCall (ID)(ExprList (Constant)(UnaryOp (ID))))(Decl (TypeDecl (IdentifierType)))(Assignment (ID)(BinaryOp (ID)(Constant)))(Decl (ArrayDecl (TypeDecl (IdentifierType))(ID)))(For (Assignment (ID)(Constant))(BinaryOp (ID)(ID))(UnaryOp (ID))(FuncCall (ID)(ExprList (Constant)(UnaryOp (ArrayRef (ID)(ID))))))(Decl (TypeDecl (IdentifierType)))(FuncCall (ID)(ExprList (Constant)(UnaryOp (ID))))(Decl (ArrayDecl (TypeDecl (IdentifierType))(ID)))(For (Assignment (ID)(Constant))(BinaryOp (ID)(ID))(UnaryOp (ID))(FuncCall (ID)(ExprList (Constant)(UnaryOp (ArrayRef (ID)(ID))))))(For (Assignment (ID)(Constant))(BinaryOp (ID)(ID))(UnaryOp (ID))(Compound (Assignment (ID)(Constant))(While (BinaryOp (ID)(ID))(Compound (If (BinaryOp (ArrayRef (ID)(ID))(ArrayRef (ID)(ID)))(Compound (UnaryOp (ID))(Break)))(UnaryOp (ID))))))(FuncCall (ID)(ExprList (Constant)(ID)))(Return (Constant))))) |ET| 
0.23880788418549384055644679847319  |BT| (FileAST (FuncDef (Decl (FuncDecl (ParamList (Decl (PtrDecl (TypeDecl (IdentifierType))))(Decl (TypeDecl (IdentifierType)))(Decl (TypeDecl (IdentifierType))))(TypeDecl (IdentifierType))))(Compound (Decl (TypeDecl (IdentifierType))(Constant))(Assignment (ArrayRef (ID)(ID))(ID))(While (BinaryOp (ArrayRef (ID)(ID))(ID))(Compound (UnaryOp (ID))))(If (BinaryOp (ID)(ID))(Return (Constant)))(Return (Constant))))(FuncDef (Decl (FuncDecl (TypeDecl (IdentifierType))))(Compound (Decl (TypeDecl (IdentifierType)))(Decl (TypeDecl (IdentifierType)))(Decl (TypeDecl (IdentifierType)))(Decl (ArrayDecl (TypeDecl (IdentifierType))(Constant)))(Decl (ArrayDecl (TypeDecl (IdentifierType))(Constant)))(Decl (TypeDecl (IdentifierType))(Constant))(FuncCall (ID)(ExprList (Constant)(UnaryOp (ID))))(For (Assignment (ID)(Constant))(BinaryOp (ID)(ID))(UnaryOp (ID))(FuncCall (ID)(ExprList (Constant)(UnaryOp (ArrayRef (ID)(ID))))))(FuncCall (ID)(ExprList (Constant)(UnaryOp (ID))))(For (Assignment (ID)(Constant))(BinaryOp (ID)(ID))(UnaryOp (ID))(FuncCall (ID)(ExprList (Constant)(UnaryOp (ArrayRef (ID)(ID))))))(For (Assignment (ID)(Constant))(BinaryOp (ID)(ID))(UnaryOp (ID))(Compound (Assignment (ID)(FuncCall (ID)(ExprList (ID)(ID)(ArrayRef (ID)(ID)))))))(FuncCall (ID)(ExprList (Constant)(ID)))(Return (Constant))))) |ET| 
-0.26611925743067765814942049473757  |BT| (FileAST (Decl (ArrayDecl (TypeDecl (IdentifierType))(Constant)))(Decl (TypeDecl (IdentifierType))(Constant))(Decl (TypeDecl (IdentifierType))(Constant))(Decl (TypeDecl (IdentifierType)))(Decl (ArrayDecl (ArrayDecl (TypeDecl (IdentifierType))(Constant))(Constant)))(Decl (ArrayDecl (TypeDecl (IdentifierType))(Constant)))(FuncDef (Decl (FuncDecl (ParamList (Decl (TypeDecl (IdentifierType))))(TypeDecl (IdentifierType))))(Compound (Assignment (ArrayRef (ID)(UnaryOp (ID)))(ID))))(FuncDef (Decl (FuncDecl (TypeDecl (IdentifierType))))(Compound (Decl (TypeDecl (IdentifierType))(ArrayRef (ID)(UnaryOp (ID))))(Return (ID))))(FuncDef (Decl (FuncDecl (TypeDecl (IdentifierType))))(Compound (Return (BinaryOp (ID)(ID)))))(FuncDef (Decl (FuncDecl (ParamList (Decl (TypeDecl (IdentifierType))))(TypeDecl (IdentifierType))))(Compound (Decl (TypeDecl (IdentifierType)))(Decl (TypeDecl (IdentifierType)))(Decl (TypeDecl (IdentifierType)))(Decl (TypeDecl (IdentifierType)))(Decl (TypeDecl (IdentifierType)))(Decl (TypeDecl (IdentifierType)))(FuncCall (ID)(ExprList (ID)))(For (Assignment (ID)(Constant))(BinaryOp (ID)(ID))(UnaryOp (ID))(Compound (Assignment (ArrayRef (ID)(ID))(Constant))))(Assignment (ArrayRef (ID)(ID))(Constant))(While (UnaryOp (FuncCall (ID)))(Compound (Assignment (ID)(FuncCall (ID)))(For (Assignment (ID)(Constant))(BinaryOp (ID)(ID))(UnaryOp (ID))(Compound (If (BinaryOp (ArrayRef (ArrayRef (ID)(ID))(ID))(Constant))(Continue))(If (BinaryOp (ArrayRef (ID)(ID))(Constant))(Continue))(Assignment (ArrayRef (ID)(ID))(BinaryOp (ArrayRef (ID)(ID))(Constant)))(FuncCall (ID)(ExprList (ID)))))))(For (Assignment (ID)(Constant))(BinaryOp (ID)(ID))(UnaryOp (ID))(Compound (FuncCall (ID)(ExprList (Constant)(BinaryOp (ID)(Constant))))(If (BinaryOp (ArrayRef (ID)(ID))(Constant))(FuncCall (ID)(ExprList (Constant)))(FuncCall (ID)(ExprList (Constant)(ArrayRef (ID)(ID)))))))))(FuncDef (Decl (FuncDecl (TypeDecl (IdentifierType))))(Compound (Decl (TypeDecl (IdentifierType)))(Decl (TypeDecl (IdentifierType)))(Decl (TypeDecl (IdentifierType)))(Decl (TypeDecl (IdentifierType)))(Decl (TypeDecl (IdentifierType)))(FuncCall (ID)(ExprList (Constant)(UnaryOp (ID))))(For (Assignment (ID)(Constant))(BinaryOp (ID)(ID))(UnaryOp (ID))(Compound (For (Assignment (ID)(Constant))(BinaryOp (ID)(ID))(UnaryOp (ID))(Compound (Assignment (ArrayRef (ArrayRef (ID)(ID))(ID))(Constant))))))(For (Assignment (ID)(Constant))(BinaryOp (ID)(ID))(UnaryOp (ID))(Compound (FuncCall (ID)(ExprList (Constant)(UnaryOp (ID))(UnaryOp (ID))))(UnaryOp (ID))(For (Assignment (ID)(Constant))(BinaryOp (ID)(ID))(UnaryOp (ID))(Compound (FuncCall (ID)(ExprList (Constant)(UnaryOp (ID))))(UnaryOp (ID))(Assignment (ArrayRef (ArrayRef (ID)(ID))(ID))(Constant))))))(FuncCall (ID)(ExprList (Constant)))(Return (Constant))))) |ET| 
0.76576399947845341653618334021303  |BT| (FileAST (FuncDef (Decl (FuncDecl (TypeDecl (IdentifierType))))(Compound (Decl (TypeDecl (IdentifierType)))(Decl (TypeDecl (IdentifierType)))(Decl (TypeDecl (IdentifierType)))(Decl (TypeDecl (IdentifierType)))(Decl (ArrayDecl (TypeDecl (IdentifierType))(Constant)))(Decl (ArrayDecl (TypeDecl (IdentifierType))(Constant)))(Decl (TypeDecl (IdentifierType))(Constant))(FuncCall (ID)(ExprList (Constant)(UnaryOp (ID))))(For (Assignment (ID)(Constant))(BinaryOp (ID)(ID))(UnaryOp (ID))(FuncCall (ID)(ExprList (Constant)(UnaryOp (ArrayRef (ID)(ID))))))(FuncCall (ID)(ExprList (Constant)(UnaryOp (ID))))(For (Assignment (ID)(Constant))(BinaryOp (ID)(ID))(UnaryOp (ID))(FuncCall (ID)(ExprList (Constant)(UnaryOp (ArrayRef (ID)(ID))))))(For (Assignment (ID)(Constant))(BinaryOp (ID)(ID))(UnaryOp (ID))(For (Assignment (ID)(Constant))(BinaryOp (ID)(ID))(UnaryOp (ID))(If (BinaryOp (ArrayRef (ID)(ID))(ArrayRef (ID)(ID)))(Compound (UnaryOp (ID))(Break)))))(FuncCall (ID)(ExprList (Constant)(ID)))(Return (Constant))))) |ET| 
1  |BT| (FileAST (FuncDef (Decl (FuncDecl (ParamList (Decl (PtrDecl (TypeDecl (IdentifierType))))(Decl (PtrDecl (TypeDecl (IdentifierType)))))(TypeDecl (IdentifierType))))(Compound (Return (BinaryOp (UnaryOp (Cast (Typename (PtrDecl (TypeDecl (IdentifierType))))(ID)))(UnaryOp (Cast (Typename (PtrDecl (TypeDecl (IdentifierType))))(ID)))))))(FuncDef (Decl (FuncDecl (ParamList (Typename (TypeDecl (IdentifierType))))(TypeDecl (IdentifierType))))(Compound (Decl (ArrayDecl (TypeDecl (IdentifierType))(Constant)))(Decl (ArrayDecl (TypeDecl (IdentifierType))(Constant)))(Decl (ArrayDecl (TypeDecl (IdentifierType))(Constant)))(Decl (TypeDecl (IdentifierType)))(Decl (TypeDecl (IdentifierType)))(Decl (TypeDecl (IdentifierType)))(Decl (TypeDecl (IdentifierType)))(Decl (TypeDecl (IdentifierType)))(Decl (TypeDecl (IdentifierType)))(FuncCall (ID)(ExprList (Constant)(UnaryOp (ID))))(For (Assignment (ID)(Constant))(BinaryOp (ID)(ID))(UnaryOp (ID))(Compound (FuncCall (ID)(ExprList (Constant)(UnaryOp (ArrayRef (ID)(ID)))))))(FuncCall (ID)(ExprList (Constant)(UnaryOp (ID))))(For (Assignment (ID)(Constant))(BinaryOp (ID)(ID))(UnaryOp (ID))(Compound (FuncCall (ID)(ExprList (Constant)(UnaryOp (ArrayRef (ID)(ID)))))))(FuncCall (ID)(ExprList (Cast (Typename (PtrDecl (TypeDecl (IdentifierType))))(ID))(ID)(UnaryOp (ArrayRef (ID)(Constant)))(ID)))(FuncCall (ID)(ExprList (Cast (Typename (PtrDecl (TypeDecl (IdentifierType))))(ID))(ID)(UnaryOp (ArrayRef (ID)(Constant)))(ID)))(Assignment (ID)(Assignment (ID)(Assignment (ID)(Constant))))(While (BinaryOp (BinaryOp (ID)(ID))(BinaryOp (ID)(ID)))(Compound (If (BinaryOp (ArrayRef (ID)(ID))(ArrayRef (ID)(ID)))(Compound (Assignment (ArrayRef (ID)(ID))(ArrayRef (ID)(ID)))(UnaryOp (ID))(UnaryOp (ID))(UnaryOp (ID)))(If (BinaryOp (ArrayRef (ID)(ID))(ArrayRef (ID)(ID)))(Compound (UnaryOp (ID)))(If (BinaryOp (ArrayRef (ID)(ID))(ArrayRef (ID)(ID)))(Compound (UnaryOp (ID))))))))(FuncCall (ID)(ExprList (Constant)(ID)))(Return (Constant))))) |ET| 
-1  |BT| (FileAST (Decl (TypeDecl (IdentifierType)))(Decl (ArrayDecl (ArrayDecl (TypeDecl (IdentifierType))(Constant))(Constant)))(Decl (ArrayDecl (TypeDecl (IdentifierType))(Constant)))(Decl (ArrayDecl (TypeDecl (IdentifierType))(Constant)))(FuncDef (Decl (FuncDecl (ParamList (Decl (TypeDecl (IdentifierType)))(Decl (TypeDecl (IdentifierType))))(TypeDecl (IdentifierType))))(Compound (Assignment (ArrayRef (ID)(ID))(ID))(For (DeclList (Decl (TypeDecl (IdentifierType))(Constant)))(BinaryOp (ID)(ArrayRef (ID)(ID)))(UnaryOp (ID))(If (BinaryOp (BinaryOp (ID)(Constant))(ArrayRef (ID)(ArrayRef (ArrayRef (ID)(ID))(ID))))(FuncCall (ID)(ExprList (ArrayRef (ArrayRef (ID)(ID))(ID))(BinaryOp (ID)(Constant))))))))(FuncDef (Decl (FuncDecl (TypeDecl (IdentifierType))))(Compound (Decl (TypeDecl (IdentifierType)))(FuncCall (ID)(ExprList (Constant)(UnaryOp (ID))))(For (DeclList (Decl (TypeDecl (IdentifierType))(Constant)))(BinaryOp (ID)(ID))(UnaryOp (ID))(Compound (Assignment (ArrayRef (ID)(ID))(Constant))(FuncCall (ID)(ExprList (Constant)(UnaryOp (ID))))(FuncCall (ID)(ExprList (Constant)(UnaryOp (ArrayRef (ID)(ID)))))(For (DeclList (Decl (TypeDecl (IdentifierType))(Constant)))(BinaryOp (ID)(ArrayRef (ID)(ID)))(UnaryOp (ID))(FuncCall (ID)(ExprList (Constant)(UnaryOp (ArrayRef (ArrayRef (ID)(ID))(ID))))))))(FuncCall (ID)(ExprList (Constant)(Constant)))(For (DeclList (Decl (TypeDecl (IdentifierType))(Constant)))(BinaryOp (ID)(ID))(UnaryOp (ID))(FuncCall (ID)(ExprList (Constant)(ID)(TernaryOp (BinaryOp (ArrayRef (ID)(ID))(Constant))(UnaryOp (Constant))(ArrayRef (ID)(ID))))))(Return (Constant))))) |ET| 
1  |BT| (FileAST (FuncDef (Decl (FuncDecl (TypeDecl (IdentifierType))))(Compound (Decl (TypeDecl (IdentifierType)))(FuncCall (ID)(ExprList (Constant)(UnaryOp (ID))))(Return (ID))))(FuncDef (Decl (FuncDecl (TypeDecl (IdentifierType))))(Compound (Decl (TypeDecl (IdentifierType)))(FuncCall (ID)(ExprList (Constant)(UnaryOp (ID))))(Return (ID))))(FuncDef (Decl (FuncDecl (TypeDecl (IdentifierType))))(Compound (Decl (TypeDecl (IdentifierType)))(FuncCall (ID)(ExprList (Constant)(UnaryOp (ID))))(Return (ID))))(FuncDef (Decl (FuncDecl (ParamList (Decl (PtrDecl (TypeDecl (IdentifierType))))(Decl (TypeDecl (IdentifierType))))(TypeDecl (IdentifierType))))(Compound (Decl (TypeDecl (IdentifierType))(Constant))(For (DeclList (Decl (TypeDecl (IdentifierType))(Constant)))(BinaryOp (ID)(ID))(UnaryOp (ID))(Compound (If (BinaryOp (ArrayRef (ID)(ID))(ID))(Compound (Assignment (ID)(ArrayRef (ID)(ID)))))))(Return (ID))))(FuncDef (Decl (FuncDecl (ParamList (Decl (PtrDecl (TypeDecl (IdentifierType))))(Decl (TypeDecl (IdentifierType))))(TypeDecl (IdentifierType))))(Compound (Decl (TypeDecl (IdentifierType))(ID))(For (DeclList (Decl (TypeDecl (IdentifierType))(Constant)))(BinaryOp (ID)(ID))(UnaryOp (ID))(Compound (If (BinaryOp (ArrayRef (ID)(ID))(ID))(Compound (Assignment (ID)(ArrayRef (ID)(ID)))))))(Return (ID))))(FuncDef (Decl (FuncDecl (ParamList (Decl (PtrDecl (TypeDecl (IdentifierType))))(Decl (TypeDecl (IdentifierType))))(TypeDecl (IdentifierType))))(Compound (Decl (TypeDecl (IdentifierType))(ID))(For (DeclList (Decl (TypeDecl (IdentifierType))(Constant)))(BinaryOp (ID)(ID))(UnaryOp (ID))(Compound (If (BinaryOp (ArrayRef (ID)(ID))(ID))(Compound (Assignment (ID)(ArrayRef (ID)(ID)))))))(Return (ID))))(FuncDef (Decl (FuncDecl (ParamList (Decl (PtrDecl (TypeDecl (IdentifierType))))(Decl (TypeDecl (IdentifierType))))(TypeDecl (IdentifierType))))(Compound (Decl (TypeDecl (IdentifierType))(ID))(For (DeclList (Decl (TypeDecl (IdentifierType))(Constant)))(BinaryOp (ID)(ID))(UnaryOp (ID))(Compound (If (BinaryOp (ArrayRef (ID)(ID))(ID))(Compound (Assignment (ID)(ArrayRef (ID)(ID)))))))(Return (ID))))(FuncDef (Decl (FuncDecl (ParamList (Decl (PtrDecl (TypeDecl (IdentifierType))))(Decl (TypeDecl (IdentifierType))))(TypeDecl (IdentifierType))))(Compound (Decl (TypeDecl (IdentifierType))(Constant))(For (DeclList (Decl (TypeDecl (IdentifierType))(Constant)))(BinaryOp (ID)(ID))(UnaryOp (ID))(Compound (Assignment (ID)(ArrayRef (ID)(ID)))))(Return (ID))))(FuncDef (Decl (FuncDecl (ParamList (Decl (PtrDecl (TypeDecl (IdentifierType))))(Decl (TypeDecl (IdentifierType))))(TypeDecl (IdentifierType))))(Compound (Decl (TypeDecl (IdentifierType))(Constant))(For (DeclList (Decl (TypeDecl (IdentifierType))(Constant)))(BinaryOp (ID)(ID))(UnaryOp (ID))(Compound (Assignment (ID)(ArrayRef (ID)(ID)))))(Return (ID))))(FuncDef (Decl (FuncDecl (ParamList (Decl (PtrDecl (TypeDecl (IdentifierType))))(Decl (TypeDecl (IdentifierType))))(TypeDecl (IdentifierType))))(Compound (If (BinaryOp (ID)(Constant))(Compound (FuncCall (ID)(ExprList (Constant)))(Return))(Compound (FuncCall (ID)(ExprList (Constant)(ArrayRef (ID)(Constant))))(For (DeclList (Decl (TypeDecl (IdentifierType))(Constant)))(BinaryOp (ID)(ID))(UnaryOp (ID))(Compound (FuncCall (ID)(ExprList (Constant)(ArrayRef (ID)(ID))))))(FuncCall (ID)(ExprList (Constant)))))))(FuncDef (Decl (FuncDecl (ParamList (Decl (PtrDecl (TypeDecl (IdentifierType))))(Decl (TypeDecl (IdentifierType))))(TypeDecl (IdentifierType))))(Compound (If (BinaryOp (ID)(Constant))(Compound (FuncCall (ID)(ExprList (Constant)))(Return))(Compound (FuncCall (ID)(ExprList (Constant)(ArrayRef (ID)(Constant))))(For (DeclList (Decl (TypeDecl (IdentifierType))(Constant)))(BinaryOp (ID)(ID))(UnaryOp (ID))(Compound (FuncCall (ID)(ExprList (Constant)(ArrayRef (ID)(ID))))))(FuncCall (ID)(ExprList (Constant)))))))(FuncDef (Decl (FuncDecl (ParamList (Decl (PtrDecl (TypeDecl (IdentifierType))))(Decl (TypeDecl (IdentifierType))))(TypeDecl (IdentifierType))))(Compound (If (BinaryOp (ID)(Constant))(Compound (FuncCall (ID)(ExprList (Constant)))(Return))(Compound (FuncCall (ID)(ExprList (Constant)(ArrayRef (ID)(Constant))))(For (DeclList (Decl (TypeDecl (IdentifierType))(Constant)))(BinaryOp (ID)(ID))(UnaryOp (ID))(Compound (FuncCall (ID)(ExprList (Constant)(ArrayRef (ID)(ID))))))(FuncCall (ID)(ExprList (Constant)))))))(FuncDef (Decl (FuncDecl (ParamList (Decl (TypeDecl (IdentifierType))))(TypeDecl (IdentifierType))))(Compound (If (BinaryOp (ID)(Constant))(Compound (Return (Constant))))(While (Constant)(Compound (If (BinaryOp (ID)(Constant))(Compound (Break)))(If (BinaryOp (BinaryOp (ID)(Constant))(Constant))(Compound (Return (Constant))))(Assignment (ID)(Constant))))(Return (Constant))))(FuncDef (Decl (FuncDecl (ParamList (Decl (PtrDecl (TypeDecl (IdentifierType))))(Decl (TypeDecl (IdentifierType))))(TypeDecl (IdentifierType))))(Compound (For (DeclList (Decl (TypeDecl (IdentifierType))(Constant)))(BinaryOp (ID)(BinaryOp (ID)(Constant)))(UnaryOp (ID))(Compound (Decl (TypeDecl (IdentifierType))(ArrayRef (ID)(ID)))(Assignment (ArrayRef (ID)(ID))(ArrayRef (ID)(BinaryOp (BinaryOp (ID)(Constant))(ID))))(Assignment (ArrayRef (ID)(BinaryOp (BinaryOp (ID)(Constant))(ID)))(ID))))))(Decl (Struct (Decl (PtrDecl (TypeDecl (IdentifierType))))(Decl (TypeDecl (IdentifierType)))(Decl (TypeDecl (IdentifierType)))))(FuncDef (Decl (FuncDecl (ParamList (Decl (PtrDecl (TypeDecl (Struct))))(Decl (PtrDecl (TypeDecl (IdentifierType))))(Decl (TypeDecl (IdentifierType))))(TypeDecl (IdentifierType))))(Compound (Assignment (StructRef (ID)(ID))(Constant))(Assignment (StructRef (ID)(ID))(ID))(Assignment (StructRef (ID)(ID))(ID))))(FuncDef (Decl (FuncDecl (ParamList (Decl (PtrDecl (TypeDecl (Struct)))))(TypeDecl (IdentifierType))))(Compound (Return (BinaryOp (StructRef (ID)(ID))(Constant)))))(FuncDef (Decl (FuncDecl (ParamList (Decl (PtrDecl (TypeDecl (Struct)))))(TypeDecl (IdentifierType))))(Compound (Return (BinaryOp (StructRef (ID)(ID))(StructRef (ID)(ID))))))(FuncDef (Decl (FuncDecl (ParamList (Decl (PtrDecl (TypeDecl (Struct))))(Decl (TypeDecl (IdentifierType))))(TypeDecl (IdentifierType))))(Compound (If (FuncCall (ID)(ExprList (ID)))(Compound (Return (UnaryOp (Constant)))))(Assignment (ArrayRef (StructRef (ID)(ID))(BinaryOp (StructRef (ID)(ID))(Constant)))(ID))(Assignment (StructRef (ID)(ID))(Constant))(Return (Constant))))(FuncDef (Decl (FuncDecl (ParamList (Decl (PtrDecl (TypeDecl (Struct))))(Decl (PtrDecl (TypeDecl (IdentifierType)))))(TypeDecl (IdentifierType))))(Compound (If (FuncCall (ID)(ExprList (ID)))(Compound (Return (UnaryOp (Constant)))))(Assignment (UnaryOp (ID))(ArrayRef (StructRef (ID)(ID))(StructRef (ID)(ID))))(Assignment (StructRef (ID)(ID))(Constant))(Return (UnaryOp (ID)))))(FuncDef (Decl (FuncDecl (ParamList (Decl (PtrDecl (TypeDecl (Struct)))))(TypeDecl (IdentifierType))))(Compound (For (DeclList (Decl (TypeDecl (IdentifierType))(Constant)))(BinaryOp (ID)(BinaryOp (StructRef (ID)(ID))(Constant)))(UnaryOp (ID))(Compound (If (BinaryOp (ID)(Constant))(Compound (FuncCall (ID)(ExprList (Constant)(ArrayRef (StructRef (ID)(ID))(ID)))))(Compound (FuncCall (ID)(ExprList (Constant)(ArrayRef (StructRef (ID)(ID))(ID))))))))(FuncCall (ID)(ExprList (Constant)))))(Decl (Struct (Decl (PtrDecl (TypeDecl (IdentifierType))))(Decl (TypeDecl (IdentifierType)))))(Decl (Struct (Decl (PtrDecl (TypeDecl (Struct))))(Decl (TypeDecl (IdentifierType)))(Decl (TypeDecl (IdentifierType)))(Decl (TypeDecl (IdentifierType)))))(FuncDef (Decl (FuncDecl (ParamList (Decl (PtrDecl (TypeDecl (Struct))))(Decl (PtrDecl (TypeDecl (Struct))))(Decl (TypeDecl (IdentifierType))))(TypeDecl (IdentifierType))))(Compound (Assignment (StructRef (ID)(ID))(ID))(Assignment (StructRef (ID)(ID))(Constant))(Assignment (StructRef (ID)(ID))(Constant))(Assignment (StructRef (ID)(ID))(ID))))(FuncDef (Decl (FuncDecl (ParamList (Decl (PtrDecl (TypeDecl (Struct)))))(TypeDecl (IdentifierType))))(Compound (Return (BinaryOp (StructRef (ID)(ID))(StructRef (ID)(ID))))))(FuncDef (Decl (FuncDecl (ParamList (Decl (PtrDecl (TypeDecl (Struct)))))(TypeDecl (IdentifierType))))(Compound (Return (BinaryOp (StructRef (ID)(ID))(BinaryOp (BinaryOp (StructRef (ID)(ID))(Constant))(StructRef (ID)(ID)))))))(FuncDef (Decl (FuncDecl (ParamList (Decl (PtrDecl (TypeDecl (Struct))))(Decl (PtrDecl (TypeDecl (IdentifierType))))(Decl (TypeDecl (IdentifierType))))(TypeDecl (IdentifierType))))(Compound (If (FuncCall (ID)(ExprList (ID)))(Compound (Return (UnaryOp (Constant)))))(Assignment (StructRef (ArrayRef (StructRef (ID)(ID))(StructRef (ID)(ID)))(ID))(ID))(Assignment (StructRef (ArrayRef (StructRef (ID)(ID))(StructRef (ID)(ID)))(ID))(ID))(Assignment (StructRef (ID)(ID))(Constant))(Assignment (StructRef (ID)(ID))(StructRef (ID)(ID)))(Return (Constant))))(FuncDef (Decl (FuncDecl (ParamList (Decl (PtrDecl (TypeDecl (Struct))))(Decl (PtrDecl (TypeDecl (Struct)))))(TypeDecl (IdentifierType))))(Compound (If (FuncCall (ID)(ExprList (ID)))(Compound (Return (UnaryOp (Constant)))))(Assignment (UnaryOp (ID))(ArrayRef (StructRef (ID)(ID))(StructRef (ID)(ID))))(Assignment (StructRef (ID)(ID))(Constant))(Assignment (StructRef (ID)(ID))(StructRef (ID)(ID)))(Return (Constant))))(Decl (Struct (Decl (TypeDecl (IdentifierType)))(Decl (PtrDecl (TypeDecl (Struct))))(Decl (PtrDecl (TypeDecl (Struct))))))(Decl (Struct (Decl (PtrDecl (TypeDecl (Struct))))(Decl (PtrDecl (TypeDecl (Struct))))))(FuncDef (Decl (FuncDecl (ParamList (Decl (PtrDecl (TypeDecl (Struct)))))(TypeDecl (IdentifierType))))(Compound (Assignment (StructRef (ID)(ID))(Constant))(Assignment (StructRef (ID)(ID))(Constant))))(FuncDef (Decl (FuncDecl (ParamList (Decl (PtrDecl (TypeDecl (Struct))))(Decl (PtrDecl (TypeDecl (Struct))))(Decl (TypeDecl (IdentifierType))))(TypeDecl (IdentifierType))))(Compound (Assignment (StructRef (ID)(ID))(ID))(If (BinaryOp (StructRef (ID)(ID))(Constant))(Compound (FuncCall (ID)(ExprList (BinaryOp (StructRef (ID)(ID))(Constant))))(Assignment (StructRef (ID)(ID))(Constant))(Assignment (StructRef (ID)(ID))(Constant))(Assignment (StructRef (ID)(ID))(ID))(Assignment (StructRef (ID)(ID))(ID)))(Compound (Assignment (StructRef (StructRef (ID)(ID))(ID))(ID))(Assignment (StructRef (ID)(ID))(StructRef (ID)(ID)))(Assignment (StructRef (ID)(ID))(ID))(Assignment (StructRef (StructRef (ID)(ID))(ID))(Constant))))))(FuncDef (Decl (FuncDecl (ParamList (Decl (PtrDecl (TypeDecl (Struct))))(Decl (PtrDecl (TypeDecl (Struct)))))(TypeDecl (IdentifierType))))(Compound (If (BinaryOp (BinaryOp (StructRef (ID)(ID))(Constant))(BinaryOp (StructRef (ID)(ID))(Constant)))(Compound (Assignment (StructRef (ID)(ID))(Constant))(Assignment (StructRef (ID)(ID))(Constant)))(If (BinaryOp (ID)(StructRef (ID)(ID)))(Compound (Assignment (StructRef (StructRef (ID)(ID))(ID))(Constant))(Assignment (StructRef (ID)(ID))(StructRef (ID)(ID))))(If (BinaryOp (ID)(StructRef (ID)(ID)))(Compound (Assignment (StructRef (StructRef (ID)(ID))(ID))(Constant))(Assignment (StructRef (ID)(ID))(StructRef (ID)(ID))))(Compound (Assignment (StructRef (StructRef (ID)(ID))(ID))(StructRef (ID)(ID)))(Assignment (StructRef (StructRef (ID)(ID))(ID))(StructRef (ID)(ID)))))))))(FuncDef (Decl (FuncDecl (ParamList (Decl (PtrDecl (TypeDecl (Struct))))(Decl (TypeDecl (IdentifierType))))(PtrDecl (TypeDecl (Struct)))))(Compound (Decl (PtrDecl (TypeDecl (Struct)))(StructRef (ID)(ID)))(While (Constant)(Compound (If (BinaryOp (ID)(Constant))(Compound (Break)))(If (BinaryOp (StructRef (ID)(ID))(ID))(Compound (FuncCall (ID)(ExprList (ID)(ID)))(Return (ID))))(Assignment (ID)(StructRef (ID)(ID)))))(Return (Constant))))(FuncDef (Decl (FuncDecl (ParamList (Decl (PtrDecl (TypeDecl (Struct)))))(PtrDecl (TypeDecl (Struct)))))(Compound (Decl (PtrDecl (TypeDecl (Struct)))(StructRef (ID)(ID)))(FuncCall (ID)(ExprList (ID)(ID)))(Return (ID))))(FuncDef (Decl (FuncDecl (ParamList (Decl (PtrDecl (TypeDecl (Struct)))))(PtrDecl (TypeDecl (Struct)))))(Compound (Decl (PtrDecl (TypeDecl (Struct)))(StructRef (ID)(ID)))(FuncCall (ID)(ExprList (ID)(ID)))(Return (ID))))(FuncDef (Decl (FuncDecl (ParamList (Decl (PtrDecl (TypeDecl (Struct)))))(TypeDecl (IdentifierType))))(Compound (Decl (PtrDecl (TypeDecl (Struct)))(StructRef (ID)(ID)))(While (Constant)(Compound (If (BinaryOp (ID)(Constant))(Compound (Break)))(If (BinaryOp (ID)(StructRef (ID)(ID)))(Compound (FuncCall (ID)(ExprList (Constant)(StructRef (ID)(ID)))))(Compound (FuncCall (ID)(ExprList (Constant)(StructRef (ID)(ID))))))(Assignment (ID)(StructRef (ID)(ID)))))(FuncCall (ID)(ExprList (Constant)))))(FuncDef (Decl (FuncDecl (ParamList (Decl (PtrDecl (TypeDecl (IdentifierType))))(Decl (TypeDecl (IdentifierType)))(Decl (TypeDecl (IdentifierType))))(TypeDecl (IdentifierType))))(Compound (Decl (TypeDecl (IdentifierType))(Constant))(Assignment (ArrayRef (ID)(ID))(ID))(While (BinaryOp (ArrayRef (ID)(ID))(ID))(Compound (Assignment (ID)(Constant))))(If (BinaryOp (ID)(ID))(Compound (Return (UnaryOp (Constant)))))(Return (ID))))(FuncDef (Decl (FuncDecl (ParamList (Typename (TypeDecl (IdentifierType))))(TypeDecl (IdentifierType))))(Compound (Decl (TypeDecl (IdentifierType))(FuncCall (ID)))(Decl (PtrDecl (TypeDecl (IdentifierType)))(Cast (Typename (PtrDecl (TypeDecl (IdentifierType))))(FuncCall (ID)(ExprList (BinaryOp (UnaryOp (Typename (TypeDecl (IdentifierType))))(BinaryOp (ID)(Constant)))))))(For (DeclList (Decl (TypeDecl (IdentifierType))(Constant)))(BinaryOp (ID)(ID))(UnaryOp (ID))(Compound (Assignment (ArrayRef (ID)(ID))(FuncCall (ID)))))(Decl (TypeDecl (IdentifierType))(FuncCall (ID)))(Decl (PtrDecl (TypeDecl (IdentifierType)))(Cast (Typename (PtrDecl (TypeDecl (IdentifierType))))(FuncCall (ID)(ExprList (BinaryOp (UnaryOp (Typename (TypeDecl (IdentifierType))))(ID))))))(For (DeclList (Decl (TypeDecl (IdentifierType))(Constant)))(BinaryOp (ID)(ID))(UnaryOp (ID))(Compound (Assignment (ArrayRef (ID)(ID))(FuncCall (ID)))))(Decl (TypeDecl (IdentifierType))(Constant))(For (DeclList (Decl (TypeDecl (IdentifierType))(Constant)))(BinaryOp (ID)(ID))(UnaryOp (ID))(Compound (If (BinaryOp (FuncCall (ID)(ExprList (ID)(ID)(ArrayRef (ID)(ID))))(UnaryOp (Constant)))(Compound (Assignment (ID)(Constant))))))(FuncCall (ID)(ExprList (Constant)(ID)))(FuncCall (ID)(ExprList (ID)))(FuncCall (ID)(ExprList (ID)))(Return (Constant))))) |ET| 
-1  |BT| (FileAST (Decl (ArrayDecl (TypeDecl (IdentifierType))(Constant)))(Decl (ArrayDecl (TypeDecl (IdentifierType))(Constant)))(FuncDef (Decl (FuncDecl (ParamList (Decl (ArrayDecl (TypeDecl (IdentifierType))))(Decl (TypeDecl (IdentifierType))))(TypeDecl (IdentifierType))))(Compound (For (DeclList (Decl (TypeDecl (IdentifierType))(Constant)))(BinaryOp (ID)(ID))(UnaryOp (ID))(Compound (Assignment (ArrayRef (ID)(ID))(UnaryOp (Constant)))))(Decl (TypeDecl (IdentifierType))(Constant))(Decl (TypeDecl (IdentifierType))(Constant))(Assignment (ArrayRef (ID)(UnaryOp (ID)))(Constant))(Assignment (ArrayRef (ID)(Constant))(Constant))(While (BinaryOp (ID)(ID))(Compound (Decl (TypeDecl (IdentifierType))(ArrayRef (ID)(UnaryOp (ID))))(For (DeclList (Decl (TypeDecl (IdentifierType))(Constant)))(BinaryOp (ID)(ID))(UnaryOp (ID))(Compound (If (BinaryOp (BinaryOp (ArrayRef (ID)(ID))(UnaryOp (Constant)))(BinaryOp (ArrayRef (StructRef (ArrayRef (ID)(ID))(ID))(ID))(Constant)))(Compound (Assignment (ArrayRef (ID)(ID))(BinaryOp (ArrayRef (ID)(ID))(Constant)))(Assignment (ArrayRef (ID)(UnaryOp (ID)))(ID))))))))))(FuncDef (Decl (FuncDecl (TypeDecl (IdentifierType))))(Compound (Decl (TypeDecl (IdentifierType)))(Decl (TypeDecl (IdentifierType)))(Decl (TypeDecl (IdentifierType)))(Decl (TypeDecl (IdentifierType)))(FuncCall (ID)(ExprList (Constant)(UnaryOp (ID))))(Decl (ArrayDecl (TypeDecl (IdentifierType))(BinaryOp (ID)(Constant))))(For (DeclList (Decl (TypeDecl (IdentifierType))(Constant)))(BinaryOp (ID)(ID))(UnaryOp (ID))(Compound (FuncCall (ID)(ExprList (Constant)(UnaryOp (ID))(UnaryOp (ID))))(For (DeclList (Decl (TypeDecl (IdentifierType))(Constant)))(BinaryOp (ID)(ID))(UnaryOp (ID))(Compound (FuncCall (ID)(ExprList (Constant)(UnaryOp (ID))))(Assignment (ArrayRef (StructRef (ArrayRef (ID)(ID))(ID))(ID))(Constant))))))(FuncCall (ID)(ExprList (ID)(ID)))(For (DeclList (Decl (TypeDecl (IdentifierType))(Constant)))(BinaryOp (ID)(ID))(UnaryOp (ID))(Compound (FuncCall (ID)(ExprList (Constant)(ID)(ArrayRef (ID)(ID))))))))) |ET| 
1  |BT| (FileAST (FuncDef (Decl (FuncDecl (ParamList (Decl (PtrDecl (TypeDecl (IdentifierType))))(Decl (PtrDecl (TypeDecl (IdentifierType)))))(TypeDecl (IdentifierType))))(Compound (Decl (TypeDecl (IdentifierType)))(Assignment (ID)(UnaryOp (ID)))(Assignment (UnaryOp (ID))(UnaryOp (ID)))(Assignment (UnaryOp (ID))(ID))))(FuncDef (Decl (FuncDecl (ParamList (Decl (ArrayDecl (TypeDecl (IdentifierType))))(Decl (TypeDecl (IdentifierType))))(TypeDecl (IdentifierType))))(Compound (Decl (TypeDecl (IdentifierType)))(For (Assignment (ID)(Constant))(BinaryOp (ID)(ID))(UnaryOp (ID))(Compound (FuncCall (ID)(ExprList (Constant)(ArrayRef (ID)(ID))))(If (BinaryOp (ID)(BinaryOp (ID)(Constant)))(FuncCall (ID)(ExprList (Constant))))))(FuncCall (ID)(ExprList (Constant)))))(FuncDef (Decl (FuncDecl (ParamList (Decl (ArrayDecl (TypeDecl (IdentifierType))))(Decl (TypeDecl (IdentifierType))))(TypeDecl (IdentifierType))))(Compound (Decl (TypeDecl (IdentifierType)))(Decl (TypeDecl (IdentifierType)))(Decl (TypeDecl (IdentifierType)))(For (Assignment (ID)(Constant))(BinaryOp (ID)(ID))(UnaryOp (ID))(Compound (Assignment (ID)(ID))(While (BinaryOp (BinaryOp (ID)(Constant))(BinaryOp (ArrayRef (ID)(BinaryOp (ID)(Constant)))(ArrayRef (ID)(ID))))(Compound (Assignment (ID)(ArrayRef (ID)(BinaryOp (ID)(Constant))))(Assignment (ArrayRef (ID)(BinaryOp (ID)(Constant)))(ArrayRef (ID)(ID)))(Assignment (ArrayRef (ID)(ID))(ID))(UnaryOp (ID))))(FuncCall (ID)(ExprList (ID)(ID)))))))(FuncDef (Decl (FuncDecl (ParamList (Decl (ArrayDecl (TypeDecl (IdentifierType))))(Decl (TypeDecl (IdentifierType)))(Decl (PtrDecl (TypeDecl (IdentifierType)))))(TypeDecl (IdentifierType))))(Compound (Decl (TypeDecl (IdentifierType))(Constant))(Decl (TypeDecl (IdentifierType)))(Decl (TypeDecl (IdentifierType)))(Decl (TypeDecl (IdentifierType)))(For (Assignment (ID)(Constant))(BinaryOp (ID)(ID))(UnaryOp (ID))(Compound (For (Assignment (ID)(BinaryOp (ID)(Constant)))(BinaryOp (ID)(Constant))(UnaryOp (ID))(Compound (If (BinaryOp (ArrayRef (ID)(BinaryOp (ID)(Constant)))(ArrayRef (ID)(ID)))(Compound (Assignment (ID)(ArrayRef (ID)(BinaryOp (ID)(Constant))))(Assignment (ArrayRef (ID)(BinaryOp (ID)(Constant)))(ArrayRef (ID)(ID)))(Assignment (ArrayRef (ID)(ID))(ID))(Assignment (ID)(Constant))(UnaryOp (UnaryOp (ID)))))))(If (BinaryOp (ID)(Constant))(Break)(Assignment (ID)(Constant)))))))(FuncDef (Decl (FuncDecl (ParamList (Decl (ArrayDecl (TypeDecl (IdentifierType))))(Decl (TypeDecl (IdentifierType)))(Decl (PtrDecl (TypeDecl (IdentifierType)))))(TypeDecl (IdentifierType))))(Compound (Decl (TypeDecl (IdentifierType)))(Decl (TypeDecl (IdentifierType)))(Decl (TypeDecl (IdentifierType)))(Decl (TypeDecl (IdentifierType)))(For (Assignment (ID)(Constant))(BinaryOp (ID)(ID))(UnaryOp (ID))(Compound (Assignment (ID)(ID))(For (Assignment (ID)(ID))(BinaryOp (ID)(ID))(UnaryOp (ID))(Compound (If (BinaryOp (ArrayRef (ID)(ID))(ArrayRef (ID)(ID)))(Assignment (ID)(ID)))))(If (BinaryOp (ID)(ID))(Compound (Assignment (ID)(ArrayRef (ID)(ID)))(Assignment (ArrayRef (ID)(ID))(ArrayRef (ID)(ID)))(Assignment (ArrayRef (ID)(ID))(ID))(UnaryOp (UnaryOp (ID)))))))))(FuncDef (Decl (FuncDecl (ParamList (Decl (ArrayDecl (TypeDecl (IdentifierType))))(Decl (TypeDecl (IdentifierType)))(Decl (TypeDecl (IdentifierType))))(TypeDecl (IdentifierType))))(Compound (Decl (TypeDecl (IdentifierType)))(Decl (TypeDecl (IdentifierType)))(Decl (TypeDecl (IdentifierType)))(ExprList (Assignment (ID)(Constant))(Assignment (ID)(BinaryOp (ID)(Constant))))(While (BinaryOp (ID)(ID))(Compound (Assignment (ID)(BinaryOp (BinaryOp (ID)(ID))(Constant)))(If (BinaryOp (ArrayRef (ID)(ID))(ID))(Return (Constant))(If (BinaryOp (ArrayRef (ID)(ID))(ID))(Assignment (ID)(BinaryOp (ID)(Constant)))(If (BinaryOp (ArrayRef (ID)(ID))(ID))(Assignment (ID)(BinaryOp (ID)(Constant))))))))(Return (Constant))))(Decl (ArrayDecl (TypeDecl (IdentifierType))(Constant)))(Decl (TypeDecl (IdentifierType)))(FuncDef (Decl (FuncDecl (TypeDecl (IdentifierType))))(Compound (Assignment (ID)(Constant))))(FuncDef (Decl (FuncDecl (TypeDecl (IdentifierType))))(Compound (If (BinaryOp (ID)(Constant))(Compound (FuncCall (ID)(ExprList (Constant)))(Return (Constant))))(Return (Constant))))(FuncDef (Decl (FuncDecl (ParamList (Decl (TypeDecl (IdentifierType))))(TypeDecl (IdentifierType))))(Compound (Assignment (ArrayRef (ID)(UnaryOp (ID)))(ID))))(FuncDef (Decl (FuncDecl (TypeDecl (IdentifierType))))(Compound (Decl (TypeDecl (IdentifierType)))(Assignment (ID)(ArrayRef (ID)(UnaryOp (ID))))(Return (ID))))(FuncDef (Decl (FuncDecl (TypeDecl (IdentifierType))))(Compound (Decl (TypeDecl (IdentifierType)))(Decl (TypeDecl (IdentifierType)))(Decl (TypeDecl (IdentifierType)))(Decl (TypeDecl (IdentifierType)))(Decl (ArrayDecl (TypeDecl (IdentifierType))(Constant)))(Decl (ArrayDecl (TypeDecl (IdentifierType))(Constant)))(Decl (TypeDecl (IdentifierType))(Constant))(FuncCall (ID)(ExprList (Constant)(UnaryOp (ID))))(For (Assignment (ID)(Constant))(BinaryOp (ID)(ID))(UnaryOp (ID))(FuncCall (ID)(ExprList (Constant)(UnaryOp (ArrayRef (ID)(ID))))))(FuncCall (ID)(ExprList (Constant)(UnaryOp (ID))))(For (Assignment (ID)(Constant))(BinaryOp (ID)(ID))(UnaryOp (ID))(FuncCall (ID)(ExprList (Constant)(UnaryOp (ArrayRef (ID)(ID))))))(For (Assignment (ID)(Constant))(BinaryOp (ID)(ID))(UnaryOp (ID))(Compound (For (Assignment (ID)(Constant))(BinaryOp (ID)(ID))(UnaryOp (ID))(Compound (If (BinaryOp (ArrayRef (ID)(ID))(ArrayRef (ID)(ID)))(Compound (UnaryOp (ID))(Break)))))))(FuncCall (ID)(ExprList (Constant)(ID)))(Return (Constant))))) |ET| 
-0.61068636768426787231334174066433  |BT| (FileAST (Decl (TypeDecl (IdentifierType)))(Decl (TypeDecl (IdentifierType)))(Decl (ArrayDecl (TypeDecl (IdentifierType))(Constant)))(FuncDef (Decl (FuncDecl (ParamList (Decl (TypeDecl (IdentifierType))))(TypeDecl (IdentifierType))))(Compound (Assignment (ArrayRef (ID)(UnaryOp (ID)))(ID))))(FuncDef (Decl (FuncDecl (TypeDecl (IdentifierType))))(Compound (Return (ArrayRef (ID)(UnaryOp (ID))))))(FuncDef (Decl (FuncDecl (TypeDecl (IdentifierType))))(Compound (Return (BinaryOp (ID)(ID)))))(Decl (TypeDecl (IdentifierType)))(Decl (ArrayDecl (ArrayDecl (TypeDecl (IdentifierType))(Constant))(Constant)))(Decl (ArrayDecl (TypeDecl (IdentifierType))(Constant)))(FuncDef (Decl (FuncDecl (TypeDecl (IdentifierType))))(Compound (Assignment (ID)(Assignment (ID)(Constant)))(Decl (TypeDecl (IdentifierType)))(Decl (TypeDecl (IdentifierType)))(Decl (TypeDecl (IdentifierType)))(Assignment (StructRef (ID)(ID))(Constant))(Assignment (ArrayRef (ID)(Constant))(Assignment (StructRef (ID)(ID))(Constant)))(FuncCall (ID)(ExprList (ID)))(While (UnaryOp (FuncCall (ID)))(Compound (Assignment (ID)(FuncCall (ID)))(For (Assignment (ID)(Constant))(BinaryOp (ID)(ID))(UnaryOp (ID))(If (BinaryOp (BinaryOp (ArrayRef (ID)(ID))(UnaryOp (Constant)))(ArrayRef (ArrayRef (ID)(StructRef (ID)(ID)))(ID)))(Compound (Assignment (StructRef (ID)(ID))(ID))(Assignment (ArrayRef (ID)(ID))(Assignment (StructRef (ID)(ID))(BinaryOp (StructRef (ID)(ID))(Constant))))(FuncCall (ID)(ExprList (ID))))))))))(FuncDef (Decl (FuncDecl (TypeDecl (IdentifierType))))(Compound (Decl (TypeDecl (IdentifierType)))(Decl (TypeDecl (IdentifierType)))(Decl (TypeDecl (IdentifierType)))(Decl (TypeDecl (IdentifierType)))(While (BinaryOp (FuncCall (ID)(ExprList (Constant)(UnaryOp (ID))))(ID))(Compound (FuncCall (ID)(ExprList (ID)(Constant)(UnaryOp (ID))))(FuncCall (ID)(ExprList (ID)(UnaryOp (Constant))(UnaryOp (ID))))(For (Assignment (ID)(Constant))(BinaryOp (ID)(ID))(UnaryOp (ID))(Compound (FuncCall (ID)(ExprList (Constant)(UnaryOp (ID))(UnaryOp (ID))))(While (BinaryOp (Constant)(UnaryOp (ID)))(Compound (FuncCall (ID)(ExprList (Constant)(UnaryOp (ID))))(Assignment (ArrayRef (ArrayRef (ID)(ID))(ID))(Constant))))))(FuncCall (ID))(For (Assignment (ID)(Constant))(BinaryOp (ID)(ID))(UnaryOp (ID))(FuncCall (ID)(ExprList (Constant)(ID)(ArrayRef (ID)(ID)))))))(Return (Constant))))) |ET| 
-0.27026236593964741983242561218503  |BT| (FileAST (Decl (FuncDecl (ParamList (Typename (TypeDecl (IdentifierType))))(TypeDecl (IdentifierType))))(Decl (FuncDecl (ParamList (Typename (TypeDecl (IdentifierType))))(TypeDecl (IdentifierType))))(Decl (FuncDecl (ParamList (Typename (TypeDecl (IdentifierType))))(TypeDecl (IdentifierType))))(Decl (ArrayDecl (ArrayDecl (TypeDecl (IdentifierType))(Constant))(Constant))(InitList))(Decl (TypeDecl (IdentifierType)))(Decl (TypeDecl (IdentifierType))(Constant))(Decl (TypeDecl (IdentifierType))(Constant))(Decl (ArrayDecl (TypeDecl (IdentifierType))(Constant)))(Decl (ArrayDecl (TypeDecl (IdentifierType))(Constant)))(Decl (ArrayDecl (TypeDecl (IdentifierType))(Constant)))(FuncDef (Decl (FuncDecl (TypeDecl (IdentifierType))))(Compound (Decl (TypeDecl (IdentifierType)))(Decl (TypeDecl (IdentifierType)))(Decl (TypeDecl (IdentifierType)))(Decl (TypeDecl (IdentifierType)))(Decl (TypeDecl (IdentifierType)))(FuncCall (ID)(ExprList (Constant)(UnaryOp (ID))))(For (Assignment (ID)(Constant))(BinaryOp (ID)(ID))(UnaryOp (ID))(Compound (FuncCall (ID)(ExprList (Constant)(UnaryOp (ID))(UnaryOp (ID))))(For (Assignment (ID)(Constant))(BinaryOp (ID)(ID))(UnaryOp (ID))(Compound (FuncCall (ID)(ExprList (Constant)(UnaryOp (ID))))(Assignment (ArrayRef (ArrayRef (ID)(BinaryOp (ID)(Constant)))(BinaryOp (ID)(Constant)))(Constant))))))(FuncCall (ID)(ExprList (Constant)))(For (Assignment (ID)(Constant))(BinaryOp (ID)(ID))(UnaryOp (ID))(Compound (FuncCall (ID)(ExprList (Constant)(BinaryOp (ID)(Constant))(ArrayRef (ID)(ID))))))(Return (Constant))))(FuncDef (Decl (FuncDecl (ParamList (Decl (TypeDecl (IdentifierType))))(TypeDecl (IdentifierType))))(Compound (Assignment (ArrayRef (ID)(ID))(ID))(UnaryOp (ID))(If (BinaryOp (ID)(Constant))(Compound (Assignment (ID)(Constant))))))(FuncDef (Decl (FuncDecl (TypeDecl (IdentifierType))))(Compound (Decl (TypeDecl (IdentifierType)))(Assignment (ID)(ArrayRef (ID)(ID)))(UnaryOp (ID))(If (BinaryOp (ID)(Constant))(Compound (Assignment (ID)(Constant))))(Return (ID))))(FuncDef (Decl (FuncDecl (ParamList (Decl (TypeDecl (IdentifierType))))(TypeDecl (IdentifierType))))(Compound (Decl (TypeDecl (IdentifierType)))(Decl (TypeDecl (IdentifierType)))(Decl (TypeDecl (IdentifierType)))(For (Assignment (ID)(Constant))(BinaryOp (ID)(ID))(UnaryOp (ID))(Compound (Assignment (ArrayRef (ID)(ID))(Constant))(Assignment (ArrayRef (ID)(ID))(UnaryOp (Constant)))))(Assignment (ArrayRef (ID)(ID))(Constant))(Assignment (ArrayRef (ID)(ID))(Constant))(FuncCall (ID)(ExprList (ID)))(While (BinaryOp (ID)(ID))(Compound (Assignment (ID)(FuncCall (ID)))(For (Assignment (ID)(Constant))(BinaryOp (ID)(ID))(UnaryOp (ID))(Compound (If (BinaryOp (BinaryOp (ArrayRef (ID)(ID))(Constant))(BinaryOp (ArrayRef (ArrayRef (ID)(ID))(ID))(Constant)))(Compound (Assignment (ArrayRef (ID)(ID))(Constant))(Assignment (ArrayRef (ID)(ID))(BinaryOp (ArrayRef (ID)(ID))(Constant)))(FuncCall (ID)(ExprList (ID)))))))(Assignment (ArrayRef (ID)(ID))(Constant))))))) |ET| 
-1  |BT| (FileAST (Decl (ArrayDecl (ArrayDecl (TypeDecl (IdentifierType))(Constant))(Constant)))(Decl (ArrayDecl (TypeDecl (IdentifierType))(Constant)))(FuncDef (Decl (FuncDecl (TypeDecl (IdentifierType))))(Compound (Decl (TypeDecl (IdentifierType)))(Decl (TypeDecl (IdentifierType)))(Decl (TypeDecl (IdentifierType)))(FuncCall (ID)(ExprList (Constant)(UnaryOp (ID))))(For (DeclList (Decl (TypeDecl (IdentifierType))(Constant)))(BinaryOp (ID)(ID))(UnaryOp (ID))(Compound (FuncCall (ID)(ExprList (Constant)(UnaryOp (ID))(UnaryOp (ID))))(For (DeclList (Decl (TypeDecl (IdentifierType))(Constant)))(BinaryOp (ID)(ID))(UnaryOp (ID))(Compound (FuncCall (ID)(ExprList (Constant)(UnaryOp (ArrayRef (ArrayRef (ID)(ID))(ID)))))))))(FuncCall (ID))(For (DeclList (Decl (TypeDecl (IdentifierType))(Constant)))(BinaryOp (ID)(ID))(UnaryOp (ID))(Compound (FuncCall (ID)(ExprList (Constant)(ID)(UnaryOp (ArrayRef (ID)(ID)))))))(Return (Constant))))(FuncDef (Decl (FuncDecl (TypeDecl (IdentifierType))))(Compound (Decl (ArrayDecl (TypeDecl (IdentifierType))(Constant)))(Decl (TypeDecl (IdentifierType))(Constant))(Decl (TypeDecl (IdentifierType))(Constant))(Assignment (ArrayRef (ID)(Constant))(Constant))(UnaryOp (ID))(While (BinaryOp (ID)(Constant))(Compound (Decl (ArrayDecl (TypeDecl (IdentifierType))(Constant)))(Decl (TypeDecl (IdentifierType))(Constant))(For (DeclList (Decl (TypeDecl (IdentifierType))(Constant)))(BinaryOp (ID)(ID))(UnaryOp (ID))(Compound (Decl (TypeDecl (IdentifierType))(ArrayRef (ID)(ID)))(If (BinaryOp (BinaryOp (Constant)(ArrayRef (ID)(ID)))(BinaryOp (ArrayRef (ID)(ID))(ID)))(Continue))(Assignment (ArrayRef (ID)(ID))(ID))(For (DeclList (Decl (TypeDecl (IdentifierType))(Constant))(Decl (TypeDecl (IdentifierType))))(BinaryOp (Assignment (ID)(ArrayRef (ArrayRef (ID)(ID))(ID)))(Constant))(UnaryOp (ID))(Compound (Assignment (ArrayRef (ID)(UnaryOp (ID)))(ID))))))(FuncCall (ID)(ExprList (ID)(ID)(BinaryOp (UnaryOp (Typename (TypeDecl (IdentifierType))))(ID))))(Assignment (ID)(ID))(UnaryOp (ID))))))) |ET| 
1  |BT| (FileAST (Decl (FuncDecl (ParamList (Typename (PtrDecl (TypeDecl (IdentifierType))))(Typename (TypeDecl (IdentifierType))))(TypeDecl (IdentifierType))))(Decl (TypeDecl (IdentifierType)))(FuncDef (Decl (FuncDecl (TypeDecl (IdentifierType))))(Compound (Decl (TypeDecl (IdentifierType)))(Decl (ArrayDecl (TypeDecl (IdentifierType))(Constant)))(Decl (ArrayDecl (TypeDecl (IdentifierType))(Constant)))(Decl (TypeDecl (IdentifierType)))(Decl (TypeDecl (IdentifierType)))(Decl (TypeDecl (IdentifierType)))(Assignment (ID)(Constant))(FuncCall (ID)(ExprList (Constant)(UnaryOp (ID))))(If (BinaryOp (BinaryOp (ID)(Constant))(BinaryOp (Constant)(ID)))(FuncCall (ID)(ExprList (Constant))))(For (Assignment (ID)(Constant))(BinaryOp (ID)(ID))(UnaryOp (ID))(Compound (FuncCall (ID)(ExprList (Constant)(UnaryOp (ArrayRef (ID)(ID)))))(If (BinaryOp (BinaryOp (ArrayRef (ID)(ID))(Constant))(BinaryOp (Constant)(ArrayRef (ID)(ID))))(FuncCall (ID)(ExprList (Constant))))))(FuncCall (ID)(ExprList (Constant)(UnaryOp (ID))))(If (BinaryOp (BinaryOp (ID)(Constant))(BinaryOp (Constant)(ID)))(FuncCall (ID)(ExprList (Constant))))(For (Assignment (ID)(Constant))(BinaryOp (ID)(ID))(UnaryOp (ID))(Compound (FuncCall (ID)(ExprList (Constant)(UnaryOp (ArrayRef (ID)(ID)))))(If (BinaryOp (BinaryOp (ArrayRef (ID)(ID))(Constant))(BinaryOp (Constant)(ArrayRef (ID)(ID))))(FuncCall (ID)(ExprList (Constant))))))(For (Assignment (ID)(Constant))(BinaryOp (ID)(ID))(UnaryOp (ID))(Compound (For (Assignment (ID)(Constant))(BinaryOp (ID)(ID))(UnaryOp (ID))(Compound (If (BinaryOp (ID)(ID))(Continue))(If (BinaryOp (ArrayRef (ID)(ID))(ArrayRef (ID)(ID)))(FuncCall (ID)(ExprList (Constant))))))))(For (Assignment (ID)(Constant))(BinaryOp (ID)(ID))(UnaryOp (ID))(Compound (If (BinaryOp (FuncCall (ID)(ExprList (ID)(ArrayRef (ID)(ID))))(Constant))(UnaryOp (ID)))))(FuncCall (ID)(ExprList (Constant)(ID)))(Return (Constant))))(FuncDef (Decl (FuncDecl (ParamList (Decl (PtrDecl (TypeDecl (IdentifierType))))(Decl (TypeDecl (IdentifierType))))(TypeDecl (IdentifierType))))(Compound (Decl (TypeDecl (IdentifierType)))(For (Assignment (ID)(Constant))(BinaryOp (ID)(ID))(UnaryOp (ID))(Compound (If (BinaryOp (ArrayRef (ID)(ID))(ID))(Return (Constant)))))(Return (Constant))))) |ET| 
-0.95706732341422295906596673376043  |BT| (FileAST (Decl (TypeDecl (IdentifierType)))(Decl (TypeDecl (IdentifierType)))(Decl (TypeDecl (IdentifierType)))(Decl (TypeDecl (IdentifierType)))(Decl (TypeDecl (IdentifierType)))(Decl (TypeDecl (IdentifierType)))(Decl (ArrayDecl (ArrayDecl (TypeDecl (IdentifierType))(Constant))(Constant))(InitList))(Decl (ArrayDecl (TypeDecl (IdentifierType))(Constant)))(FuncDef (Decl (FuncDecl (ParamList (Decl (TypeDecl (IdentifierType)))(Decl (TypeDecl (IdentifierType))))(TypeDecl (IdentifierType))))(Compound (Decl (TypeDecl (IdentifierType)))(UnaryOp (ID))(Assignment (ArrayRef (ID)(ID))(ID))(For (Assignment (ID)(Constant))(BinaryOp (ID)(ID))(UnaryOp (ID))(Compound (If (BinaryOp (ArrayRef (ArrayRef (ID)(ID))(ID))(Constant))(Compound (If (BinaryOp (BinaryOp (ArrayRef (ID)(ID))(ID))(BinaryOp (ArrayRef (ID)(ID))(Constant)))(Compound (Continue)))(FuncCall (ID)(ExprList (ID)(ID)))))))))(FuncDef (Decl (FuncDecl (ParamList (Typename (TypeDecl (IdentifierType))))(TypeDecl (IdentifierType))))(Compound (FuncCall (ID)(ExprList (Constant)(UnaryOp (ID))))(For (Assignment (ID)(Constant))(BinaryOp (ID)(ID))(UnaryOp (ID))(Compound (FuncCall (ID)(ExprList (Constant)(UnaryOp (ID))))(FuncCall (ID)(ExprList (Constant)(UnaryOp (ID))))(For (Assignment (ID)(Constant))(BinaryOp (ID)(ID))(UnaryOp (ID))(Compound (FuncCall (ID)(ExprList (Constant)(UnaryOp (ID))))(Assignment (ArrayRef (ArrayRef (ID)(BinaryOp (ID)(Constant)))(BinaryOp (ID)(Constant)))(Constant))))))(For (Assignment (ID)(Constant))(BinaryOp (ID)(ID))(UnaryOp (ID))(Compound (Assignment (ArrayRef (ID)(ID))(UnaryOp (Constant)))))(FuncCall (ID)(ExprList (Constant)(UnaryOp (Constant))))(For (Assignment (ID)(Constant))(BinaryOp (ID)(ID))(UnaryOp (ID))(Compound (FuncCall (ID)(ExprList (Constant)(BinaryOp (ID)(Constant))(ArrayRef (ID)(ID))))))(Return (Constant))))) |ET| 
1  |BT| (FileAST (FuncDef (Decl (FuncDecl (ParamList (Typename (TypeDecl (IdentifierType))))(TypeDecl (IdentifierType))))(Compound (Decl (TypeDecl (IdentifierType)))(Decl (ArrayDecl (TypeDecl (IdentifierType))(Constant)))(Decl (TypeDecl (IdentifierType)))(Decl (TypeDecl (IdentifierType))(Constant))(Decl (ArrayDecl (TypeDecl (IdentifierType))(Constant)))(Decl (TypeDecl (IdentifierType)))(Decl (TypeDecl (IdentifierType))(Constant))(Decl (TypeDecl (IdentifierType)))(Decl (TypeDecl (IdentifierType)))(Decl (TypeDecl (IdentifierType)))(Decl (TypeDecl (IdentifierType)))(FuncCall (ID)(ExprList (Constant)(UnaryOp (ID))))(Assignment (ID)(Constant))(Assignment (ID)(ID))(While (UnaryOp (ID))(Compound (FuncCall (ID)(ExprList (Constant)(UnaryOp (ArrayRef (ID)(ID)))))(UnaryOp (ID))))(FuncCall (ID)(ExprList (Constant)(UnaryOp (ID))))(Assignment (ID)(ID))(Assignment (ID)(Constant))(While (UnaryOp (ID))(Compound (FuncCall (ID)(ExprList (Constant)(UnaryOp (ArrayRef (ID)(ID)))))(UnaryOp (ID))))(While (BinaryOp (ID)(Constant))(Compound (Assignment (ID)(Constant))(For (Assignment (ID)(BinaryOp (ID)(Constant)))(BinaryOp (ID)(Constant))(UnaryOp (ID))(Compound (If (BinaryOp (ArrayRef (ID)(ID))(ArrayRef (ID)(BinaryOp (ID)(Constant))))(Compound (Assignment (ID)(ArrayRef (ID)(ID)))(Assignment (ArrayRef (ID)(ID))(ArrayRef (ID)(BinaryOp (ID)(Constant))))(Assignment (ArrayRef (ID)(BinaryOp (ID)(Constant)))(ID))(Assignment (ID)(Constant))))))))(For (Assignment (ID)(Constant))(BinaryOp (ID)(ID))(UnaryOp (ID))(Compound (For (Assignment (ID)(Constant))(BinaryOp (ID)(ID))(UnaryOp (ID))(Compound (If (BinaryOp (ArrayRef (ID)(ID))(ArrayRef (ID)(ID)))(Break))))(If (BinaryOp (ID)(ID))(UnaryOp (ID)))))(FuncCall (ID)(ExprList (Constant)(ID)))))) |ET| 
-0.21640718922177265559625425339618  |BT| (FileAST (Decl (Struct (Decl (TypeDecl (IdentifierType)))(Decl (TypeDecl (IdentifierType)))(Decl (ArrayDecl (TypeDecl (IdentifierType))(BinaryOp (Constant)(Constant))))))(FuncDef (Decl (FuncDecl (ParamList (Decl (PtrDecl (TypeDecl (Struct))))(Decl (TypeDecl (IdentifierType))))(TypeDecl (IdentifierType))))(Compound (FuncCall (ID)(ExprList (ID)(Constant)(UnaryOp (Typename (TypeDecl (Struct))))))(Assignment (StructRef (ID)(ID))(ID))(Assignment (StructRef (ID)(ID))(Constant))(Return)))(FuncDef (Decl (FuncDecl (ParamList (Decl (PtrDecl (TypeDecl (Struct)))))(TypeDecl (IdentifierType))))(Compound (Assignment (StructRef (ID)(ID))(Constant))(Return)))(FuncDef (Decl (FuncDecl (ParamList (Decl (PtrDecl (TypeDecl (Struct))))(Decl (TypeDecl (IdentifierType))))(TypeDecl (IdentifierType))))(Compound (Assignment (ArrayRef (StructRef (ID)(ID))(ID))(Constant))(UnaryOp (StructRef (ID)(ID)))(Return)))(Decl (Struct (Decl (TypeDecl (IdentifierType)))(Decl (ArrayDecl (TypeDecl (Struct))(BinaryOp (Constant)(Constant))))))(FuncDef (Decl (FuncDecl (ParamList (Decl (PtrDecl (TypeDecl (Struct)))))(TypeDecl (IdentifierType))))(Compound (Decl (TypeDecl (IdentifierType)))(Assignment (StructRef (ID)(ID))(Constant))(For (Assignment (ID)(Constant))(BinaryOp (ID)(Constant))(UnaryOp (ID))(Compound (FuncCall (ID)(ExprList (UnaryOp (ArrayRef (StructRef (ID)(ID))(ID)))))))(Return)))(FuncDef (Decl (FuncDecl (ParamList (Decl (PtrDecl (TypeDecl (Struct))))(Decl (TypeDecl (IdentifierType)))(Decl (TypeDecl (IdentifierType))))(TypeDecl (IdentifierType))))(Compound (FuncCall (ID)(ExprList (UnaryOp (ArrayRef (StructRef (ID)(ID))(ID)))(ID)))(Return)))(FuncDef (Decl (FuncDecl (ParamList (Decl (PtrDecl (TypeDecl (Struct))))(Decl (PtrDecl (TypeDecl (Struct)))))(TypeDecl (IdentifierType))))(Compound (FuncCall (ID)(ExprList (UnaryOp (ArrayRef (StructRef (ID)(ID))(StructRef (ID)(ID))))(ID)(UnaryOp (Typename (TypeDecl (Struct))))))(UnaryOp (StructRef (ID)(ID)))(FuncCall (ID)(ExprList (ID)(Constant)(StructRef (ID)(ID))))(Return)))(Decl (Struct (Decl (PtrDecl (TypeDecl (Struct))))(Decl (TypeDecl (IdentifierType)))))(Decl (Struct (Decl (PtrDecl (TypeDecl (Struct))))(Decl (PtrDecl (TypeDecl (Struct))))(Decl (TypeDecl (IdentifierType)))))(FuncDef (Decl (FuncDecl (ParamList (Decl (PtrDecl (TypeDecl (Struct)))))(TypeDecl (IdentifierType))))(Compound (Assignment (StructRef (ID)(ID))(Assignment (StructRef (ID)(ID))(Constant)))(Assignment (StructRef (ID)(ID))(Constant))(Return)))(FuncDef (Decl (FuncDecl (ParamList (Decl (PtrDecl (TypeDecl (Struct))))(Decl (TypeDecl (IdentifierType))))(TypeDecl (IdentifierType))))(Compound (Decl (PtrDecl (TypeDecl (Struct)))(FuncCall (ID)(ExprList (UnaryOp (Typename (TypeDecl (Struct)))))))(Assignment (StructRef (ID)(ID))(Constant))(Assignment (StructRef (ID)(ID))(ID))(If (BinaryOp (StructRef (ID)(ID))(Constant))(Compound (Assignment (StructRef (ID)(ID))(Assignment (StructRef (ID)(ID))(ID)))(Assignment (StructRef (StructRef (ID)(ID))(ID))(Constant))(UnaryOp (StructRef (ID)(ID))))(Compound (Assignment (StructRef (StructRef (ID)(ID))(ID))(ID))(Assignment (StructRef (ID)(ID))(ID))(Assignment (StructRef (StructRef (ID)(ID))(ID))(Constant))(UnaryOp (StructRef (ID)(ID)))))(Return)))(FuncDef (Decl (FuncDecl (ParamList (Decl (PtrDecl (TypeDecl (Struct)))))(TypeDecl (IdentifierType))))(Compound (Decl (PtrDecl (TypeDecl (Struct)))(StructRef (ID)(ID)))(Decl (TypeDecl (IdentifierType)))(If (BinaryOp (StructRef (ID)(ID))(StructRef (ID)(ID)))(Compound (Assignment (StructRef (ID)(ID))(Assignment (StructRef (ID)(ID))(Constant))))(Compound (Assignment (StructRef (ID)(ID))(StructRef (StructRef (ID)(ID))(ID)))))(UnaryOp (StructRef (ID)(ID)))(Assignment (ID)(StructRef (ID)(ID)))(FuncCall (ID)(ExprList (ID)))(Return (ID))))(FuncDef (Decl (FuncDecl (ParamList (Decl (PtrDecl (TypeDecl (Struct)))))(TypeDecl (IdentifierType))))(Compound (Return (BinaryOp (StructRef (ID)(ID))(Constant)))))(Decl (Struct (Decl (ArrayDecl (TypeDecl (IdentifierType))(BinaryOp (Constant)(Constant))))(Decl (ArrayDecl (TypeDecl (IdentifierType))(BinaryOp (Constant)(Constant))))))(FuncDef (Decl (FuncDecl (ParamList (Decl (PtrDecl (TypeDecl (Struct)))))(TypeDecl (IdentifierType))))(Compound (FuncCall (ID)(ExprList (ID)(Constant)(UnaryOp (Typename (TypeDecl (Struct))))))(For (DeclList (Decl (TypeDecl (IdentifierType))(Constant)))(BinaryOp (ID)(BinaryOp (Constant)(Constant)))(UnaryOp (ID))(Compound (Assignment (ArrayRef (StructRef (ID)(ID))(ID))(UnaryOp (Constant)))))(Return)))(FuncDef (Decl (FuncDecl (ParamList (Decl (PtrDecl (TypeDecl (Struct))))(Decl (PtrDecl (TypeDecl (Struct))))(Decl (TypeDecl (IdentifierType))))(TypeDecl (IdentifierType))))(Compound (Decl (TypeDecl (Struct)))(FuncCall (ID)(ExprList (UnaryOp (ID))))(FuncCall (ID)(ExprList (UnaryOp (ID))(ID)))(Assignment (ArrayRef (StructRef (ID)(ID))(ID))(Constant))(Assignment (ArrayRef (StructRef (ID)(ID))(ID))(Constant))(While (UnaryOp (FuncCall (ID)(ExprList (UnaryOp (ID)))))(Compound (Decl (TypeDecl (IdentifierType))(FuncCall (ID)(ExprList (UnaryOp (ID)))))(For (DeclList (Decl (TypeDecl (IdentifierType))(Constant)))(BinaryOp (ID)(StructRef (ID)(ID)))(UnaryOp (ID))(Compound (If (BinaryOp (ArrayRef (StructRef (ArrayRef (StructRef (ID)(ID))(ID))(ID))(ID))(UnaryOp (ArrayRef (StructRef (ID)(ID))(ID))))(Compound (FuncCall (ID)(ExprList (UnaryOp (ID))(ID)))(Assignment (ArrayRef (StructRef (ID)(ID))(ID))(Constant))(Assignment (ArrayRef (StructRef (ID)(ID))(ID))(BinaryOp (ArrayRef (StructRef (ID)(ID))(ID))(Constant)))))))))(Return)))(FuncDef (Decl (FuncDecl (ParamList (Decl (PtrDecl (TypeDecl (Struct))))(Decl (PtrDecl (TypeDecl (Struct)))))(TypeDecl (IdentifierType))))(Compound (Decl (TypeDecl (IdentifierType)))(For (Assignment (ID)(Constant))(BinaryOp (ID)(StructRef (ID)(ID)))(UnaryOp (ID))(Compound (FuncCall (ID)(ExprList (Constant)(ID)(ArrayRef (StructRef (ID)(ID))(ID))))))(Return)))(FuncDef (Decl (FuncDecl (ParamList (Decl (TypeDecl (IdentifierType)))(Decl (ArrayDecl (PtrDecl (TypeDecl (IdentifierType))))))(TypeDecl (IdentifierType))))(Compound (Decl (TypeDecl (Struct)))(Decl (TypeDecl (Struct)))(Decl (TypeDecl (IdentifierType)))(Decl (TypeDecl (IdentifierType)))(Decl (TypeDecl (IdentifierType)))(FuncCall (ID)(ExprList (UnaryOp (ID))))(FuncCall (ID)(ExprList (Constant)(UnaryOp (ID))))(For (Assignment (ID)(Constant))(BinaryOp (ID)(ID))(UnaryOp (ID))(Compound (Decl (TypeDecl (Struct)))(Decl (TypeDecl (IdentifierType)))(Decl (TypeDecl (IdentifierType)))(FuncCall (ID)(ExprList (Constant)(UnaryOp (ID))(UnaryOp (ID))))(FuncCall (ID)(ExprList (UnaryOp (ID))(ID)))(FuncCall (ID)(ExprList (UnaryOp (ID))(UnaryOp (ID))))(For (Assignment (ID)(Constant))(BinaryOp (ID)(ID))(UnaryOp (ID))(Compound (Decl (TypeDecl (IdentifierType)))(FuncCall (ID)(ExprList (Constant)(UnaryOp (ID))))(FuncCall (ID)(ExprList (UnaryOp (ID))(ID)(ID)))))(FuncCall (ID)(ExprList (ID)))))(FuncCall (ID)(ExprList (UnaryOp (ID))))(FuncCall (ID)(ExprList (UnaryOp (ID))(UnaryOp (ID))(Constant)))(FuncCall (ID)(ExprList (UnaryOp (ID))(UnaryOp (ID))))(Return (Constant))))) |ET| 
-0.28730083499099851040980979632877  |BT| (FileAST (Decl (TypeDecl (IdentifierType)))(Decl (ArrayDecl (ArrayDecl (TypeDecl (IdentifierType))(Constant))(Constant)))(Decl (ArrayDecl (TypeDecl (IdentifierType))(Constant)))(Decl (ArrayDecl (TypeDecl (IdentifierType))(Constant)))(Decl (TypeDecl (IdentifierType))(Constant))(Decl (TypeDecl (IdentifierType))(Constant))(FuncDef (Decl (FuncDecl (ParamList (Decl (TypeDecl (IdentifierType))))(TypeDecl (IdentifierType))))(Compound (Assignment (ArrayRef (ID)(ID))(ID))(Assignment (ID)(BinaryOp (BinaryOp (ID)(Constant))(Constant)))))(FuncDef (Decl (FuncDecl (TypeDecl (IdentifierType))))(Compound (Decl (TypeDecl (IdentifierType))(ArrayRef (ID)(ID)))(Assignment (ID)(BinaryOp (BinaryOp (ID)(Constant))(Constant)))(Return (ID))))(FuncDef (Decl (FuncDecl (ParamList (Typename (TypeDecl (IdentifierType))))(TypeDecl (IdentifierType))))(Compound (If (BinaryOp (ID)(ID))(Return (Constant))(Return (Constant)))))(FuncDef (Decl (FuncDecl (ParamList (Decl (TypeDecl (IdentifierType))))(TypeDecl (IdentifierType))))(Compound (Decl (TypeDecl (IdentifierType)))(Decl (TypeDecl (IdentifierType)))(Decl (TypeDecl (IdentifierType)))(FuncCall (ID)(ExprList (ID)))(For (Assignment (ID)(Constant))(BinaryOp (ID)(ID))(UnaryOp (ID))(Assignment (ArrayRef (ID)(ID))(Constant)))(Assignment (ArrayRef (ID)(ID))(Constant))(While (UnaryOp (FuncCall (ID)))(Compound (Assignment (ID)(FuncCall (ID)))(For (Assignment (ID)(Constant))(BinaryOp (ID)(ID))(UnaryOp (ID))(Compound (If (BinaryOp (ArrayRef (ArrayRef (ID)(ID))(ID))(Constant))(Continue))(If (BinaryOp (ArrayRef (ID)(ID))(Constant))(Continue))(Assignment (ArrayRef (ID)(ID))(BinaryOp (ArrayRef (ID)(ID))(Constant)))(FuncCall (ID)(ExprList (ID)))))))(For (Assignment (ID)(Constant))(BinaryOp (ID)(ID))(UnaryOp (ID))(Compound (FuncCall (ID)(ExprList (Constant)(BinaryOp (ID)(Constant))(TernaryOp (BinaryOp (ArrayRef (ID)(ID))(Constant))(UnaryOp (Constant))(ArrayRef (ID)(ID)))))))))(FuncDef (Decl (FuncDecl (TypeDecl (IdentifierType))))(Compound (Decl (TypeDecl (IdentifierType)))(Decl (TypeDecl (IdentifierType)))(Decl (TypeDecl (IdentifierType)))(Decl (TypeDecl (IdentifierType)))(Decl (TypeDecl (IdentifierType)))(FuncCall (ID)(ExprList (Constant)(UnaryOp (ID))))(For (Assignment (ID)(Constant))(BinaryOp (ID)(ID))(UnaryOp (ID))(Compound (For (Assignment (ID)(Constant))(BinaryOp (ID)(ID))(UnaryOp (ID))(Assignment (ArrayRef (ArrayRef (ID)(ID))(ID))(Constant)))))(For (Assignment (ID)(Constant))(BinaryOp (ID)(ID))(UnaryOp (ID))(Compound (FuncCall (ID)(ExprList (Constant)(UnaryOp (ID))(UnaryOp (ID))))(UnaryOp (ID))(For (Assignment (ID)(Constant))(BinaryOp (ID)(ID))(UnaryOp (ID))(Compound (FuncCall (ID)(ExprList (Constant)(UnaryOp (ID))))(UnaryOp (ID))(Assignment (ArrayRef (ArrayRef (ID)(ID))(ID))(Constant))))))(FuncCall (ID)(ExprList (Constant)))(Return (Constant))))) |ET| 
-1  |BT| (FileAST (Decl (ArrayDecl (ArrayDecl (TypeDecl (IdentifierType))(BinaryOp (Constant)(Constant)))(BinaryOp (Constant)(Constant))))(Decl (ArrayDecl (TypeDecl (IdentifierType))(BinaryOp (Constant)(Constant))))(Decl (TypeDecl (IdentifierType)))(Decl (ArrayDecl (TypeDecl (IdentifierType))(BinaryOp (Constant)(Constant))))(FuncDef (Decl (FuncDecl (ParamList (Decl (TypeDecl (IdentifierType)))(Decl (TypeDecl (IdentifierType))))(TypeDecl (IdentifierType))))(Compound (Decl (TypeDecl (IdentifierType)))(Assignment (ArrayRef (ID)(ID))(ID))(For (Assignment (ID)(Constant))(BinaryOp (ID)(ArrayRef (ID)(ID)))(UnaryOp (ID))(Compound (If (BinaryOp (BinaryOp (ID)(Constant))(ArrayRef (ID)(ArrayRef (ArrayRef (ID)(ID))(ID))))(Compound (FuncCall (ID)(ExprList (ArrayRef (ArrayRef (ID)(ID))(ID))(BinaryOp (ID)(Constant))))))))))(FuncDef (Decl (FuncDecl (ParamList (Typename (TypeDecl (IdentifierType))))(TypeDecl (IdentifierType))))(Compound (Decl (TypeDecl (IdentifierType)))(Decl (TypeDecl (IdentifierType)))(Decl (TypeDecl (IdentifierType)))(FuncCall (ID)(ExprList (Constant)(UnaryOp (ID))))(For (Assignment (ID)(Constant))(BinaryOp (ID)(ID))(UnaryOp (ID))(Compound (Assignment (ArrayRef (ID)(ID))(Constant))(FuncCall (ID)(ExprList (Constant)(UnaryOp (ID))))(FuncCall (ID)(ExprList (Constant)(UnaryOp (ArrayRef (ID)(ID)))))(For (Assignment (ID)(Constant))(BinaryOp (ID)(ArrayRef (ID)(ID)))(UnaryOp (ID))(Compound (FuncCall (ID)(ExprList (Constant)(UnaryOp (ArrayRef (ArrayRef (ID)(ID))(ID)))))))))(FuncCall (ID)(ExprList (Constant)(Constant)))(For (Assignment (ID)(Constant))(BinaryOp (ID)(ID))(UnaryOp (ID))(Compound (FuncCall (ID)(ExprList (Constant)(ID)(TernaryOp (BinaryOp (ArrayRef (ID)(ID))(Constant))(UnaryOp (Constant))(ArrayRef (ID)(ID)))))))(Return (Constant))))) |ET| 
1  |BT| (FileAST (FuncDef (Decl (FuncDecl (TypeDecl (IdentifierType))))(Compound (Decl (TypeDecl (IdentifierType)))(Decl (TypeDecl (IdentifierType)))(Decl (PtrDecl (TypeDecl (IdentifierType))))(Decl (PtrDecl (TypeDecl (IdentifierType))))(Decl (ArrayDecl (TypeDecl (IdentifierType))(Constant)))(Decl (TypeDecl (IdentifierType))(Constant))(Decl (TypeDecl (IdentifierType)))(Decl (TypeDecl (IdentifierType)))(Decl (TypeDecl (IdentifierType)))(Decl (TypeDecl (IdentifierType))(Constant))(FuncCall (ID)(ExprList (Constant)(UnaryOp (ID))))(Assignment (ID)(Cast (Typename (PtrDecl (TypeDecl (IdentifierType))))(FuncCall (ID)(ExprList (BinaryOp (ID)(UnaryOp (Typename (TypeDecl (IdentifierType)))))))))(For (Assignment (ID)(Constant))(BinaryOp (ID)(ID))(UnaryOp (ID))(FuncCall (ID)(ExprList (Constant)(UnaryOp (ArrayRef (ID)(ID))))))(FuncCall (ID)(ExprList (Constant)(UnaryOp (ID))))(Assignment (ID)(Cast (Typename (PtrDecl (TypeDecl (IdentifierType))))(FuncCall (ID)(ExprList (BinaryOp (ID)(UnaryOp (Typename (TypeDecl (IdentifierType)))))))))(For (Assignment (ID)(Constant))(BinaryOp (ID)(ID))(UnaryOp (ID))(FuncCall (ID)(ExprList (Constant)(UnaryOp (ArrayRef (ID)(ID))))))(For (Assignment (ID)(Constant))(BinaryOp (ID)(ID))(UnaryOp (ID))(Compound (Assignment (ID)(Constant))(For (Assignment (ID)(Constant))(BinaryOp (ID)(ID))(UnaryOp (ID))(Compound (If (BinaryOp (ArrayRef (ID)(ID))(ArrayRef (ID)(ID)))(Compound (For (Assignment (ID)(Constant))(BinaryOp (ID)(ID))(UnaryOp (ID))(Compound (If (BinaryOp (ArrayRef (ID)(ID))(ArrayRef (ID)(ID)))(Assignment (ID)(Constant)))))(If (BinaryOp (ID)(Constant))(Break))(Assignment (ArrayRef (ID)(UnaryOp (ID)))(ArrayRef (ID)(ID)))(Break)))))))(FuncCall (ID)(ExprList (Constant)(ID)))(FuncCall (ID)(ExprList (ID)))(FuncCall (ID)(ExprList (ID)))(Return (Constant))))) |ET| 
-0.21661523959820450091484644872253  |BT| (FileAST (Decl (Struct (Decl (TypeDecl (IdentifierType)))(Decl (PtrDecl (TypeDecl (Struct))))))(Decl (PtrDecl (TypeDecl (Struct))))(Decl (FuncDecl (ParamList (Typename (TypeDecl (IdentifierType))))(TypeDecl (IdentifierType))))(Decl (FuncDecl (ParamList (Typename (TypeDecl (IdentifierType))))(PtrDecl (TypeDecl (Struct)))))(Decl (FuncDecl (ParamList (Typename (TypeDecl (IdentifierType))))(TypeDecl (IdentifierType))))(Decl (FuncDecl (ParamList (Typename (TypeDecl (IdentifierType))))(TypeDecl (IdentifierType))))(Decl (FuncDecl (ParamList (Typename (TypeDecl (IdentifierType))))(TypeDecl (IdentifierType))))(Decl (PtrDecl (TypeDecl (IdentifierType))))(Decl (PtrDecl (TypeDecl (IdentifierType))))(Decl (TypeDecl (IdentifierType)))(Decl (PtrDecl (TypeDecl (IdentifierType))))(Decl (TypeDecl (IdentifierType)))(Decl (TypeDecl (IdentifierType)))(FuncDef (Decl (FuncDecl (ParamList (Typename (TypeDecl (IdentifierType))))(TypeDecl (IdentifierType))))(Compound (Decl (TypeDecl (IdentifierType)))(FuncCall (ID)(ExprList (Constant)(UnaryOp (ID))))(Assignment (ID)(Cast (Typename (PtrDecl (TypeDecl (IdentifierType))))(FuncCall (ID)(ExprList (BinaryOp (UnaryOp (Typename (TypeDecl (IdentifierType))))(BinaryOp (ID)(Constant)))))))(Assignment (ID)(Cast (Typename (PtrDecl (TypeDecl (IdentifierType))))(FuncCall (ID)(ExprList (BinaryOp (UnaryOp (Typename (TypeDecl (IdentifierType))))(BinaryOp (ID)(Constant)))))))(Assignment (ID)(Cast (Typename (PtrDecl (TypeDecl (IdentifierType))))(FuncCall (ID)(ExprList (BinaryOp (UnaryOp (Typename (TypeDecl (IdentifierType))))(ID))))))(Assignment (ID)(Cast (Typename (PtrDecl (TypeDecl (Struct))))(FuncCall (ID)(ExprList (BinaryOp (UnaryOp (Typename (TypeDecl (Struct))))(BinaryOp (ID)(Constant)))))))(For (Assignment (ID)(Constant))(BinaryOp (ID)(ID))(UnaryOp (ID))(FuncCall (ID)))(FuncCall (ID)(ExprList (Constant)))(For (Assignment (ID)(Constant))(BinaryOp (ID)(ID))(UnaryOp (ID))(FuncCall (ID)(ExprList (Constant)(ID)(ArrayRef (ID)(ID)))))(FuncCall (ID)(ExprList (ID)))(FuncCall (ID)(ExprList (ID)))(FuncCall (ID)(ExprList (ID)))(Return (Constant))))(FuncDef (Decl (FuncDecl (ParamList (Typename (TypeDecl (IdentifierType))))(TypeDecl (IdentifierType))))(Compound (Decl (TypeDecl (IdentifierType)))(Decl (TypeDecl (IdentifierType)))(Decl (TypeDecl (IdentifierType)))(Decl (TypeDecl (IdentifierType)))(Decl (PtrDecl (TypeDecl (Struct))))(FuncCall (ID)(ExprList (Constant)(UnaryOp (ID))))(FuncCall (ID)(ExprList (Constant)(UnaryOp (ID))))(Assignment (StructRef (ArrayRef (ID)(ID))(ID))(ID))(Assignment (StructRef (ArrayRef (ID)(ID))(ID))(Constant))(Assignment (ID)(UnaryOp (ArrayRef (ID)(ID))))(For (Assignment (ID)(Constant))(BinaryOp (ID)(ID))(UnaryOp (ID))(Compound (Assignment (StructRef (ID)(ID))(FuncCall (ID)))(Assignment (ID)(StructRef (ID)(ID)))))))(FuncDef (Decl (FuncDecl (ParamList (Typename (TypeDecl (IdentifierType))))(PtrDecl (TypeDecl (Struct)))))(Compound (Decl (PtrDecl (TypeDecl (Struct))))(Assignment (ID)(Cast (Typename (PtrDecl (TypeDecl (Struct))))(FuncCall (ID)(ExprList (UnaryOp (Typename (TypeDecl (Struct))))))))(FuncCall (ID)(ExprList (Constant)(UnaryOp (StructRef (ID)(ID)))))(Assignment (StructRef (ID)(ID))(Constant))(Return (ID))))(FuncDef (Decl (FuncDecl (ParamList (Decl (TypeDecl (IdentifierType))))(TypeDecl (IdentifierType))))(Compound (Decl (TypeDecl (IdentifierType)))(Decl (TypeDecl (IdentifierType)))(Decl (PtrDecl (TypeDecl (Struct))))(For (Assignment (ID)(ID))(BinaryOp (ID)(ID))(UnaryOp (ID))(Compound (Assignment (ArrayRef (ID)(ID))(UnaryOp (Constant)))(Assignment (ArrayRef (ID)(ID))(Constant))))(For (Assignment (ID)(Constant))(BinaryOp (ID)(ID))(UnaryOp (ID))(Assignment (ArrayRef (ID)(ID))(UnaryOp (Constant))))(Assignment (ID)(Constant))(Assignment (ID)(Constant))(Assignment (ArrayRef (ID)(ID))(Constant))(Assignment (ArrayRef (ID)(ID))(Constant))(FuncCall (ID)(ExprList (ID)))(While (BinaryOp (ID)(ID))(Compound (Assignment (ID)(FuncCall (ID)))(Assignment (ID)(UnaryOp (ArrayRef (ID)(ID))))(While (BinaryOp (StructRef (ID)(ID))(Constant))(Compound (Assignment (ID)(StructRef (ID)(ID)))(If (BinaryOp (ArrayRef (ID)(StructRef (ID)(ID)))(Constant))(Compound (Assignment (ArrayRef (ID)(StructRef (ID)(ID)))(Constant))(Assignment (ArrayRef (ID)(StructRef (ID)(ID)))(BinaryOp (ArrayRef (ID)(ID))(Constant)))(FuncCall (ID)(ExprList (StructRef (ID)(ID))))))))(Assignment (ArrayRef (ID)(ID))(Constant))))))(FuncDef (Decl (FuncDecl (ParamList (Decl (TypeDecl (IdentifierType))))(TypeDecl (IdentifierType))))(Compound (Assignment (ArrayRef (ID)(ID))(ID))(UnaryOp (ID))(If (BinaryOp (ID)(ID))(Assignment (ID)(Constant)))))(FuncDef (Decl (FuncDecl (TypeDecl (IdentifierType))))(Compound (Decl (TypeDecl (IdentifierType)))(Assignment (ID)(ArrayRef (ID)(ID)))(UnaryOp (ID))(If (BinaryOp (ID)(ID))(Assignment (ID)(Constant)))(Return (ID))))) |ET| 
1  |BT| (FileAST (FuncDef (Decl (FuncDecl (ParamList (Typename (TypeDecl (IdentifierType))))(TypeDecl (IdentifierType))))(Compound (Decl (TypeDecl (IdentifierType)))(Decl (ArrayDecl (TypeDecl (IdentifierType))(Constant)))(Decl (TypeDecl (IdentifierType)))(Decl (ArrayDecl (TypeDecl (IdentifierType))(Constant)))(Decl (TypeDecl (IdentifierType)))(Decl (TypeDecl (IdentifierType)))(Decl (TypeDecl (IdentifierType)))(Assignment (ID)(Constant))(While (Constant)(Compound (FuncCall (ID)(ExprList (Constant)(UnaryOp (ID))))(If (BinaryOp (ID)(Constant))(Compound (Break))(Compound (FuncCall (ID)(ExprList (Constant)))))))(For (Assignment (ID)(Constant))(BinaryOp (ID)(ID))(UnaryOp (ID))(Compound (While (Constant)(Compound (FuncCall (ID)(ExprList (Constant)(UnaryOp (ArrayRef (ID)(ID)))))(If (BinaryOp (BinaryOp (ArrayRef (ID)(ID))(Constant))(BinaryOp (ArrayRef (ID)(ID))(Constant)))(Compound (Break))(Compound (FuncCall (ID)(ExprList (Constant)))))))))(While (Constant)(Compound (FuncCall (ID)(ExprList (Constant)(UnaryOp (ID))))(If (BinaryOp (ID)(Constant))(Compound (Break))(Compound (FuncCall (ID)(ExprList (Constant)))))))(For (Assignment (ID)(Constant))(BinaryOp (ID)(ID))(UnaryOp (ID))(Compound (While (Constant)(Compound (FuncCall (ID)(ExprList (Constant)(UnaryOp (ArrayRef (ID)(ID)))))(If (BinaryOp (BinaryOp (ArrayRef (ID)(ID))(Constant))(BinaryOp (ArrayRef (ID)(ID))(Constant)))(Compound (Break))(Compound (FuncCall (ID)(ExprList (Constant)))))))))(For (Assignment (ID)(Constant))(BinaryOp (ID)(ID))(UnaryOp (ID))(Compound (For (Assignment (ID)(Constant))(BinaryOp (ID)(ID))(UnaryOp (ID))(Compound (If (BinaryOp (ArrayRef (ID)(ID))(ArrayRef (ID)(ID)))(Compound (UnaryOp (ID))(Break))(Compound))))))(FuncCall (ID)(ExprList (Constant)(ID)))(Return (Constant))))) |ET| 
-0.99154427822263868641528006264707  |BT| (FileAST (Decl (ArrayDecl (ArrayDecl (TypeDecl (IdentifierType))(Constant))(Constant)))(Decl (ArrayDecl (TypeDecl (IdentifierType))(Constant)))(Decl (TypeDecl (IdentifierType)))(FuncDef (Decl (FuncDecl (ParamList (Decl (TypeDecl (IdentifierType)))(Decl (TypeDecl (IdentifierType))))(TypeDecl (IdentifierType))))(Compound (Decl (TypeDecl (IdentifierType)))(For (Assignment (ID)(Constant))(BinaryOp (ID)(ID))(UnaryOp (ID))(Compound (If (BinaryOp (BinaryOp (ArrayRef (ArrayRef (ID)(ID))(BinaryOp (ID)(Constant)))(Constant))(BinaryOp (ArrayRef (ID)(BinaryOp (ID)(Constant)))(ID)))(Compound (Assignment (ArrayRef (ID)(BinaryOp (ID)(Constant)))(ID))(FuncCall (ID)(ExprList (BinaryOp (ID)(Constant))(BinaryOp (ID)(Constant))))))))))(FuncDef (Decl (FuncDecl (ParamList (Typename (TypeDecl (IdentifierType))))(TypeDecl (IdentifierType))))(Compound (Decl (TypeDecl (IdentifierType)))(Decl (TypeDecl (IdentifierType)))(Decl (TypeDecl (IdentifierType)))(Decl (TypeDecl (IdentifierType)))(Decl (TypeDecl (IdentifierType)))(For (Assignment (ID)(Constant))(BinaryOp (ID)(Constant))(UnaryOp (ID))(Compound (Assignment (ArrayRef (ID)(BinaryOp (ID)(Constant)))(Constant))))(FuncCall (ID)(ExprList (Constant)(UnaryOp (ID))))(For (Assignment (ID)(Constant))(BinaryOp (ID)(ID))(UnaryOp (ID))(Compound (FuncCall (ID)(ExprList (Constant)(UnaryOp (ID))(UnaryOp (ID))))(For (Assignment (ID)(Constant))(BinaryOp (ID)(ID))(UnaryOp (ID))(Compound (FuncCall (ID)(ExprList (Constant)(UnaryOp (ID))))(Assignment (ArrayRef (ArrayRef (ID)(ID))(ID))(Constant))))))(Assignment (ArrayRef (ID)(Constant))(Constant))(FuncCall (ID)(ExprList (Constant)(Constant)))(For (Assignment (ID)(Constant))(BinaryOp (ID)(ID))(UnaryOp (ID))(Compound (FuncCall (ID)(ExprList (Constant)(BinaryOp (ID)(Constant))))(If (BinaryOp (ArrayRef (ID)(BinaryOp (ID)(Constant)))(Constant))(Compound (FuncCall (ID)(ExprList (Constant))))(Compound (FuncCall (ID)(ExprList (Constant)(ArrayRef (ID)(BinaryOp (ID)(Constant)))))))(FuncCall (ID)(ExprList (Constant)))))(Return (Constant))))) |ET| 
1  |BT| (FileAST (Decl (FuncDecl (ParamList (Typename (PtrDecl (TypeDecl (IdentifierType))))(Typename (TypeDecl (IdentifierType)))(Typename (TypeDecl (IdentifierType))))(TypeDecl (IdentifierType))))(FuncDef (Decl (FuncDecl (TypeDecl (IdentifierType))))(Compound (Decl (TypeDecl (IdentifierType)))(Decl (TypeDecl (IdentifierType)))(Decl (TypeDecl (IdentifierType)))(Decl (TypeDecl (IdentifierType)))(Decl (PtrDecl (TypeDecl (IdentifierType))))(Decl (PtrDecl (TypeDecl (IdentifierType))))(FuncCall (ID)(ExprList (Constant)(UnaryOp (ID))))(If (BinaryOp (ID)(Constant))(FuncCall (ID)(ExprList (Constant))))(Assignment (ID)(FuncCall (ID)(ExprList (BinaryOp (BinaryOp (ID)(Constant))(UnaryOp (Typename (TypeDecl (IdentifierType))))))))(For (Assignment (ID)(Constant))(BinaryOp (ID)(ID))(UnaryOp (ID))(Compound (FuncCall (ID)(ExprList (Constant)(UnaryOp (ArrayRef (ID)(ID)))))(If (BinaryOp (ArrayRef (ID)(ID))(Constant))(FuncCall (ID)(ExprList (Constant))))))(FuncCall (ID)(ExprList (Constant)(UnaryOp (ID))))(If (BinaryOp (ID)(Constant))(FuncCall (ID)(ExprList (Constant))))(Assignment (ID)(FuncCall (ID)(ExprList (BinaryOp (ID)(UnaryOp (Typename (TypeDecl (IdentifierType))))))))(For (Assignment (ID)(Constant))(BinaryOp (ID)(ID))(UnaryOp (ID))(Compound (FuncCall (ID)(ExprList (Constant)(UnaryOp (ArrayRef (ID)(ID)))))(If (BinaryOp (ArrayRef (ID)(ID))(Constant))(FuncCall (ID)(ExprList (Constant))))(For (Assignment (ID)(Constant))(BinaryOp (ID)(ID))(UnaryOp (ID))(Compound (If (BinaryOp (ArrayRef (ID)(ID))(ArrayRef (ID)(ID)))(FuncCall (ID)(ExprList (Constant))))))))(Assignment (ID)(Constant))(For (Assignment (ID)(Constant))(BinaryOp (ID)(ID))(UnaryOp (ID))(Compound (If (FuncCall (ID)(ExprList (ID)(ArrayRef (ID)(ID))(ID)))(UnaryOp (ID)))))(FuncCall (ID)(ExprList (Constant)(ID)))(Return (Constant))))(FuncDef (Decl (FuncDecl (ParamList (Decl (PtrDecl (TypeDecl (IdentifierType))))(Decl (TypeDecl (IdentifierType)))(Decl (TypeDecl (IdentifierType))))(TypeDecl (IdentifierType))))(Compound (Decl (TypeDecl (IdentifierType))(Constant))(Assignment (ArrayRef (ID)(ID))(ID))(While (BinaryOp (ArrayRef (ID)(ID))(ID))(Compound (UnaryOp (ID))))(If (BinaryOp (ID)(ID))(Return (Constant)))(Return (Constant))))) |ET| 
-0.22110026885033143284609025158716  |BT| (FileAST (FuncDef (Decl (FuncDecl (ParamList (Decl (PtrDecl (TypeDecl (IdentifierType))))(Decl (TypeDecl (IdentifierType))))(TypeDecl (IdentifierType))))(Compound (If (BinaryOp (Assignment (StructRef (ID)(ID))(FuncCall (ID)(ExprList (BinaryOp (ID)(UnaryOp (Typename (TypeDecl (IdentifierType))))))))(Constant))(Compound (Return (Constant))))(Assignment (StructRef (ID)(ID))(Assignment (StructRef (ID)(ID))(Assignment (StructRef (ID)(ID))(Constant))))(Assignment (StructRef (ID)(ID))(ID))(Return (Constant))))(FuncDef (Decl (FuncDecl (ParamList (Decl (PtrDecl (TypeDecl (IdentifierType)))))(TypeDecl (IdentifierType))))(Compound (Return (BinaryOp (StructRef (ID)(ID))(Constant)))))(FuncDef (Decl (FuncDecl (ParamList (Decl (PtrDecl (TypeDecl (IdentifierType)))))(TypeDecl (IdentifierType))))(Compound (Return (BinaryOp (StructRef (ID)(ID))(StructRef (ID)(ID))))))(FuncDef (Decl (FuncDecl (ParamList (Decl (TypeDecl (IdentifierType)))(Decl (TypeDecl (IdentifierType))))(TypeDecl (IdentifierType))))(Compound (Return (BinaryOp (BinaryOp (ID)(Constant))(ID)))))(FuncDef (Decl (FuncDecl (ParamList (Decl (PtrDecl (TypeDecl (IdentifierType))))(Decl (TypeDecl (IdentifierType))))(TypeDecl (IdentifierType))))(Compound (If (FuncCall (ID)(ExprList (ID)))(Compound (Return (Constant))))(Assignment (ArrayRef (StructRef (ID)(ID))(StructRef (ID)(ID)))(ID))(Assignment (StructRef (ID)(ID))(FuncCall (ID)(ExprList (StructRef (ID)(ID))(StructRef (ID)(ID)))))(UnaryOp (StructRef (ID)(ID)))(Return (Constant))))(FuncDef (Decl (FuncDecl (ParamList (Decl (PtrDecl (TypeDecl (IdentifierType))))(Decl (PtrDecl (TypeDecl (IdentifierType)))))(TypeDecl (IdentifierType))))(Compound (If (FuncCall (ID)(ExprList (ID)))(Compound (Return (Constant))))(Assignment (UnaryOp (ID))(ArrayRef (StructRef (ID)(ID))(StructRef (ID)(ID))))(Assignment (StructRef (ID)(ID))(FuncCall (ID)(ExprList (StructRef (ID)(ID))(StructRef (ID)(ID)))))(UnaryOp (StructRef (ID)(ID)))(Return (Constant))))(FuncDef (Decl (FuncDecl (ParamList (Decl (PtrDecl (TypeDecl (IdentifierType)))))(TypeDecl (IdentifierType))))(Compound (FuncCall (ID)(ExprList (StructRef (ID)(ID))))(Assignment (StructRef (ID)(ID))(Assignment (StructRef (ID)(ID))(Assignment (StructRef (ID)(ID))(Assignment (StructRef (ID)(ID))(Constant)))))))(Decl (PtrDecl (PtrDecl (TypeDecl (IdentifierType)))))(Decl (TypeDecl (IdentifierType)))(Decl (PtrDecl (TypeDecl (IdentifierType))))(FuncDef (Decl (FuncDecl (ParamList (Decl (TypeDecl (IdentifierType))))(TypeDecl (IdentifierType))))(Compound (Return (BinaryOp (ArrayRef (ID)(ID))(UnaryOp (Constant))))))(FuncDef (Decl (FuncDecl (ParamList (Decl (TypeDecl (IdentifierType)))(Decl (TypeDecl (IdentifierType))))(TypeDecl (IdentifierType))))(Compound (Return (ArrayRef (ArrayRef (ID)(ID))(ID)))))(FuncDef (Decl (FuncDecl (ParamList (Decl (TypeDecl (IdentifierType))))(TypeDecl (IdentifierType))))(Compound (Decl (TypeDecl (IdentifierType)))(FuncCall (ID)(ExprList (UnaryOp (ID))(ID)))(FuncCall (ID)(ExprList (UnaryOp (ID))(ID)))(Assignment (ArrayRef (ID)(ID))(Constant))(While (UnaryOp (FuncCall (ID)(ExprList (UnaryOp (ID)))))(Compound (Decl (TypeDecl (IdentifierType)))(FuncCall (ID)(ExprList (UnaryOp (ID))(UnaryOp (ID))))(For (DeclList (Decl (TypeDecl (IdentifierType))(Constant)))(BinaryOp (ID)(ID))(UnaryOp (ID))(Compound (If (BinaryOp (UnaryOp (FuncCall (ID)(ExprList (ID))))(FuncCall (ID)(ExprList (ID)(ID))))(Compound (Assignment (ArrayRef (ID)(ID))(BinaryOp (ArrayRef (ID)(ID))(Constant)))(FuncCall (ID)(ExprList (UnaryOp (ID))(ID)))))))))))(FuncDef (Decl (FuncDecl (ParamList (Typename (TypeDecl (IdentifierType))))(TypeDecl (IdentifierType))))(Compound (FuncCall (ID)(ExprList (Constant)(UnaryOp (ID))))(Assignment (ID)(FuncCall (ID)(ExprList (BinaryOp (ID)(UnaryOp (Typename (PtrDecl (TypeDecl (IdentifierType)))))))))(For (DeclList (Decl (TypeDecl (IdentifierType))(Constant)))(BinaryOp (ID)(ID))(UnaryOp (ID))(Compound (Assignment (ArrayRef (ID)(ID))(FuncCall (ID)(ExprList (BinaryOp (ID)(UnaryOp (Typename (TypeDecl (IdentifierType))))))))(FuncCall (ID)(ExprList (ArrayRef (ID)(ID))(Constant)(BinaryOp (ID)(UnaryOp (Typename (TypeDecl (IdentifierType)))))))))(Assignment (ID)(FuncCall (ID)(ExprList (BinaryOp (ID)(UnaryOp (Typename (TypeDecl (IdentifierType))))))))(FuncCall (ID)(ExprList (ID)(UnaryOp (Constant))(BinaryOp (ID)(UnaryOp (Typename (TypeDecl (IdentifierType)))))))(For (DeclList (Decl (TypeDecl (IdentifierType))(Constant)))(BinaryOp (ID)(ID))(UnaryOp (ID))(Compound (Decl (TypeDecl (IdentifierType)))(Decl (TypeDecl (IdentifierType)))(FuncCall (ID)(ExprList (Constant)(UnaryOp (ID))(UnaryOp (ID))))(For (DeclList (Decl (TypeDecl (IdentifierType))(Constant)))(BinaryOp (ID)(ID))(UnaryOp (ID))(Compound (Decl (TypeDecl (IdentifierType)))(FuncCall (ID)(ExprList (Constant)(UnaryOp (ID))))(Assignment (ArrayRef (ArrayRef (ID)(BinaryOp (ID)(Constant)))(BinaryOp (ID)(Constant)))(Constant))))))(FuncCall (ID)(ExprList (Constant)))(For (DeclList (Decl (TypeDecl (IdentifierType))(Constant)))(BinaryOp (ID)(ID))(UnaryOp (ID))(Compound (FuncCall (ID)(ExprList (Constant)(BinaryOp (ID)(Constant))(ArrayRef (ID)(ID))))))(For (DeclList (Decl (TypeDecl (IdentifierType))(Constant)))(BinaryOp (ID)(ID))(UnaryOp (ID))(Compound (FuncCall (ID)(ExprList (ArrayRef (ID)(ID))))))(FuncCall (ID)(ExprList (ID)))(Return (Constant))))) |ET| 
1  |BT| (FileAST (FuncDef (Decl (FuncDecl (TypeDecl (IdentifierType))))(Compound (Decl (TypeDecl (IdentifierType)))(Decl (TypeDecl (IdentifierType)))(Decl (TypeDecl (IdentifierType)))(Decl (TypeDecl (IdentifierType)))(Decl (TypeDecl (IdentifierType)))(Decl (TypeDecl (IdentifierType)))(Decl (TypeDecl (IdentifierType)))(Decl (TypeDecl (IdentifierType)))(Decl (TypeDecl (IdentifierType))(Constant))(Decl (ArrayDecl (TypeDecl (IdentifierType))(Constant)))(Decl (ArrayDecl (TypeDecl (IdentifierType))(Constant)))(FuncCall (ID)(ExprList (Constant)(UnaryOp (ID))))(For (Assignment (ID)(Constant))(BinaryOp (ID)(ID))(UnaryOp (ID))(Compound (FuncCall (ID)(ExprList (Constant)(UnaryOp (ArrayRef (ID)(ID)))))))(FuncCall (ID)(ExprList (Constant)(UnaryOp (ID))))(For (Assignment (ID)(Constant))(BinaryOp (ID)(ID))(UnaryOp (ID))(Compound (FuncCall (ID)(ExprList (Constant)(UnaryOp (ArrayRef (ID)(ID)))))))(For (Assignment (ID)(Constant))(BinaryOp (ID)(ID))(UnaryOp (ID))(Compound (Assignment (ID)(Constant))(Assignment (ID)(ArrayRef (ID)(ID)))(Assignment (ArrayRef (ID)(ID))(ID))(While (BinaryOp (ArrayRef (ID)(ID))(ID))(Compound (UnaryOp (ID))(If (BinaryOp (ID)(ID))(Compound (Break)))(If (BinaryOp (ID)(ArrayRef (ID)(ID)))(Compound (UnaryOp (ID))))))(If (BinaryOp (ID)(Constant))(Compound (UnaryOp (ID))))))(FuncCall (ID)(ExprList (Constant)(ID)))(Return (Constant))))) |ET| 
-0.31203037600683919405852861927997  |BT| (FileAST (Decl (FuncDecl (ParamList (Decl (PtrDecl (TypeDecl (IdentifierType))))(Decl (PtrDecl (TypeDecl (IdentifierType))))(Decl (TypeDecl (IdentifierType)))(Decl (TypeDecl (IdentifierType)))(Decl (TypeDecl (IdentifierType))))(TypeDecl (IdentifierType))))(Decl (TypeDecl (IdentifierType)))(FuncDef (Decl (FuncDecl (ParamList (Typename (TypeDecl (IdentifierType))))(TypeDecl (IdentifierType))))(Compound (Decl (TypeDecl (IdentifierType)))(Decl (TypeDecl (IdentifierType)))(Decl (TypeDecl (IdentifierType)))(Decl (TypeDecl (IdentifierType)))(Decl (TypeDecl (IdentifierType)))(Decl (TypeDecl (IdentifierType)))(Decl (ArrayDecl (TypeDecl (IdentifierType))(Constant))(InitList (Constant)))(Decl (PtrDecl (TypeDecl (IdentifierType)))(Constant))(Decl (ArrayDecl (TypeDecl (IdentifierType))(Constant))(InitList (Constant)))(FuncCall (ID)(ExprList (Constant)(UnaryOp (ID))))(Assignment (ID)(Cast (Typename (PtrDecl (TypeDecl (IdentifierType))))(FuncCall (ID)(ExprList (BinaryOp (BinaryOp (UnaryOp (Typename (TypeDecl (IdentifierType))))(ID))(ID))))))(Assignment (ID)(Constant))(Assignment (ID)(Constant))(For (Assignment (ID)(Constant))(BinaryOp (ID)(Constant))(UnaryOp (ID))(Compound (Assignment (ArrayRef (ID)(ID))(UnaryOp (Constant)))))(For (Assignment (ID)(Constant))(BinaryOp (ID)(ID))(UnaryOp (ID))(Compound (FuncCall (ID)(ExprList (Constant)(UnaryOp (ID))))(FuncCall (ID)(ExprList (Constant)(UnaryOp (ID))))(For (Assignment (ID)(Constant))(BinaryOp (ID)(ID))(UnaryOp (ID))(Compound (If (BinaryOp (ID)(ID))(Compound (FuncCall (ID)(ExprList (Constant)(UnaryOp (ArrayRef (ID)(ID))))))(Compound (Assignment (ArrayRef (ID)(ID))(Constant))))))(For (Assignment (ID)(Constant))(BinaryOp (ID)(ID))(UnaryOp (ID))(Compound (If (BinaryOp (BinaryOp (ID)(Constant))(ArrayRef (ID)(ID)))(Compound (Assignment (ArrayRef (ID)(BinaryOp (BinaryOp (ID)(ID))(ID)))(Constant))(UnaryOp (ID)))(Compound (Assignment (ArrayRef (ID)(BinaryOp (BinaryOp (ID)(ID))(ID)))(Constant))))))(Assignment (ID)(Constant))))(FuncCall (ID)(ExprList (ID)(ID)(Constant)(Constant)(ID)))(For (Assignment (ID)(Constant))(BinaryOp (ID)(ID))(UnaryOp (ID))(Compound (FuncCall (ID)(ExprList (Constant)(BinaryOp (ID)(Constant))(ArrayRef (ID)(ID))))))(FuncCall (ID)(ExprList (ID)))(Return (Constant))))(FuncDef (Decl (FuncDecl (ParamList (Decl (PtrDecl (TypeDecl (IdentifierType))))(Decl (PtrDecl (TypeDecl (IdentifierType))))(Decl (TypeDecl (IdentifierType)))(Decl (TypeDecl (IdentifierType)))(Decl (TypeDecl (IdentifierType))))(TypeDecl (IdentifierType))))(Compound (Decl (TypeDecl (IdentifierType)))(If (BinaryOp (BinaryOp (ArrayRef (ID)(ID))(UnaryOp (Constant)))(BinaryOp (ArrayRef (ID)(ID))(ID)))(Compound (Assignment (ArrayRef (ID)(ID))(ID)))(If (BinaryOp (ArrayRef (ID)(ID))(ID))(Compound (Return))(Compound (EmptyStatement))))(UnaryOp (ID))(For (Assignment (ID)(Constant))(BinaryOp (ID)(ID))(UnaryOp (ID))(Compound (If (BinaryOp (ArrayRef (ID)(BinaryOp (BinaryOp (ID)(ID))(ID)))(Constant))(Compound (FuncCall (ID)(ExprList (ID)(ID)(ID)(ID)(ID)))))))))) |ET| 
1  |BT| (FileAST (FuncDef (Decl (FuncDecl (TypeDecl (IdentifierType))))(Compound (Decl (TypeDecl (IdentifierType)))(Decl (ArrayDecl (TypeDecl (IdentifierType))(Constant)))(Decl (TypeDecl (IdentifierType)))(Decl (ArrayDecl (TypeDecl (IdentifierType))(Constant)))(Decl (TypeDecl (IdentifierType)))(Decl (TypeDecl (IdentifierType)))(Decl (TypeDecl (IdentifierType))(Constant))(FuncCall (ID)(ExprList (Constant)(UnaryOp (ID))))(For (Assignment (ID)(Constant))(BinaryOp (ID)(ID))(UnaryOp (ID))(FuncCall (ID)(ExprList (Constant)(UnaryOp (ArrayRef (ID)(ID))))))(FuncCall (ID)(ExprList (Constant)(UnaryOp (ID))))(For (Assignment (ID)(Constant))(BinaryOp (ID)(ID))(UnaryOp (ID))(FuncCall (ID)(ExprList (Constant)(UnaryOp (ArrayRef (ID)(ID))))))(For (Assignment (ID)(Constant))(BinaryOp (ID)(ID))(UnaryOp (ID))(Compound (For (Assignment (ID)(BinaryOp (ID)(Constant)))(BinaryOp (ID)(ID))(UnaryOp (ID))(Compound (If (BinaryOp (ArrayRef (ID)(ID))(ArrayRef (ID)(ID)))(Assignment (ArrayRef (ID)(ID))(UnaryOp (Constant))))))))(For (Assignment (ID)(Constant))(BinaryOp (ID)(ID))(UnaryOp (ID))(Compound (For (Assignment (ID)(BinaryOp (ID)(Constant)))(BinaryOp (ID)(ID))(UnaryOp (ID))(Compound (If (BinaryOp (ArrayRef (ID)(ID))(ArrayRef (ID)(ID)))(Assignment (ArrayRef (ID)(ID))(UnaryOp (Constant))))))))(For (Assignment (ID)(Constant))(BinaryOp (ID)(ID))(UnaryOp (ID))(Compound (For (Assignment (ID)(Constant))(BinaryOp (ID)(ID))(UnaryOp (ID))(Compound (If (BinaryOp (ArrayRef (ID)(ID))(ArrayRef (ID)(ID)))(UnaryOp (ID)))))))(FuncCall (ID)(ExprList (Constant)(ID)))(Return (Constant))))) |ET| 
-0.69116918918006042815704859094694  |BT| (FileAST (Decl (FuncDecl (ParamList (Typename (TypeDecl (IdentifierType))))(TypeDecl (IdentifierType))))(Decl (FuncDecl (ParamList (Typename (TypeDecl (IdentifierType))))(TypeDecl (IdentifierType))))(Decl (FuncDecl (ParamList (Typename (TypeDecl (IdentifierType)))(Typename (TypeDecl (IdentifierType))))(TypeDecl (IdentifierType))))(Decl (TypeDecl (IdentifierType)))(Decl (TypeDecl (IdentifierType)))(Decl (ArrayDecl (TypeDecl (IdentifierType))(Constant)))(FuncDef (Decl (FuncDecl (TypeDecl (IdentifierType))))(Compound (Decl (TypeDecl (IdentifierType)))(Decl (TypeDecl (IdentifierType)))(FuncCall (ID)(ExprList (Constant)(UnaryOp (ID))))(For (Assignment (ID)(Constant))(BinaryOp (ID)(ID))(UnaryOp (ID))(FuncCall (ID)(ExprList (ID))))(For (Assignment (ID)(Constant))(BinaryOp (ID)(ID))(UnaryOp (ID))(FuncCall (ID)(ExprList (ID))))(FuncCall (ID)(ExprList (Constant)(Constant)))(For (Assignment (ID)(Constant))(BinaryOp (ID)(ID))(UnaryOp (ID))(Compound (If (BinaryOp (StructRef (ArrayRef (ID)(ID))(ID))(Constant))(FuncCall (ID)(ExprList (Constant)(ID)(StructRef (ArrayRef (ID)(ID))(ID))))(FuncCall (ID)(ExprList (Constant)(ID))))))(Return (Constant))))(FuncDef (Decl (FuncDecl (ParamList (Decl (TypeDecl (IdentifierType)))(Decl (TypeDecl (IdentifierType))))(TypeDecl (IdentifierType))))(Compound (Decl (TypeDecl (IdentifierType)))(If (BinaryOp (StructRef (ArrayRef (ID)(ID))(ID))(ID))(Compound (Assignment (StructRef (ArrayRef (ID)(ID))(ID))(ID))(For (Assignment (ID)(Constant))(BinaryOp (ArrayRef (StructRef (ArrayRef (ID)(ID))(ID))(ID))(UnaryOp (Constant)))(UnaryOp (ID))(Compound (FuncCall (ID)(ExprList (ArrayRef (StructRef (ArrayRef (ID)(ID))(ID))(ID))(BinaryOp (ID)(Constant))))))))))(FuncDef (Decl (FuncDecl (ParamList (Decl (TypeDecl (IdentifierType))))(TypeDecl (IdentifierType))))(Compound (Decl (TypeDecl (IdentifierType)))(Decl (TypeDecl (IdentifierType)))(Assignment (ID)(Constant))(FuncCall (ID)(ExprList (Constant)(UnaryOp (StructRef (ArrayRef (ID)(ID))(ID)))(UnaryOp (ID))))(For (Assignment (ID)(Constant))(BinaryOp (ID)(ID))(UnaryOp (ID))(FuncCall (ID)(ExprList (Constant)(UnaryOp (ArrayRef (StructRef (ArrayRef (ID)(ID))(ID))(ID))))))))(FuncDef (Decl (FuncDecl (ParamList (Decl (TypeDecl (IdentifierType))))(TypeDecl (IdentifierType))))(Compound (Decl (TypeDecl (IdentifierType)))(For (Assignment (ID)(Constant))(BinaryOp (ID)(Constant))(UnaryOp (ID))(Assignment (ArrayRef (StructRef (ArrayRef (ID)(ID))(ID))(ID))(UnaryOp (Constant))))(Assignment (StructRef (ArrayRef (ID)(ID))(ID))(Constant))))) |ET| 
1  |BT| (FileAST (Decl (Struct (Decl (TypeDecl (IdentifierType)))(Decl (PtrDecl (TypeDecl (Struct))))))(FuncDef (Decl (FuncDecl (TypeDecl (IdentifierType))))(Compound (Decl (TypeDecl (IdentifierType)))(Decl (TypeDecl (IdentifierType)))(Decl (PtrDecl (TypeDecl (Struct))))(Decl (PtrDecl (TypeDecl (IdentifierType))))(Decl (PtrDecl (TypeDecl (Struct))))(Decl (TypeDecl (IdentifierType)))(Decl (TypeDecl (IdentifierType)))(Decl (TypeDecl (IdentifierType))(Constant))(Assignment (ID)(Cast (Typename (PtrDecl (TypeDecl (Struct))))(FuncCall (ID)(ExprList (UnaryOp (Typename (TypeDecl (Struct))))))))(Assignment (StructRef (ID)(ID))(Constant))(FuncCall (ID)(ExprList (Constant)(UnaryOp (ID))))(For (Assignment (ID)(Constant))(BinaryOp (ID)(ID))(UnaryOp (ID))(Compound (FuncCall (ID)(ExprList (Constant)(UnaryOp (ID))))(For (Assignment (ID)(ID))(BinaryOp (StructRef (ID)(ID))(Constant))(Assignment (ID)(StructRef (ID)(ID)))(Compound (If (BinaryOp (StructRef (StructRef (ID)(ID))(ID))(ID))(Break))))(If (BinaryOp (StructRef (ID)(ID))(Constant))(Compound (Assignment (StructRef (ID)(ID))(Cast (Typename (PtrDecl (TypeDecl (Struct))))(FuncCall (ID)(ExprList (UnaryOp (Typename (TypeDecl (Struct))))))))(Assignment (StructRef (StructRef (ID)(ID))(ID))(ID))(Assignment (StructRef (StructRef (ID)(ID))(ID))(Constant))))))(FuncCall (ID)(ExprList (Constant)(UnaryOp (ID))))(Assignment (ID)(Cast (Typename (PtrDecl (TypeDecl (IdentifierType))))(FuncCall (ID)(ExprList (BinaryOp (UnaryOp (Typename (TypeDecl (IdentifierType))))(ID))))))(For (Assignment (ID)(Constant))(BinaryOp (ID)(ID))(UnaryOp (ID))(Compound (FuncCall (ID)(ExprList (Constant)(UnaryOp (ArrayRef (ID)(ID)))))))(For (Assignment (ID)(StructRef (ID)(ID)))(BinaryOp (ID)(Constant))(Assignment (ID)(StructRef (ID)(ID)))(Compound (For (Assignment (ID)(Constant))(BinaryOp (ID)(ID))(UnaryOp (ID))(Compound (If (BinaryOp (StructRef (ID)(ID))(ArrayRef (ID)(ID)))(Compound (UnaryOp (ID))(Break)))))))(FuncCall (ID)(ExprList (Constant)(ID)))))) |ET| 
