SVM-light Version V5.01-TK-1.5
5 # kernel type
3 # kernel parameter -d 
1 # kernel parameter -g 
1 # kernel parameter -s 
1 # kernel parameter -r 
empty# kernel parameter -u 
0.4 # kernel parameter -L 
1 # kernel parameter -T 
T # kernel parameter -C 
1 # kernel parameter -F 
1 # kernel parameter -S 
0.400000 # kernel parameter -M 
3 # kernel parameter -N 
S # kernel parameter -V 
S # kernel parameter -W 
0 # kernel parameter -U 
0 # highest feature index 
469 # number of training documents 
244 # number of support vectors plus 1 
0.59917086 # threshold b, each following line is a SV (starting with alpha*y)
-0.52033029978482581157095410162583  |BT| (FileAST (FuncDef (Decl (FuncDecl (TypeDecl (IdentifierType))))(Compound (Decl (TypeDecl (IdentifierType))(Constant))(Decl (TypeDecl (IdentifierType))(FuncCall (ID)))(DoWhile (BinaryOp (ID)(Constant))(ExprList (Assignment (ID)(BinaryOp (BinaryOp (Constant)(ID))(BinaryOp (ID)(Constant))))(Assignment (ID)(FuncCall (ID)))))(Return (ID))))(Decl (ArrayDecl (TypeDecl (IdentifierType))(Constant)))(FuncDef (Decl (FuncDecl (ParamList (Decl (TypeDecl (IdentifierType))))(TypeDecl (IdentifierType))))(Compound (Decl (TypeDecl (IdentifierType)))(If (UnaryOp (ID))(Compound (FuncCall (ID)(ExprList (Constant)))(Return)))(Assignment (ID)(Constant))(While (ID)(ExprList (Assignment (ArrayRef (ID)(UnaryOp (ID)))(BinaryOp (BinaryOp (ID)(Constant))(Constant)))(Assignment (ID)(Constant))))(While (UnaryOp (ID))(FuncCall (ID)(ExprList (ArrayRef (ID)(ID)))))))(FuncDef (Decl (FuncDecl (ParamList (Decl (PtrDecl (TypeDecl (IdentifierType))))(Decl (TypeDecl (IdentifierType)))(Decl (TypeDecl (IdentifierType))))(TypeDecl (IdentifierType))))(Compound (Decl (TypeDecl (IdentifierType)))(Decl (TypeDecl (IdentifierType)))(Decl (TypeDecl (IdentifierType)))(Decl (TypeDecl (IdentifierType)))(ExprList (Assignment (ID)(StructRef (ArrayRef (ID)(ID))(ID)))(Assignment (ID)(BinaryOp (ID)(Constant))))(For (Assignment (ID)(ID))(BinaryOp (ID)(ID))(UnaryOp (ID))(Compound (If (BinaryOp (StructRef (ArrayRef (ID)(ID))(ID))(ID))(ExprList (UnaryOp (ID))(Assignment (ID)(ArrayRef (ID)(ID)))(Assignment (ArrayRef (ID)(ID))(ArrayRef (ID)(ID)))(Assignment (ArrayRef (ID)(ID))(ID))))))(ExprList (Assignment (ID)(ArrayRef (ID)(UnaryOp (ID))))(Assignment (ArrayRef (ID)(ID))(ArrayRef (ID)(ID)))(Assignment (ArrayRef (ID)(ID))(ID)))(Return (ID))))(FuncDef (Decl (FuncDecl (ParamList (Decl (PtrDecl (TypeDecl (IdentifierType))))(Decl (TypeDecl (IdentifierType)))(Decl (TypeDecl (IdentifierType))))(TypeDecl (IdentifierType))))(Compound (Decl (TypeDecl (IdentifierType)))(If (BinaryOp (ID)(ID))(Compound (Assignment (ID)(FuncCall (ID)(ExprList (ID)(ID)(ID))))(FuncCall (ID)(ExprList (ID)(ID)(BinaryOp (ID)(Constant))))(FuncCall (ID)(ExprList (ID)(BinaryOp (ID)(Constant))(ID)))))))(Decl (ArrayDecl (TypeDecl (IdentifierType))(Constant)))(FuncDef (Decl (FuncDecl (TypeDecl (IdentifierType))))(Compound (Decl (TypeDecl (IdentifierType)))(Decl (TypeDecl (IdentifierType)))(Decl (TypeDecl (IdentifierType)))(Assignment (ID)(FuncCall (ID)))(For (Assignment (ID)(Constant))(BinaryOp (ID)(ID))(UnaryOp (ID))(Compound (ExprList (Assignment (StructRef (ArrayRef (ID)(ID))(ID))(FuncCall (ID)))(FuncCall (ID)))(ExprList (Assignment (StructRef (ArrayRef (ID)(ID))(ID))(FuncCall (ID)))(Assignment (StructRef (ArrayRef (ID)(ID))(ID))(ID)))))(FuncCall (ID)(ExprList (ID)(Constant)(BinaryOp (ID)(Constant))))(Assignment (ID)(Constant))(For (Assignment (ID)(Constant))(BinaryOp (ID)(ID))(UnaryOp (ID))(Compound (If (BinaryOp (BinaryOp (StructRef (ArrayRef (ID)(BinaryOp (ID)(Constant)))(ID))(StructRef (ArrayRef (ID)(ID))(ID)))(BinaryOp (StructRef (ArrayRef (ID)(BinaryOp (ID)(Constant)))(ID))(StructRef (ArrayRef (ID)(ID))(ID))))(Compound (Assignment (ID)(Constant))(Break)))))(FuncCall (ID)(ExprList (TernaryOp (ID)(Constant)(Constant))))(For (Assignment (ID)(Constant))(BinaryOp (ID)(ID))(UnaryOp (ID))(Compound (ExprList (FuncCall (ID)(ExprList (StructRef (ArrayRef (ID)(ID))(ID))))(FuncCall (ID)(ExprList (Constant)))(FuncCall (ID)(ExprList (StructRef (ArrayRef (ID)(ID))(ID))))(FuncCall (ID)(ExprList (Constant))))))(Return (Constant))))) |ET| 
-0.78426294127137230471902284989483  |BT| (FileAST (Decl (Struct (Decl (ArrayDecl (TypeDecl (IdentifierType))(Constant)))(Decl (TypeDecl (IdentifierType)))(Decl (TypeDecl (IdentifierType)))))(Decl (ArrayDecl (TypeDecl (Struct))(Constant)))(FuncDef (Decl (FuncDecl (ParamList (Decl (ArrayDecl (TypeDecl (Struct))))(Decl (TypeDecl (IdentifierType))))(TypeDecl (IdentifierType))))(Compound (Decl (TypeDecl (IdentifierType))(Constant))(Decl (TypeDecl (IdentifierType)))(For (Assignment (ID)(Constant))(BinaryOp (ID)(ID))(UnaryOp (ID))(Compound (If (BinaryOp (BinaryOp (StructRef (ArrayRef (ID)(ID))(ID))(StructRef (ArrayRef (ID)(BinaryOp (ID)(Constant)))(ID)))(BinaryOp (StructRef (ArrayRef (ID)(ID))(ID))(StructRef (ArrayRef (ID)(BinaryOp (ID)(Constant)))(ID))))(Compound (Assignment (ID)(Constant))(Break)))))(If (BinaryOp (ID)(Constant))(Compound (FuncCall (ID)(ExprList (Constant))))(Compound (FuncCall (ID)(ExprList (Constant)))))(Return)))(FuncDef (Decl (FuncDecl (ParamList (Decl (ArrayDecl (TypeDecl (Struct))))(Decl (TypeDecl (IdentifierType)))(Decl (TypeDecl (IdentifierType))))(TypeDecl (IdentifierType))))(Compound (Decl (TypeDecl (Struct)))(Decl (TypeDecl (IdentifierType))(StructRef (ArrayRef (ID)(ID))(ID)))(Decl (TypeDecl (IdentifierType))(BinaryOp (ID)(Constant)))(Decl (TypeDecl (IdentifierType)))(Decl (TypeDecl (IdentifierType)))(For (Assignment (ID)(ID))(BinaryOp (ID)(ID))(UnaryOp (ID))(Compound (If (BinaryOp (StructRef (ArrayRef (ID)(ID))(ID))(ID))(Compound (Assignment (ID)(BinaryOp (ID)(Constant)))(Assignment (ID)(ArrayRef (ID)(ID)))(Assignment (ArrayRef (ID)(ID))(ArrayRef (ID)(ID)))(Assignment (ArrayRef (ID)(ID))(ID))))))(Assignment (ID)(ArrayRef (ID)(BinaryOp (ID)(Constant))))(Assignment (ArrayRef (ID)(BinaryOp (ID)(Constant)))(ArrayRef (ID)(ID)))(Assignment (ArrayRef (ID)(ID))(ID))(Return (BinaryOp (ID)(Constant)))))(FuncDef (Decl (FuncDecl (ParamList (Decl (ArrayDecl (TypeDecl (Struct))))(Decl (TypeDecl (IdentifierType)))(Decl (TypeDecl (IdentifierType))))(TypeDecl (IdentifierType))))(Compound (Decl (TypeDecl (IdentifierType)))(If (BinaryOp (ID)(ID))(Compound (Assignment (ID)(FuncCall (ID)(ExprList (ID)(ID)(ID))))(FuncCall (ID)(ExprList (ID)(ID)(BinaryOp (ID)(Constant))))(FuncCall (ID)(ExprList (ID)(BinaryOp (ID)(Constant))(ID)))))))(FuncDef (Decl (FuncDecl (TypeDecl (IdentifierType))))(Compound (Decl (TypeDecl (IdentifierType)))(Decl (TypeDecl (IdentifierType)))(FuncCall (ID)(ExprList (Constant)(UnaryOp (ID))))(For (Assignment (ID)(Constant))(BinaryOp (ID)(ID))(UnaryOp (ID))(Compound (FuncCall (ID)(ExprList (Constant)(StructRef (ArrayRef (ID)(ID))(ID))(UnaryOp (StructRef (ArrayRef (ID)(ID))(ID)))))(Assignment (StructRef (ArrayRef (ID)(ID))(ID))(ID))))(FuncCall (ID)(ExprList (ID)(Constant)(BinaryOp (ID)(Constant))))(FuncCall (ID)(ExprList (ID)(ID)))(For (Assignment (ID)(Constant))(BinaryOp (ID)(ID))(UnaryOp (ID))(Compound (FuncCall (ID)(ExprList (Constant)(StructRef (ArrayRef (ID)(ID))(ID))(StructRef (ArrayRef (ID)(ID))(ID))))))(Return (Constant))))) |ET| 
-0.34512060874790517761567798515898  |BT| (FileAST (Decl (Struct (Decl (TypeDecl (IdentifierType)))(Decl (TypeDecl (IdentifierType)))))(Decl (ArrayDecl (TypeDecl (Struct))(BinaryOp (BinaryOp (Constant)(Constant))(Constant))))(Decl (ArrayDecl (TypeDecl (Struct))(BinaryOp (BinaryOp (Constant)(Constant))(Constant))))(FuncDef (Decl (FuncDecl (ParamList (Decl (ArrayDecl (TypeDecl (Struct))))(Decl (TypeDecl (IdentifierType)))(Decl (TypeDecl (IdentifierType)))(Decl (TypeDecl (IdentifierType)))(Decl (TypeDecl (IdentifierType))))(TypeDecl (IdentifierType))))(Compound (Decl (TypeDecl (IdentifierType)))(Decl (TypeDecl (IdentifierType)))(Decl (TypeDecl (IdentifierType)))(Decl (TypeDecl (IdentifierType))(BinaryOp (ID)(ID)))(Decl (TypeDecl (IdentifierType))(BinaryOp (ID)(ID)))(For (DeclList (Decl (TypeDecl (IdentifierType))(Constant)))(BinaryOp (ID)(ID))(UnaryOp (ID))(Assignment (ArrayRef (ID)(ID))(ArrayRef (ID)(BinaryOp (ID)(ID)))))(For (DeclList (Decl (TypeDecl (IdentifierType))(Constant)))(BinaryOp (ID)(ID))(UnaryOp (ID))(Assignment (ArrayRef (ID)(ID))(ArrayRef (ID)(BinaryOp (ID)(ID)))))(Assignment (StructRef (ArrayRef (ID)(ID))(ID))(Assignment (StructRef (ArrayRef (ID)(ID))(ID))(Constant)))(Assignment (ID)(Assignment (ID)(Constant)))(For (Assignment (ID)(ID))(BinaryOp (ID)(ID))(UnaryOp (ID))(Compound (If (BinaryOp (StructRef (ArrayRef (ID)(ID))(ID))(StructRef (ArrayRef (ID)(ID))(ID)))(Compound (Assignment (ArrayRef (ID)(ID))(ArrayRef (ID)(UnaryOp (ID)))))(Compound (Assignment (ArrayRef (ID)(ID))(ArrayRef (ID)(UnaryOp (ID))))))))))(FuncDef (Decl (FuncDecl (ParamList (Decl (ArrayDecl (TypeDecl (Struct))))(Decl (TypeDecl (IdentifierType)))(Decl (TypeDecl (IdentifierType)))(Decl (TypeDecl (IdentifierType))))(TypeDecl (IdentifierType))))(Compound (If (BinaryOp (BinaryOp (ID)(Constant))(ID))(Compound (Decl (TypeDecl (IdentifierType))(BinaryOp (BinaryOp (ID)(ID))(Constant)))(FuncCall (ID)(ExprList (ID)(ID)(ID)(ID)))(FuncCall (ID)(ExprList (ID)(ID)(ID)(ID)))(FuncCall (ID)(ExprList (ID)(ID)(ID)(ID)(ID)))))))(FuncDef (Decl (FuncDecl (ParamList (Decl (ArrayDecl (TypeDecl (Struct))))(Decl (TypeDecl (IdentifierType)))(Decl (TypeDecl (IdentifierType)))(Decl (TypeDecl (IdentifierType))))(TypeDecl (IdentifierType))))(Compound (Decl (TypeDecl (IdentifierType)))(Decl (TypeDecl (IdentifierType)))(Decl (TypeDecl (Struct)))(Decl (TypeDecl (Struct)))(Assignment (ID)(ArrayRef (ID)(ID)))(Assignment (ID)(BinaryOp (ID)(Constant)))(For (Assignment (ID)(ID))(BinaryOp (ID)(ID))(UnaryOp (ID))(Compound (If (BinaryOp (StructRef (ArrayRef (ID)(ID))(ID))(StructRef (ID)(ID)))(Compound (UnaryOp (ID))(Assignment (ID)(ArrayRef (ID)(ID)))(Assignment (ArrayRef (ID)(ID))(ArrayRef (ID)(ID)))(Assignment (ArrayRef (ID)(ID))(ID))))))(Assignment (ID)(ArrayRef (ID)(BinaryOp (ID)(Constant))))(Assignment (ArrayRef (ID)(BinaryOp (ID)(Constant)))(ArrayRef (ID)(ID)))(Assignment (ArrayRef (ID)(ID))(ID))(Return (BinaryOp (ID)(Constant)))))(FuncDef (Decl (FuncDecl (ParamList (Decl (ArrayDecl (TypeDecl (Struct))))(Decl (TypeDecl (IdentifierType)))(Decl (TypeDecl (IdentifierType)))(Decl (TypeDecl (IdentifierType))))(TypeDecl (IdentifierType))))(Compound (Decl (TypeDecl (IdentifierType)))(If (BinaryOp (ID)(ID))(Compound (Assignment (ID)(FuncCall (ID)(ExprList (ID)(ID)(ID)(ID))))(FuncCall (ID)(ExprList (ID)(ID)(ID)(BinaryOp (ID)(Constant))))(FuncCall (ID)(ExprList (ID)(ID)(BinaryOp (ID)(Constant))(ID)))))))(FuncDef (Decl (FuncDecl (TypeDecl (IdentifierType))))(Compound (Decl (TypeDecl (IdentifierType)))(Decl (TypeDecl (IdentifierType)))(Decl (TypeDecl (IdentifierType)))(Decl (ArrayDecl (TypeDecl (Struct))(Constant)))(Decl (ArrayDecl (TypeDecl (Struct))(Constant)))(Decl (ArrayDecl (TypeDecl (IdentifierType))(Constant)))(Decl (TypeDecl (IdentifierType))(Constant))(FuncCall (ID)(ExprList (Constant)(UnaryOp (ID))))(For (Assignment (ID)(Constant))(BinaryOp (ID)(ID))(UnaryOp (ID))(Compound (FuncCall (ID)(ExprList (Constant)(ID)(UnaryOp (ID))))(Assignment (StructRef (ArrayRef (ID)(ID))(ID))(Assignment (StructRef (ArrayRef (ID)(ID))(ID))(ArrayRef (ID)(Constant))))(Assignment (StructRef (ArrayRef (ID)(ID))(ID))(Assignment (StructRef (ArrayRef (ID)(ID))(ID))(ID)))))(FuncCall (ID)(ExprList (ID)(ID)(Constant)(ID)))(FuncCall (ID)(ExprList (ID)(ID)(Constant)(BinaryOp (ID)(Constant))))(For (Assignment (ID)(Constant))(BinaryOp (ID)(ID))(UnaryOp (ID))(Compound (If (BinaryOp (StructRef (ArrayRef (ID)(ID))(ID))(StructRef (ArrayRef (ID)(ID))(ID)))(Assignment (ID)(Constant)))))(If (BinaryOp (ID)(Constant))(FuncCall (ID)(ExprList (Constant)))(FuncCall (ID)(ExprList (Constant))))(For (Assignment (ID)(Constant))(BinaryOp (ID)(ID))(UnaryOp (ID))(Compound (FuncCall (ID)(ExprList (Constant)(StructRef (ArrayRef (ID)(ID))(ID))(StructRef (ArrayRef (ID)(ID))(ID))))))(Return (Constant))))) |ET| 
-0.17687153389582757623266218161007  |BT| (FileAST (Decl (Struct (Decl (TypeDecl (IdentifierType)))(Decl (TypeDecl (IdentifierType)))))(Decl (ArrayDecl (TypeDecl (Struct))(BinaryOp (BinaryOp (Constant)(Constant))(Constant))))(Decl (ArrayDecl (TypeDecl (Struct))(BinaryOp (BinaryOp (Constant)(Constant))(Constant))))(FuncDef (Decl (FuncDecl (ParamList (Decl (ArrayDecl (TypeDecl (Struct))))(Decl (TypeDecl (IdentifierType)))(Decl (TypeDecl (IdentifierType)))(Decl (TypeDecl (IdentifierType)))(Decl (TypeDecl (IdentifierType))))(TypeDecl (IdentifierType))))(Compound (Decl (TypeDecl (IdentifierType)))(Decl (TypeDecl (IdentifierType)))(Decl (TypeDecl (IdentifierType)))(Decl (TypeDecl (IdentifierType))(BinaryOp (ID)(ID)))(Decl (TypeDecl (IdentifierType))(BinaryOp (ID)(ID)))(For (Assignment (ID)(Constant))(BinaryOp (ID)(ID))(UnaryOp (ID))(Assignment (ArrayRef (ID)(ID))(ArrayRef (ID)(BinaryOp (ID)(ID)))))(For (Assignment (ID)(Constant))(BinaryOp (ID)(ID))(UnaryOp (ID))(Assignment (ArrayRef (ID)(ID))(ArrayRef (ID)(BinaryOp (ID)(ID)))))(Assignment (StructRef (ArrayRef (ID)(ID))(ID))(Assignment (StructRef (ArrayRef (ID)(ID))(ID))(Constant)))(Assignment (ID)(Assignment (ID)(Constant)))(For (Assignment (ID)(ID))(BinaryOp (ID)(ID))(UnaryOp (ID))(Compound (If (BinaryOp (StructRef (ArrayRef (ID)(ID))(ID))(StructRef (ArrayRef (ID)(ID))(ID)))(Compound (Assignment (ArrayRef (ID)(ID))(ArrayRef (ID)(UnaryOp (ID)))))(Compound (Assignment (ArrayRef (ID)(ID))(ArrayRef (ID)(UnaryOp (ID))))))))))(FuncDef (Decl (FuncDecl (ParamList (Decl (ArrayDecl (TypeDecl (Struct))))(Decl (TypeDecl (IdentifierType)))(Decl (TypeDecl (IdentifierType)))(Decl (TypeDecl (IdentifierType))))(TypeDecl (IdentifierType))))(Compound (If (BinaryOp (BinaryOp (ID)(Constant))(ID))(Compound (Decl (TypeDecl (IdentifierType))(BinaryOp (BinaryOp (ID)(ID))(Constant)))(FuncCall (ID)(ExprList (ID)(ID)(ID)(ID)))(FuncCall (ID)(ExprList (ID)(ID)(ID)(ID)))(FuncCall (ID)(ExprList (ID)(ID)(ID)(ID)(ID)))))))(FuncDef (Decl (FuncDecl (ParamList (Decl (ArrayDecl (TypeDecl (Struct))))(Decl (TypeDecl (IdentifierType)))(Decl (TypeDecl (IdentifierType)))(Decl (TypeDecl (IdentifierType))))(TypeDecl (IdentifierType))))(Compound (Decl (TypeDecl (IdentifierType)))(Decl (TypeDecl (IdentifierType)))(Decl (TypeDecl (Struct)))(Decl (TypeDecl (Struct)))(Assignment (ID)(ArrayRef (ID)(ID)))(Assignment (ID)(BinaryOp (ID)(Constant)))(For (Assignment (ID)(ID))(BinaryOp (ID)(ID))(UnaryOp (ID))(Compound (If (BinaryOp (StructRef (ArrayRef (ID)(ID))(ID))(StructRef (ID)(ID)))(Compound (UnaryOp (ID))(Assignment (ID)(ArrayRef (ID)(ID)))(Assignment (ArrayRef (ID)(ID))(ArrayRef (ID)(ID)))(Assignment (ArrayRef (ID)(ID))(ID))))))(Assignment (ID)(ArrayRef (ID)(BinaryOp (ID)(Constant))))(Assignment (ArrayRef (ID)(BinaryOp (ID)(Constant)))(ArrayRef (ID)(ID)))(Assignment (ArrayRef (ID)(ID))(ID))(Return (BinaryOp (ID)(Constant)))))(FuncDef (Decl (FuncDecl (ParamList (Decl (ArrayDecl (TypeDecl (Struct))))(Decl (TypeDecl (IdentifierType)))(Decl (TypeDecl (IdentifierType)))(Decl (TypeDecl (IdentifierType))))(TypeDecl (IdentifierType))))(Compound (Decl (TypeDecl (IdentifierType)))(If (BinaryOp (ID)(ID))(Compound (Assignment (ID)(FuncCall (ID)(ExprList (ID)(ID)(ID)(ID))))(FuncCall (ID)(ExprList (ID)(ID)(ID)(BinaryOp (ID)(Constant))))(FuncCall (ID)(ExprList (ID)(ID)(BinaryOp (ID)(Constant))(ID)))))))(FuncDef (Decl (FuncDecl (TypeDecl (IdentifierType))))(Compound (Decl (TypeDecl (IdentifierType)))(Decl (TypeDecl (IdentifierType)))(Decl (TypeDecl (IdentifierType)))(Decl (ArrayDecl (TypeDecl (Struct))(Constant)))(Decl (ArrayDecl (TypeDecl (Struct))(Constant)))(Decl (ArrayDecl (TypeDecl (IdentifierType))(Constant)))(Decl (TypeDecl (IdentifierType))(Constant))(FuncCall (ID)(ExprList (Constant)(UnaryOp (ID))))(For (Assignment (ID)(Constant))(BinaryOp (ID)(ID))(UnaryOp (ID))(Compound (FuncCall (ID)(ExprList (Constant)(ID)(UnaryOp (ID))))(Assignment (StructRef (ArrayRef (ID)(ID))(ID))(Assignment (StructRef (ArrayRef (ID)(ID))(ID))(ArrayRef (ID)(Constant))))(Assignment (StructRef (ArrayRef (ID)(ID))(ID))(Assignment (StructRef (ArrayRef (ID)(ID))(ID))(ID)))))(FuncCall (ID)(ExprList (ID)(ID)(Constant)(ID)))(FuncCall (ID)(ExprList (ID)(ID)(Constant)(BinaryOp (ID)(Constant))))(For (Assignment (ID)(Constant))(BinaryOp (ID)(ID))(UnaryOp (ID))(Compound (If (BinaryOp (StructRef (ArrayRef (ID)(ID))(ID))(StructRef (ArrayRef (ID)(ID))(ID)))(Assignment (ID)(Constant)))))(If (BinaryOp (ID)(Constant))(FuncCall (ID)(ExprList (Constant)))(FuncCall (ID)(ExprList (Constant))))(For (Assignment (ID)(Constant))(BinaryOp (ID)(ID))(UnaryOp (ID))(Compound (FuncCall (ID)(ExprList (Constant)(StructRef (ArrayRef (ID)(ID))(ID))(StructRef (ArrayRef (ID)(ID))(ID))))))(Return (Constant))))) |ET| 
-0.40140055208376657081004168503569  |BT| (FileAST (Decl (ArrayDecl (TypeDecl (IdentifierType))(Constant)))(Decl (ArrayDecl (TypeDecl (IdentifierType))(Constant)))(Decl (FuncDecl (ParamList (Typename (PtrDecl (TypeDecl (IdentifierType))))(Typename (TypeDecl (IdentifierType)))(Typename (TypeDecl (IdentifierType)))(Typename (TypeDecl (IdentifierType))))(TypeDecl (IdentifierType))))(Decl (FuncDecl (ParamList (Typename (PtrDecl (TypeDecl (IdentifierType))))(Typename (TypeDecl (IdentifierType)))(Typename (TypeDecl (IdentifierType)))(Typename (TypeDecl (IdentifierType))))(TypeDecl (IdentifierType))))(Decl (FuncDecl (ParamList (Typename (PtrDecl (TypeDecl (IdentifierType))))(Typename (TypeDecl (IdentifierType)))(Typename (TypeDecl (IdentifierType)))(Typename (TypeDecl (IdentifierType)))(Typename (TypeDecl (IdentifierType))))(TypeDecl (IdentifierType))))(Decl (FuncDecl (ParamList (Typename (PtrDecl (TypeDecl (IdentifierType))))(Typename (TypeDecl (IdentifierType)))(Typename (TypeDecl (IdentifierType)))(Typename (TypeDecl (IdentifierType))))(TypeDecl (IdentifierType))))(FuncDef (Decl (FuncDecl (TypeDecl (IdentifierType))))(Compound (Decl (TypeDecl (IdentifierType)))(Decl (TypeDecl (IdentifierType)))(Decl (TypeDecl (IdentifierType)))(Decl (ArrayDecl (TypeDecl (IdentifierType))(Constant)))(Decl (ArrayDecl (TypeDecl (IdentifierType))(Constant)))(Decl (ArrayDecl (TypeDecl (IdentifierType))(Constant)))(Decl (TypeDecl (IdentifierType))(Constant))(FuncCall (ID)(ExprList (Constant)(UnaryOp (ID))))(For (Assignment (ID)(Constant))(BinaryOp (ID)(ID))(UnaryOp (ID))(Compound (FuncCall (ID)(ExprList (Constant)(ID)(UnaryOp (ID))))(Assignment (StructRef (ArrayRef (ID)(ID))(ID))(Assignment (StructRef (ArrayRef (ID)(ID))(ID))(ArrayRef (ID)(Constant))))(Assignment (StructRef (ArrayRef (ID)(ID))(ID))(Assignment (StructRef (ArrayRef (ID)(ID))(ID))(ID)))))(FuncCall (ID)(ExprList (ID)(ID)(Constant)(ID)))(FuncCall (ID)(ExprList (ID)(ID)(Constant)(BinaryOp (ID)(Constant))))(For (Assignment (ID)(Constant))(BinaryOp (ID)(ID))(UnaryOp (ID))(Compound (If (BinaryOp (StructRef (ArrayRef (ID)(ID))(ID))(StructRef (ArrayRef (ID)(ID))(ID)))(Assignment (ID)(Constant)))))(If (BinaryOp (ID)(Constant))(FuncCall (ID)(ExprList (Constant)))(FuncCall (ID)(ExprList (Constant))))(For (Assignment (ID)(Constant))(BinaryOp (ID)(ID))(UnaryOp (ID))(FuncCall (ID)(ExprList (Constant)(StructRef (ArrayRef (ID)(ID))(ID))(StructRef (ArrayRef (ID)(ID))(ID)))))(Return (Constant))))(FuncDef (Decl (FuncDecl (ParamList (Decl (ArrayDecl (TypeDecl (IdentifierType))))(Decl (TypeDecl (IdentifierType)))(Decl (TypeDecl (IdentifierType)))(Decl (TypeDecl (IdentifierType))))(TypeDecl (IdentifierType))))(Compound (Decl (TypeDecl (IdentifierType)))(Decl (TypeDecl (IdentifierType)))(Decl (TypeDecl (IdentifierType)))(Decl (TypeDecl (IdentifierType)))(Assignment (ID)(ArrayRef (ID)(ID)))(Assignment (ID)(BinaryOp (ID)(Constant)))(For (Assignment (ID)(ID))(BinaryOp (ID)(ID))(UnaryOp (ID))(Compound (If (BinaryOp (StructRef (ArrayRef (ID)(ID))(ID))(StructRef (ID)(ID)))(Compound (UnaryOp (ID))(Assignment (ID)(ArrayRef (ID)(ID)))(Assignment (ArrayRef (ID)(ID))(ArrayRef (ID)(ID)))(Assignment (ArrayRef (ID)(ID))(ID))))))(Assignment (ID)(ArrayRef (ID)(BinaryOp (ID)(Constant))))(Assignment (ArrayRef (ID)(BinaryOp (ID)(Constant)))(ArrayRef (ID)(ID)))(Assignment (ArrayRef (ID)(ID))(ID))(Return (BinaryOp (ID)(Constant)))))(FuncDef (Decl (FuncDecl (ParamList (Decl (ArrayDecl (TypeDecl (IdentifierType))))(Decl (TypeDecl (IdentifierType)))(Decl (TypeDecl (IdentifierType)))(Decl (TypeDecl (IdentifierType))))(TypeDecl (IdentifierType))))(Compound (Decl (TypeDecl (IdentifierType)))(If (BinaryOp (BinaryOp (ID)(Constant))(ID))(Compound (Assignment (ID)(BinaryOp (BinaryOp (ID)(ID))(Constant)))(FuncCall (ID)(ExprList (ID)(ID)(ID)(ID)))(FuncCall (ID)(ExprList (ID)(ID)(ID)(ID)))(FuncCall (ID)(ExprList (ID)(ID)(ID)(ID)(ID)))))))(FuncDef (Decl (FuncDecl (ParamList (Decl (ArrayDecl (TypeDecl (IdentifierType))))(Decl (TypeDecl (IdentifierType)))(Decl (TypeDecl (IdentifierType)))(Decl (TypeDecl (IdentifierType)))(Decl (TypeDecl (IdentifierType))))(TypeDecl (IdentifierType))))(Compound (Decl (TypeDecl (IdentifierType)))(Decl (TypeDecl (IdentifierType)))(Decl (TypeDecl (IdentifierType)))(Decl (TypeDecl (IdentifierType))(BinaryOp (ID)(ID)))(Decl (TypeDecl (IdentifierType))(BinaryOp (ID)(ID)))(For (Assignment (ID)(Constant))(BinaryOp (ID)(ID))(UnaryOp (ID))(Assignment (ArrayRef (ID)(ID))(ArrayRef (ID)(BinaryOp (ID)(ID)))))(For (Assignment (ID)(Constant))(BinaryOp (ID)(ID))(UnaryOp (ID))(Assignment (ArrayRef (ID)(ID))(ArrayRef (ID)(BinaryOp (ID)(ID)))))(Assignment (StructRef (ArrayRef (ID)(ID))(ID))(Assignment (StructRef (ArrayRef (ID)(ID))(ID))(Constant)))(Assignment (ID)(Assignment (ID)(Constant)))(For (Assignment (ID)(ID))(BinaryOp (ID)(ID))(UnaryOp (ID))(Compound (If (BinaryOp (StructRef (ArrayRef (ID)(ID))(ID))(StructRef (ArrayRef (ID)(ID))(ID)))(Assignment (ArrayRef (ID)(ID))(ArrayRef (ID)(UnaryOp (ID))))(Assignment (ArrayRef (ID)(ID))(ArrayRef (ID)(UnaryOp (ID)))))))))(FuncDef (Decl (FuncDecl (ParamList (Decl (ArrayDecl (TypeDecl (IdentifierType))))(Decl (TypeDecl (IdentifierType)))(Decl (TypeDecl (IdentifierType)))(Decl (TypeDecl (IdentifierType))))(TypeDecl (IdentifierType))))(Compound (Decl (TypeDecl (IdentifierType)))(If (BinaryOp (ID)(ID))(Compound (Assignment (ID)(FuncCall (ID)(ExprList (ID)(ID)(ID)(ID))))(FuncCall (ID)(ExprList (ID)(ID)(ID)(BinaryOp (ID)(Constant))))(FuncCall (ID)(ExprList (ID)(ID)(BinaryOp (ID)(Constant))(ID)))))))) |ET| 
0.40915594973860763827744335685566  |BT| (FileAST (Decl (FuncDecl (ParamList (Typename (PtrDecl (TypeDecl (IdentifierType))))(Typename (TypeDecl (IdentifierType))))(TypeDecl (IdentifierType))))(Decl (FuncDecl (ParamList (Typename (PtrDecl (TypeDecl (IdentifierType))))(Typename (PtrDecl (TypeDecl (IdentifierType)))))(TypeDecl (IdentifierType))))(Decl (TypeDecl (IdentifierType))(Constant))(FuncDef (Decl (FuncDecl (TypeDecl (IdentifierType))))(Compound (Decl (ArrayDecl (TypeDecl (IdentifierType))(Constant)))(Decl (TypeDecl (IdentifierType)))(Decl (TypeDecl (IdentifierType)))(Decl (TypeDecl (IdentifierType)))(FuncCall (ID)(ExprList (Constant)(UnaryOp (ID))))(For (Assignment (ID)(Constant))(BinaryOp (ID)(ID))(UnaryOp (ID))(Compound (FuncCall (ID)(ExprList (Constant)(UnaryOp (ArrayRef (ID)(ID)))))))(FuncCall (ID)(ExprList (ID)(ID)))(For (Assignment (ID)(Constant))(BinaryOp (ID)(ID))(UnaryOp (ID))(Compound (FuncCall (ID)(ExprList (Constant)(ArrayRef (ID)(ID))))(If (BinaryOp (ID)(BinaryOp (ID)(Constant)))(FuncCall (ID)(ExprList (Constant))))))(FuncCall (ID)(ExprList (Constant)))(FuncCall (ID)(ExprList (Constant)(ID)))(FuncCall (ID)(ExprList (Constant)))(Return (Constant))))(FuncDef (Decl (FuncDecl (ParamList (Decl (ArrayDecl (TypeDecl (IdentifierType))))(Decl (TypeDecl (IdentifierType))))(TypeDecl (IdentifierType))))(Compound (Decl (TypeDecl (IdentifierType)))(Decl (TypeDecl (IdentifierType)))(For (Assignment (ID)(Constant))(BinaryOp (ID)(ID))(UnaryOp (ID))(Compound (For (Assignment (ID)(BinaryOp (ID)(Constant)))(BinaryOp (ID)(BinaryOp (ID)(Constant)))(UnaryOp (ID))(Compound (If (BinaryOp (ArrayRef (ID)(ID))(ArrayRef (ID)(BinaryOp (ID)(Constant))))(Compound (FuncCall (ID)(ExprList (UnaryOp (ArrayRef (ID)(ID)))(UnaryOp (ArrayRef (ID)(BinaryOp (ID)(Constant))))))(UnaryOp (ID))))))))))(FuncDef (Decl (FuncDecl (ParamList (Decl (PtrDecl (TypeDecl (IdentifierType))))(Decl (PtrDecl (TypeDecl (IdentifierType)))))(TypeDecl (IdentifierType))))(Compound (Decl (TypeDecl (IdentifierType)))(Assignment (ID)(UnaryOp (ID)))(Assignment (UnaryOp (ID))(UnaryOp (ID)))(Assignment (UnaryOp (ID))(ID))))) |ET| 
0.570328490583623670673318883928  |BT| (FileAST (FuncDef (Decl (FuncDecl (TypeDecl (IdentifierType))))(Compound (Decl (TypeDecl (IdentifierType)))(Decl (TypeDecl (IdentifierType)))(Decl (TypeDecl (IdentifierType)))(Decl (TypeDecl (IdentifierType))(Constant))(Decl (ArrayDecl (TypeDecl (IdentifierType))(BinaryOp (Constant)(Constant))))(Decl (TypeDecl (IdentifierType)))(Decl (TypeDecl (IdentifierType)))(FuncCall (ID)(ExprList (Constant)(UnaryOp (ID))))(For (Assignment (ID)(Constant))(BinaryOp (ID)(ID))(UnaryOp (ID))(Compound (FuncCall (ID)(ExprList (Constant)(UnaryOp (ArrayRef (ID)(ID)))))))(Assignment (ID)(Constant))(Assignment (ID)(Constant))(While (ID)(Compound (Assignment (ID)(Constant))(For (Assignment (ID)(ID))(BinaryOp (ID)(BinaryOp (ID)(Constant)))(UnaryOp (ID))(Compound (If (BinaryOp (ArrayRef (ID)(ID))(ArrayRef (ID)(BinaryOp (ID)(Constant))))(Compound (Assignment (ID)(ArrayRef (ID)(ID)))(Assignment (ArrayRef (ID)(ID))(ArrayRef (ID)(BinaryOp (ID)(Constant))))(Assignment (ArrayRef (ID)(BinaryOp (ID)(Constant)))(ID))(UnaryOp (ID))(Assignment (ID)(Constant))))))(UnaryOp (ID))))(For (Assignment (ID)(Constant))(BinaryOp (ID)(ID))(UnaryOp (ID))(Compound (If (BinaryOp (ID)(ID))(Compound (FuncCall (ID)(ExprList (Constant)(ArrayRef (ID)(ID)))))(FuncCall (ID)(ExprList (Constant)(ArrayRef (ID)(ID)))))))(FuncCall (ID)(ExprList (Constant)))(FuncCall (ID)(ExprList (Constant)(ID)))(Return (Constant))))) |ET| 
0.57070461067768796237231754275854  |BT| (FileAST (FuncDef (Decl (FuncDecl (ParamList (Typename (TypeDecl (IdentifierType))))(TypeDecl (IdentifierType))))(Compound (Decl (TypeDecl (IdentifierType)))(Decl (TypeDecl (IdentifierType)))(Decl (ArrayDecl (TypeDecl (IdentifierType))(Constant)))(FuncCall (ID)(ExprList (Constant)(UnaryOp (ID))))(For (Assignment (ID)(Constant))(BinaryOp (ID)(ID))(UnaryOp (ID))(Compound (FuncCall (ID)(ExprList (Constant)(UnaryOp (ArrayRef (ID)(ID)))))))(Decl (TypeDecl (IdentifierType))(Constant))(Decl (TypeDecl (IdentifierType))(Constant))(Decl (TypeDecl (IdentifierType)))(Decl (TypeDecl (IdentifierType)))(Decl (TypeDecl (IdentifierType)))(DoWhile (BinaryOp (ID)(Constant))(Compound (Assignment (ID)(Constant))(For (Assignment (ID)(BinaryOp (ID)(Constant)))(BinaryOp (ID)(BinaryOp (ID)(Constant)))(UnaryOp (ID))(Compound (If (BinaryOp (ArrayRef (ID)(BinaryOp (ID)(Constant)))(ArrayRef (ID)(ID)))(Compound (Assignment (ID)(ArrayRef (ID)(BinaryOp (ID)(Constant))))(Assignment (ArrayRef (ID)(BinaryOp (ID)(Constant)))(ArrayRef (ID)(ID)))(Assignment (ArrayRef (ID)(ID))(ID))(Assignment (ID)(Constant))(UnaryOp (ID))))))(UnaryOp (ID))))(For (DeclList (Decl (TypeDecl (IdentifierType))(Constant)))(BinaryOp (ID)(BinaryOp (ID)(Constant)))(UnaryOp (ID))(FuncCall (ID)(ExprList (Constant)(ArrayRef (ID)(ID)))))(FuncCall (ID)(ExprList (Constant)(ArrayRef (ID)(BinaryOp (ID)(Constant)))))(FuncCall (ID)(ExprList (Constant)(ID)))(Return (Constant))))) |ET| 
0.20398581009437602440392822700233  |BT| (FileAST (FuncDef (Decl (FuncDecl (TypeDecl (IdentifierType))))(Compound (Decl (TypeDecl (IdentifierType)))(Decl (TypeDecl (IdentifierType)))(Decl (TypeDecl (IdentifierType))(Constant))(Decl (TypeDecl (IdentifierType)))(Decl (ArrayDecl (TypeDecl (IdentifierType))(Constant)))(Decl (TypeDecl (IdentifierType))(Constant))(Decl (TypeDecl (IdentifierType)))(FuncCall (ID)(ExprList (Constant)(UnaryOp (ID))))(For (Assignment (ID)(Constant))(BinaryOp (ID)(ID))(UnaryOp (ID))(Compound (FuncCall (ID)(ExprList (Constant)(UnaryOp (ArrayRef (ID)(ID)))))))(For (Assignment (ID)(Constant))(BinaryOp (ID)(ID))(UnaryOp (ID))(Compound (For (Assignment (ID)(BinaryOp (ID)(Constant)))(BinaryOp (ID)(ID))(UnaryOp (ID))(Compound (If (BinaryOp (ArrayRef (ID)(ID))(ArrayRef (ID)(BinaryOp (ID)(Constant))))(Compound (Assignment (ID)(ArrayRef (ID)(ID)))(Assignment (ArrayRef (ID)(ID))(ArrayRef (ID)(BinaryOp (ID)(Constant))))(Assignment (ArrayRef (ID)(BinaryOp (ID)(Constant)))(ID))(UnaryOp (ID))))))))(For (Assignment (ID)(Constant))(BinaryOp (ID)(ID))(UnaryOp (ID))(Compound (FuncCall (ID)(ExprList (Constant)(ArrayRef (ID)(ID))))(If (BinaryOp (ID)(BinaryOp (ID)(Constant)))(FuncCall (ID)(ExprList (Constant)))(If (BinaryOp (ID)(BinaryOp (ID)(Constant)))(FuncCall (ID)(ExprList (Constant)))))))(FuncCall (ID)(ExprList (Constant)(ID)))(Return (Constant))))) |ET| 
0.3071520365136846120179825447849  |BT| (FileAST (FuncDef (Decl (FuncDecl (TypeDecl (IdentifierType))))(Compound (Decl (TypeDecl (IdentifierType)))(Decl (TypeDecl (IdentifierType)))(Decl (TypeDecl (IdentifierType)))(Decl (TypeDecl (IdentifierType)))(Decl (TypeDecl (IdentifierType)))(Decl (ArrayDecl (TypeDecl (IdentifierType))(Constant)))(FuncCall (ID)(ExprList (Constant)(UnaryOp (ID))))(For (Assignment (ID)(Constant))(BinaryOp (ID)(ID))(UnaryOp (ID))(Compound (FuncCall (ID)(ExprList (Constant)(UnaryOp (ArrayRef (ID)(ID)))))))(Assignment (ID)(Constant))(Assignment (ID)(Constant))(While (BinaryOp (ID)(Constant))(Compound (Assignment (ID)(Constant))(For (Assignment (ID)(BinaryOp (ID)(Constant)))(BinaryOp (ID)(Constant))(UnaryOp (ID))(Compound (If (BinaryOp (ArrayRef (ID)(BinaryOp (ID)(Constant)))(ArrayRef (ID)(ID)))(Compound (Assignment (ID)(ArrayRef (ID)(ID)))(Assignment (ArrayRef (ID)(ID))(ArrayRef (ID)(BinaryOp (ID)(Constant))))(Assignment (ArrayRef (ID)(BinaryOp (ID)(Constant)))(ID))(UnaryOp (ID))(Assignment (ID)(Constant))))))))(For (Assignment (ID)(Constant))(BinaryOp (ID)(BinaryOp (ID)(Constant)))(UnaryOp (ID))(Compound (FuncCall (ID)(ExprList (Constant)(ArrayRef (ID)(ID))))))(FuncCall (ID)(ExprList (Constant)(ArrayRef (ID)(BinaryOp (ID)(Constant)))))(FuncCall (ID)(ExprList (Constant)(ID)))(Return (Constant))))) |ET| 
-1  |BT| (FileAST (FuncDef (Decl (FuncDecl (ParamList (Decl (PtrDecl (TypeDecl (IdentifierType))))(Decl (PtrDecl (TypeDecl (IdentifierType)))))(TypeDecl (IdentifierType))))(Compound (Decl (TypeDecl (IdentifierType))(UnaryOp (ID)))(ExprList (Assignment (UnaryOp (ID))(UnaryOp (ID)))(Assignment (UnaryOp (ID))(ID)))))(FuncDef (Decl (FuncDecl (ParamList (Decl (PtrDecl (TypeDecl (IdentifierType))))(Decl (TypeDecl (IdentifierType)))(Decl (TypeDecl (IdentifierType))))(TypeDecl (IdentifierType))))(Compound (Decl (TypeDecl (IdentifierType))(StructRef (ArrayRef (ID)(ID))(ID)))(Decl (TypeDecl (IdentifierType))(BinaryOp (ID)(Constant)))(Decl (TypeDecl (IdentifierType)))(For (Assignment (ID)(ID))(BinaryOp (ID)(ID))(UnaryOp (ID))(Compound (If (BinaryOp (StructRef (ArrayRef (ID)(ID))(ID))(ID))(Compound (Assignment (ID)(BinaryOp (ID)(Constant)))(FuncCall (ID)(ExprList (UnaryOp (ArrayRef (ID)(ID)))(UnaryOp (ArrayRef (ID)(ID)))))))))(FuncCall (ID)(ExprList (UnaryOp (ArrayRef (ID)(BinaryOp (ID)(Constant))))(UnaryOp (ArrayRef (ID)(ID)))))(Return (BinaryOp (ID)(Constant)))))(FuncDef (Decl (FuncDecl (ParamList (Decl (PtrDecl (TypeDecl (IdentifierType))))(Decl (TypeDecl (IdentifierType)))(Decl (TypeDecl (IdentifierType))))(TypeDecl (IdentifierType))))(Compound (If (BinaryOp (ID)(ID))(Compound (Decl (TypeDecl (IdentifierType))(FuncCall (ID)(ExprList (ID)(ID)(ID))))(FuncCall (ID)(ExprList (ID)(ID)(BinaryOp (ID)(Constant))))(FuncCall (ID)(ExprList (ID)(BinaryOp (ID)(Constant))(ID)))))))(FuncDef (Decl (FuncDecl (ParamList (Decl (PtrDecl (TypeDecl (IdentifierType))))(Decl (TypeDecl (IdentifierType))))(TypeDecl (IdentifierType))))(Compound (Decl (TypeDecl (IdentifierType)))(For (Assignment (ID)(Constant))(BinaryOp (ID)(BinaryOp (ID)(Constant)))(UnaryOp (ID))(Compound (If (BinaryOp (BinaryOp (StructRef (ArrayRef (ID)(ID))(ID))(StructRef (ArrayRef (ID)(BinaryOp (ID)(Constant)))(ID)))(BinaryOp (StructRef (ArrayRef (ID)(ID))(ID))(StructRef (ArrayRef (ID)(BinaryOp (ID)(Constant)))(ID))))(Return (Constant)))))(Return (Constant))))(FuncDef (Decl (FuncDecl (ParamList (Typename (TypeDecl (IdentifierType))))(TypeDecl (IdentifierType))))(Compound (Decl (TypeDecl (IdentifierType)))(Decl (TypeDecl (IdentifierType)))(Decl (ArrayDecl (TypeDecl (IdentifierType))(Constant)))(FuncCall (ID)(ExprList (Constant)(UnaryOp (ID))))(For (Assignment (ID)(Constant))(BinaryOp (ID)(ID))(UnaryOp (ID))(Compound (FuncCall (ID)(ExprList (Constant)(UnaryOp (StructRef (ArrayRef (ID)(ID))(ID)))(UnaryOp (StructRef (ArrayRef (ID)(ID))(ID)))))(Assignment (StructRef (ArrayRef (ID)(ID))(ID))(ID))))(FuncCall (ID)(ExprList (ID)(Constant)(BinaryOp (ID)(Constant))))(FuncCall (ID)(ExprList (Constant)(TernaryOp (FuncCall (ID)(ExprList (ID)(ID)))(Constant)(Constant))))(For (Assignment (ID)(Constant))(BinaryOp (ID)(ID))(UnaryOp (ID))(FuncCall (ID)(ExprList (Constant)(StructRef (ArrayRef (ID)(ID))(ID))(StructRef (ArrayRef (ID)(ID))(ID)))))(Return (Constant))))) |ET| 
1  |BT| (FileAST (FuncDef (Decl (FuncDecl (ParamList (Decl (PtrDecl (TypeDecl (IdentifierType))))(Decl (TypeDecl (IdentifierType))))(PtrDecl (TypeDecl (IdentifierType)))))(Compound (Decl (PtrDecl (TypeDecl (IdentifierType))))(Decl (PtrDecl (TypeDecl (IdentifierType))))(Decl (TypeDecl (IdentifierType)))(Assignment (ID)(Cast (Typename (PtrDecl (TypeDecl (IdentifierType))))(FuncCall (ID)(ExprList (BinaryOp (UnaryOp (Typename (TypeDecl (IdentifierType))))(ID))))))(If (BinaryOp (ID)(Constant))(Return (Constant)))(Assignment (ID)(ID))(While (Constant)(Compound (Assignment (ID)(FuncCall (ID)(ExprList (ID)(Constant)(UnaryOp (ID)))))(If (BinaryOp (ID)(Constant))(FuncCall (ID)(ExprList (Constant))))(If (BinaryOp (ID)(ID))(Break))))(Return (ID))))(FuncDef (Decl (FuncDecl (ParamList (Decl (PtrDecl (TypeDecl (IdentifierType))))(Decl (TypeDecl (IdentifierType))))(TypeDecl (IdentifierType))))(Compound (Decl (TypeDecl (IdentifierType)))(For (Assignment (ID)(Constant))(BinaryOp (ID)(ID))(UnaryOp (ID))(Compound (If (BinaryOp (ID)(Constant))(FuncCall (ID)(ExprList (ID)(Constant))))(FuncCall (ID)(ExprList (ID)(Constant)(ArrayRef (ID)(ID))))))(FuncCall (ID)(ExprList (ID)(Constant)))))(FuncDef (Decl (FuncDecl (ParamList (Decl (PtrDecl (TypeDecl (IdentifierType))))(Decl (TypeDecl (IdentifierType))))(TypeDecl (IdentifierType))))(Compound (Decl (TypeDecl (IdentifierType)))(Decl (TypeDecl (IdentifierType)))(Decl (TypeDecl (IdentifierType)))(Decl (TypeDecl (IdentifierType)))(Assignment (ID)(Constant))(Assignment (ID)(Constant))(While (ID)(Compound (Assignment (ID)(Constant))(For (Assignment (ID)(BinaryOp (ID)(Constant)))(BinaryOp (ID)(Constant))(UnaryOp (ID))(Compound (If (BinaryOp (ArrayRef (ID)(BinaryOp (ID)(Constant)))(ArrayRef (ID)(ID)))(Compound (Assignment (ID)(ArrayRef (ID)(ID)))(Assignment (ArrayRef (ID)(ID))(ArrayRef (ID)(BinaryOp (ID)(Constant))))(Assignment (ArrayRef (ID)(BinaryOp (ID)(Constant)))(ID))(Assignment (ID)(Constant))(UnaryOp (ID))))))))(Return (ID))))(FuncDef (Decl (FuncDecl (ParamList (Decl (TypeDecl (IdentifierType)))(Decl (PtrDecl (PtrDecl (TypeDecl (IdentifierType))))))(TypeDecl (IdentifierType))))(Compound (Decl (PtrDecl (TypeDecl (IdentifierType))))(Decl (TypeDecl (IdentifierType)))(Decl (TypeDecl (IdentifierType)))(Decl (TypeDecl (IdentifierType)))(Assignment (ID)(FuncCall (ID)(ExprList (ID)(Constant)(UnaryOp (ID)))))(If (BinaryOp (ID)(Constant))(FuncCall (ID)(ExprList (Constant))))(If (BinaryOp (ID)(Constant))(FuncCall (ID)(ExprList (Constant))))(Assignment (ID)(FuncCall (ID)(ExprList (ID)(ID))))(If (BinaryOp (ID)(Constant))(FuncCall (ID)(ExprList (Constant))))(Assignment (ID)(FuncCall (ID)(ExprList (ID)(ID))))(FuncCall (ID)(ExprList (ID)(ID)))(FuncCall (ID)(ExprList (ID)(Constant)(ID)))(FuncCall (ID)(ExprList (ID)))(Assignment (ID)(Constant))(FuncCall (ID)(ExprList (Constant)))))) |ET| 
-1  |BT| (FileAST (Decl (ArrayDecl (TypeDecl (IdentifierType))(Constant)))(FuncDef (Decl (FuncDecl (ParamList (Decl (TypeDecl (IdentifierType)))(Decl (TypeDecl (IdentifierType))))(TypeDecl (IdentifierType))))(Compound (Decl (TypeDecl (IdentifierType))(StructRef (ArrayRef (ID)(ID))(ID)))(Decl (TypeDecl (IdentifierType)))(Decl (TypeDecl (IdentifierType)))(Decl (TypeDecl (IdentifierType)))(Assignment (ID)(BinaryOp (ID)(Constant)))(For (Assignment (ID)(ID))(BinaryOp (ID)(ID))(UnaryOp (ID))(Compound (If (BinaryOp (StructRef (ArrayRef (ID)(ID))(ID))(ID))(Compound (UnaryOp (ID))(Assignment (ID)(ArrayRef (ID)(ID)))(Assignment (ArrayRef (ID)(ID))(ArrayRef (ID)(ID)))(Assignment (ArrayRef (ID)(ID))(ID))))))(Assignment (ID)(ArrayRef (ID)(BinaryOp (ID)(Constant))))(Assignment (ArrayRef (ID)(BinaryOp (ID)(Constant)))(ArrayRef (ID)(ID)))(Assignment (ArrayRef (ID)(ID))(ID))(Return (BinaryOp (ID)(Constant)))))(FuncDef (Decl (FuncDecl (ParamList (Decl (TypeDecl (IdentifierType)))(Decl (TypeDecl (IdentifierType))))(TypeDecl (IdentifierType))))(Compound (Decl (TypeDecl (IdentifierType)))(If (BinaryOp (ID)(ID))(Compound (Assignment (ID)(FuncCall (ID)(ExprList (ID)(ID))))(FuncCall (ID)(ExprList (ID)(BinaryOp (ID)(Constant))))(FuncCall (ID)(ExprList (BinaryOp (ID)(Constant))(ID)))))))(FuncDef (Decl (FuncDecl (TypeDecl (IdentifierType))))(Compound (Decl (TypeDecl (IdentifierType)))(Decl (TypeDecl (IdentifierType)))(FuncCall (ID)(ExprList (Constant)(UnaryOp (ID))))(For (Assignment (ID)(Constant))(BinaryOp (ID)(ID))(UnaryOp (ID))(Compound (FuncCall (ID)(ExprList (Constant)(UnaryOp (StructRef (ArrayRef (ID)(ID))(ID)))(UnaryOp (StructRef (ArrayRef (ID)(ID))(ID)))))(Assignment (StructRef (ArrayRef (ID)(ID))(ID))(ID))))(FuncCall (ID)(ExprList (Constant)(BinaryOp (ID)(Constant))))(For (Assignment (ID)(Constant))(BinaryOp (ID)(ID))(UnaryOp (ID))(Compound (If (BinaryOp (StructRef (ArrayRef (ID)(ID))(ID))(StructRef (ArrayRef (ID)(BinaryOp (ID)(Constant)))(ID)))(Compound (If (BinaryOp (StructRef (ArrayRef (ID)(ID))(ID))(StructRef (ArrayRef (ID)(BinaryOp (ID)(Constant)))(ID)))(Compound (FuncCall (ID)(ExprList (Constant)))(Break)))))))(If (BinaryOp (ID)(ID))(FuncCall (ID)(ExprList (Constant))))(For (Assignment (ID)(Constant))(BinaryOp (ID)(ID))(UnaryOp (ID))(Compound (FuncCall (ID)(ExprList (Constant)(StructRef (ArrayRef (ID)(ID))(ID))(StructRef (ArrayRef (ID)(ID))(ID))))))(Return (Constant))))) |ET| 
1  |BT| (FileAST (FuncDef (Decl (FuncDecl (TypeDecl (IdentifierType))))(Compound (Decl (TypeDecl (IdentifierType)))(Decl (TypeDecl (IdentifierType)))(Decl (TypeDecl (IdentifierType)))(Decl (ArrayDecl (TypeDecl (IdentifierType))(Constant)))(Decl (TypeDecl (IdentifierType))(Constant))(Decl (TypeDecl (IdentifierType)))(Decl (TypeDecl (IdentifierType)))(Decl (TypeDecl (IdentifierType))(Constant))(FuncCall (ID)(ExprList (Constant)(UnaryOp (ID))))(For (Assignment (ID)(Constant))(BinaryOp (ID)(ID))(UnaryOp (ID))(Compound (FuncCall (ID)(ExprList (Constant)(UnaryOp (ArrayRef (ID)(ID)))))))(Assignment (ID)(Constant))(Assignment (ID)(Constant))(While (ID)(Compound (Assignment (ID)(Constant))(For (Assignment (ID)(BinaryOp (ID)(Constant)))(BinaryOp (ID)(BinaryOp (ID)(Constant)))(UnaryOp (ID))(Compound (If (BinaryOp (ArrayRef (ID)(BinaryOp (ID)(Constant)))(ArrayRef (ID)(ID)))(Compound (Assignment (ID)(ArrayRef (ID)(ID)))(Assignment (ArrayRef (ID)(ID))(ArrayRef (ID)(BinaryOp (ID)(Constant))))(Assignment (ArrayRef (ID)(BinaryOp (ID)(Constant)))(ID))(Assignment (ID)(Constant))(UnaryOp (ID))))))(UnaryOp (ID))))(For (Assignment (ID)(Constant))(BinaryOp (ID)(BinaryOp (ID)(Constant)))(UnaryOp (ID))(Compound (FuncCall (ID)(ExprList (Constant)(ArrayRef (ID)(ID))))))(FuncCall (ID)(ExprList (Constant)(ArrayRef (ID)(ID))))(FuncCall (ID)(ExprList (Constant)))(FuncCall (ID)(ExprList (Constant)(ID)))(FuncCall (ID)(ExprList (Constant)))(Return (Constant))))) |ET| 
-0.99252759377201704715787400346017  |BT| (FileAST (FuncDef (Decl (FuncDecl (ParamList (Decl (PtrDecl (TypeDecl (IdentifierType))))(Decl (TypeDecl (IdentifierType)))(Decl (TypeDecl (IdentifierType))))(TypeDecl (IdentifierType))))(Compound (Decl (TypeDecl (IdentifierType))(ArrayRef (ID)(ID)))(Decl (TypeDecl (IdentifierType)))(Decl (TypeDecl (IdentifierType)))(For (Assignment (ID)(ID))(BinaryOp (ID)(ID))(UnaryOp (ID))(Compound (If (BinaryOp (StructRef (UnaryOp (ArrayRef (ID)(ID)))(ID))(StructRef (UnaryOp (ID))(ID)))(Continue))(ExprList (Assignment (ID)(ArrayRef (ID)(ID)))(Assignment (ArrayRef (ID)(ID))(ArrayRef (ID)(ID)))(Assignment (ArrayRef (ID)(ID))(ID)))(UnaryOp (ID))))(ExprList (Assignment (ID)(ArrayRef (ID)(ID)))(Assignment (ArrayRef (ID)(ID))(ArrayRef (ID)(ID)))(Assignment (ArrayRef (ID)(ID))(ID)))(Return (ID))))(FuncDef (Decl (FuncDecl (ParamList (Decl (PtrDecl (TypeDecl (IdentifierType))))(Decl (TypeDecl (IdentifierType)))(Decl (TypeDecl (IdentifierType))))(TypeDecl (IdentifierType))))(Compound (If (BinaryOp (ID)(ID))(Compound (Decl (TypeDecl (IdentifierType))(FuncCall (ID)(ExprList (ID)(ID)(ID))))(FuncCall (ID)(ExprList (ID)(ID)(BinaryOp (ID)(Constant))))(FuncCall (ID)(ExprList (ID)(BinaryOp (ID)(Constant))(ID)))))))(FuncDef (Decl (FuncDecl (ParamList (Decl (PtrDecl (TypeDecl (IdentifierType))))(Decl (TypeDecl (IdentifierType))))(TypeDecl (IdentifierType))))(Compound (Decl (TypeDecl (IdentifierType)))(For (Assignment (ID)(Constant))(BinaryOp (ID)(ID))(UnaryOp (ID))(If (BinaryOp (BinaryOp (StructRef (ArrayRef (ID)(BinaryOp (ID)(Constant)))(ID))(StructRef (ArrayRef (ID)(ID))(ID)))(BinaryOp (StructRef (ArrayRef (ID)(BinaryOp (ID)(Constant)))(ID))(StructRef (ArrayRef (ID)(ID))(ID))))(Return (Constant))))(Return (Constant))))(FuncDef (Decl (FuncDecl (ParamList (Typename (TypeDecl (IdentifierType))))(TypeDecl (IdentifierType))))(Compound (Decl (TypeDecl (IdentifierType)))(Decl (TypeDecl (IdentifierType)))(Decl (TypeDecl (IdentifierType)))(Decl (PtrDecl (TypeDecl (IdentifierType))))(FuncCall (ID)(ExprList (Constant)(UnaryOp (ID))))(Assignment (ID)(Cast (Typename (PtrDecl (TypeDecl (IdentifierType))))(FuncCall (ID)(ExprList (BinaryOp (UnaryOp (Typename (TypeDecl (IdentifierType))))(ID))))))(If (BinaryOp (ID)(Constant))(Return (Constant)))(For (Assignment (ID)(Constant))(BinaryOp (ID)(ID))(UnaryOp (ID))(ExprList (FuncCall (ID)(ExprList (Constant)(StructRef (ArrayRef (ID)(ID))(ID))(UnaryOp (StructRef (ArrayRef (ID)(ID))(ID)))))(Assignment (StructRef (ArrayRef (ID)(ID))(ID))(ID))))(FuncCall (ID)(ExprList (ID)(Constant)(BinaryOp (ID)(Constant))))(FuncCall (ID)(ExprList (Constant)(TernaryOp (FuncCall (ID)(ExprList (ID)(ID)))(Constant)(Constant))))(For (Assignment (ID)(Constant))(BinaryOp (ID)(ID))(UnaryOp (ID))(FuncCall (ID)(ExprList (Constant)(StructRef (ArrayRef (ID)(ID))(ID))(StructRef (ArrayRef (ID)(ID))(ID)))))(Return (Constant))))) |ET| 
0.93237256755166619814900741403108  |BT| (FileAST (FuncDef (Decl (FuncDecl (TypeDecl (IdentifierType))))(Compound (Decl (TypeDecl (IdentifierType)))(Decl (TypeDecl (IdentifierType)))(Decl (TypeDecl (IdentifierType)))(Decl (TypeDecl (IdentifierType)))(Decl (PtrDecl (TypeDecl (IdentifierType))))(Decl (TypeDecl (IdentifierType)))(FuncCall (ID)(ExprList (Constant)(UnaryOp (ID))))(If (BinaryOp (BinaryOp (ID)(Constant))(BinaryOp (ID)(Constant)))(FuncCall (ID)(ExprList (Constant))))(Assignment (ID)(Cast (Typename (PtrDecl (TypeDecl (IdentifierType))))(FuncCall (ID)(ExprList (BinaryOp (ID)(UnaryOp (Typename (TypeDecl (IdentifierType)))))))))(For (Assignment (ID)(Constant))(BinaryOp (ID)(ID))(UnaryOp (ID))(Compound (FuncCall (ID)(ExprList (Constant)(UnaryOp (ArrayRef (ID)(ID)))))(If (BinaryOp (BinaryOp (ArrayRef (ID)(ID))(Constant))(BinaryOp (ArrayRef (ID)(ID))(Constant)))(FuncCall (ID)(ExprList (Constant))))))(Assignment (ID)(Constant))(Assignment (ID)(Constant))(While (BinaryOp (ID)(Constant))(Compound (Assignment (ID)(Constant))(For (Assignment (ID)(BinaryOp (ID)(Constant)))(BinaryOp (ID)(Constant))(UnaryOp (ID))(Compound (If (BinaryOp (ArrayRef (ID)(ID))(ArrayRef (ID)(BinaryOp (ID)(Constant))))(Compound (Assignment (ID)(ArrayRef (ID)(ID)))(Assignment (ArrayRef (ID)(ID))(ArrayRef (ID)(BinaryOp (ID)(Constant))))(Assignment (ArrayRef (ID)(BinaryOp (ID)(Constant)))(ID))(UnaryOp (ID))(Assignment (ID)(Constant))))))))(For (Assignment (ID)(Constant))(BinaryOp (ID)(BinaryOp (ID)(Constant)))(UnaryOp (ID))(Compound (FuncCall (ID)(ExprList (Constant)(ArrayRef (ID)(ID))))))(FuncCall (ID)(ExprList (Constant)(ArrayRef (ID)(ID))(ID)))(FuncCall (ID)(ExprList (ID)))(Return (Constant))))) |ET| 
-0.92942599044006390940353412588593  |BT| (FileAST (Decl (ArrayDecl (TypeDecl (IdentifierType))(Constant)))(Decl (TypeDecl (IdentifierType)))(Decl (TypeDecl (IdentifierType)))(Decl (TypeDecl (IdentifierType))(Constant))(FuncDef (Decl (FuncDecl (ParamList (Decl (PtrDecl (TypeDecl (IdentifierType))))(Decl (PtrDecl (TypeDecl (IdentifierType)))))(TypeDecl (IdentifierType))))(Compound (Decl (TypeDecl (IdentifierType))(UnaryOp (ID)))(Assignment (UnaryOp (ID))(UnaryOp (ID)))(Assignment (UnaryOp (ID))(ID))))(FuncDef (Decl (FuncDecl (ParamList (Decl (TypeDecl (IdentifierType)))(Decl (TypeDecl (IdentifierType))))(TypeDecl (IdentifierType))))(Compound (Decl (TypeDecl (IdentifierType)))(Decl (TypeDecl (IdentifierType)))(Decl (TypeDecl (IdentifierType)))(Decl (TypeDecl (IdentifierType)))(Assignment (ID)(ArrayRef (ID)(ID)))(Assignment (ID)(BinaryOp (ID)(Constant)))(For (Assignment (ID)(ID))(BinaryOp (ID)(ID))(UnaryOp (ID))(Compound (If (BinaryOp (StructRef (ArrayRef (ID)(ID))(ID))(StructRef (ID)(ID)))(Compound (FuncCall (ID)(ExprList (UnaryOp (ArrayRef (ID)(UnaryOp (ID))))(UnaryOp (ArrayRef (ID)(ID)))))))))(FuncCall (ID)(ExprList (UnaryOp (ArrayRef (ID)(BinaryOp (ID)(Constant))))(UnaryOp (ArrayRef (ID)(ID)))))(Return (BinaryOp (ID)(Constant)))))(FuncDef (Decl (FuncDecl (ParamList (Decl (TypeDecl (IdentifierType)))(Decl (TypeDecl (IdentifierType))))(TypeDecl (IdentifierType))))(Compound (Decl (TypeDecl (IdentifierType)))(If (BinaryOp (ID)(ID))(Compound (Assignment (ID)(FuncCall (ID)(ExprList (ID)(ID))))(FuncCall (ID)(ExprList (ID)(BinaryOp (ID)(Constant))))(FuncCall (ID)(ExprList (BinaryOp (ID)(Constant))(ID)))))))(FuncDef (Decl (FuncDecl (TypeDecl (IdentifierType))))(Compound (FuncCall (ID)(ExprList (Constant)(UnaryOp (ID))))(For (Assignment (ID)(Constant))(BinaryOp (ID)(ID))(UnaryOp (ID))(Compound (FuncCall (ID)(ExprList (Constant)(UnaryOp (StructRef (ArrayRef (ID)(ID))(ID)))(UnaryOp (StructRef (ArrayRef (ID)(ID))(ID)))))(Assignment (StructRef (ArrayRef (ID)(ID))(ID))(ID))))(FuncCall (ID)(ExprList (Constant)(ID)))(For (Assignment (ID)(Constant))(BinaryOp (ID)(ID))(UnaryOp (ID))(If (BinaryOp (BinaryOp (StructRef (ArrayRef (ID)(BinaryOp (ID)(Constant)))(ID))(StructRef (ArrayRef (ID)(ID))(ID)))(BinaryOp (StructRef (ArrayRef (ID)(BinaryOp (ID)(Constant)))(ID))(StructRef (ArrayRef (ID)(ID))(ID))))(Assignment (ID)(Constant))))(FuncCall (ID)(ExprList (TernaryOp (ID)(Constant)(Constant))))(For (Assignment (ID)(Constant))(BinaryOp (ID)(ID))(UnaryOp (ID))(FuncCall (ID)(ExprList (Constant)(StructRef (ArrayRef (ID)(ID))(ID))(StructRef (ArrayRef (ID)(ID))(ID)))))(Return (Constant))))) |ET| 
0.94487504701786495520110520374146  |BT| (FileAST (FuncDef (Decl (FuncDecl (TypeDecl (IdentifierType))))(Compound (Decl (TypeDecl (IdentifierType)))(Decl (TypeDecl (IdentifierType)))(Decl (TypeDecl (IdentifierType)))(Decl (TypeDecl (IdentifierType))(Constant))(Decl (TypeDecl (IdentifierType)))(Decl (TypeDecl (IdentifierType)))(Decl (PtrDecl (TypeDecl (IdentifierType))))(FuncCall (ID)(ExprList (Constant)(UnaryOp (ID))))(Assignment (ID)(Cast (Typename (PtrDecl (TypeDecl (IdentifierType))))(FuncCall (ID)(ExprList (BinaryOp (UnaryOp (Typename (TypeDecl (IdentifierType))))(ID))))))(For (Assignment (ID)(Constant))(BinaryOp (ID)(ID))(UnaryOp (ID))(FuncCall (ID)(ExprList (Constant)(UnaryOp (ArrayRef (ID)(ID))))))(Assignment (ID)(Constant))(Assignment (ID)(Constant))(While (ID)(Compound (Assignment (ID)(Constant))(For (Assignment (ID)(BinaryOp (ID)(Constant)))(BinaryOp (ID)(BinaryOp (ID)(Constant)))(UnaryOp (ID))(Compound (If (BinaryOp (ArrayRef (ID)(ID))(ArrayRef (ID)(BinaryOp (ID)(Constant))))(Compound (Assignment (ID)(ArrayRef (ID)(ID)))(Assignment (ArrayRef (ID)(ID))(ArrayRef (ID)(BinaryOp (ID)(Constant))))(Assignment (ArrayRef (ID)(BinaryOp (ID)(Constant)))(ID))(Assignment (ID)(Constant))(UnaryOp (ID))))))(UnaryOp (ID))))(For (Assignment (ID)(Constant))(BinaryOp (ID)(ID))(UnaryOp (ID))(Compound (If (BinaryOp (ID)(Constant))(FuncCall (ID)(ExprList (Constant))))(FuncCall (ID)(ExprList (Constant)(ArrayRef (ID)(ID))))))(FuncCall (ID)(ExprList (Constant)))(FuncCall (ID)(ExprList (Constant)(ID)))(FuncCall (ID)(ExprList (ID)))(Return (Constant))))) |ET| 
-0.91483374524989646836559131770628  |BT| (FileAST (FuncDef (Decl (FuncDecl (ParamList (Decl (ArrayDecl (TypeDecl (IdentifierType))))(Decl (TypeDecl (IdentifierType)))(Decl (TypeDecl (IdentifierType))))(TypeDecl (IdentifierType))))(Compound (Decl (TypeDecl (IdentifierType)))(Decl (TypeDecl (IdentifierType)))(Decl (TypeDecl (IdentifierType)))(Decl (TypeDecl (IdentifierType)))(Assignment (ID)(StructRef (ArrayRef (ID)(ID))(ID)))(Assignment (ID)(BinaryOp (ID)(Constant)))(For (Assignment (ID)(ID))(BinaryOp (ID)(ID))(UnaryOp (ID))(Compound (If (BinaryOp (StructRef (ArrayRef (ID)(ID))(ID))(ID))(Compound (UnaryOp (ID))(Assignment (ID)(ArrayRef (ID)(ID)))(Assignment (ArrayRef (ID)(ID))(ArrayRef (ID)(ID)))(Assignment (ArrayRef (ID)(ID))(ID))))))(Assignment (ID)(ArrayRef (ID)(BinaryOp (ID)(Constant))))(Assignment (ArrayRef (ID)(BinaryOp (ID)(Constant)))(ArrayRef (ID)(ID)))(Assignment (ArrayRef (ID)(ID))(ID))(Return (BinaryOp (ID)(Constant)))))(FuncDef (Decl (FuncDecl (ParamList (Decl (ArrayDecl (TypeDecl (IdentifierType))))(Decl (TypeDecl (IdentifierType)))(Decl (TypeDecl (IdentifierType))))(TypeDecl (IdentifierType))))(Compound (Decl (TypeDecl (IdentifierType)))(If (BinaryOp (ID)(ID))(Compound (Assignment (ID)(FuncCall (ID)(ExprList (ID)(ID)(ID))))(FuncCall (ID)(ExprList (ID)(ID)(BinaryOp (ID)(Constant))))(FuncCall (ID)(ExprList (ID)(BinaryOp (ID)(Constant))(ID)))))))(FuncDef (Decl (FuncDecl (ParamList (Decl (ArrayDecl (TypeDecl (IdentifierType))))(Decl (TypeDecl (IdentifierType))))(TypeDecl (IdentifierType))))(Compound (Decl (TypeDecl (IdentifierType)))(For (Assignment (ID)(Constant))(BinaryOp (ID)(ID))(UnaryOp (ID))(Compound (If (BinaryOp (StructRef (ArrayRef (ID)(BinaryOp (ID)(Constant)))(ID))(StructRef (ArrayRef (ID)(ID))(ID)))(Compound (If (BinaryOp (StructRef (ArrayRef (ID)(BinaryOp (ID)(Constant)))(ID))(StructRef (ArrayRef (ID)(ID))(ID)))(Compound (Return (Constant))))))))(Return (Constant))))(FuncDef (Decl (FuncDecl (ParamList (Typename (TypeDecl (IdentifierType))))(TypeDecl (IdentifierType))))(Compound (Decl (TypeDecl (IdentifierType)))(Decl (TypeDecl (IdentifierType)))(Decl (ArrayDecl (TypeDecl (IdentifierType))(Constant)))(FuncCall (ID)(ExprList (Constant)(UnaryOp (ID))))(For (Assignment (ID)(Constant))(BinaryOp (ID)(ID))(UnaryOp (ID))(Compound (FuncCall (ID)(ExprList (Constant)(UnaryOp (StructRef (ArrayRef (ID)(ID))(ID)))(UnaryOp (StructRef (ArrayRef (ID)(ID))(ID)))))(Assignment (StructRef (ArrayRef (ID)(ID))(ID))(ID))))(FuncCall (ID)(ExprList (ID)(Constant)(BinaryOp (ID)(Constant))))(If (BinaryOp (FuncCall (ID)(ExprList (ID)(ID)))(Constant))(Compound (FuncCall (ID)(ExprList (Constant))))(Compound (FuncCall (ID)(ExprList (Constant)))))(For (Assignment (ID)(Constant))(BinaryOp (ID)(ID))(UnaryOp (ID))(Compound (FuncCall (ID)(ExprList (Constant)(StructRef (ArrayRef (ID)(ID))(ID))(StructRef (ArrayRef (ID)(ID))(ID))))))(Return (Constant))))) |ET| 
0.92015210854994433642417561713955  |BT| (FileAST (FuncDef (Decl (FuncDecl (TypeDecl (IdentifierType))))(Compound (Decl (TypeDecl (IdentifierType)))(Decl (TypeDecl (IdentifierType)))(Decl (TypeDecl (IdentifierType)))(Decl (TypeDecl (IdentifierType)))(Decl (TypeDecl (IdentifierType)))(Decl (TypeDecl (IdentifierType)))(Decl (TypeDecl (IdentifierType)))(Decl (TypeDecl (IdentifierType)))(Decl (TypeDecl (IdentifierType))(Constant))(FuncCall (ID)(ExprList (Constant)(UnaryOp (ID))))(Decl (ArrayDecl (TypeDecl (IdentifierType))(ID)))(For (Assignment (ID)(Constant))(BinaryOp (ID)(ID))(UnaryOp (ID))(Compound (FuncCall (ID)(ExprList (Constant)(UnaryOp (ArrayRef (ID)(ID)))))))(Assignment (ID)(Constant))(While (BinaryOp (ID)(Constant))(Compound (Assignment (ID)(Constant))(For (Assignment (ID)(BinaryOp (ID)(Constant)))(BinaryOp (ID)(Constant))(UnaryOp (ID))(Compound (If (BinaryOp (ArrayRef (ID)(ID))(ArrayRef (ID)(BinaryOp (ID)(Constant))))(Compound (Assignment (ID)(Constant))(Assignment (ID)(ArrayRef (ID)(ID)))(Assignment (ArrayRef (ID)(ID))(ArrayRef (ID)(BinaryOp (ID)(Constant))))(Assignment (ArrayRef (ID)(BinaryOp (ID)(Constant)))(ID))(UnaryOp (ID))))))))(For (Assignment (ID)(Constant))(BinaryOp (ID)(ID))(UnaryOp (ID))(Compound (FuncCall (ID)(ExprList (Constant)(ArrayRef (ID)(ID))))(If (BinaryOp (ID)(BinaryOp (ID)(Constant)))(Compound (FuncCall (ID)(ExprList (Constant)))))))(FuncCall (ID)(ExprList (Constant)))(FuncCall (ID)(ExprList (Constant)(ID)))(Return (Constant))))) |ET| 
-0.72205969504836364780686608355609  |BT| (FileAST (Decl (ArrayDecl (TypeDecl (IdentifierType))(Constant)))(Decl (TypeDecl (IdentifierType)))(FuncDef (Decl (FuncDecl (ParamList (Decl (TypeDecl (IdentifierType)))(Decl (TypeDecl (IdentifierType))))(TypeDecl (IdentifierType))))(Compound (Decl (TypeDecl (IdentifierType)))(Decl (TypeDecl (IdentifierType)))(Decl (TypeDecl (IdentifierType)))(Decl (TypeDecl (IdentifierType)))(Assignment (ID)(ArrayRef (ID)(ID)))(Assignment (ID)(BinaryOp (ID)(Constant)))(For (Assignment (ID)(ID))(BinaryOp (ID)(ID))(UnaryOp (ID))(Compound (If (BinaryOp (StructRef (ArrayRef (ID)(ID))(ID))(StructRef (ID)(ID)))(Compound (Assignment (ID)(BinaryOp (ID)(Constant)))(Assignment (ID)(ArrayRef (ID)(ID)))(Assignment (ArrayRef (ID)(ID))(ArrayRef (ID)(ID)))(Assignment (ArrayRef (ID)(ID))(ID))))))(Assignment (ID)(ArrayRef (ID)(ID)))(Assignment (ArrayRef (ID)(ID))(ArrayRef (ID)(BinaryOp (ID)(Constant))))(Assignment (ArrayRef (ID)(BinaryOp (ID)(Constant)))(ID))(Return (BinaryOp (ID)(Constant)))))(FuncDef (Decl (FuncDecl (ParamList (Decl (TypeDecl (IdentifierType)))(Decl (TypeDecl (IdentifierType))))(TypeDecl (IdentifierType))))(Compound (Decl (TypeDecl (IdentifierType)))(If (BinaryOp (ID)(ID))(Compound (Assignment (ID)(FuncCall (ID)(ExprList (ID)(ID))))(FuncCall (ID)(ExprList (ID)(BinaryOp (ID)(Constant))))(FuncCall (ID)(ExprList (BinaryOp (ID)(Constant))(ID)))))))(FuncDef (Decl (FuncDecl (TypeDecl (IdentifierType))))(Compound (Decl (TypeDecl (IdentifierType)))(Decl (TypeDecl (IdentifierType))(Constant))(Decl (ArrayDecl (TypeDecl (IdentifierType))(Constant)))(FuncCall (ID)(ExprList (Constant)(UnaryOp (ID))))(For (Assignment (ID)(Constant))(BinaryOp (ID)(ID))(UnaryOp (ID))(Compound (FuncCall (ID)(ExprList (Constant)(ID)(UnaryOp (StructRef (ArrayRef (ID)(ID))(ID)))))(Assignment (StructRef (ArrayRef (ID)(ID))(ID))(ArrayRef (ID)(Constant)))(Assignment (StructRef (ArrayRef (ID)(ID))(ID))(ID))))(FuncCall (ID)(ExprList (Constant)(BinaryOp (ID)(Constant))))(For (Assignment (ID)(Constant))(BinaryOp (ID)(ID))(UnaryOp (ID))(If (BinaryOp (BinaryOp (BinaryOp (ID)(Constant))(BinaryOp (StructRef (ArrayRef (ID)(ID))(ID))(StructRef (ArrayRef (ID)(BinaryOp (ID)(Constant)))(ID))))(BinaryOp (StructRef (ArrayRef (ID)(ID))(ID))(StructRef (ArrayRef (ID)(BinaryOp (ID)(Constant)))(ID))))(Compound (FuncCall (ID)(ExprList (Constant)))(Break))))(If (BinaryOp (ID)(ID))(FuncCall (ID)(ExprList (Constant))))(For (Assignment (ID)(Constant))(BinaryOp (ID)(ID))(UnaryOp (ID))(FuncCall (ID)(ExprList (Constant)(StructRef (ArrayRef (ID)(ID))(ID))(StructRef (ArrayRef (ID)(ID))(ID)))))(Return (Constant))))) |ET| 
0.90433423570083171227906859712675  |BT| (FileAST (FuncDef (Decl (FuncDecl (TypeDecl (IdentifierType))))(Compound (Decl (TypeDecl (IdentifierType)))(Decl (TypeDecl (IdentifierType)))(Decl (TypeDecl (IdentifierType)))(Decl (TypeDecl (IdentifierType))(Constant))(Decl (TypeDecl (IdentifierType)))(Decl (PtrDecl (TypeDecl (IdentifierType))))(FuncCall (ID)(ExprList (Constant)(UnaryOp (ID))))(Assignment (ID)(Cast (Typename (PtrDecl (TypeDecl (IdentifierType))))(FuncCall (ID)(ExprList (BinaryOp (UnaryOp (Typename (TypeDecl (IdentifierType))))(ID))))))(If (BinaryOp (ID)(Constant))(FuncCall (ID)(ExprList (Constant))))(For (Assignment (ID)(Constant))(BinaryOp (ID)(ID))(UnaryOp (ID))(Compound (FuncCall (ID)(ExprList (Constant)(UnaryOp (ArrayRef (ID)(ID)))))))(Assignment (ID)(Constant))(While (BinaryOp (ID)(Constant))(Compound (Assignment (ID)(Constant))(For (Assignment (ID)(BinaryOp (ID)(Constant)))(BinaryOp (ID)(Constant))(UnaryOp (ID))(Compound (If (BinaryOp (ArrayRef (ID)(ID))(ArrayRef (ID)(BinaryOp (ID)(Constant))))(Compound (Assignment (ID)(ArrayRef (ID)(BinaryOp (ID)(Constant))))(Assignment (ArrayRef (ID)(BinaryOp (ID)(Constant)))(ArrayRef (ID)(ID)))(Assignment (ArrayRef (ID)(ID))(ID))(Assignment (ID)(Constant))(UnaryOp (ID))))))))(For (Assignment (ID)(Constant))(BinaryOp (ID)(ID))(UnaryOp (ID))(Compound (FuncCall (ID)(ExprList (Constant)(ArrayRef (ID)(ID))))(If (BinaryOp (ID)(BinaryOp (ID)(Constant)))(FuncCall (ID)(ExprList (Constant))))))(FuncCall (ID)(ExprList (Constant)))(FuncCall (ID)(ExprList (Constant)(ID)))(FuncCall (ID)(ExprList (ID)))(Return (Constant))))) |ET| 
-0.6704706049449835614240100767347  |BT| (FileAST (Decl (ArrayDecl (TypeDecl (IdentifierType))(Constant)))(Decl (TypeDecl (IdentifierType)))(Decl (TypeDecl (IdentifierType)))(Decl (TypeDecl (IdentifierType))(Constant))(Decl (FuncDecl (ParamList (Typename (PtrDecl (TypeDecl (IdentifierType))))(Typename (PtrDecl (TypeDecl (IdentifierType)))))(TypeDecl (IdentifierType))))(Decl (FuncDecl (ParamList (Typename (TypeDecl (IdentifierType)))(Typename (TypeDecl (IdentifierType))))(TypeDecl (IdentifierType))))(Decl (FuncDecl (ParamList (Typename (TypeDecl (IdentifierType)))(Typename (TypeDecl (IdentifierType))))(TypeDecl (IdentifierType))))(FuncDef (Decl (FuncDecl (TypeDecl (IdentifierType))))(Compound (FuncCall (ID)(ExprList (Constant)(UnaryOp (ID))))(For (Assignment (ID)(Constant))(BinaryOp (ID)(ID))(UnaryOp (ID))(Compound (FuncCall (ID)(ExprList (Constant)(UnaryOp (StructRef (ArrayRef (ID)(ID))(ID)))(UnaryOp (StructRef (ArrayRef (ID)(ID))(ID)))))(Assignment (StructRef (ArrayRef (ID)(ID))(ID))(ID))))(FuncCall (ID)(ExprList (Constant)(ID)))(For (Assignment (ID)(Constant))(BinaryOp (ID)(ID))(UnaryOp (ID))(If (BinaryOp (BinaryOp (StructRef (ArrayRef (ID)(BinaryOp (ID)(Constant)))(ID))(StructRef (ArrayRef (ID)(ID))(ID)))(BinaryOp (StructRef (ArrayRef (ID)(BinaryOp (ID)(Constant)))(ID))(StructRef (ArrayRef (ID)(ID))(ID))))(Assignment (ID)(Constant))))(FuncCall (ID)(ExprList (TernaryOp (ID)(Constant)(Constant))))(For (Assignment (ID)(Constant))(BinaryOp (ID)(ID))(UnaryOp (ID))(FuncCall (ID)(ExprList (Constant)(StructRef (ArrayRef (ID)(ID))(ID))(StructRef (ArrayRef (ID)(ID))(ID)))))(Return (Constant))))(FuncDef (Decl (FuncDecl (ParamList (Decl (PtrDecl (TypeDecl (IdentifierType))))(Decl (PtrDecl (TypeDecl (IdentifierType)))))(TypeDecl (IdentifierType))))(Compound (Decl (TypeDecl (IdentifierType)))(Assignment (ID)(UnaryOp (ID)))(Assignment (UnaryOp (ID))(UnaryOp (ID)))(Assignment (UnaryOp (ID))(ID))))(FuncDef (Decl (FuncDecl (ParamList (Decl (TypeDecl (IdentifierType)))(Decl (TypeDecl (IdentifierType))))(TypeDecl (IdentifierType))))(Compound (Decl (TypeDecl (IdentifierType)))(Decl (TypeDecl (IdentifierType)))(Decl (TypeDecl (IdentifierType)))(Assignment (ID)(ArrayRef (ID)(ID)))(Assignment (ID)(BinaryOp (ID)(Constant)))(For (Assignment (ID)(ID))(BinaryOp (ID)(ID))(UnaryOp (ID))(Compound (If (BinaryOp (StructRef (ArrayRef (ID)(ID))(ID))(StructRef (ID)(ID)))(FuncCall (ID)(ExprList (UnaryOp (ArrayRef (ID)(UnaryOp (ID))))(UnaryOp (ArrayRef (ID)(ID))))))))(FuncCall (ID)(ExprList (UnaryOp (ArrayRef (ID)(BinaryOp (ID)(Constant))))(UnaryOp (ArrayRef (ID)(ID)))))(Return (BinaryOp (ID)(Constant)))))(FuncDef (Decl (FuncDecl (ParamList (Decl (TypeDecl (IdentifierType)))(Decl (TypeDecl (IdentifierType))))(TypeDecl (IdentifierType))))(Compound (Decl (TypeDecl (IdentifierType)))(If (BinaryOp (ID)(ID))(Compound (Assignment (ID)(FuncCall (ID)(ExprList (ID)(ID))))(FuncCall (ID)(ExprList (ID)(BinaryOp (ID)(Constant))))(FuncCall (ID)(ExprList (BinaryOp (ID)(Constant))(ID)))))))) |ET| 
0.8464506086664583817125162568118  |BT| (FileAST (FuncDef (Decl (FuncDecl (TypeDecl (IdentifierType))))(Compound (Decl (TypeDecl (IdentifierType)))(Decl (TypeDecl (IdentifierType)))(Decl (TypeDecl (IdentifierType)))(Decl (TypeDecl (IdentifierType)))(Decl (ArrayDecl (TypeDecl (IdentifierType))(Constant)))(Decl (TypeDecl (IdentifierType)))(Decl (TypeDecl (IdentifierType))(UnaryOp (Constant)))(Assignment (ID)(Constant))(Assignment (ID)(Constant))(FuncCall (ID)(ExprList (Constant)(UnaryOp (ID))))(If (BinaryOp (BinaryOp (ID)(Constant))(BinaryOp (ID)(Constant)))(Return (Constant)))(While (BinaryOp (ID)(ID))(Compound (FuncCall (ID)(ExprList (Constant)(UnaryOp (ArrayRef (ID)(ID)))))(If (BinaryOp (BinaryOp (ArrayRef (ID)(ID))(Constant))(BinaryOp (ArrayRef (ID)(ID))(Constant)))(Return (Constant)))(UnaryOp (ID))))(While (ID)(Compound (Assignment (ID)(Constant))(For (Assignment (ID)(BinaryOp (ID)(Constant)))(BinaryOp (ID)(Constant))(UnaryOp (ID))(Compound (If (BinaryOp (ArrayRef (ID)(ID))(ArrayRef (ID)(BinaryOp (ID)(Constant))))(Compound (Assignment (ID)(ArrayRef (ID)(BinaryOp (ID)(Constant))))(Assignment (ArrayRef (ID)(BinaryOp (ID)(Constant)))(ArrayRef (ID)(ID)))(Assignment (ArrayRef (ID)(ID))(ID))(Assignment (ID)(Constant))(Break)))))(UnaryOp (ID))))(For (Assignment (ID)(Constant))(BinaryOp (ID)(BinaryOp (ID)(Constant)))(UnaryOp (ID))(Compound (FuncCall (ID)(ExprList (Constant)(ArrayRef (ID)(ID))))))(FuncCall (ID)(ExprList (Constant)(ArrayRef (ID)(ID))))(FuncCall (ID)(ExprList (Constant)(ID)))(Return (Constant))))) |ET| 
-0.66893942198058076176181430128054  |BT| (FileAST (Decl (FuncDecl (ParamList (Typename (ArrayDecl (TypeDecl (IdentifierType))))(Typename (TypeDecl (IdentifierType)))(Typename (TypeDecl (IdentifierType))))(TypeDecl (IdentifierType))))(Decl (FuncDecl (ParamList (Typename (ArrayDecl (TypeDecl (IdentifierType))))(Typename (TypeDecl (IdentifierType)))(Typename (TypeDecl (IdentifierType))))(TypeDecl (IdentifierType))))(FuncDef (Decl (FuncDecl (TypeDecl (IdentifierType))))(Compound (Decl (TypeDecl (IdentifierType)))(Decl (TypeDecl (IdentifierType)))(Decl (TypeDecl (IdentifierType))(Constant))(Decl (ArrayDecl (TypeDecl (IdentifierType))(Constant)))(FuncCall (ID)(ExprList (Constant)(UnaryOp (ID))))(For (Assignment (ID)(Constant))(BinaryOp (ID)(ID))(UnaryOp (ID))(Compound (FuncCall (ID)(ExprList (Constant)(UnaryOp (StructRef (ArrayRef (ID)(ID))(ID)))(UnaryOp (StructRef (ArrayRef (ID)(ID))(ID)))))(Assignment (StructRef (ArrayRef (ID)(ID))(ID))(ID))))(FuncCall (ID)(ExprList (ID)(Constant)(BinaryOp (ID)(Constant))))(For (Assignment (ID)(Constant))(BinaryOp (ID)(ID))(UnaryOp (ID))(Compound (If (BinaryOp (BinaryOp (StructRef (ArrayRef (ID)(ID))(ID))(StructRef (ArrayRef (ID)(BinaryOp (ID)(Constant)))(ID)))(BinaryOp (StructRef (ArrayRef (ID)(ID))(ID))(StructRef (ArrayRef (ID)(BinaryOp (ID)(Constant)))(ID))))(Compound (Assignment (ID)(Constant))(Break)))))(If (ID)(FuncCall (ID)(ExprList (Constant)))(FuncCall (ID)(ExprList (Constant))))(For (Assignment (ID)(Constant))(BinaryOp (ID)(ID))(UnaryOp (ID))(FuncCall (ID)(ExprList (Constant)(StructRef (ArrayRef (ID)(ID))(ID))(StructRef (ArrayRef (ID)(ID))(ID)))))(Return (Constant))))(FuncDef (Decl (FuncDecl (ParamList (Decl (ArrayDecl (TypeDecl (IdentifierType))))(Decl (TypeDecl (IdentifierType)))(Decl (TypeDecl (IdentifierType))))(TypeDecl (IdentifierType))))(Compound (Decl (TypeDecl (IdentifierType)))(Decl (TypeDecl (IdentifierType)))(Decl (TypeDecl (IdentifierType)))(Decl (TypeDecl (IdentifierType)))(Assignment (ID)(StructRef (ArrayRef (ID)(ID))(ID)))(Assignment (ID)(BinaryOp (ID)(Constant)))(For (Assignment (ID)(ID))(BinaryOp (ID)(ID))(UnaryOp (ID))(Compound (If (BinaryOp (StructRef (ArrayRef (ID)(ID))(ID))(ID))(Compound (UnaryOp (ID))(Assignment (ID)(ArrayRef (ID)(ID)))(Assignment (ArrayRef (ID)(ID))(ArrayRef (ID)(ID)))(Assignment (ArrayRef (ID)(ID))(ID))))))(Assignment (ID)(ArrayRef (ID)(BinaryOp (ID)(Constant))))(Assignment (ArrayRef (ID)(BinaryOp (ID)(Constant)))(ArrayRef (ID)(ID)))(Assignment (ArrayRef (ID)(ID))(ID))(Return (BinaryOp (ID)(Constant)))))(FuncDef (Decl (FuncDecl (ParamList (Decl (ArrayDecl (TypeDecl (IdentifierType))))(Decl (TypeDecl (IdentifierType)))(Decl (TypeDecl (IdentifierType))))(TypeDecl (IdentifierType))))(Compound (Decl (TypeDecl (IdentifierType)))(If (BinaryOp (ID)(ID))(Compound (Assignment (ID)(FuncCall (ID)(ExprList (ID)(ID)(ID))))(FuncCall (ID)(ExprList (ID)(ID)(BinaryOp (ID)(Constant))))(FuncCall (ID)(ExprList (ID)(BinaryOp (ID)(Constant))(ID)))))))) |ET| 
0.90603570916428000092679440058419  |BT| (FileAST (Decl (TypeDecl (IdentifierType)))(Decl (FuncDecl (ParamList (Decl (PtrDecl (TypeDecl (IdentifierType))))(Decl (PtrDecl (TypeDecl (IdentifierType)))))(TypeDecl (IdentifierType))))(FuncDef (Decl (FuncDecl (ParamList (Typename (TypeDecl (IdentifierType))))(TypeDecl (IdentifierType))))(Compound (Decl (TypeDecl (IdentifierType)))(Decl (TypeDecl (IdentifierType)))(Decl (TypeDecl (IdentifierType)))(Decl (TypeDecl (IdentifierType)))(Decl (TypeDecl (IdentifierType)))(Decl (TypeDecl (IdentifierType))(Constant))(FuncCall (ID)(ExprList (Constant)(UnaryOp (ID))))(Assignment (ID)(ID))(Decl (PtrDecl (TypeDecl (IdentifierType))))(Assignment (ID)(Cast (Typename (PtrDecl (TypeDecl (IdentifierType))))(FuncCall (ID)(ExprList (BinaryOp (UnaryOp (Typename (TypeDecl (IdentifierType))))(ID))))))(For (Assignment (ID)(Constant))(BinaryOp (ID)(ID))(UnaryOp (ID))(Compound (FuncCall (ID)(ExprList (Constant)(UnaryOp (ArrayRef (ID)(ID)))))))(For (Assignment (ID)(Constant))(BinaryOp (ID)(BinaryOp (ID)(Constant)))(UnaryOp (ID))(Compound (For (Assignment (ID)(BinaryOp (ID)(Constant)))(BinaryOp (ID)(BinaryOp (ID)(Constant)))(UnaryOp (ID))(Compound (If (BinaryOp (ArrayRef (ID)(ID))(ArrayRef (ID)(BinaryOp (ID)(Constant))))(Compound (FuncCall (ID)(ExprList (UnaryOp (ArrayRef (ID)(ID)))(UnaryOp (ArrayRef (ID)(BinaryOp (ID)(Constant))))))(UnaryOp (ID))))))))(For (Assignment (ID)(Constant))(BinaryOp (ID)(ID))(UnaryOp (ID))(Compound (If (BinaryOp (ID)(Constant))(Compound (FuncCall (ID)(ExprList (Constant)(ArrayRef (ID)(ID)))))(Compound (FuncCall (ID)(ExprList (Constant)(ArrayRef (ID)(ID))))))))(FuncCall (ID)(ExprList (Constant)))(FuncCall (ID)(ExprList (Constant)(ID)))(Return (Constant))))(FuncDef (Decl (FuncDecl (ParamList (Decl (PtrDecl (TypeDecl (IdentifierType))))(Decl (PtrDecl (TypeDecl (IdentifierType)))))(TypeDecl (IdentifierType))))(Compound (Decl (TypeDecl (IdentifierType)))(Assignment (ID)(UnaryOp (ID)))(Assignment (UnaryOp (ID))(UnaryOp (ID)))(Assignment (UnaryOp (ID))(ID))))) |ET| 
-0.65008110707346222767455401481129  |BT| (FileAST (Decl (ArrayDecl (TypeDecl (IdentifierType))(Constant)))(Decl (FuncDecl (ParamList (Typename (TypeDecl (IdentifierType)))(Typename (TypeDecl (IdentifierType))))(TypeDecl (IdentifierType))))(Decl (FuncDecl (ParamList (Typename (TypeDecl (IdentifierType)))(Typename (TypeDecl (IdentifierType))))(TypeDecl (IdentifierType))))(Decl (FuncDecl (ParamList (Typename (TypeDecl (IdentifierType))))(TypeDecl (IdentifierType))))(FuncDef (Decl (FuncDecl (TypeDecl (IdentifierType))))(Compound (Decl (TypeDecl (IdentifierType)))(Decl (TypeDecl (IdentifierType)))(FuncCall (ID)(ExprList (Constant)(UnaryOp (ID))))(For (Assignment (ID)(Constant))(BinaryOp (ID)(ID))(UnaryOp (ID))(Compound (FuncCall (ID)(ExprList (Constant)(UnaryOp (StructRef (ArrayRef (ID)(ID))(ID)))(UnaryOp (StructRef (ArrayRef (ID)(ID))(ID)))))(Assignment (StructRef (ArrayRef (ID)(ID))(ID))(ID))))(FuncCall (ID)(ExprList (Constant)(BinaryOp (ID)(Constant))))(If (BinaryOp (FuncCall (ID)(ExprList (ID)))(Constant))(FuncCall (ID)(ExprList (Constant)))(FuncCall (ID)(ExprList (Constant))))(For (Assignment (ID)(Constant))(BinaryOp (ID)(ID))(UnaryOp (ID))(Compound (FuncCall (ID)(ExprList (Constant)(StructRef (ArrayRef (ID)(ID))(ID))(StructRef (ArrayRef (ID)(ID))(ID))))))(Return (Constant))))(FuncDef (Decl (FuncDecl (ParamList (Decl (TypeDecl (IdentifierType)))(Decl (TypeDecl (IdentifierType))))(TypeDecl (IdentifierType))))(Compound (Decl (TypeDecl (IdentifierType)))(Decl (TypeDecl (IdentifierType)))(Decl (TypeDecl (IdentifierType)))(Decl (TypeDecl (IdentifierType)))(Assignment (ID)(StructRef (ArrayRef (ID)(ID))(ID)))(Assignment (ID)(BinaryOp (ID)(Constant)))(For (Assignment (ID)(ID))(BinaryOp (ID)(ID))(UnaryOp (ID))(Compound (If (BinaryOp (StructRef (ArrayRef (ID)(ID))(ID))(ID))(Compound (UnaryOp (ID))(Assignment (ID)(ArrayRef (ID)(ID)))(Assignment (ArrayRef (ID)(ID))(ArrayRef (ID)(ID)))(Assignment (ArrayRef (ID)(ID))(ID))))))(Assignment (ID)(ArrayRef (ID)(BinaryOp (ID)(Constant))))(Assignment (ArrayRef (ID)(BinaryOp (ID)(Constant)))(ArrayRef (ID)(ID)))(Assignment (ArrayRef (ID)(ID))(ID))(Return (BinaryOp (ID)(Constant)))))(FuncDef (Decl (FuncDecl (ParamList (Decl (TypeDecl (IdentifierType)))(Decl (TypeDecl (IdentifierType))))(TypeDecl (IdentifierType))))(Compound (Decl (TypeDecl (IdentifierType)))(If (BinaryOp (ID)(ID))(Compound (Assignment (ID)(FuncCall (ID)(ExprList (ID)(ID))))(FuncCall (ID)(ExprList (ID)(BinaryOp (ID)(Constant))))(FuncCall (ID)(ExprList (BinaryOp (ID)(Constant))(ID)))))))(FuncDef (Decl (FuncDecl (ParamList (Decl (TypeDecl (IdentifierType))))(TypeDecl (IdentifierType))))(Compound (Decl (TypeDecl (IdentifierType)))(For (Assignment (ID)(Constant))(BinaryOp (ID)(BinaryOp (ID)(Constant)))(UnaryOp (ID))(Compound (If (BinaryOp (BinaryOp (StructRef (ArrayRef (ID)(ID))(ID))(StructRef (ArrayRef (ID)(BinaryOp (ID)(Constant)))(ID)))(BinaryOp (StructRef (ArrayRef (ID)(ID))(ID))(StructRef (ArrayRef (ID)(BinaryOp (ID)(Constant)))(ID))))(Return (Constant)))))(Return (Constant))))) |ET| 
0.77379987723760490503366327175172  |BT| (FileAST (FuncDef (Decl (FuncDecl (TypeDecl (IdentifierType))))(Compound (Decl (TypeDecl (IdentifierType)))(Decl (TypeDecl (IdentifierType)))(Decl (TypeDecl (IdentifierType)))(Decl (TypeDecl (IdentifierType)))(Decl (TypeDecl (IdentifierType)))(FuncCall (ID)(ExprList (Constant)(UnaryOp (ID))))(Decl (ArrayDecl (TypeDecl (IdentifierType))(ID)))(For (Assignment (ID)(Constant))(BinaryOp (ID)(ID))(UnaryOp (ID))(FuncCall (ID)(ExprList (Constant)(BinaryOp (ID)(ID)))))(Assignment (ID)(Constant))(For (Assignment (ID)(Constant))(BinaryOp (ID)(BinaryOp (ID)(Constant)))(UnaryOp (ID))(For (Assignment (ID)(BinaryOp (ID)(Constant)))(BinaryOp (ID)(ID))(UnaryOp (ID))(If (BinaryOp (ArrayRef (ID)(ID))(ArrayRef (ID)(BinaryOp (ID)(Constant))))(Compound (Assignment (ID)(ArrayRef (ID)(ID)))(Assignment (ArrayRef (ID)(ID))(ArrayRef (ID)(BinaryOp (ID)(Constant))))(Assignment (ArrayRef (ID)(BinaryOp (ID)(Constant)))(ID))(UnaryOp (ID))))))(For (Assignment (ID)(Constant))(BinaryOp (ID)(BinaryOp (ID)(Constant)))(UnaryOp (ID))(FuncCall (ID)(ExprList (Constant)(ArrayRef (ID)(ID)))))(FuncCall (ID)(ExprList (Constant)(ArrayRef (ID)(ID))))(FuncCall (ID)(ExprList (Constant)(ID)))(Return (Constant))))) |ET| 
-0.63655846442036356780391770371352  |BT| (FileAST (Decl (ArrayDecl (TypeDecl (IdentifierType))(Constant)))(Decl (TypeDecl (IdentifierType)))(FuncDef (Decl (FuncDecl (ParamList (Decl (PtrDecl (TypeDecl (IdentifierType))))(Decl (TypeDecl (IdentifierType)))(Decl (TypeDecl (IdentifierType))))(TypeDecl (IdentifierType))))(Compound (Decl (TypeDecl (IdentifierType)))(Decl (TypeDecl (IdentifierType)))(Decl (TypeDecl (IdentifierType)))(Decl (TypeDecl (IdentifierType)))(Assignment (ID)(ArrayRef (ID)(ID)))(Assignment (ID)(BinaryOp (ID)(Constant)))(For (Assignment (ID)(ID))(BinaryOp (ID)(ID))(UnaryOp (ID))(Compound (If (BinaryOp (StructRef (ArrayRef (ID)(ID))(ID))(StructRef (ID)(ID)))(Compound (Assignment (ID)(BinaryOp (ID)(Constant)))(Assignment (ID)(ArrayRef (ID)(ID)))(Assignment (ArrayRef (ID)(ID))(ArrayRef (ID)(ID)))(Assignment (ArrayRef (ID)(ID))(ID))))))(Assignment (ID)(ArrayRef (ID)(BinaryOp (ID)(Constant))))(Assignment (ArrayRef (ID)(BinaryOp (ID)(Constant)))(ArrayRef (ID)(ID)))(Assignment (ArrayRef (ID)(ID))(ID))(Return (BinaryOp (ID)(Constant)))))(FuncDef (Decl (FuncDecl (ParamList (Decl (PtrDecl (TypeDecl (IdentifierType))))(Decl (TypeDecl (IdentifierType)))(Decl (TypeDecl (IdentifierType))))(TypeDecl (IdentifierType))))(Compound (Decl (TypeDecl (IdentifierType)))(If (BinaryOp (ID)(ID))(Compound (Assignment (ID)(FuncCall (ID)(ExprList (ID)(ID)(ID))))(FuncCall (ID)(ExprList (ID)(ID)(BinaryOp (ID)(Constant))))(FuncCall (ID)(ExprList (ID)(BinaryOp (ID)(Constant))(ID)))))))(FuncDef (Decl (FuncDecl (TypeDecl (IdentifierType))))(Compound (Decl (TypeDecl (IdentifierType)))(Decl (TypeDecl (IdentifierType)))(Decl (TypeDecl (IdentifierType)))(Decl (TypeDecl (IdentifierType)))(Decl (TypeDecl (IdentifierType)))(FuncCall (ID)(ExprList (Constant)(UnaryOp (ID))(UnaryOp (ID))))(For (Assignment (ID)(Constant))(BinaryOp (ID)(ID))(UnaryOp (ID))(Compound (FuncCall (ID)(ExprList (Constant)(UnaryOp (StructRef (ArrayRef (ID)(ID))(ID)))(UnaryOp (StructRef (ArrayRef (ID)(ID))(ID)))(UnaryOp (ID))))(Assignment (StructRef (ArrayRef (ID)(ID))(ID))(ID))))(Assignment (ID)(Constant))(Assignment (ID)(BinaryOp (ID)(Constant)))(FuncCall (ID)(ExprList (ID)(ID)(ID)))(For (Assignment (ID)(Constant))(BinaryOp (ID)(ID))(UnaryOp (ID))(Compound (If (BinaryOp (BinaryOp (StructRef (ArrayRef (ID)(ID))(ID))(StructRef (ArrayRef (ID)(BinaryOp (ID)(Constant)))(ID)))(BinaryOp (StructRef (ArrayRef (ID)(ID))(ID))(StructRef (ArrayRef (ID)(BinaryOp (ID)(Constant)))(ID))))(Compound (FuncCall (ID)(ExprList (Constant)))(Break))(If (BinaryOp (ID)(BinaryOp (ID)(Constant)))(Compound (FuncCall (ID)(ExprList (Constant))))))))(For (Assignment (ID)(Constant))(BinaryOp (ID)(ID))(UnaryOp (ID))(Compound (FuncCall (ID)(ExprList (Constant)(StructRef (ArrayRef (ID)(ID))(ID))(StructRef (ArrayRef (ID)(ID))(ID))))))(Return (Constant))))) |ET| 
0.82271963942647374778971425257623  |BT| (FileAST (Decl (FuncDecl (ParamList (Typename (PtrDecl (TypeDecl (IdentifierType))))(Typename (TypeDecl (IdentifierType)))(Typename (TypeDecl (IdentifierType))))(TypeDecl (IdentifierType))))(Decl (FuncDecl (ParamList (Typename (PtrDecl (TypeDecl (IdentifierType))))(Typename (TypeDecl (IdentifierType))))(TypeDecl (IdentifierType))))(FuncDef (Decl (FuncDecl (TypeDecl (IdentifierType))))(Compound (Decl (TypeDecl (IdentifierType)))(FuncCall (ID)(ExprList (Constant)(UnaryOp (ID))))(If (BinaryOp (BinaryOp (ID)(Constant))(BinaryOp (ID)(Constant)))(Compound (FuncCall (ID)(ExprList (Constant)))))(Decl (ArrayDecl (TypeDecl (IdentifierType))(ID)))(Decl (TypeDecl (IdentifierType)))(Decl (TypeDecl (IdentifierType))(Constant))(Decl (TypeDecl (IdentifierType)))(For (Assignment (ID)(Constant))(BinaryOp (ID)(ID))(UnaryOp (ID))(Compound (FuncCall (ID)(ExprList (Constant)(UnaryOp (ArrayRef (ID)(ID)))))(If (BinaryOp (BinaryOp (ArrayRef (ID)(ID))(Constant))(BinaryOp (ArrayRef (ID)(ID))(Constant)))(Compound (FuncCall (ID)(ExprList (Constant)))))))(For (Assignment (ID)(Constant))(BinaryOp (ID)(ID))(UnaryOp (ID))(Compound (Assignment (ID)(FuncCall (ID)(ExprList (ID)(ID)(ID))))(Assignment (ID)(ID))))(FuncCall (ID)(ExprList (ID)(ID)))(FuncCall (ID)(ExprList (Constant)(ID)))(Return (Constant))))(FuncDef (Decl (FuncDecl (ParamList (Decl (PtrDecl (TypeDecl (IdentifierType))))(Decl (TypeDecl (IdentifierType)))(Decl (TypeDecl (IdentifierType))))(TypeDecl (IdentifierType))))(Compound (Decl (TypeDecl (IdentifierType)))(Decl (TypeDecl (IdentifierType)))(Decl (TypeDecl (IdentifierType)))(Decl (TypeDecl (IdentifierType))(Constant))(Assignment (ID)(Constant))(While (BinaryOp (ID)(Constant))(Compound (Assignment (ID)(Constant))(For (Assignment (ID)(BinaryOp (ID)(Constant)))(BinaryOp (ID)(ID))(UnaryOp (ID))(Compound (If (BinaryOp (ArrayRef (ID)(ID))(ArrayRef (ID)(BinaryOp (ID)(Constant))))(Compound (Assignment (ID)(ArrayRef (ID)(ID)))(Assignment (ArrayRef (ID)(ID))(ArrayRef (ID)(BinaryOp (ID)(Constant))))(Assignment (ArrayRef (ID)(BinaryOp (ID)(Constant)))(ID))(Assignment (ID)(Constant))(UnaryOp (ID))))))))(Return (ID))))(FuncDef (Decl (FuncDecl (ParamList (Decl (PtrDecl (TypeDecl (IdentifierType))))(Decl (TypeDecl (IdentifierType))))(TypeDecl (IdentifierType))))(Compound (Decl (TypeDecl (IdentifierType)))(For (Assignment (ID)(Constant))(BinaryOp (ID)(ID))(UnaryOp (ID))(Compound (FuncCall (ID)(ExprList (Constant)(ArrayRef (ID)(ID))))(If (BinaryOp (ID)(BinaryOp (ID)(Constant)))(Compound (FuncCall (ID)(ExprList (Constant)))))))(FuncCall (ID)(ExprList (Constant)))))) |ET| 
-0.57786665848941554113338270326494  |BT| (FileAST (Decl (FuncDecl (ParamList (Typename (PtrDecl (TypeDecl (IdentifierType))))(Typename (PtrDecl (TypeDecl (IdentifierType)))))(TypeDecl (IdentifierType))))(Decl (FuncDecl (ParamList (Typename (PtrDecl (TypeDecl (IdentifierType))))(Typename (TypeDecl (IdentifierType)))(Typename (TypeDecl (IdentifierType))))(TypeDecl (IdentifierType))))(Decl (FuncDecl (ParamList (Typename (PtrDecl (TypeDecl (IdentifierType))))(Typename (TypeDecl (IdentifierType)))(Typename (TypeDecl (IdentifierType))))(TypeDecl (IdentifierType))))(FuncDef (Decl (FuncDecl (TypeDecl (IdentifierType))))(Compound (Decl (TypeDecl (IdentifierType))(Constant))(Decl (TypeDecl (IdentifierType))(Constant))(Decl (TypeDecl (IdentifierType)))(Decl (TypeDecl (IdentifierType))(Constant))(Decl (TypeDecl (IdentifierType)))(Decl (ArrayDecl (TypeDecl (IdentifierType))(Constant)))(FuncCall (ID)(ExprList (Constant)(UnaryOp (ID))))(While (BinaryOp (ID)(ID))(Compound (If (BinaryOp (ID)(UnaryOp (Constant)))(Compound (Break)))(FuncCall (ID)(ExprList (Constant)(UnaryOp (StructRef (ArrayRef (ID)(ID))(ID)))(UnaryOp (StructRef (ArrayRef (ID)(ID))(ID)))))(Assignment (StructRef (ArrayRef (ID)(ID))(ID))(ID))(UnaryOp (ID))))(FuncCall (ID)(ExprList (ID)(Constant)(BinaryOp (ID)(Constant))))(While (BinaryOp (ID)(ID))(Compound (If (BinaryOp (BinaryOp (StructRef (ArrayRef (ID)(BinaryOp (ID)(Constant)))(ID))(StructRef (ArrayRef (ID)(ID))(ID)))(BinaryOp (StructRef (ArrayRef (ID)(BinaryOp (ID)(Constant)))(ID))(StructRef (ArrayRef (ID)(ID))(ID))))(Compound (Assignment (ID)(Constant))(Break))(If (BinaryOp (ID)(UnaryOp (Constant)))(Compound (Break))))(UnaryOp (ID))))(If (BinaryOp (ID)(Constant))(FuncCall (ID)(ExprList (Constant)))(FuncCall (ID)(ExprList (Constant))))(Assignment (ID)(Constant))(While (BinaryOp (ID)(ID))(Compound (FuncCall (ID)(ExprList (Constant)(StructRef (ArrayRef (ID)(ID))(ID))(StructRef (ArrayRef (ID)(ID))(ID))))(UnaryOp (ID))))(Return (Constant))))(FuncDef (Decl (FuncDecl (ParamList (Decl (PtrDecl (TypeDecl (IdentifierType))))(Decl (PtrDecl (TypeDecl (IdentifierType)))))(TypeDecl (IdentifierType))))(Compound (Decl (TypeDecl (IdentifierType)))(Assignment (ID)(UnaryOp (ID)))(Assignment (UnaryOp (ID))(UnaryOp (ID)))(Assignment (UnaryOp (ID))(ID))))(FuncDef (Decl (FuncDecl (ParamList (Decl (PtrDecl (TypeDecl (IdentifierType))))(Decl (TypeDecl (IdentifierType)))(Decl (TypeDecl (IdentifierType))))(TypeDecl (IdentifierType))))(Compound (Decl (TypeDecl (IdentifierType))(ID))(Decl (TypeDecl (IdentifierType)))(Decl (TypeDecl (IdentifierType)))(Assignment (ID)(StructRef (ArrayRef (ID)(ID))(ID)))(Assignment (ID)(BinaryOp (ID)(Constant)))(While (BinaryOp (ID)(ID))(Compound (If (BinaryOp (StructRef (ArrayRef (ID)(ID))(ID))(ID))(Compound (Assignment (ID)(Constant))(FuncCall (ID)(ExprList (UnaryOp (ArrayRef (ID)(ID)))(UnaryOp (ArrayRef (ID)(ID))))))(If (BinaryOp (ID)(UnaryOp (Constant)))(Compound (Break))))(UnaryOp (ID))))(FuncCall (ID)(ExprList (UnaryOp (ArrayRef (ID)(BinaryOp (ID)(Constant))))(UnaryOp (ArrayRef (ID)(ID)))))(Return (BinaryOp (ID)(Constant)))))(FuncDef (Decl (FuncDecl (ParamList (Decl (PtrDecl (TypeDecl (IdentifierType))))(Decl (TypeDecl (IdentifierType)))(Decl (TypeDecl (IdentifierType))))(TypeDecl (IdentifierType))))(Compound (If (BinaryOp (ID)(ID))(Compound (Decl (TypeDecl (IdentifierType)))(Assignment (ID)(FuncCall (ID)(ExprList (ID)(ID)(ID))))(FuncCall (ID)(ExprList (ID)(ID)(BinaryOp (ID)(Constant))))(FuncCall (ID)(ExprList (ID)(BinaryOp (ID)(Constant))(ID))))(Return))))) |ET| 
0.80392018866885628369800542714074  |BT| (FileAST (FuncDef (Decl (FuncDecl (TypeDecl (IdentifierType))))(Compound (Decl (TypeDecl (IdentifierType)))(Decl (TypeDecl (IdentifierType)))(Decl (TypeDecl (IdentifierType)))(Decl (TypeDecl (IdentifierType)))(Decl (TypeDecl (IdentifierType))(Constant))(Decl (TypeDecl (IdentifierType))(Constant))(Decl (PtrDecl (TypeDecl (IdentifierType))))(FuncCall (ID)(ExprList (Constant)(UnaryOp (ID))))(Assignment (ID)(Cast (Typename (PtrDecl (TypeDecl (IdentifierType))))(FuncCall (ID)(ExprList (BinaryOp (ID)(UnaryOp (Typename (TypeDecl (IdentifierType)))))))))(For (Assignment (ID)(Constant))(BinaryOp (ID)(ID))(UnaryOp (ID))(FuncCall (ID)(ExprList (Constant)(UnaryOp (ArrayRef (ID)(ID))))))(For (Assignment (ID)(Constant))(ID)(UnaryOp (ID))(Compound (Assignment (ID)(Constant))(For (Assignment (ID)(BinaryOp (ID)(Constant)))(BinaryOp (ID)(ID))(UnaryOp (ID))(Compound (If (BinaryOp (ArrayRef (ID)(ID))(ArrayRef (ID)(BinaryOp (ID)(Constant))))(Compound (Assignment (ID)(ArrayRef (ID)(ID)))(Assignment (ArrayRef (ID)(ID))(ArrayRef (ID)(BinaryOp (ID)(Constant))))(Assignment (ArrayRef (ID)(BinaryOp (ID)(Constant)))(ID))(UnaryOp (ID))(Assignment (ID)(Constant))))))))(For (Assignment (ID)(Constant))(BinaryOp (ID)(BinaryOp (ID)(Constant)))(UnaryOp (ID))(FuncCall (ID)(ExprList (Constant)(ArrayRef (ID)(ID)))))(FuncCall (ID)(ExprList (Constant)(ArrayRef (ID)(BinaryOp (ID)(Constant)))))(FuncCall (ID)(ExprList (Constant)(ID)))(FuncCall (ID)(ExprList (ID)))(Return (Constant))))) |ET| 
-0.57774694817916372180377493350534  |BT| (FileAST (Decl (FuncDecl (ParamList (Typename (ArrayDecl (TypeDecl (IdentifierType))))(Typename (TypeDecl (IdentifierType)))(Typename (TypeDecl (IdentifierType))))(TypeDecl (IdentifierType))))(Decl (FuncDecl (ParamList (Typename (ArrayDecl (TypeDecl (IdentifierType))))(Typename (TypeDecl (IdentifierType)))(Typename (TypeDecl (IdentifierType))))(TypeDecl (IdentifierType))))(Decl (FuncDecl (ParamList (Typename (PtrDecl (TypeDecl (IdentifierType))))(Typename (PtrDecl (TypeDecl (IdentifierType)))))(TypeDecl (IdentifierType))))(FuncDef (Decl (FuncDecl (TypeDecl (IdentifierType))))(Compound (Decl (TypeDecl (IdentifierType)))(Decl (TypeDecl (IdentifierType)))(Decl (TypeDecl (IdentifierType)))(Decl (TypeDecl (IdentifierType))(Constant))(Decl (TypeDecl (IdentifierType)))(Decl (ArrayDecl (TypeDecl (IdentifierType))(Constant)))(FuncCall (ID)(ExprList (Constant)(UnaryOp (ID))(UnaryOp (ID))))(For (Assignment (ID)(Constant))(BinaryOp (ID)(ID))(UnaryOp (ID))(Compound (FuncCall (ID)(ExprList (Constant)(UnaryOp (StructRef (ArrayRef (ID)(ID))(ID)))(UnaryOp (StructRef (ArrayRef (ID)(ID))(ID)))(UnaryOp (ID))))(Assignment (StructRef (ArrayRef (ID)(ID))(ID))(ID))))(FuncCall (ID)(ExprList (ID)(Constant)(BinaryOp (ID)(Constant))))(For (Assignment (ID)(Constant))(BinaryOp (ID)(ID))(UnaryOp (ID))(Compound (If (BinaryOp (BinaryOp (BinaryOp (StructRef (ArrayRef (ID)(ID))(ID))(StructRef (ArrayRef (ID)(BinaryOp (ID)(Constant)))(ID)))(BinaryOp (StructRef (ArrayRef (ID)(ID))(ID))(StructRef (ArrayRef (ID)(BinaryOp (ID)(Constant)))(ID))))(BinaryOp (ID)(Constant)))(Compound (FuncCall (ID)(ExprList (Constant)))(Assignment (ID)(Constant))(Break)))))(If (BinaryOp (ID)(Constant))(FuncCall (ID)(ExprList (Constant))))(For (Assignment (ID)(Constant))(BinaryOp (ID)(ID))(UnaryOp (ID))(FuncCall (ID)(ExprList (Constant)(StructRef (ArrayRef (ID)(ID))(ID))(StructRef (ArrayRef (ID)(ID))(ID)))))(Return (Constant))))(FuncDef (Decl (FuncDecl (ParamList (Decl (ArrayDecl (TypeDecl (IdentifierType))))(Decl (TypeDecl (IdentifierType)))(Decl (TypeDecl (IdentifierType))))(TypeDecl (IdentifierType))))(Compound (Decl (TypeDecl (IdentifierType)))(Decl (TypeDecl (IdentifierType)))(Decl (TypeDecl (IdentifierType)))(Assignment (ID)(StructRef (ArrayRef (ID)(ID))(ID)))(Assignment (ID)(BinaryOp (ID)(Constant)))(For (Assignment (ID)(ID))(BinaryOp (ID)(ID))(UnaryOp (ID))(Compound (If (BinaryOp (StructRef (ArrayRef (ID)(ID))(ID))(ID))(Compound (UnaryOp (ID))(FuncCall (ID)(ExprList (UnaryOp (ArrayRef (ID)(ID)))(UnaryOp (ArrayRef (ID)(ID)))))))))(FuncCall (ID)(ExprList (UnaryOp (ArrayRef (ID)(BinaryOp (ID)(Constant))))(UnaryOp (ArrayRef (ID)(ID)))))(Return (BinaryOp (ID)(Constant)))))(FuncDef (Decl (FuncDecl (ParamList (Decl (ArrayDecl (TypeDecl (IdentifierType))))(Decl (TypeDecl (IdentifierType)))(Decl (TypeDecl (IdentifierType))))(TypeDecl (IdentifierType))))(Compound (Decl (TypeDecl (IdentifierType)))(If (BinaryOp (ID)(ID))(Compound (Assignment (ID)(FuncCall (ID)(ExprList (ID)(ID)(ID))))(FuncCall (ID)(ExprList (ID)(ID)(BinaryOp (ID)(Constant))))(FuncCall (ID)(ExprList (ID)(BinaryOp (ID)(Constant))(ID)))))))(FuncDef (Decl (FuncDecl (ParamList (Decl (PtrDecl (TypeDecl (IdentifierType))))(Decl (PtrDecl (TypeDecl (IdentifierType)))))(TypeDecl (IdentifierType))))(Compound (Decl (TypeDecl (IdentifierType))(UnaryOp (ID)))(Assignment (UnaryOp (ID))(UnaryOp (ID)))(Assignment (UnaryOp (ID))(ID))))) |ET| 
0.71691418228211067908972609075136  |BT| (FileAST (FuncDef (Decl (FuncDecl (TypeDecl (IdentifierType))))(Compound (Decl (TypeDecl (IdentifierType)))(Decl (ArrayDecl (TypeDecl (IdentifierType))(Constant)))(Decl (TypeDecl (IdentifierType)))(Decl (TypeDecl (IdentifierType)))(Decl (TypeDecl (IdentifierType)))(Decl (TypeDecl (IdentifierType))(Constant))(Decl (TypeDecl (IdentifierType))(Constant))(FuncCall (ID)(ExprList (Constant)(UnaryOp (ID))))(If (BinaryOp (BinaryOp (ID)(Constant))(BinaryOp (Constant)(ID)))(FuncCall (ID)(ExprList (Constant))))(For (Assignment (ID)(Constant))(BinaryOp (ID)(ID))(UnaryOp (ID))(Compound (FuncCall (ID)(ExprList (Constant)(UnaryOp (ArrayRef (ID)(ID)))))(If (BinaryOp (BinaryOp (ArrayRef (ID)(ID))(Constant))(BinaryOp (Constant)(ArrayRef (ID)(ID))))(FuncCall (ID)(ExprList (Constant))))))(Assignment (ID)(Constant))(While (BinaryOp (ID)(Constant))(Compound (Assignment (ID)(Constant))(For (Assignment (ID)(BinaryOp (ID)(Constant)))(BinaryOp (ID)(BinaryOp (ID)(Constant)))(UnaryOp (ID))(Compound (If (BinaryOp (ArrayRef (ID)(ID))(ArrayRef (ID)(BinaryOp (ID)(Constant))))(Compound (Assignment (ID)(ArrayRef (ID)(ID)))(Assignment (ArrayRef (ID)(ID))(ArrayRef (ID)(BinaryOp (ID)(Constant))))(Assignment (ArrayRef (ID)(BinaryOp (ID)(Constant)))(ID))(Assignment (ID)(Constant))(UnaryOp (ID))))))(UnaryOp (ID))))(For (Assignment (ID)(Constant))(BinaryOp (ID)(BinaryOp (ID)(Constant)))(UnaryOp (ID))(FuncCall (ID)(ExprList (Constant)(ArrayRef (ID)(ID)))))(FuncCall (ID)(ExprList (Constant)(ArrayRef (ID)(ID))(ID)))(Return (Constant))))) |ET| 
-0.56301578039597943714511529833544  |BT| (FileAST (Decl (FuncDecl (ParamList (Typename (ArrayDecl (TypeDecl (IdentifierType))))(Typename (TypeDecl (IdentifierType)))(Typename (TypeDecl (IdentifierType))))(TypeDecl (IdentifierType))))(Decl (FuncDecl (ParamList (Typename (ArrayDecl (TypeDecl (IdentifierType))))(Typename (TypeDecl (IdentifierType)))(Typename (TypeDecl (IdentifierType))))(TypeDecl (IdentifierType))))(FuncDef (Decl (FuncDecl (TypeDecl (IdentifierType))))(Compound (Decl (TypeDecl (IdentifierType)))(Decl (TypeDecl (IdentifierType)))(Decl (TypeDecl (IdentifierType))(Constant))(Decl (TypeDecl (IdentifierType)))(Decl (ArrayDecl (TypeDecl (IdentifierType))(Constant)))(FuncCall (ID)(ExprList (Constant)(UnaryOp (ID))(UnaryOp (ID))))(For (Assignment (ID)(Constant))(BinaryOp (ID)(ID))(UnaryOp (ID))(Compound (FuncCall (ID)(ExprList (Constant)(UnaryOp (StructRef (ArrayRef (ID)(ID))(ID)))(UnaryOp (StructRef (ArrayRef (ID)(ID))(ID)))(UnaryOp (ID))))(Assignment (StructRef (ArrayRef (ID)(ID))(ID))(BinaryOp (ID)(Constant)))))(FuncCall (ID)(ExprList (ID)(Constant)(BinaryOp (ID)(Constant))))(For (Assignment (ID)(Constant))(BinaryOp (ID)(BinaryOp (ID)(Constant)))(UnaryOp (ID))(Compound (If (BinaryOp (BinaryOp (BinaryOp (StructRef (ArrayRef (ID)(ID))(ID))(StructRef (ArrayRef (ID)(BinaryOp (ID)(Constant)))(ID)))(BinaryOp (StructRef (ArrayRef (ID)(ID))(ID))(StructRef (ArrayRef (ID)(BinaryOp (ID)(Constant)))(ID))))(BinaryOp (ID)(Constant)))(Compound (FuncCall (ID)(ExprList (Constant)))(Assignment (ID)(Constant))))))(If (BinaryOp (ID)(Constant))(FuncCall (ID)(ExprList (Constant))))(For (Assignment (ID)(Constant))(BinaryOp (ID)(ID))(UnaryOp (ID))(Compound (FuncCall (ID)(ExprList (Constant)(StructRef (ArrayRef (ID)(ID))(ID))(StructRef (ArrayRef (ID)(ID))(ID))))))(Return (Constant))))(FuncDef (Decl (FuncDecl (ParamList (Decl (ArrayDecl (TypeDecl (IdentifierType))))(Decl (TypeDecl (IdentifierType)))(Decl (TypeDecl (IdentifierType))))(TypeDecl (IdentifierType))))(Compound (Decl (TypeDecl (IdentifierType)))(Decl (TypeDecl (IdentifierType)))(Decl (TypeDecl (IdentifierType)))(Decl (TypeDecl (IdentifierType)))(Assignment (ID)(StructRef (ArrayRef (ID)(ID))(ID)))(Assignment (ID)(BinaryOp (ID)(Constant)))(For (Assignment (ID)(ID))(BinaryOp (ID)(ID))(UnaryOp (ID))(Compound (If (BinaryOp (StructRef (ArrayRef (ID)(ID))(ID))(ID))(Compound (UnaryOp (ID))(Assignment (ID)(ArrayRef (ID)(ID)))(Assignment (ArrayRef (ID)(ID))(ArrayRef (ID)(ID)))(Assignment (ArrayRef (ID)(ID))(ID))))))(Assignment (ID)(ArrayRef (ID)(BinaryOp (ID)(Constant))))(Assignment (ArrayRef (ID)(BinaryOp (ID)(Constant)))(ArrayRef (ID)(ID)))(Assignment (ArrayRef (ID)(ID))(ID))(Return (BinaryOp (ID)(Constant)))))(FuncDef (Decl (FuncDecl (ParamList (Decl (ArrayDecl (TypeDecl (IdentifierType))))(Decl (TypeDecl (IdentifierType)))(Decl (TypeDecl (IdentifierType))))(TypeDecl (IdentifierType))))(Compound (Decl (TypeDecl (IdentifierType)))(If (BinaryOp (ID)(ID))(Compound (Assignment (ID)(FuncCall (ID)(ExprList (ID)(ID)(ID))))(FuncCall (ID)(ExprList (ID)(ID)(BinaryOp (ID)(Constant))))(FuncCall (ID)(ExprList (ID)(BinaryOp (ID)(Constant))(ID)))))))) |ET| 
0.74399674797249959468103952531237  |BT| (FileAST (FuncDef (Decl (FuncDecl (TypeDecl (IdentifierType))))(Compound (Decl (TypeDecl (IdentifierType)))(Decl (TypeDecl (IdentifierType)))(Decl (TypeDecl (IdentifierType)))(Decl (TypeDecl (IdentifierType)))(Decl (TypeDecl (IdentifierType)))(Decl (PtrDecl (TypeDecl (IdentifierType))))(Decl (TypeDecl (IdentifierType))(Constant))(FuncCall (ID)(ExprList (Constant)(UnaryOp (ID))))(Assignment (ID)(FuncCall (ID)(ExprList (BinaryOp (ID)(UnaryOp (Typename (PtrDecl (TypeDecl (IdentifierType)))))))))(Assignment (ID)(Constant))(For (Assignment (ID)(Constant))(BinaryOp (ID)(BinaryOp (ID)(Constant)))(UnaryOp (ID))(FuncCall (ID)(ExprList (Constant)(UnaryOp (ArrayRef (ID)(ID))))))(While (ID)(Compound (Assignment (ID)(Constant))(For (Assignment (ID)(BinaryOp (ID)(Constant)))(BinaryOp (ID)(Constant))(UnaryOp (ID))(Compound (If (BinaryOp (ArrayRef (ID)(ID))(ArrayRef (ID)(BinaryOp (ID)(Constant))))(Compound (Assignment (ID)(ArrayRef (ID)(ID)))(Assignment (ArrayRef (ID)(ID))(ArrayRef (ID)(BinaryOp (ID)(Constant))))(Assignment (ArrayRef (ID)(BinaryOp (ID)(Constant)))(ID))(Assignment (ID)(Constant))(UnaryOp (ID))))))))(For (Assignment (ID)(Constant))(BinaryOp (ID)(BinaryOp (ID)(Constant)))(UnaryOp (ID))(FuncCall (ID)(ExprList (Constant)(ArrayRef (ID)(ID)))))(FuncCall (ID)(ExprList (Constant)(ArrayRef (ID)(BinaryOp (ID)(Constant)))))(FuncCall (ID)(ExprList (Constant)(ID)))(FuncCall (ID)(ExprList (ID)))(Return (Constant))))) |ET| 
-0.58397286071948162344824595493264  |BT| (FileAST (Decl (TypeDecl (IdentifierType)))(Decl (TypeDecl (IdentifierType)))(FuncDef (Decl (FuncDecl (ParamList (Decl (PtrDecl (TypeDecl (IdentifierType))))(Decl (TypeDecl (IdentifierType)))(Decl (TypeDecl (IdentifierType))))(TypeDecl (IdentifierType))))(Compound (Decl (TypeDecl (IdentifierType)))(Decl (TypeDecl (IdentifierType)))(Decl (TypeDecl (IdentifierType)))(Assignment (ID)(StructRef (ArrayRef (ID)(ID))(ID)))(Assignment (ID)(BinaryOp (ID)(Constant)))(For (Assignment (ID)(ID))(BinaryOp (ID)(ID))(UnaryOp (ID))(Compound (If (BinaryOp (StructRef (ArrayRef (ID)(ID))(ID))(ID))(Compound (UnaryOp (ID))(Assignment (ID)(ArrayRef (ID)(ID)))(Assignment (ArrayRef (ID)(ID))(ArrayRef (ID)(ID)))(Assignment (ArrayRef (ID)(ID))(ID))))))(Assignment (ID)(ArrayRef (ID)(BinaryOp (ID)(Constant))))(Assignment (ArrayRef (ID)(BinaryOp (ID)(Constant)))(ArrayRef (ID)(ID)))(Assignment (ArrayRef (ID)(ID))(ID))(Return (BinaryOp (ID)(Constant)))))(FuncDef (Decl (FuncDecl (ParamList (Decl (PtrDecl (TypeDecl (IdentifierType))))(Decl (TypeDecl (IdentifierType)))(Decl (TypeDecl (IdentifierType))))(TypeDecl (IdentifierType))))(Compound (Decl (TypeDecl (IdentifierType)))(If (BinaryOp (ID)(ID))(Compound (Assignment (ID)(FuncCall (ID)(ExprList (ID)(ID)(ID))))(FuncCall (ID)(ExprList (ID)(ID)(BinaryOp (ID)(Constant))))(FuncCall (ID)(ExprList (ID)(BinaryOp (ID)(Constant))(ID)))))))(FuncDef (Decl (FuncDecl (ParamList (Typename (TypeDecl (IdentifierType))))(TypeDecl (IdentifierType))))(Compound (Decl (TypeDecl (IdentifierType)))(Decl (TypeDecl (IdentifierType)))(Decl (TypeDecl (IdentifierType))(Constant))(Decl (PtrDecl (TypeDecl (IdentifierType))))(Decl (TypeDecl (IdentifierType)))(FuncCall (ID)(ExprList (Constant)(UnaryOp (ID))(UnaryOp (ID))))(Assignment (ID)(FuncCall (ID)(ExprList (BinaryOp (ID)(UnaryOp (Typename (TypeDecl (IdentifierType))))))))(For (Assignment (ID)(Constant))(BinaryOp (ID)(ID))(UnaryOp (ID))(Compound (FuncCall (ID)(ExprList (Constant)(UnaryOp (StructRef (ArrayRef (ID)(ID))(ID)))(UnaryOp (StructRef (ArrayRef (ID)(ID))(ID)))(UnaryOp (ID))))(Assignment (StructRef (ArrayRef (ID)(ID))(ID))(ID))))(FuncCall (ID)(ExprList (ID)(Constant)(BinaryOp (ID)(Constant))))(For (Assignment (ID)(Constant))(BinaryOp (ID)(BinaryOp (ID)(Constant)))(UnaryOp (ID))(Compound (If (BinaryOp (BinaryOp (StructRef (ArrayRef (ID)(ID))(ID))(StructRef (ArrayRef (ID)(BinaryOp (ID)(Constant)))(ID)))(BinaryOp (StructRef (ArrayRef (ID)(ID))(ID))(StructRef (ArrayRef (ID)(BinaryOp (ID)(Constant)))(ID))))(Compound (UnaryOp (ID))(Break)))))(If (BinaryOp (ID)(Constant))(FuncCall (ID)(ExprList (Constant)))(FuncCall (ID)(ExprList (Constant))))(For (Assignment (ID)(Constant))(BinaryOp (ID)(ID))(UnaryOp (ID))(Compound (FuncCall (ID)(ExprList (Constant)(StructRef (ArrayRef (ID)(ID))(ID))(StructRef (ArrayRef (ID)(ID))(ID))))))(FuncCall (ID)(ExprList (ID)))(Return (Constant))))) |ET| 
0.6961152906625246439276111232175  |BT| (FileAST (FuncDef (Decl (FuncDecl (TypeDecl (IdentifierType))))(Compound (Decl (TypeDecl (IdentifierType)))(Decl (TypeDecl (IdentifierType))(Constant))(Decl (ArrayDecl (TypeDecl (IdentifierType))(Constant)))(Decl (TypeDecl (IdentifierType)))(Decl (TypeDecl (IdentifierType)))(Decl (TypeDecl (IdentifierType)))(Decl (TypeDecl (IdentifierType)))(Decl (TypeDecl (IdentifierType)))(FuncCall (ID)(ExprList (Constant)(UnaryOp (ID))))(For (Assignment (ID)(Constant))(BinaryOp (ID)(ID))(UnaryOp (ID))(Compound (FuncCall (ID)(ExprList (Constant)(UnaryOp (ArrayRef (ID)(ID)))))))(Assignment (ID)(Constant))(While (BinaryOp (ID)(Constant))(Compound (Assignment (ID)(Constant))(For (Assignment (ID)(BinaryOp (ID)(Constant)))(BinaryOp (ID)(ID))(UnaryOp (ID))(Compound (If (BinaryOp (ArrayRef (ID)(ID))(ArrayRef (ID)(BinaryOp (ID)(Constant))))(Compound (Assignment (ID)(ArrayRef (ID)(BinaryOp (ID)(Constant))))(Assignment (ArrayRef (ID)(BinaryOp (ID)(Constant)))(ArrayRef (ID)(ID)))(Assignment (ArrayRef (ID)(ID))(ID))(UnaryOp (ID))(Assignment (ID)(Constant))))))(UnaryOp (ID))))(For (Assignment (ID)(Constant))(BinaryOp (ID)(ID))(UnaryOp (ID))(Compound (FuncCall (ID)(ExprList (Constant)(ArrayRef (ID)(ID))))(If (BinaryOp (ID)(BinaryOp (ID)(Constant)))(FuncCall (ID)(ExprList (Constant))))))(FuncCall (ID)(ExprList (Constant)))(FuncCall (ID)(ExprList (Constant)(ID)))(Return (Constant))))) |ET| 
-0.54767855275694976580069806004758  |BT| (FileAST (Decl (ArrayDecl (TypeDecl (IdentifierType))(Constant)))(Decl (ArrayDecl (TypeDecl (IdentifierType))(Constant)))(Decl (ArrayDecl (TypeDecl (IdentifierType))(Constant)))(Decl (ArrayDecl (TypeDecl (IdentifierType))(Constant)))(FuncDef (Decl (FuncDecl (ParamList (Decl (PtrDecl (TypeDecl (IdentifierType))))(Decl (PtrDecl (TypeDecl (IdentifierType)))))(TypeDecl (IdentifierType))))(Compound (Decl (TypeDecl (IdentifierType))(UnaryOp (ID)))(Assignment (UnaryOp (ID))(UnaryOp (ID)))(Assignment (UnaryOp (ID))(ID))))(FuncDef (Decl (FuncDecl (ParamList (Decl (PtrDecl (TypeDecl (IdentifierType))))(Decl (PtrDecl (TypeDecl (IdentifierType)))))(TypeDecl (IdentifierType))))(Compound (Decl (TypeDecl (IdentifierType))(UnaryOp (ID)))(Assignment (UnaryOp (ID))(UnaryOp (ID)))(Assignment (UnaryOp (ID))(ID))))(FuncDef (Decl (FuncDecl (ParamList (Decl (TypeDecl (IdentifierType)))(Decl (TypeDecl (IdentifierType))))(TypeDecl (IdentifierType))))(Compound (Decl (TypeDecl (IdentifierType))(ArrayRef (ID)(ID)))(Decl (TypeDecl (IdentifierType))(BinaryOp (ID)(Constant)))(Decl (TypeDecl (IdentifierType)))(For (Assignment (ID)(ID))(BinaryOp (ID)(ID))(UnaryOp (ID))(Compound (If (BinaryOp (ArrayRef (ID)(ID))(ID))(Compound (UnaryOp (ID))(FuncCall (ID)(ExprList (UnaryOp (ArrayRef (ID)(ID)))(UnaryOp (ArrayRef (ID)(ID)))))(FuncCall (ID)(ExprList (UnaryOp (ArrayRef (ID)(ID)))(UnaryOp (ArrayRef (ID)(ID)))))))))(FuncCall (ID)(ExprList (UnaryOp (ArrayRef (ID)(BinaryOp (ID)(Constant))))(UnaryOp (ArrayRef (ID)(ID)))))(FuncCall (ID)(ExprList (UnaryOp (ArrayRef (ID)(BinaryOp (ID)(Constant))))(UnaryOp (ArrayRef (ID)(ID)))))(Return (BinaryOp (ID)(Constant)))))(FuncDef (Decl (FuncDecl (ParamList (Decl (TypeDecl (IdentifierType)))(Decl (TypeDecl (IdentifierType))))(TypeDecl (IdentifierType))))(Compound (If (BinaryOp (ID)(ID))(Compound (Decl (TypeDecl (IdentifierType))(FuncCall (ID)(ExprList (ID)(ID))))(FuncCall (ID)(ExprList (ID)(BinaryOp (ID)(Constant))))(FuncCall (ID)(ExprList (BinaryOp (ID)(Constant))(ID)))))))(FuncDef (Decl (FuncDecl (ParamList (Decl (TypeDecl (IdentifierType))))(TypeDecl (IdentifierType))))(Compound (Decl (TypeDecl (IdentifierType)))(Decl (TypeDecl (IdentifierType)))(For (Assignment (ID)(Constant))(BinaryOp (ID)(ID))(UnaryOp (ID))(Compound (If (BinaryOp (ArrayRef (ID)(BinaryOp (ID)(Constant)))(ArrayRef (ID)(ID)))(Compound (Decl (TypeDecl (IdentifierType)))(Decl (TypeDecl (IdentifierType)))(For (Assignment (ID)(Constant))(BinaryOp (ID)(ID))(UnaryOp (ID))(Compound (If (BinaryOp (BinaryOp (ArrayRef (ID)(BinaryOp (ID)(Constant)))(ArrayRef (ID)(ID)))(BinaryOp (ArrayRef (ID)(BinaryOp (ID)(Constant)))(ArrayRef (ID)(ID))))(Assignment (ID)(ID)))(If (BinaryOp (BinaryOp (ArrayRef (ID)(ID))(ArrayRef (ID)(ID)))(BinaryOp (ArrayRef (ID)(ID))(ArrayRef (ID)(ID))))(Assignment (ID)(ID)))))(If (BinaryOp (ID)(ID))(Return (Constant)))))))(Return (Constant))))(FuncDef (Decl (FuncDecl (TypeDecl (IdentifierType))))(Compound (Decl (TypeDecl (IdentifierType)))(Decl (TypeDecl (IdentifierType)))(FuncCall (ID)(ExprList (Constant)(UnaryOp (ID))))(For (Assignment (ID)(Constant))(BinaryOp (ID)(ID))(UnaryOp (ID))(Compound (FuncCall (ID))(FuncCall (ID)(ExprList (Constant)(UnaryOp (ArrayRef (ID)(ID)))(UnaryOp (ArrayRef (ID)(ID)))))))(For (Assignment (ID)(Constant))(BinaryOp (ID)(ID))(UnaryOp (ID))(Compound (Assignment (ArrayRef (ID)(ID))(ArrayRef (ID)(ID)))(Assignment (ArrayRef (ID)(ID))(ArrayRef (ID)(ID)))))(FuncCall (ID)(ExprList (Constant)(BinaryOp (ID)(Constant))))(FuncCall (ID)(ExprList (Constant)(TernaryOp (FuncCall (ID)(ExprList (ID)))(Constant)(Constant))))(For (Assignment (ID)(Constant))(BinaryOp (ID)(ID))(UnaryOp (ID))(FuncCall (ID)(ExprList (Constant)(ArrayRef (ID)(ID))(ArrayRef (ID)(ID)))))(Return (Constant))))) |ET| 
