SVM-light Version V5.01-TK-1.5
5 # kernel type
3 # kernel parameter -d 
1 # kernel parameter -g 
1 # kernel parameter -s 
1 # kernel parameter -r 
empty# kernel parameter -u 
0.4 # kernel parameter -L 
1 # kernel parameter -T 
T # kernel parameter -C 
1 # kernel parameter -F 
1 # kernel parameter -S 
0.400000 # kernel parameter -M 
3 # kernel parameter -N 
S # kernel parameter -V 
S # kernel parameter -W 
0 # kernel parameter -U 
0 # highest feature index 
444 # number of training documents 
357 # number of support vectors plus 1 
0.55024405 # threshold b, each following line is a SV (starting with alpha*y)
-0.58288092794458012946279268362559  |BT| (FileAST (Decl (FuncDecl (ParamList (Typename (PtrDecl (TypeDecl (IdentifierType))))(Typename (TypeDecl (IdentifierType)))(Typename (TypeDecl (IdentifierType)))(Typename (TypeDecl (IdentifierType))))(TypeDecl (IdentifierType))))(Decl (FuncDecl (ParamList (Typename (PtrDecl (TypeDecl (IdentifierType))))(Typename (TypeDecl (IdentifierType)))(Typename (TypeDecl (IdentifierType))))(TypeDecl (IdentifierType))))(Decl (ArrayDecl (TypeDecl (IdentifierType))(Constant)))(Decl (ArrayDecl (TypeDecl (IdentifierType))(Constant)))(Decl (TypeDecl (IdentifierType))(Constant))(FuncDef (Decl (FuncDecl (TypeDecl (IdentifierType))))(Compound (Decl (ArrayDecl (TypeDecl (IdentifierType))(Constant)))(Decl (TypeDecl (IdentifierType)))(Decl (TypeDecl (IdentifierType)))(FuncCall (ID)(ExprList (Constant)(UnaryOp (ID))))(For (Assignment (ID)(Constant))(BinaryOp (ID)(ID))(UnaryOp (ID))(Compound (FuncCall (ID)(ExprList (Constant)(UnaryOp (ArrayRef (ID)(ID)))))))(FuncCall (ID)(ExprList (ID)(Constant)(ID)))(For (Assignment (ID)(Constant))(BinaryOp (ID)(ID))(UnaryOp (ID))(Compound (FuncCall (ID)(ExprList (Constant)(ArrayRef (ID)(ID))))(If (BinaryOp (ID)(BinaryOp (ID)(Constant)))(FuncCall (ID)(ExprList (Constant))))))(FuncCall (ID)(ExprList (Constant)(ID)))(Return (Constant))))(FuncDef (Decl (FuncDecl (ParamList (Decl (PtrDecl (TypeDecl (IdentifierType))))(Decl (TypeDecl (IdentifierType)))(Decl (TypeDecl (IdentifierType)))(Decl (TypeDecl (IdentifierType))))(TypeDecl (IdentifierType))))(Compound (Decl (TypeDecl (IdentifierType))(BinaryOp (ID)(ID)))(Decl (TypeDecl (IdentifierType))(BinaryOp (ID)(ID)))(Decl (TypeDecl (IdentifierType)))(Decl (TypeDecl (IdentifierType)))(Decl (TypeDecl (IdentifierType)))(For (Assignment (ID)(Constant))(BinaryOp (ID)(ID))(UnaryOp (ID))(Compound (Assignment (ArrayRef (ID)(ID))(ArrayRef (ID)(BinaryOp (ID)(ID))))))(For (Assignment (ID)(Constant))(BinaryOp (ID)(ID))(UnaryOp (ID))(Compound (Assignment (ArrayRef (ID)(ID))(ArrayRef (ID)(BinaryOp (ID)(ID))))))(Assignment (ArrayRef (ID)(ID))(Constant))(Assignment (ArrayRef (ID)(ID))(Constant))(Assignment (ID)(Constant))(Assignment (ID)(Constant))(For (Assignment (ID)(ID))(BinaryOp (ID)(ID))(UnaryOp (ID))(Compound (UnaryOp (ID))(If (BinaryOp (ArrayRef (ID)(ID))(ArrayRef (ID)(ID)))(Compound (Assignment (ArrayRef (ID)(ID))(ArrayRef (ID)(ID)))(UnaryOp (ID)))(Compound (Assignment (ArrayRef (ID)(ID))(ArrayRef (ID)(ID)))(UnaryOp (ID))))))))(FuncDef (Decl (FuncDecl (ParamList (Decl (PtrDecl (TypeDecl (IdentifierType))))(Decl (TypeDecl (IdentifierType)))(Decl (TypeDecl (IdentifierType))))(TypeDecl (IdentifierType))))(Compound (Decl (TypeDecl (IdentifierType)))(If (BinaryOp (BinaryOp (ID)(Constant))(ID))(Compound (Assignment (ID)(BinaryOp (BinaryOp (ID)(ID))(Constant)))(FuncCall (ID)(ExprList (ID)(ID)(ID)))(FuncCall (ID)(ExprList (ID)(ID)(ID)))(FuncCall (ID)(ExprList (ID)(ID)(ID)(ID)))))))) |ET| 
-0.57998377905160192202771440861397  |BT| (FileAST (Decl (ArrayDecl (TypeDecl (IdentifierType))(BinaryOp (BinaryOp (Constant)(Constant))(Constant))))(Decl (ArrayDecl (TypeDecl (IdentifierType))(BinaryOp (BinaryOp (Constant)(Constant))(Constant))))(Decl (TypeDecl (IdentifierType))(Constant))(FuncDef (Decl (FuncDecl (ParamList (Decl (ArrayDecl (TypeDecl (IdentifierType))))(Decl (TypeDecl (IdentifierType)))(Decl (TypeDecl (IdentifierType)))(Decl (TypeDecl (IdentifierType))))(TypeDecl (IdentifierType))))(Compound (Decl (TypeDecl (IdentifierType)))(Decl (TypeDecl (IdentifierType)))(Decl (TypeDecl (IdentifierType)))(Decl (TypeDecl (IdentifierType)))(Decl (TypeDecl (IdentifierType)))(Assignment (ID)(BinaryOp (ID)(ID)))(Assignment (ID)(BinaryOp (ID)(ID)))(For (Assignment (ID)(Constant))(BinaryOp (ID)(ID))(UnaryOp (ID))(Compound (Assignment (ArrayRef (ID)(ID))(ArrayRef (ID)(BinaryOp (ID)(ID))))))(For (Assignment (ID)(Constant))(BinaryOp (ID)(ID))(UnaryOp (ID))(Compound (Assignment (ArrayRef (ID)(ID))(ArrayRef (ID)(BinaryOp (ID)(ID))))))(Assignment (ArrayRef (ID)(ID))(Assignment (ArrayRef (ID)(ID))(Constant)))(Assignment (ID)(Assignment (ID)(Constant)))(For (Assignment (ID)(ID))(BinaryOp (ID)(ID))(UnaryOp (ID))(Compound (UnaryOp (ID))(If (BinaryOp (ArrayRef (ID)(ID))(ArrayRef (ID)(ID)))(Compound (Assignment (ArrayRef (ID)(ID))(ArrayRef (ID)(ID)))(UnaryOp (ID)))(Compound (Assignment (ArrayRef (ID)(ID))(ArrayRef (ID)(ID)))(UnaryOp (ID))))))))(FuncDef (Decl (FuncDecl (ParamList (Decl (ArrayDecl (TypeDecl (IdentifierType))))(Decl (TypeDecl (IdentifierType)))(Decl (TypeDecl (IdentifierType))))(TypeDecl (IdentifierType))))(Compound (Decl (TypeDecl (IdentifierType)))(If (BinaryOp (BinaryOp (ID)(Constant))(ID))(Compound (Assignment (ID)(BinaryOp (BinaryOp (ID)(ID))(Constant)))(FuncCall (ID)(ExprList (ID)(ID)(ID)))(FuncCall (ID)(ExprList (ID)(ID)(ID)))(FuncCall (ID)(ExprList (ID)(ID)(ID)(ID)))))))(FuncDef (Decl (FuncDecl (TypeDecl (IdentifierType))))(Compound (Decl (TypeDecl (IdentifierType)))(Decl (TypeDecl (IdentifierType)))(Decl (ArrayDecl (TypeDecl (IdentifierType))(Constant)))(FuncCall (ID)(ExprList (Constant)(UnaryOp (ID))))(For (Assignment (ID)(Constant))(BinaryOp (ID)(ID))(UnaryOp (ID))(Compound (FuncCall (ID)(ExprList (Constant)(UnaryOp (ArrayRef (ID)(ID)))))))(FuncCall (ID)(ExprList (ID)(Constant)(ID)))(For (Assignment (ID)(Constant))(BinaryOp (ID)(BinaryOp (ID)(Constant)))(UnaryOp (ID))(Compound (FuncCall (ID)(ExprList (Constant)(ArrayRef (ID)(ID))))))(FuncCall (ID)(ExprList (Constant)(ArrayRef (ID)(BinaryOp (ID)(Constant)))))(FuncCall (ID)(ExprList (Constant)(ID)))(FuncCall (ID)(ExprList (Constant)))(Return (Constant))))) |ET| 
-0.5419456075991667676206020587415  |BT| (FileAST (Decl (FuncDecl (ParamList (Decl (ArrayDecl (TypeDecl (IdentifierType))))(Typename (TypeDecl (IdentifierType)))(Typename (TypeDecl (IdentifierType)))(Typename (TypeDecl (IdentifierType))))(TypeDecl (IdentifierType))))(Decl (FuncDecl (ParamList (Decl (ArrayDecl (TypeDecl (IdentifierType))))(Typename (TypeDecl (IdentifierType)))(Typename (TypeDecl (IdentifierType))))(TypeDecl (IdentifierType))))(Decl (TypeDecl (IdentifierType)))(FuncDef (Decl (FuncDecl (TypeDecl (IdentifierType))))(Compound (Decl (TypeDecl (IdentifierType)))(FuncCall (ID)(ExprList (Constant)(UnaryOp (ID))))(Decl (ArrayDecl (TypeDecl (IdentifierType))(ID)))(Decl (TypeDecl (IdentifierType)))(For (Assignment (ID)(Constant))(BinaryOp (ID)(ID))(UnaryOp (ID))(Compound (FuncCall (ID)(ExprList (Constant)(UnaryOp (ArrayRef (ID)(ID)))))))(Decl (TypeDecl (IdentifierType))(Constant))(Decl (TypeDecl (IdentifierType))(ID))(FuncCall (ID)(ExprList (ID)(ID)(ID)))(For (Assignment (ID)(Constant))(BinaryOp (ID)(ID))(UnaryOp (ID))(Compound (If (ID)(FuncCall (ID)(ExprList (Constant))))(FuncCall (ID)(ExprList (Constant)(ArrayRef (ID)(ID))))))(FuncCall (ID)(ExprList (Constant)))(FuncCall (ID)(ExprList (Constant)(ID)))(Return (Constant))))(FuncDef (Decl (FuncDecl (ParamList (Decl (ArrayDecl (TypeDecl (IdentifierType))))(Decl (TypeDecl (IdentifierType)))(Decl (TypeDecl (IdentifierType)))(Decl (TypeDecl (IdentifierType))))(TypeDecl (IdentifierType))))(Compound (Decl (TypeDecl (IdentifierType))(BinaryOp (ID)(ID)))(Decl (TypeDecl (IdentifierType))(BinaryOp (ID)(ID)))(Decl (TypeDecl (IdentifierType)))(Decl (ArrayDecl (TypeDecl (IdentifierType))(ID)))(Decl (ArrayDecl (TypeDecl (IdentifierType))(ID)))(For (Assignment (ID)(Constant))(BinaryOp (ID)(ID))(UnaryOp (ID))(Compound (Assignment (ArrayRef (ID)(ID))(ArrayRef (ID)(BinaryOp (ID)(ID))))))(For (Assignment (ID)(Constant))(BinaryOp (ID)(ID))(UnaryOp (ID))(Compound (Assignment (ArrayRef (ID)(ID))(ArrayRef (ID)(BinaryOp (ID)(ID))))))(Assignment (ArrayRef (ID)(ID))(Constant))(Assignment (ArrayRef (ID)(ID))(Constant))(Assignment (ID)(Constant))(Decl (TypeDecl (IdentifierType))(Constant))(Decl (TypeDecl (IdentifierType)))(For (Assignment (ID)(ID))(BinaryOp (ID)(ID))(UnaryOp (ID))(Compound (UnaryOp (ID))(If (BinaryOp (ArrayRef (ID)(ID))(ArrayRef (ID)(ID)))(Compound (Assignment (ArrayRef (ID)(ID))(ArrayRef (ID)(ID)))(UnaryOp (ID)))(Compound (Assignment (ArrayRef (ID)(ID))(ArrayRef (ID)(ID)))(UnaryOp (ID))))))))(FuncDef (Decl (FuncDecl (ParamList (Decl (ArrayDecl (TypeDecl (IdentifierType))))(Decl (TypeDecl (IdentifierType)))(Decl (TypeDecl (IdentifierType))))(TypeDecl (IdentifierType))))(Compound (If (BinaryOp (BinaryOp (ID)(Constant))(ID))(Compound (Decl (TypeDecl (IdentifierType))(BinaryOp (BinaryOp (ID)(ID))(Constant)))(FuncCall (ID)(ExprList (ID)(ID)(ID)))(FuncCall (ID)(ExprList (ID)(ID)(ID)))(FuncCall (ID)(ExprList (ID)(ID)(ID)(ID)))))))) |ET| 
-0.5805402722537321702489521157986  |BT| (FileAST (Decl (FuncDecl (TypeDecl (IdentifierType))))(Decl (FuncDecl (TypeDecl (IdentifierType))))(Decl (TypeDecl (IdentifierType))(Constant))(FuncDef (Decl (FuncDecl (TypeDecl (IdentifierType))))(Compound (Decl (TypeDecl (IdentifierType)))(Decl (ArrayDecl (TypeDecl (IdentifierType))(Constant)))(Decl (TypeDecl (IdentifierType)))(FuncCall (ID)(ExprList (Constant)(UnaryOp (ID))))(For (Assignment (ID)(Constant))(BinaryOp (ID)(ID))(UnaryOp (ID))(Compound (FuncCall (ID)(ExprList (Constant)(UnaryOp (ArrayRef (ID)(ID)))))))(FuncCall (ID)(ExprList (ID)(Constant)(ID)))(For (Assignment (ID)(Constant))(BinaryOp (ID)(BinaryOp (ID)(Constant)))(UnaryOp (ID))(FuncCall (ID)(ExprList (Constant)(ArrayRef (ID)(ID)))))(FuncCall (ID)(ExprList (Constant)(ArrayRef (ID)(ID))))(FuncCall (ID)(ExprList (Constant)(ID)))(Return (Constant))))(FuncDef (Decl (FuncDecl (ParamList (Decl (PtrDecl (TypeDecl (IdentifierType))))(Decl (TypeDecl (IdentifierType)))(Decl (TypeDecl (IdentifierType)))(Decl (TypeDecl (IdentifierType))))(TypeDecl (IdentifierType))))(Compound (Decl (TypeDecl (IdentifierType))(BinaryOp (ID)(ID)))(Decl (TypeDecl (IdentifierType))(BinaryOp (ID)(ID)))(Decl (ArrayDecl (TypeDecl (IdentifierType))(ID)))(Decl (ArrayDecl (TypeDecl (IdentifierType))(ID)))(Decl (TypeDecl (IdentifierType)))(Decl (TypeDecl (IdentifierType)))(Decl (TypeDecl (IdentifierType)))(For (Assignment (ID)(Constant))(BinaryOp (ID)(ID))(UnaryOp (ID))(Assignment (ArrayRef (ID)(ID))(ArrayRef (ID)(BinaryOp (ID)(ID)))))(For (Assignment (ID)(Constant))(BinaryOp (ID)(ID))(UnaryOp (ID))(Assignment (ArrayRef (ID)(ID))(ArrayRef (ID)(BinaryOp (ID)(ID)))))(Assignment (ArrayRef (ID)(ID))(Constant))(Assignment (ArrayRef (ID)(ID))(Constant))(Assignment (ID)(Assignment (ID)(Constant)))(For (Assignment (ID)(ID))(BinaryOp (ID)(ID))(UnaryOp (ID))(Compound (UnaryOp (ID))(If (BinaryOp (ArrayRef (ID)(ID))(ArrayRef (ID)(ID)))(Compound (Assignment (ArrayRef (ID)(ID))(ArrayRef (ID)(ID)))(UnaryOp (ID)))(Compound (Assignment (ArrayRef (ID)(ID))(ArrayRef (ID)(ID)))(UnaryOp (ID))))))))(FuncDef (Decl (FuncDecl (ParamList (Decl (PtrDecl (TypeDecl (IdentifierType))))(Decl (TypeDecl (IdentifierType)))(Decl (TypeDecl (IdentifierType))))(TypeDecl (IdentifierType))))(Compound (Decl (TypeDecl (IdentifierType)))(If (BinaryOp (BinaryOp (ID)(Constant))(ID))(Compound (Assignment (ID)(BinaryOp (BinaryOp (ID)(ID))(Constant)))(FuncCall (ID)(ExprList (ID)(ID)(ID)))(FuncCall (ID)(ExprList (ID)(ID)(ID)))(FuncCall (ID)(ExprList (ID)(ID)(ID)(ID)))))))) |ET| 
-0.54898244603075563308181017418974  |BT| (FileAST (Decl (FuncDecl (ParamList (Typename (PtrDecl (TypeDecl (IdentifierType))))(Typename (TypeDecl (IdentifierType)))(Typename (TypeDecl (IdentifierType))))(TypeDecl (IdentifierType))))(Decl (FuncDecl (ParamList (Typename (PtrDecl (TypeDecl (IdentifierType))))(Typename (TypeDecl (IdentifierType)))(Typename (TypeDecl (IdentifierType)))(Typename (TypeDecl (IdentifierType))))(TypeDecl (IdentifierType))))(Decl (TypeDecl (IdentifierType))(Constant))(Decl (ArrayDecl (TypeDecl (IdentifierType))(Constant)))(Decl (ArrayDecl (TypeDecl (IdentifierType))(Constant)))(Decl (ArrayDecl (TypeDecl (IdentifierType))(Constant)))(FuncDef (Decl (FuncDecl (TypeDecl (IdentifierType))))(Compound (Decl (TypeDecl (IdentifierType)))(Decl (TypeDecl (IdentifierType)))(FuncCall (ID)(ExprList (Constant)(UnaryOp (ID))))(For (Assignment (ID)(Constant))(BinaryOp (ID)(ID))(UnaryOp (ID))(Compound (FuncCall (ID)(ExprList (Constant)(UnaryOp (ArrayRef (ID)(ID)))))))(FuncCall (ID)(ExprList (ID)(Constant)(ID)))(For (Assignment (ID)(Constant))(BinaryOp (ID)(BinaryOp (ID)(Constant)))(UnaryOp (ID))(Compound (FuncCall (ID)(ExprList (Constant)(ArrayRef (ID)(ID))))))(FuncCall (ID)(ExprList (Constant)(ArrayRef (ID)(ID))))(FuncCall (ID)(ExprList (Constant)(ID)))(Return (Constant))))(FuncDef (Decl (FuncDecl (ParamList (Decl (PtrDecl (TypeDecl (IdentifierType))))(Decl (TypeDecl (IdentifierType)))(Decl (TypeDecl (IdentifierType))))(TypeDecl (IdentifierType))))(Compound (Decl (TypeDecl (IdentifierType)))(If (BinaryOp (BinaryOp (ID)(Constant))(ID))(Compound (Assignment (ID)(BinaryOp (BinaryOp (ID)(ID))(Constant)))(FuncCall (ID)(ExprList (ID)(ID)(ID)))(FuncCall (ID)(ExprList (ID)(ID)(ID)))(FuncCall (ID)(ExprList (ID)(ID)(ID)(ID)))))))(FuncDef (Decl (FuncDecl (ParamList (Decl (PtrDecl (TypeDecl (IdentifierType))))(Decl (TypeDecl (IdentifierType)))(Decl (TypeDecl (IdentifierType)))(Decl (TypeDecl (IdentifierType))))(TypeDecl (IdentifierType))))(Compound (Decl (TypeDecl (IdentifierType)))(Decl (TypeDecl (IdentifierType)))(Decl (TypeDecl (IdentifierType)))(Decl (TypeDecl (IdentifierType))(Constant))(Decl (TypeDecl (IdentifierType)))(Assignment (ID)(BinaryOp (ID)(ID)))(Assignment (ID)(BinaryOp (ID)(ID)))(For (Assignment (ID)(Constant))(BinaryOp (ID)(ID))(UnaryOp (ID))(Compound (Assignment (ArrayRef (ID)(ID))(ArrayRef (ID)(BinaryOp (ID)(ID))))))(Assignment (ArrayRef (ID)(ID))(Constant))(For (Assignment (ID)(Constant))(BinaryOp (ID)(ID))(UnaryOp (ID))(Compound (Assignment (ArrayRef (ID)(ID))(ArrayRef (ID)(BinaryOp (ID)(ID))))))(Assignment (ArrayRef (ID)(ID))(Constant))(Assignment (ID)(Constant))(For (Assignment (ID)(ID))(BinaryOp (ID)(ID))(UnaryOp (ID))(Compound (If (BinaryOp (ArrayRef (ID)(ID))(ArrayRef (ID)(ID)))(Compound (Assignment (ArrayRef (ID)(ID))(ArrayRef (ID)(ID)))(UnaryOp (ID)))(Compound (Assignment (ArrayRef (ID)(ID))(ArrayRef (ID)(ID)))(UnaryOp (ID))))(UnaryOp (ID))))))) |ET| 
0.3329070127175141613484754543606  |BT| (FileAST (FuncDef (Decl (FuncDecl (TypeDecl (IdentifierType))))(Compound (Decl (PtrDecl (TypeDecl (IdentifierType))))(Decl (PtrDecl (TypeDecl (IdentifierType))))(Decl (ArrayDecl (TypeDecl (IdentifierType))(BinaryOp (Constant)(Constant))))(Decl (TypeDecl (IdentifierType)))(Decl (TypeDecl (IdentifierType)))(Decl (TypeDecl (IdentifierType)))(FuncCall (ID)(ExprList (Constant)(UnaryOp (ID))))(Assignment (ID)(FuncCall (ID)(ExprList (BinaryOp (BinaryOp (UnaryOp (Typename (TypeDecl (IdentifierType))))(ID))(Constant)))))(Assignment (ID)(FuncCall (ID)(ExprList (BinaryOp (BinaryOp (UnaryOp (Typename (TypeDecl (IdentifierType))))(ID))(Constant)))))(For (Assignment (ID)(Constant))(BinaryOp (ID)(Constant))(UnaryOp (ID))(Assignment (ArrayRef (ID)(ID))(Constant)))(For (Assignment (ID)(Constant))(BinaryOp (ID)(ID))(UnaryOp (ID))(Compound (FuncCall (ID)(ExprList (Constant)(UnaryOp (ArrayRef (ID)(BinaryOp (ID)(Constant))))))(UnaryOp (ArrayRef (ID)(ArrayRef (ID)(BinaryOp (ID)(Constant)))))))(For (Assignment (ID)(Constant))(BinaryOp (ID)(Constant))(UnaryOp (ID))(Compound (Assignment (ArrayRef (ID)(ID))(BinaryOp (ArrayRef (ID)(ID))(ArrayRef (ID)(BinaryOp (ID)(Constant)))))))(For (Assignment (ID)(Constant))(BinaryOp (ID)(ID))(UnaryOp (ID))(Compound (Assignment (ArrayRef (ID)(ArrayRef (ID)(ArrayRef (ID)(ID))))(ArrayRef (ID)(ID)))(UnaryOp (ArrayRef (ID)(ArrayRef (ID)(ID))))))(For (Assignment (ID)(Constant))(BinaryOp (ID)(ID))(UnaryOp (ID))(Compound (If (BinaryOp (ID)(Constant))(FuncCall (ID)(ExprList (Constant))))(FuncCall (ID)(ExprList (Constant)(ArrayRef (ID)(ID))))))(FuncCall (ID)(ExprList (Constant)))(Return (Constant))))) |ET| 
0.062726511592197095601441958478972  |BT| (FileAST (Decl (ArrayDecl (TypeDecl (IdentifierType))(BinaryOp (Constant)(Constant))))(Decl (ArrayDecl (TypeDecl (IdentifierType))(BinaryOp (Constant)(Constant))))(Decl (ArrayDecl (TypeDecl (IdentifierType))(BinaryOp (Constant)(Constant)))(InitList (Constant)))(Decl (TypeDecl (IdentifierType)))(Decl (TypeDecl (IdentifierType))(Constant))(Decl (FuncDecl (TypeDecl (IdentifierType))))(FuncDef (Decl (FuncDecl (TypeDecl (IdentifierType))))(Compound (Decl (TypeDecl (IdentifierType)))(FuncCall (ID)(ExprList (Constant)(UnaryOp (ID))))(For (Assignment (ID)(Constant))(BinaryOp (ID)(ID))(UnaryOp (ID))(Compound (FuncCall (ID)(ExprList (Constant)(UnaryOp (ArrayRef (ID)(ID)))))(If (BinaryOp (ArrayRef (ID)(ID))(ID))(Assignment (ID)(ArrayRef (ID)(ID))))))(FuncCall (ID)(ExprList (ID)))(For (Assignment (ID)(Constant))(BinaryOp (ID)(BinaryOp (ID)(Constant)))(UnaryOp (ID))(FuncCall (ID)(ExprList (Constant)(ArrayRef (ID)(ID)))))(FuncCall (ID)(ExprList (Constant)(ArrayRef (ID)(ID))))))(FuncDef (Decl (FuncDecl (TypeDecl (IdentifierType))))(Compound (Decl (TypeDecl (IdentifierType)))(For (Assignment (ID)(Constant))(BinaryOp (ID)(ID))(UnaryOp (ID))(UnaryOp (ArrayRef (ID)(ArrayRef (ID)(ID)))))(For (Assignment (ID)(Constant))(BinaryOp (ID)(ID))(UnaryOp (ID))(Assignment (ArrayRef (ID)(ID))(ArrayRef (ID)(BinaryOp (ID)(Constant)))))(For (Assignment (ID)(ID))(BinaryOp (ID)(Constant))(UnaryOp (ID))(Compound (Assignment (ArrayRef (ID)(ArrayRef (ID)(ArrayRef (ID)(ID))))(ArrayRef (ID)(ID)))(UnaryOp (ArrayRef (ID)(ArrayRef (ID)(ID))))))))) |ET| 
0.53761243831604044185468183059129  |BT| (FileAST (Decl (ArrayDecl (TypeDecl (IdentifierType))(Constant)))(Decl (TypeDecl (IdentifierType)))(FuncDef (Decl (FuncDecl (ParamList (Decl (ArrayDecl (TypeDecl (IdentifierType))))(Decl (TypeDecl (IdentifierType))))(TypeDecl (IdentifierType))))(Compound (Decl (ArrayDecl (TypeDecl (IdentifierType))(BinaryOp (ID)(Constant))))(Decl (TypeDecl (IdentifierType)))(Decl (TypeDecl (IdentifierType)))(For (Assignment (ID)(Constant))(BinaryOp (ID)(ID))(UnaryOp (ID))(Assignment (ArrayRef (ID)(ID))(Constant)))(For (Assignment (ID)(Constant))(BinaryOp (ID)(ID))(UnaryOp (ID))(UnaryOp (ArrayRef (ID)(ArrayRef (ID)(ID)))))(For (Assignment (ID)(Constant))(BinaryOp (ID)(ID))(UnaryOp (ID))(Assignment (ArrayRef (ID)(ID))(BinaryOp (ArrayRef (ID)(ID))(ArrayRef (ID)(BinaryOp (ID)(Constant))))))(For (Assignment (ID)(ID))(BinaryOp (ID)(Constant))(UnaryOp (ID))(Compound (Assignment (ArrayRef (ID)(ArrayRef (ID)(ArrayRef (ID)(ID))))(ArrayRef (ID)(ID)))(UnaryOp (ArrayRef (ID)(ArrayRef (ID)(ID))))))))(FuncDef (Decl (FuncDecl (TypeDecl (IdentifierType))))(Compound (Decl (ArrayDecl (TypeDecl (IdentifierType))(Constant)))(Decl (TypeDecl (IdentifierType)))(Decl (TypeDecl (IdentifierType))(Constant))(FuncCall (ID)(ExprList (Constant)(UnaryOp (ID))))(For (Assignment (ID)(Constant))(BinaryOp (ID)(ID))(UnaryOp (ID))(Compound (FuncCall (ID)(ExprList (Constant)(UnaryOp (ArrayRef (ID)(ID)))))(If (BinaryOp (ID)(ArrayRef (ID)(ID)))(Assignment (ID)(ArrayRef (ID)(ID))))))(FuncCall (ID)(ExprList (ID)(BinaryOp (ID)(Constant))))(For (Assignment (ID)(Constant))(BinaryOp (ID)(ID))(UnaryOp (ID))(Compound (FuncCall (ID)(ExprList (Constant)(ArrayRef (ID)(ID))))(If (BinaryOp (ID)(ID))(FuncCall (ID)(ExprList (Constant))))))(FuncCall (ID)(ExprList (Constant)))(Return (Constant))))) |ET| 
0.063051827312025007787887886934186  |BT| (FileAST (Decl (FuncDecl (ParamList (Typename (PtrDecl (TypeDecl (IdentifierType))))(Typename (PtrDecl (TypeDecl (IdentifierType))))(Typename (TypeDecl (IdentifierType))))(TypeDecl (IdentifierType))))(FuncDef (Decl (FuncDecl (TypeDecl (IdentifierType))))(Compound (Decl (TypeDecl (IdentifierType)))(Decl (TypeDecl (IdentifierType)))(FuncCall (ID)(ExprList (Constant)(UnaryOp (ID))))(Decl (ArrayDecl (TypeDecl (IdentifierType))(BinaryOp (ID)(Constant))))(Decl (ArrayDecl (TypeDecl (IdentifierType))(BinaryOp (ID)(Constant))))(For (Assignment (ID)(Constant))(BinaryOp (ID)(ID))(UnaryOp (ID))(Compound (FuncCall (ID)(ExprList (Constant)(UnaryOp (ArrayRef (ID)(ID)))))))(FuncCall (ID)(ExprList (ID)(ID)(ID)))(For (Assignment (ID)(Constant))(BinaryOp (ID)(ID))(UnaryOp (ID))(Compound (If (BinaryOp (ID)(ID))(FuncCall (ID)(ExprList (Constant)(ArrayRef (ID)(ID))))(FuncCall (ID)(ExprList (Constant)(ArrayRef (ID)(ID)))))))(Return (Constant))))(FuncDef (Decl (FuncDecl (ParamList (Decl (PtrDecl (TypeDecl (IdentifierType))))(Decl (PtrDecl (TypeDecl (IdentifierType))))(Decl (TypeDecl (IdentifierType))))(TypeDecl (IdentifierType))))(Compound (Decl (TypeDecl (IdentifierType)))(Decl (ArrayDecl (TypeDecl (IdentifierType))(BinaryOp (Constant)(Constant))))(For (Assignment (ID)(Constant))(BinaryOp (ID)(Constant))(UnaryOp (ID))(Assignment (ArrayRef (ID)(ID))(Constant)))(For (Assignment (ID)(Constant))(BinaryOp (ID)(ID))(UnaryOp (ID))(UnaryOp (ArrayRef (ID)(ArrayRef (ID)(ID)))))(For (Assignment (ID)(Constant))(BinaryOp (ID)(Constant))(UnaryOp (ID))(Assignment (ArrayRef (ID)(ID))(ArrayRef (ID)(BinaryOp (ID)(Constant)))))(For (Assignment (ID)(BinaryOp (ID)(Constant)))(BinaryOp (ID)(Constant))(UnaryOp (ID))(Compound (Assignment (ArrayRef (ID)(ArrayRef (ID)(ArrayRef (ID)(ID))))(ArrayRef (ID)(ID)))(UnaryOp (ArrayRef (ID)(ArrayRef (ID)(ID))))))))) |ET| 
-1  |BT| (FileAST (Decl (ArrayDecl (TypeDecl (IdentifierType))(Constant)))(Decl (TypeDecl (IdentifierType))(Constant))(FuncDef (Decl (FuncDecl (ParamList (Decl (ArrayDecl (TypeDecl (IdentifierType))))(Decl (TypeDecl (IdentifierType)))(Decl (TypeDecl (IdentifierType))))(TypeDecl (IdentifierType))))(Compound (Decl (TypeDecl (IdentifierType)))(Decl (TypeDecl (IdentifierType)))(Decl (TypeDecl (IdentifierType)))(Decl (TypeDecl (IdentifierType)))(If (BinaryOp (ID)(ID))(Compound (Assignment (ID)(BinaryOp (BinaryOp (ID)(ID))(Constant)))(FuncCall (ID)(ExprList (ID)(ID)(ID)))(FuncCall (ID)(ExprList (ID)(BinaryOp (ID)(Constant))(ID)))(For (Assignment (ID)(ID))(BinaryOp (ID)(ID))(UnaryOp (ID))(Assignment (ArrayRef (ID)(ID))(ArrayRef (ID)(ID))))(For (ExprList (Assignment (ID)(BinaryOp (ID)(Constant)))(Assignment (ID)(ID)))(BinaryOp (ID)(ID))(ExprList (UnaryOp (ID))(UnaryOp (ID)))(Assignment (ArrayRef (ID)(ID))(ArrayRef (ID)(ID))))(Assignment (ID)(ID))(Assignment (ID)(ID))(For (Assignment (ID)(ID))(BinaryOp (ID)(ID))(UnaryOp (ID))(Compound (UnaryOp (ID))(If (BinaryOp (ArrayRef (ID)(ID))(ArrayRef (ID)(ID)))(Assignment (ArrayRef (ID)(ID))(ArrayRef (ID)(UnaryOp (ID))))(Assignment (ArrayRef (ID)(ID))(ArrayRef (ID)(UnaryOp (ID)))))))))))(FuncDef (Decl (FuncDecl (ParamList (Typename (TypeDecl (IdentifierType))))(TypeDecl (IdentifierType))))(Compound (Decl (TypeDecl (IdentifierType)))(Decl (ArrayDecl (TypeDecl (IdentifierType))(Constant)))(Decl (TypeDecl (IdentifierType)))(FuncCall (ID)(ExprList (Constant)(UnaryOp (ID))))(For (Assignment (ID)(Constant))(BinaryOp (ID)(ID))(UnaryOp (ID))(Compound (FuncCall (ID)(ExprList (Constant)(UnaryOp (ArrayRef (ID)(ID)))))))(FuncCall (ID)(ExprList (ID)(Constant)(BinaryOp (ID)(Constant))))(For (Assignment (ID)(Constant))(BinaryOp (ID)(ID))(UnaryOp (ID))(Compound (FuncCall (ID)(ExprList (Constant)(ArrayRef (ID)(ID))))(If (BinaryOp (ID)(BinaryOp (ID)(Constant)))(Compound (FuncCall (ID)(ExprList (Constant)))))))(FuncCall (ID)(ExprList (Constant)(ID)))(Return (Constant))))) |ET| 
0.99649619519094745356824205373414  |BT| (FileAST (Decl (FuncDecl (ParamList (Typename (TypeDecl (IdentifierType))))(TypeDecl (IdentifierType))))(Decl (FuncDecl (ParamList (Decl (TypeDecl (IdentifierType))))(TypeDecl (IdentifierType))))(Decl (FuncDecl (ParamList (Decl (ArrayDecl (TypeDecl (IdentifierType))))(Decl (ArrayDecl (TypeDecl (IdentifierType))))(Decl (TypeDecl (IdentifierType)))(Decl (TypeDecl (IdentifierType))))(TypeDecl (IdentifierType))))(Decl (ArrayDecl (TypeDecl (IdentifierType))(Constant)))(Decl (ArrayDecl (TypeDecl (IdentifierType))(Constant)))(Decl (ArrayDecl (TypeDecl (IdentifierType))(Constant)))(Decl (PtrDecl (TypeDecl (IdentifierType)))(ID))(FuncDef (Decl (FuncDecl (ParamList (Typename (TypeDecl (IdentifierType))))(TypeDecl (IdentifierType))))(Compound (Decl (TypeDecl (IdentifierType)))(Decl (TypeDecl (IdentifierType)))(FuncCall (ID)(ExprList (ID)(Constant)(Constant)(ID)))(Assignment (ID)(FuncCall (ID)))(For (Assignment (ID)(Constant))(BinaryOp (ID)(ID))(UnaryOp (ID))(Compound (Assignment (ArrayRef (ID)(ID))(FuncCall (ID)))))(FuncCall (ID)(ExprList (ID)(ID)(Constant)(ID)))(Assignment (ID)(ID))(UnaryOp (ID))(For (Assignment (ID)(Constant))(BinaryOp (ID)(ID))(UnaryOp (ID))(Compound (FuncCall (ID)(ExprList (ArrayRef (ID)(ID))))(EmptyStatement)(Assignment (UnaryOp (ID))(Cast (Typename (TypeDecl (IdentifierType)))(Constant)))(UnaryOp (ID))(EmptyStatement)))(FuncCall (ID)(ExprList (ArrayRef (ID)(ID))))(EmptyStatement)(Assignment (UnaryOp (ID))(Cast (Typename (TypeDecl (IdentifierType)))(Constant)))(UnaryOp (ID))(EmptyStatement)(FuncCall (ID)(ExprList (ID)))(Return (Constant))))(FuncDef (Decl (FuncDecl (ParamList (Typename (TypeDecl (IdentifierType))))(TypeDecl (IdentifierType))))(Compound (Decl (TypeDecl (IdentifierType))(Constant))(While (BinaryOp (BinaryOp (UnaryOp (ID))(Constant))(BinaryOp (UnaryOp (ID))(Constant)))(Compound (Assignment (ID)(BinaryOp (BinaryOp (ID)(Constant))(Cast (Typename (TypeDecl (IdentifierType)))(BinaryOp (UnaryOp (ID))(Constant)))))(UnaryOp (ID))))(UnaryOp (ID))(Return (ID))))(FuncDef (Decl (FuncDecl (ParamList (Decl (TypeDecl (IdentifierType))))(TypeDecl (IdentifierType))))(Compound (Decl (TypeDecl (IdentifierType)))(If (BinaryOp (ID)(Constant))(Compound (EmptyStatement)(Assignment (UnaryOp (ID))(Cast (Typename (TypeDecl (IdentifierType)))(BinaryOp (Constant)(ID))))(UnaryOp (ID))(EmptyStatement)(Return)))(Assignment (ID)(BinaryOp (ID)(Constant)))(If (ID)(FuncCall (ID)(ExprList (ID))))(EmptyStatement)(Assignment (UnaryOp (ID))(Cast (Typename (TypeDecl (IdentifierType)))(BinaryOp (Constant)(BinaryOp (ID)(BinaryOp (ID)(Constant))))))(UnaryOp (ID))(EmptyStatement)))(FuncDef (Decl (FuncDecl (ParamList (Decl (ArrayDecl (TypeDecl (IdentifierType))))(Decl (ArrayDecl (TypeDecl (IdentifierType))))(Decl (TypeDecl (IdentifierType)))(Decl (TypeDecl (IdentifierType))))(TypeDecl (IdentifierType))))(Compound (Decl (ArrayDecl (TypeDecl (IdentifierType))(Constant))(InitList (Constant)))(Decl (TypeDecl (IdentifierType)))(Decl (TypeDecl (IdentifierType)))(For (Assignment (ID)(Constant))(BinaryOp (ID)(ID))(UnaryOp (ID))(Compound (UnaryOp (ArrayRef (ID)(ArrayRef (ID)(ID))))))(For (Assignment (ID)(Constant))(BinaryOp (ID)(ID))(UnaryOp (ID))(Compound (Assignment (ArrayRef (ID)(ID))(ArrayRef (ID)(BinaryOp (ID)(Constant))))))(For (Assignment (ID)(ID))(BinaryOp (ID)(Constant))(UnaryOp (ID))(Compound (Assignment (ArrayRef (ID)(ArrayRef (ID)(ArrayRef (ID)(ID))))(ArrayRef (ID)(ID)))(UnaryOp (ArrayRef (ID)(ArrayRef (ID)(ID))))))))) |ET| 
-1  |BT| (FileAST (Decl (FuncDecl (ParamList (Decl (ArrayDecl (TypeDecl (IdentifierType))))(Decl (TypeDecl (IdentifierType)))(Decl (TypeDecl (IdentifierType))))(TypeDecl (IdentifierType))))(Decl (TypeDecl (IdentifierType))(Constant))(FuncDef (Decl (FuncDecl (TypeDecl (IdentifierType))))(Compound (Decl (TypeDecl (IdentifierType)))(Decl (TypeDecl (IdentifierType)))(Decl (ArrayDecl (TypeDecl (IdentifierType))(Constant)))(FuncCall (ID)(ExprList (Constant)(UnaryOp (ID))))(For (Assignment (ID)(Constant))(BinaryOp (ID)(ID))(UnaryOp (ID))(FuncCall (ID)(ExprList (Constant)(UnaryOp (ArrayRef (ID)(ID))))))(FuncCall (ID)(ExprList (ID)(Constant)(BinaryOp (ID)(Constant))))(For (Assignment (ID)(Constant))(BinaryOp (ID)(BinaryOp (ID)(Constant)))(UnaryOp (ID))(FuncCall (ID)(ExprList (Constant)(ArrayRef (ID)(ID)))))(FuncCall (ID)(ExprList (Constant)(ArrayRef (ID)(BinaryOp (ID)(Constant)))))(FuncCall (ID)(ExprList (Constant)(ID)))(Return (Constant))))(FuncDef (Decl (FuncDecl (ParamList (Decl (ArrayDecl (TypeDecl (IdentifierType))))(Decl (TypeDecl (IdentifierType)))(Decl (TypeDecl (IdentifierType))))(TypeDecl (IdentifierType))))(Compound (Decl (TypeDecl (IdentifierType)))(Decl (TypeDecl (IdentifierType)))(Decl (TypeDecl (IdentifierType)))(Decl (ArrayDecl (TypeDecl (IdentifierType))(Constant)))(Decl (TypeDecl (IdentifierType)))(If (BinaryOp (ID)(ID))(Compound (Assignment (ID)(BinaryOp (BinaryOp (ID)(ID))(Constant)))(FuncCall (ID)(ExprList (ID)(ID)(ID)))(FuncCall (ID)(ExprList (ID)(BinaryOp (ID)(Constant))(ID)))(For (Assignment (ID)(ID))(BinaryOp (ID)(ID))(UnaryOp (ID))(Compound (Assignment (ArrayRef (ID)(ID))(ArrayRef (ID)(ID)))(UnaryOp (ID))))(For (Assignment (ID)(BinaryOp (ID)(Constant)))(BinaryOp (ID)(ID))(UnaryOp (ID))(Compound (Assignment (ArrayRef (ID)(BinaryOp (ID)(BinaryOp (ID)(BinaryOp (ID)(Constant)))))(ArrayRef (ID)(ID)))(UnaryOp (ID))))(Assignment (ID)(ID))(Assignment (ID)(ID))(For (Assignment (ID)(ID))(BinaryOp (ID)(ID))(UnaryOp (ID))(Compound (If (BinaryOp (ArrayRef (ID)(ID))(ArrayRef (ID)(ID)))(Compound (Assignment (ArrayRef (ID)(ID))(ArrayRef (ID)(UnaryOp (ID)))))(Compound (Assignment (ArrayRef (ID)(ID))(ArrayRef (ID)(UnaryOp (ID))))))))))))) |ET| 
1  |BT| (FileAST (FuncDef (Decl (FuncDecl (TypeDecl (IdentifierType))))(Compound (Decl (PtrDecl (TypeDecl (IdentifierType))))(Decl (PtrDecl (TypeDecl (IdentifierType))))(Decl (ArrayDecl (TypeDecl (IdentifierType))(BinaryOp (Constant)(Constant))))(Decl (TypeDecl (IdentifierType)))(Decl (TypeDecl (IdentifierType)))(Decl (TypeDecl (IdentifierType)))(Decl (TypeDecl (IdentifierType)))(FuncCall (ID)(ExprList (Constant)(UnaryOp (ID))))(Assignment (ID)(FuncCall (ID)(ExprList (BinaryOp (BinaryOp (UnaryOp (Typename (TypeDecl (IdentifierType))))(ID))(Constant)))))(Assignment (ID)(FuncCall (ID)(ExprList (BinaryOp (BinaryOp (UnaryOp (Typename (TypeDecl (IdentifierType))))(ID))(Constant)))))(For (Assignment (ID)(Constant))(BinaryOp (ID)(ID))(UnaryOp (ID))(Compound (FuncCall (ID)(ExprList (Constant)(UnaryOp (ArrayRef (ID)(ID)))))))(Assignment (ID)(ArrayRef (ID)(Constant)))(For (Assignment (ID)(Constant))(BinaryOp (ID)(ID))(UnaryOp (ID))(Compound (If (BinaryOp (ID)(ArrayRef (ID)(ID)))(Compound (Assignment (ID)(ArrayRef (ID)(ID)))))))(For (Assignment (ID)(Constant))(BinaryOp (ID)(Constant))(UnaryOp (ID))(Compound (Assignment (ArrayRef (ID)(ID))(Constant))))(For (Assignment (ID)(Constant))(BinaryOp (ID)(ID))(UnaryOp (ID))(Compound (Assignment (ArrayRef (ID)(ArrayRef (ID)(ID)))(Constant))))(For (Assignment (ID)(Constant))(BinaryOp (ID)(Constant))(UnaryOp (ID))(Compound (Assignment (ArrayRef (ID)(ID))(ArrayRef (ID)(BinaryOp (ID)(Constant))))))(For (Assignment (ID)(BinaryOp (ID)(Constant)))(BinaryOp (ID)(Constant))(UnaryOp (ID))(Compound (Assignment (ArrayRef (ID)(ArrayRef (ID)(ArrayRef (ID)(ID))))(ArrayRef (ID)(ID)))(UnaryOp (ArrayRef (ID)(ArrayRef (ID)(ID))))))(For (Assignment (ID)(Constant))(BinaryOp (ID)(ID))(UnaryOp (ID))(Compound (FuncCall (ID)(ExprList (Constant)(ArrayRef (ID)(ID))))))(FuncCall (ID)(ExprList (Constant)(ArrayRef (ID)(ID))))(FuncCall (ID)(ExprList (ID)))(FuncCall (ID)(ExprList (ID)))(Return (Constant))))) |ET| 
-0.98184121613141506212940612385864  |BT| (FileAST (FuncDef (Decl (FuncDecl (ParamList (Decl (ArrayDecl (TypeDecl (IdentifierType))))(Decl (TypeDecl (IdentifierType)))(Decl (ArrayDecl (TypeDecl (IdentifierType))))(Decl (TypeDecl (IdentifierType))))(TypeDecl (IdentifierType))))(Compound (Decl (TypeDecl (IdentifierType))(BinaryOp (ID)(ID)))(Decl (PtrDecl (TypeDecl (IdentifierType)))(Cast (Typename (PtrDecl (TypeDecl (IdentifierType))))(FuncCall (ID)(ExprList (BinaryOp (UnaryOp (Typename (TypeDecl (IdentifierType))))(ID))))))(Decl (TypeDecl (IdentifierType))(Constant))(Decl (TypeDecl (IdentifierType))(Constant))(Decl (TypeDecl (IdentifierType))(Constant))(Decl (TypeDecl (IdentifierType)))(For (Assignment (ID)(Constant))(BinaryOp (ID)(ID))(UnaryOp (ID))(Compound (If (BinaryOp (BinaryOp (ID)(ID))(BinaryOp (ID)(ID)))(Compound (If (BinaryOp (ArrayRef (ID)(ID))(ArrayRef (ID)(ID)))(Compound (Assignment (ArrayRef (ID)(ID))(ArrayRef (ID)(ID)))(UnaryOp (ID)))(Compound (Assignment (ArrayRef (ID)(ID))(ArrayRef (ID)(ID)))(UnaryOp (ID)))))(If (BinaryOp (ID)(ID))(Compound (Assignment (ArrayRef (ID)(ID))(ArrayRef (ID)(ID)))(UnaryOp (ID)))(Compound (Assignment (ArrayRef (ID)(ID))(ArrayRef (ID)(ID)))(UnaryOp (ID)))))(UnaryOp (ID))))(FuncCall (ID)(ExprList (ID)(ID)(BinaryOp (UnaryOp (Typename (TypeDecl (IdentifierType))))(ID))))(FuncCall (ID)(ExprList (ID)))(Return (ID))))(FuncDef (Decl (FuncDecl (ParamList (Decl (ArrayDecl (TypeDecl (IdentifierType))))(Decl (TypeDecl (IdentifierType))))(TypeDecl (IdentifierType))))(Compound (If (BinaryOp (ID)(Constant))(Return (Constant)))(If (BinaryOp (ID)(Constant))(Compound (Return (Constant)))(Compound (Decl (TypeDecl (IdentifierType))(BinaryOp (ID)(Constant)))(Decl (TypeDecl (IdentifierType))(FuncCall (ID)(ExprList (ID)(ID))))(Decl (TypeDecl (IdentifierType))(FuncCall (ID)(ExprList (UnaryOp (ArrayRef (ID)(ID)))(BinaryOp (ID)(ID)))))(Decl (TypeDecl (IdentifierType))(FuncCall (ID)(ExprList (ID)(ID)(UnaryOp (ArrayRef (ID)(ID)))(BinaryOp (ID)(ID)))))(Return (BinaryOp (BinaryOp (ID)(ID))(ID)))))))(Decl (ArrayDecl (TypeDecl (IdentifierType))(Constant)))(FuncDef (Decl (FuncDecl (ParamList (Typename (TypeDecl (IdentifierType))))(TypeDecl (IdentifierType))))(Compound (Decl (TypeDecl (IdentifierType)))(FuncCall (ID)(ExprList (Constant)(UnaryOp (ID))))(Decl (TypeDecl (IdentifierType)))(For (Assignment (ID)(Constant))(BinaryOp (ID)(ID))(UnaryOp (ID))(Compound (FuncCall (ID)(ExprList (Constant)(UnaryOp (ArrayRef (ID)(ID)))))))(Decl (TypeDecl (IdentifierType))(FuncCall (ID)(ExprList (ID)(ID))))(For (Assignment (ID)(Constant))(BinaryOp (ID)(ID))(UnaryOp (ID))(Compound (If (BinaryOp (ID)(Constant))(FuncCall (ID)(ExprList (Constant))))(FuncCall (ID)(ExprList (Constant)(ArrayRef (ID)(ID))))))(FuncCall (ID)(ExprList (Constant)))(FuncCall (ID)(ExprList (Constant)(ID)))(Return (Constant))))) |ET| 
1  |BT| (FileAST (FuncDef (Decl (FuncDecl (TypeDecl (IdentifierType))))(Compound (Decl (PtrDecl (TypeDecl (IdentifierType))))(Decl (PtrDecl (TypeDecl (IdentifierType))))(Decl (ArrayDecl (TypeDecl (IdentifierType))(BinaryOp (Constant)(Constant))))(Decl (TypeDecl (IdentifierType)))(Decl (TypeDecl (IdentifierType)))(Decl (TypeDecl (IdentifierType)))(Decl (TypeDecl (IdentifierType))(Constant))(FuncCall (ID)(ExprList (Constant)(UnaryOp (ID))))(If (UnaryOp (BinaryOp (BinaryOp (ID)(Constant))(BinaryOp (ID)(Constant))))(FuncCall (ID)(ExprList (Constant))))(Assignment (ID)(FuncCall (ID)(ExprList (BinaryOp (BinaryOp (UnaryOp (Typename (TypeDecl (IdentifierType))))(ID))(Constant)))))(Assignment (ID)(FuncCall (ID)(ExprList (BinaryOp (BinaryOp (UnaryOp (Typename (TypeDecl (IdentifierType))))(ID))(Constant)))))(For (Assignment (ID)(Constant))(BinaryOp (ID)(ID))(UnaryOp (ID))(Compound (FuncCall (ID)(ExprList (Constant)(UnaryOp (ArrayRef (ID)(ID)))))(If (UnaryOp (BinaryOp (BinaryOp (ArrayRef (ID)(ID))(Constant))(BinaryOp (ArrayRef (ID)(ID))(Constant))))(EmptyStatement))(If (BinaryOp (ID)(ArrayRef (ID)(ID)))(Assignment (ID)(ArrayRef (ID)(ID))))))(For (Assignment (ID)(Constant))(BinaryOp (ID)(ID))(UnaryOp (ID))(Assignment (ArrayRef (ID)(ID))(Constant)))(For (Assignment (ID)(Constant))(BinaryOp (ID)(ID))(UnaryOp (ID))(UnaryOp (ArrayRef (ID)(ArrayRef (ID)(ID)))))(For (Assignment (ID)(Constant))(BinaryOp (ID)(ID))(UnaryOp (ID))(Assignment (ArrayRef (ID)(ID))(BinaryOp (ArrayRef (ID)(ID))(ArrayRef (ID)(BinaryOp (ID)(Constant))))))(For (Assignment (ID)(ID))(BinaryOp (ID)(Constant))(UnaryOp (ID))(Compound (Assignment (ArrayRef (ID)(ArrayRef (ID)(ArrayRef (ID)(ID))))(ArrayRef (ID)(ID)))(UnaryOp (ArrayRef (ID)(ArrayRef (ID)(ID))))))(For (Assignment (ID)(Constant))(BinaryOp (ID)(BinaryOp (ID)(Constant)))(UnaryOp (ID))(Compound (FuncCall (ID)(ExprList (Constant)(ArrayRef (ID)(ID))))))(FuncCall (ID)(ExprList (Constant)(ArrayRef (ID)(ID))))(FuncCall (ID)(ExprList (ID)))(FuncCall (ID)(ExprList (ID)))(Return (Constant))))) |ET| 
-0.85779107573332546987643354441389  |BT| (FileAST (Decl (ArrayDecl (TypeDecl (IdentifierType))(Constant)))(Decl (TypeDecl (IdentifierType))(Constant))(FuncDef (Decl (FuncDecl (ParamList (Decl (TypeDecl (IdentifierType)))(Decl (TypeDecl (IdentifierType)))(Decl (TypeDecl (IdentifierType))))(TypeDecl (IdentifierType))))(Compound (Decl (TypeDecl (IdentifierType))(BinaryOp (ID)(ID)))(Decl (TypeDecl (IdentifierType))(BinaryOp (ID)(ID)))(Decl (ArrayDecl (TypeDecl (IdentifierType))(BinaryOp (ID)(Constant))))(Decl (ArrayDecl (TypeDecl (IdentifierType))(BinaryOp (ID)(Constant))))(For (DeclList (Decl (TypeDecl (IdentifierType))(Constant)))(BinaryOp (ID)(ID))(UnaryOp (ID))(Assignment (ArrayRef (ID)(ID))(ArrayRef (ID)(BinaryOp (ID)(ID)))))(For (DeclList (Decl (TypeDecl (IdentifierType))(Constant)))(BinaryOp (ID)(ID))(UnaryOp (ID))(Assignment (ArrayRef (ID)(ID))(ArrayRef (ID)(BinaryOp (ID)(ID)))))(Assignment (ArrayRef (ID)(ID))(Constant))(Assignment (ArrayRef (ID)(ID))(Constant))(Decl (TypeDecl (IdentifierType))(Constant))(Decl (TypeDecl (IdentifierType))(Constant))(For (DeclList (Decl (TypeDecl (IdentifierType))(ID)))(BinaryOp (ID)(ID))(UnaryOp (ID))(Compound (UnaryOp (ID))(If (BinaryOp (ArrayRef (ID)(ID))(ArrayRef (ID)(ID)))(Compound (Assignment (ArrayRef (ID)(ID))(ArrayRef (ID)(ID)))(UnaryOp (ID)))(Compound (Assignment (ArrayRef (ID)(ID))(ArrayRef (ID)(ID)))(UnaryOp (ID))))))))(FuncDef (Decl (FuncDecl (ParamList (Decl (TypeDecl (IdentifierType)))(Decl (TypeDecl (IdentifierType))))(TypeDecl (IdentifierType))))(Compound (If (BinaryOp (BinaryOp (ID)(Constant))(ID))(Compound (Decl (TypeDecl (IdentifierType))(BinaryOp (BinaryOp (ID)(ID))(Constant)))(FuncCall (ID)(ExprList (ID)(ID)))(FuncCall (ID)(ExprList (ID)(ID)))(FuncCall (ID)(ExprList (ID)(ID)(ID)))))))(FuncDef (Decl (FuncDecl (ParamList (Typename (TypeDecl (IdentifierType))))(TypeDecl (IdentifierType))))(Compound (Decl (TypeDecl (IdentifierType)))(FuncCall (ID)(ExprList (Constant)(UnaryOp (ID))))(For (DeclList (Decl (TypeDecl (IdentifierType))(Constant)))(BinaryOp (ID)(ID))(UnaryOp (ID))(Compound (FuncCall (ID)(ExprList (Constant)(UnaryOp (ArrayRef (ID)(ID)))))))(FuncCall (ID)(ExprList (Constant)(ID)))(For (DeclList (Decl (TypeDecl (IdentifierType))(Constant)))(BinaryOp (ID)(ID))(UnaryOp (ID))(Compound (FuncCall (ID)(ExprList (Constant)(ArrayRef (ID)(ID))))(If (BinaryOp (ID)(BinaryOp (ID)(Constant)))(FuncCall (ID)(ExprList (Constant)))(FuncCall (ID)(ExprList (Constant)(ID))))))(Return (Constant))))) |ET| 
1  |BT| (FileAST (Decl (FuncDecl (ParamList (Typename (PtrDecl (TypeDecl (IdentifierType))))(Typename (PtrDecl (TypeDecl (IdentifierType))))(Typename (TypeDecl (IdentifierType))))(TypeDecl (IdentifierType))))(Decl (TypeDecl (IdentifierType)))(FuncDef (Decl (FuncDecl (ParamList (Typename (TypeDecl (IdentifierType))))(TypeDecl (IdentifierType))))(Compound (Decl (PtrDecl (TypeDecl (IdentifierType))))(Decl (PtrDecl (TypeDecl (IdentifierType))))(Decl (TypeDecl (IdentifierType)))(Decl (TypeDecl (IdentifierType)))(Decl (TypeDecl (IdentifierType)))(FuncCall (ID)(ExprList (Constant)(UnaryOp (ID))))(Assignment (ID)(FuncCall (ID)(ExprList (BinaryOp (UnaryOp (Typename (TypeDecl (IdentifierType))))(Constant)))))(Assignment (ID)(FuncCall (ID)(ExprList (BinaryOp (UnaryOp (Typename (TypeDecl (IdentifierType))))(Constant)))))(For (Assignment (ID)(Constant))(BinaryOp (ID)(ID))(UnaryOp (ID))(Compound (FuncCall (ID)(ExprList (Constant)(UnaryOp (ArrayRef (ID)(ID)))))))(Assignment (ID)(Constant))(For (Assignment (ID)(Constant))(BinaryOp (ID)(ID))(UnaryOp (ID))(Compound (If (BinaryOp (ID)(ArrayRef (ID)(ID)))(Assignment (ID)(ArrayRef (ID)(ID))))))(FuncCall (ID)(ExprList (ID)(ID)(ID)))(For (Assignment (ID)(Constant))(BinaryOp (ID)(ID))(UnaryOp (ID))(Compound (FuncCall (ID)(ExprList (Constant)(ArrayRef (ID)(ID))))(If (BinaryOp (ID)(ID))(FuncCall (ID)(ExprList (Constant)))(FuncCall (ID)(ExprList (Constant))))))(FuncCall (ID)(ExprList (ID)))(FuncCall (ID)(ExprList (ID)))(Return (Constant))))(FuncDef (Decl (FuncDecl (ParamList (Decl (PtrDecl (TypeDecl (IdentifierType))))(Decl (PtrDecl (TypeDecl (IdentifierType))))(Decl (TypeDecl (IdentifierType))))(TypeDecl (IdentifierType))))(Compound (Decl (TypeDecl (IdentifierType)))(Decl (TypeDecl (IdentifierType)))(Decl (PtrDecl (TypeDecl (IdentifierType))))(Assignment (ID)(FuncCall (ID)(ExprList (BinaryOp (UnaryOp (Typename (TypeDecl (IdentifierType))))(ID)))))(For (Assignment (ID)(Constant))(BinaryOp (ID)(ID))(UnaryOp (ID))(Compound (Assignment (ArrayRef (ID)(ID))(Constant))))(For (Assignment (ID)(Constant))(BinaryOp (ID)(ID))(UnaryOp (ID))(Compound (UnaryOp (ArrayRef (ID)(ArrayRef (ID)(ID))))))(For (Assignment (ID)(Constant))(BinaryOp (ID)(ID))(UnaryOp (ID))(Compound (Assignment (ArrayRef (ID)(ID))(BinaryOp (ArrayRef (ID)(ID))(ArrayRef (ID)(BinaryOp (ID)(Constant)))))))(For (Assignment (ID)(ID))(BinaryOp (ID)(Constant))(UnaryOp (ID))(Compound (Assignment (ArrayRef (ID)(ArrayRef (ID)(ArrayRef (ID)(ID))))(ArrayRef (ID)(ID)))(UnaryOp (ArrayRef (ID)(ArrayRef (ID)(ID))))))(FuncCall (ID)(ExprList (ID)))(Return)))) |ET| 
-0.46263840353656660031589353820891  |BT| (FileAST (Decl (FuncDecl (ParamList (Typename (PtrDecl (TypeDecl (IdentifierType))))(Typename (TypeDecl (IdentifierType)))(Typename (TypeDecl (IdentifierType)))(Typename (TypeDecl (IdentifierType))))(TypeDecl (IdentifierType))))(Decl (FuncDecl (ParamList (Typename (PtrDecl (TypeDecl (IdentifierType))))(Typename (TypeDecl (IdentifierType)))(Typename (TypeDecl (IdentifierType))))(TypeDecl (IdentifierType))))(Decl (TypeDecl (IdentifierType))(Constant))(FuncDef (Decl (FuncDecl (TypeDecl (IdentifierType))))(Compound (Decl (TypeDecl (IdentifierType)))(Decl (PtrDecl (TypeDecl (IdentifierType))))(Decl (TypeDecl (IdentifierType)))(Decl (TypeDecl (IdentifierType))(Constant))(Decl (TypeDecl (IdentifierType)))(FuncCall (ID)(ExprList (Constant)(UnaryOp (ID))))(Assignment (ID)(Cast (Typename (PtrDecl (TypeDecl (IdentifierType))))(FuncCall (ID)(ExprList (BinaryOp (UnaryOp (Typename (TypeDecl (IdentifierType))))(ID))))))(For (Assignment (ID)(Constant))(BinaryOp (ID)(ID))(UnaryOp (ID))(FuncCall (ID)(ExprList (Constant)(UnaryOp (ArrayRef (ID)(ID))))))(Assignment (ID)(ID))(FuncCall (ID)(ExprList (ID)(ID)(ID)))(For (Assignment (ID)(Constant))(BinaryOp (ID)(ID))(UnaryOp (ID))(Compound (FuncCall (ID)(ExprList (Constant)(ArrayRef (ID)(ID))))(If (BinaryOp (ID)(BinaryOp (ID)(Constant)))(FuncCall (ID)(ExprList (Constant))))))(FuncCall (ID)(ExprList (Constant)(ID)))(FuncCall (ID)(ExprList (ID)))(Return (Constant))))(FuncDef (Decl (FuncDecl (ParamList (Decl (PtrDecl (TypeDecl (IdentifierType))))(Decl (TypeDecl (IdentifierType)))(Decl (TypeDecl (IdentifierType)))(Decl (TypeDecl (IdentifierType))))(TypeDecl (IdentifierType))))(Compound (Decl (TypeDecl (IdentifierType)))(Decl (TypeDecl (IdentifierType)))(Decl (TypeDecl (IdentifierType)))(Decl (TypeDecl (IdentifierType)))(Decl (TypeDecl (IdentifierType)))(Decl (PtrDecl (TypeDecl (IdentifierType))))(Decl (PtrDecl (TypeDecl (IdentifierType))))(Assignment (ID)(BinaryOp (ID)(ID)))(Assignment (ID)(BinaryOp (ID)(ID)))(Assignment (ID)(Cast (Typename (PtrDecl (TypeDecl (IdentifierType))))(FuncCall (ID)(ExprList (BinaryOp (UnaryOp (Typename (TypeDecl (IdentifierType))))(BinaryOp (ID)(Constant)))))))(Assignment (ID)(Cast (Typename (PtrDecl (TypeDecl (IdentifierType))))(FuncCall (ID)(ExprList (BinaryOp (UnaryOp (Typename (TypeDecl (IdentifierType))))(BinaryOp (ID)(Constant)))))))(For (Assignment (ID)(Constant))(BinaryOp (ID)(ID))(UnaryOp (ID))(Assignment (ArrayRef (ID)(ID))(ArrayRef (ID)(BinaryOp (ID)(ID)))))(For (Assignment (ID)(Constant))(BinaryOp (ID)(ID))(UnaryOp (ID))(Assignment (ArrayRef (ID)(ID))(ArrayRef (ID)(BinaryOp (ID)(ID)))))(Assignment (ArrayRef (ID)(ID))(ID))(Assignment (ArrayRef (ID)(ID))(ID))(Assignment (ID)(Constant))(Assignment (ID)(Constant))(For (Assignment (ID)(ID))(BinaryOp (ID)(ID))(UnaryOp (ID))(Compound (UnaryOp (ID))(If (BinaryOp (ArrayRef (ID)(ID))(ArrayRef (ID)(ID)))(Compound (Assignment (ArrayRef (ID)(ID))(ArrayRef (ID)(UnaryOp (ID)))))(Compound (Assignment (ArrayRef (ID)(ID))(ArrayRef (ID)(UnaryOp (ID))))))))(FuncCall (ID)(ExprList (ID)))(FuncCall (ID)(ExprList (ID)))))(FuncDef (Decl (FuncDecl (ParamList (Decl (PtrDecl (TypeDecl (IdentifierType))))(Decl (TypeDecl (IdentifierType)))(Decl (TypeDecl (IdentifierType))))(TypeDecl (IdentifierType))))(Compound (Decl (TypeDecl (IdentifierType)))(If (BinaryOp (BinaryOp (ID)(Constant))(ID))(Compound (Assignment (ID)(BinaryOp (BinaryOp (ID)(ID))(Constant)))(FuncCall (ID)(ExprList (ID)(ID)(ID)))(FuncCall (ID)(ExprList (ID)(ID)(ID)))(FuncCall (ID)(ExprList (ID)(ID)(ID)(ID)))))))) |ET| 
1  |BT| (FileAST (Decl (ArrayDecl (TypeDecl (IdentifierType))(Constant)))(Decl (PtrDecl (TypeDecl (IdentifierType)))(ID))(FuncDef (Decl (FuncDecl (TypeDecl (IdentifierType))))(Compound (Decl (TypeDecl (IdentifierType))(Constant))(While (BinaryOp (BinaryOp (Constant)(UnaryOp (ID)))(BinaryOp (UnaryOp (ID))(Constant)))(Assignment (ID)(BinaryOp (BinaryOp (Constant)(ID))(BinaryOp (UnaryOp (UnaryOp (ID)))(Constant)))))(UnaryOp (ID))(Return (ID))))(FuncDef (Decl (FuncDecl (ParamList (Decl (TypeDecl (IdentifierType))))(TypeDecl (IdentifierType))))(Compound (If (UnaryOp (ID))(Compound (FuncCall (ID)(ExprList (Constant)))(Return)))(Decl (ArrayDecl (TypeDecl (IdentifierType))(Constant)))(Decl (TypeDecl (IdentifierType))(Constant))(While (ID)(ExprList (Assignment (ArrayRef (ID)(UnaryOp (ID)))(Cast (Typename (TypeDecl (IdentifierType)))(BinaryOp (BinaryOp (ID)(Constant))(Constant))))(Assignment (ID)(Constant))))(While (UnaryOp (ID))(FuncCall (ID)(ExprList (ArrayRef (ID)(ID)))))))(FuncDef (Decl (FuncDecl (ParamList (Decl (PtrDecl (TypeDecl (IdentifierType))))(Decl (PtrDecl (TypeDecl (IdentifierType))))(Decl (TypeDecl (IdentifierType)))(Decl (TypeDecl (IdentifierType))))(TypeDecl (IdentifierType))))(Compound (Decl (ArrayDecl (TypeDecl (IdentifierType))(Constant))(InitList))(For (DeclList (Decl (TypeDecl (IdentifierType))(Constant)))(BinaryOp (ID)(ID))(UnaryOp (ID))(UnaryOp (ArrayRef (ID)(ArrayRef (ID)(ID)))))(For (DeclList (Decl (TypeDecl (IdentifierType))(Constant)))(BinaryOp (ID)(ID))(UnaryOp (ID))(Assignment (ArrayRef (ID)(ID))(ArrayRef (ID)(BinaryOp (ID)(Constant)))))(For (DeclList (Decl (TypeDecl (IdentifierType))(BinaryOp (ID)(Constant))))(BinaryOp (ID)(Constant))(UnaryOp (ID))(Compound (Decl (TypeDecl (IdentifierType))(ArrayRef (ID)(ID)))(Decl (TypeDecl (IdentifierType))(ArrayRef (ID)(ID)))(Assignment (ArrayRef (ID)(BinaryOp (UnaryOp (ArrayRef (ID)(ArrayRef (ID)(ID))))(Constant)))(ArrayRef (ID)(ID)))))))(FuncDef (Decl (FuncDecl (ParamList (Decl (TypeDecl (IdentifierType)))(Decl (PtrDecl (PtrDecl (TypeDecl (IdentifierType))))))(TypeDecl (IdentifierType))))(Compound (FuncCall (ID)(ExprList (ID)(Constant)(Constant)(ID)))(Decl (TypeDecl (IdentifierType))(FuncCall (ID)))(Decl (ArrayDecl (TypeDecl (IdentifierType))(ID)))(Decl (ArrayDecl (TypeDecl (IdentifierType))(ID)))(For (DeclList (Decl (TypeDecl (IdentifierType))(Constant)))(BinaryOp (ID)(ID))(UnaryOp (ID))(Assignment (ArrayRef (ID)(ID))(FuncCall (ID))))(FuncCall (ID)(ExprList (ID)(ID)(ID)(Constant)))(For (DeclList (Decl (TypeDecl (IdentifierType))(Constant)))(BinaryOp (ID)(BinaryOp (ID)(Constant)))(UnaryOp (ID))(ExprList (FuncCall (ID)(ExprList (ArrayRef (ID)(ID))))(FuncCall (ID)(ExprList (Constant)))))(ExprList (FuncCall (ID)(ExprList (ArrayRef (ID)(BinaryOp (ID)(Constant)))))(FuncCall (ID)(ExprList (Constant))))(Return (Constant))))) |ET| 
-0.65978437904298958827098431356717  |BT| (FileAST (Decl (ArrayDecl (TypeDecl (IdentifierType))(Constant)))(Decl (TypeDecl (IdentifierType))(Constant))(Decl (ArrayDecl (TypeDecl (IdentifierType))(BinaryOp (BinaryOp (Constant)(Constant))(Constant))))(Decl (ArrayDecl (TypeDecl (IdentifierType))(BinaryOp (BinaryOp (Constant)(Constant))(Constant))))(FuncDef (Decl (FuncDecl (ParamList (Decl (TypeDecl (IdentifierType)))(Decl (TypeDecl (IdentifierType)))(Decl (TypeDecl (IdentifierType))))(TypeDecl (IdentifierType))))(Compound (Decl (TypeDecl (IdentifierType)))(Decl (TypeDecl (IdentifierType))(Constant))(Decl (TypeDecl (IdentifierType))(Constant))(Decl (TypeDecl (IdentifierType))(BinaryOp (ID)(ID)))(Decl (TypeDecl (IdentifierType))(BinaryOp (ID)(ID)))(For (Assignment (ID)(Constant))(BinaryOp (ID)(ID))(UnaryOp (ID))(Assignment (ArrayRef (ID)(ID))(ArrayRef (ID)(BinaryOp (BinaryOp (ID)(ID))(Constant)))))(For (Assignment (ID)(Constant))(BinaryOp (ID)(ID))(UnaryOp (ID))(Assignment (ArrayRef (ID)(ID))(ArrayRef (ID)(BinaryOp (BinaryOp (ID)(ID))(Constant)))))(Assignment (ArrayRef (ID)(BinaryOp (ID)(Constant)))(Constant))(Assignment (ArrayRef (ID)(BinaryOp (ID)(Constant)))(Constant))(For (Assignment (ID)(ID))(BinaryOp (ID)(BinaryOp (ID)(Constant)))(UnaryOp (ID))(Compound (UnaryOp (ID))(If (BinaryOp (ArrayRef (ID)(ID))(ArrayRef (ID)(ID)))(Compound (Assignment (ArrayRef (ID)(ID))(ArrayRef (ID)(ID)))(UnaryOp (ID)))(Compound (Assignment (ArrayRef (ID)(ID))(ArrayRef (ID)(ID)))(UnaryOp (ID))))))(Return)))(FuncDef (Decl (FuncDecl (ParamList (Decl (TypeDecl (IdentifierType)))(Decl (TypeDecl (IdentifierType))))(TypeDecl (IdentifierType))))(Compound (If (BinaryOp (BinaryOp (ID)(Constant))(ID))(Return))(Decl (TypeDecl (IdentifierType))(BinaryOp (BinaryOp (ID)(ID))(Constant)))(FuncCall (ID)(ExprList (ID)(ID)))(FuncCall (ID)(ExprList (ID)(ID)))(FuncCall (ID)(ExprList (ID)(ID)(ID)))(Return)))(FuncDef (Decl (FuncDecl (TypeDecl (IdentifierType))))(Compound (Decl (TypeDecl (IdentifierType)))(Decl (TypeDecl (IdentifierType)))(FuncCall (ID)(ExprList (Constant)(UnaryOp (ID))))(For (Assignment (ID)(Constant))(BinaryOp (ID)(ID))(UnaryOp (ID))(FuncCall (ID)(ExprList (Constant)(UnaryOp (ArrayRef (ID)(ID))))))(FuncCall (ID)(ExprList (Constant)(BinaryOp (ID)(Constant))))(For (Assignment (ID)(Constant))(BinaryOp (ID)(ID))(UnaryOp (ID))(FuncCall (ID)(ExprList (Constant)(ArrayRef (ID)(ID)))))(FuncCall (ID)(ExprList (Constant)(ArrayRef (ID)(ID))(ID)))(Return (Constant))))) |ET| 
1  |BT| (FileAST (Decl (FuncDecl (ParamList (Typename (TypeDecl (IdentifierType)))(Typename (PtrDecl (TypeDecl (IdentifierType))))(Typename (PtrDecl (TypeDecl (IdentifierType))))(Decl (TypeDecl (IdentifierType))))(TypeDecl (IdentifierType))))(FuncDef (Decl (FuncDecl (TypeDecl (IdentifierType))))(Compound (Decl (TypeDecl (IdentifierType)))(Decl (PtrDecl (TypeDecl (IdentifierType))))(Decl (PtrDecl (TypeDecl (IdentifierType))))(Decl (TypeDecl (IdentifierType))(Constant))(Decl (TypeDecl (IdentifierType)))(FuncCall (ID)(ExprList (Constant)(UnaryOp (ID))))(If (BinaryOp (BinaryOp (ID)(Constant))(BinaryOp (Constant)(ID)))(Compound (FuncCall (ID)(ExprList (ID)(Constant)(Constant)(Constant)))(FuncCall (ID)(ExprList (Constant)))))(Assignment (ID)(Cast (Typename (PtrDecl (TypeDecl (IdentifierType))))(FuncCall (ID)(ExprList (BinaryOp (UnaryOp (Typename (TypeDecl (IdentifierType))))(BinaryOp (ID)(Constant)))))))(Assignment (ID)(Cast (Typename (PtrDecl (TypeDecl (IdentifierType))))(FuncCall (ID)(ExprList (BinaryOp (UnaryOp (Typename (TypeDecl (IdentifierType))))(BinaryOp (ID)(Constant)))))))(For (Assignment (ID)(Constant))(BinaryOp (ID)(ID))(UnaryOp (ID))(Compound (FuncCall (ID)(ExprList (Constant)(UnaryOp (ArrayRef (ID)(ID)))))(If (BinaryOp (BinaryOp (ArrayRef (ID)(ID))(Constant))(BinaryOp (Constant)(ArrayRef (ID)(ID))))(Compound (FuncCall (ID)(ExprList (ID)(Constant)(Constant)(Constant)))(FuncCall (ID)(ExprList (Constant)))))(If (BinaryOp (ID)(ArrayRef (ID)(ID)))(Assignment (ID)(ArrayRef (ID)(ID))))))(FuncCall (ID)(ExprList (ID)(ID)(ID)(ID)))(For (Assignment (ID)(Constant))(BinaryOp (ID)(ID))(UnaryOp (ID))(Compound (FuncCall (ID)(ExprList (Constant)(ArrayRef (ID)(ID))))(If (BinaryOp (ID)(ID))(FuncCall (ID)(ExprList (Constant)))(FuncCall (ID)(ExprList (Constant))))))(FuncCall (ID)(ExprList (ID)))(FuncCall (ID)(ExprList (ID)))(Return (Constant))))(FuncDef (Decl (FuncDecl (ParamList (Decl (TypeDecl (IdentifierType)))(Decl (PtrDecl (TypeDecl (IdentifierType))))(Decl (PtrDecl (TypeDecl (IdentifierType))))(Decl (TypeDecl (IdentifierType))))(TypeDecl (IdentifierType))))(Compound (Decl (PtrDecl (TypeDecl (IdentifierType))))(Decl (TypeDecl (IdentifierType)))(Decl (TypeDecl (IdentifierType)))(Assignment (ID)(Cast (Typename (PtrDecl (TypeDecl (IdentifierType))))(FuncCall (ID)(ExprList (BinaryOp (UnaryOp (Typename (TypeDecl (IdentifierType))))(BinaryOp (ID)(Constant)))))))(For (Assignment (ID)(Constant))(BinaryOp (ID)(ID))(UnaryOp (ID))(Assignment (ArrayRef (ID)(ID))(Constant)))(For (Assignment (ID)(Constant))(BinaryOp (ID)(ID))(UnaryOp (ID))(UnaryOp (ArrayRef (ID)(ArrayRef (ID)(ID)))))(For (Assignment (ID)(Constant))(BinaryOp (ID)(ID))(UnaryOp (ID))(Assignment (ArrayRef (ID)(ID))(BinaryOp (ArrayRef (ID)(ID))(ArrayRef (ID)(BinaryOp (ID)(Constant))))))(For (Assignment (ID)(ID))(BinaryOp (ID)(Constant))(UnaryOp (ID))(Compound (Assignment (ArrayRef (ID)(ArrayRef (ID)(ArrayRef (ID)(ID))))(ArrayRef (ID)(ID)))(UnaryOp (ArrayRef (ID)(ArrayRef (ID)(ID))))))(FuncCall (ID)(ExprList (ID)))))) |ET| 
-0.65738867642023779414017781164148  |BT| (FileAST (Decl (TypeDecl (IdentifierType))(Constant))(FuncDef (Decl (FuncDecl (ParamList (Decl (ArrayDecl (TypeDecl (IdentifierType))))(Decl (TypeDecl (IdentifierType)))(Decl (TypeDecl (IdentifierType)))(Decl (TypeDecl (IdentifierType))))(TypeDecl (IdentifierType))))(Compound (Decl (TypeDecl (IdentifierType))(BinaryOp (ID)(ID)))(Decl (TypeDecl (IdentifierType))(BinaryOp (ID)(ID)))(Decl (ArrayDecl (TypeDecl (IdentifierType))(BinaryOp (ID)(Constant))))(Decl (ArrayDecl (TypeDecl (IdentifierType))(BinaryOp (ID)(Constant))))(Decl (TypeDecl (IdentifierType)))(For (Assignment (ID)(Constant))(BinaryOp (ID)(BinaryOp (ID)(Constant)))(UnaryOp (ID))(Assignment (ArrayRef (ID)(ID))(ArrayRef (ID)(BinaryOp (ID)(ID)))))(For (Assignment (ID)(Constant))(BinaryOp (ID)(BinaryOp (ID)(Constant)))(UnaryOp (ID))(Assignment (ArrayRef (ID)(ID))(ArrayRef (ID)(BinaryOp (ID)(ID)))))(ExprList (Assignment (ArrayRef (ID)(ID))(Constant))(Assignment (ArrayRef (ID)(ID))(Constant)))(Assignment (ID)(Constant))(Decl (TypeDecl (IdentifierType))(Constant))(Decl (TypeDecl (IdentifierType)))(For (Assignment (ID)(ID))(BinaryOp (ID)(BinaryOp (ID)(Constant)))(UnaryOp (ID))(Compound (If (BinaryOp (ArrayRef (ID)(ID))(ArrayRef (ID)(ID)))(Compound (Assignment (ArrayRef (ID)(ID))(ArrayRef (ID)(ID)))(UnaryOp (ID)))(Compound (Assignment (ArrayRef (ID)(ID))(ArrayRef (ID)(ID)))(UnaryOp (ID))))(UnaryOp (ID))))))(FuncDef (Decl (FuncDecl (ParamList (Decl (ArrayDecl (TypeDecl (IdentifierType))))(Decl (TypeDecl (IdentifierType)))(Decl (TypeDecl (IdentifierType))))(TypeDecl (IdentifierType))))(Compound (If (BinaryOp (BinaryOp (ID)(Constant))(ID))(Compound (Decl (TypeDecl (IdentifierType))(BinaryOp (BinaryOp (ID)(ID))(Constant)))(FuncCall (ID)(ExprList (ID)(ID)(ID)))(FuncCall (ID)(ExprList (ID)(ID)(ID)))(FuncCall (ID)(ExprList (ID)(ID)(ID)(ID)))))))(FuncDef (Decl (FuncDecl (TypeDecl (IdentifierType))))(Compound (Decl (TypeDecl (IdentifierType)))(FuncCall (ID)(ExprList (Constant)(UnaryOp (ID))))(Decl (ArrayDecl (TypeDecl (IdentifierType))(ID)))(Decl (TypeDecl (IdentifierType)))(For (Assignment (ID)(Constant))(BinaryOp (ID)(BinaryOp (ID)(Constant)))(UnaryOp (ID))(FuncCall (ID)(ExprList (Constant)(UnaryOp (ArrayRef (ID)(ID))))))(FuncCall (ID)(ExprList (ID)(Constant)(ID)))(For (Assignment (ID)(Constant))(BinaryOp (ID)(BinaryOp (ID)(Constant)))(UnaryOp (ID))(FuncCall (ID)(ExprList (Constant)(ArrayRef (ID)(ID)))))(FuncCall (ID)(ExprList (Constant)(ArrayRef (ID)(BinaryOp (ID)(Constant)))))(FuncCall (ID)(ExprList (Constant)(ID)))(Return (Constant))))) |ET| 
1  |BT| (FileAST (FuncDef (Decl (FuncDecl (TypeDecl (IdentifierType))))(Compound (Decl (PtrDecl (TypeDecl (IdentifierType))))(Decl (PtrDecl (TypeDecl (IdentifierType))))(Decl (ArrayDecl (TypeDecl (IdentifierType))(BinaryOp (Constant)(Constant))))(Decl (TypeDecl (IdentifierType)))(Decl (TypeDecl (IdentifierType)))(Decl (TypeDecl (IdentifierType)))(Decl (TypeDecl (IdentifierType)))(FuncCall (ID)(ExprList (Constant)(UnaryOp (ID))))(Assignment (ID)(FuncCall (ID)(ExprList (BinaryOp (BinaryOp (UnaryOp (Typename (TypeDecl (IdentifierType))))(ID))(Constant)))))(Assignment (ID)(FuncCall (ID)(ExprList (BinaryOp (BinaryOp (UnaryOp (Typename (TypeDecl (IdentifierType))))(ID))(Constant)))))(For (Assignment (ID)(Constant))(BinaryOp (ID)(ID))(UnaryOp (ID))(Compound (FuncCall (ID)(ExprList (Constant)(UnaryOp (ArrayRef (ID)(ID)))))))(Assignment (ID)(Constant))(For (Assignment (ID)(Constant))(BinaryOp (ID)(ID))(UnaryOp (ID))(Compound (If (BinaryOp (ID)(ArrayRef (ID)(ID)))(Compound (Assignment (ID)(ArrayRef (ID)(ID)))))))(For (Assignment (ID)(Constant))(BinaryOp (ID)(ID))(UnaryOp (ID))(Compound (Assignment (ArrayRef (ID)(ID))(Constant))))(For (Assignment (ID)(Constant))(BinaryOp (ID)(ID))(UnaryOp (ID))(Compound (Assignment (ArrayRef (ID)(ArrayRef (ID)(ID)))(BinaryOp (ArrayRef (ID)(ArrayRef (ID)(ID)))(Constant)))))(For (Assignment (ID)(Constant))(BinaryOp (ID)(ID))(UnaryOp (ID))(Compound (Assignment (ArrayRef (ID)(ID))(BinaryOp (ArrayRef (ID)(ID))(ArrayRef (ID)(BinaryOp (ID)(Constant)))))))(For (Assignment (ID)(ID))(BinaryOp (ID)(Constant))(UnaryOp (ID))(Compound (Assignment (ArrayRef (ID)(ArrayRef (ID)(ArrayRef (ID)(ID))))(ArrayRef (ID)(ID)))(Assignment (ArrayRef (ID)(ArrayRef (ID)(ID)))(BinaryOp (ArrayRef (ID)(ArrayRef (ID)(ID)))(Constant)))))(For (Assignment (ID)(Constant))(BinaryOp (ID)(ID))(UnaryOp (ID))(Compound (FuncCall (ID)(ExprList (Constant)(ArrayRef (ID)(ID))))(If (BinaryOp (ID)(ID))(Compound (FuncCall (ID)(ExprList (Constant)))))))(FuncCall (ID)(ExprList (Constant)))(Return (Constant))))) |ET| 
-0.61681852155360217260238187009236  |BT| (FileAST (Decl (TypeDecl (IdentifierType))(Constant))(FuncDef (Decl (FuncDecl (ParamList (Decl (PtrDecl (TypeDecl (IdentifierType))))(Decl (TypeDecl (IdentifierType)))(Decl (TypeDecl (IdentifierType)))(Decl (TypeDecl (IdentifierType))))(TypeDecl (IdentifierType))))(Compound (Decl (ArrayDecl (TypeDecl (IdentifierType))(BinaryOp (BinaryOp (Constant)(Constant))(Constant))))(Decl (ArrayDecl (TypeDecl (IdentifierType))(BinaryOp (Constant)(Constant))))(Decl (TypeDecl (IdentifierType)))(Decl (TypeDecl (IdentifierType)))(Decl (TypeDecl (IdentifierType)))(Decl (TypeDecl (IdentifierType)))(Decl (TypeDecl (IdentifierType)))(Assignment (ID)(BinaryOp (ID)(ID)))(Assignment (ID)(BinaryOp (ID)(ID)))(For (Assignment (ID)(Constant))(BinaryOp (ID)(ID))(UnaryOp (ID))(Assignment (ArrayRef (ID)(ID))(ArrayRef (ID)(BinaryOp (ID)(ID)))))(For (Assignment (ID)(Constant))(BinaryOp (ID)(ID))(UnaryOp (ID))(Assignment (ArrayRef (ID)(ID))(ArrayRef (ID)(BinaryOp (ID)(ID)))))(Assignment (ArrayRef (ID)(ID))(Constant))(Assignment (ArrayRef (ID)(ID))(Constant))(Assignment (ID)(Assignment (ID)(Constant)))(For (Assignment (ID)(ID))(BinaryOp (ID)(ID))(UnaryOp (ID))(Compound (UnaryOp (ID))(If (BinaryOp (ArrayRef (ID)(ID))(ArrayRef (ID)(ID)))(Compound (Assignment (ArrayRef (ID)(ID))(ArrayRef (ID)(ID)))(Assignment (ID)(Constant)))(Compound (Assignment (ArrayRef (ID)(ID))(ArrayRef (ID)(ID)))(Assignment (ID)(Constant))))))))(FuncDef (Decl (FuncDecl (ParamList (Decl (PtrDecl (TypeDecl (IdentifierType))))(Decl (TypeDecl (IdentifierType)))(Decl (TypeDecl (IdentifierType))))(TypeDecl (IdentifierType))))(Compound (Decl (TypeDecl (IdentifierType)))(If (BinaryOp (BinaryOp (ID)(Constant))(ID))(Compound (Assignment (ID)(BinaryOp (BinaryOp (ID)(ID))(Constant)))(FuncCall (ID)(ExprList (ID)(ID)(ID)))(FuncCall (ID)(ExprList (ID)(ID)(ID)))(FuncCall (ID)(ExprList (ID)(ID)(ID)(ID)))))))(FuncDef (Decl (FuncDecl (TypeDecl (IdentifierType))))(Compound (Decl (ArrayDecl (TypeDecl (IdentifierType))(Constant)))(Decl (TypeDecl (IdentifierType)))(Decl (TypeDecl (IdentifierType)))(FuncCall (ID)(ExprList (Constant)(UnaryOp (ID))))(For (Assignment (ID)(Constant))(BinaryOp (ID)(ID))(UnaryOp (ID))(FuncCall (ID)(ExprList (Constant)(UnaryOp (ArrayRef (ID)(ID))))))(FuncCall (ID)(ExprList (ID)(Constant)(ID)))(For (Assignment (ID)(Constant))(BinaryOp (ID)(ID))(UnaryOp (ID))(Compound (If (ID)(Compound (FuncCall (ID)(ExprList (Constant)))))(FuncCall (ID)(ExprList (Constant)(ArrayRef (ID)(ID))))))(FuncCall (ID)(ExprList (Constant)(ID)))(Return (Constant))))) |ET| 
1  |BT| (FileAST (Decl (FuncDecl (ParamList (Typename (PtrDecl (TypeDecl (IdentifierType))))(Typename (PtrDecl (TypeDecl (IdentifierType))))(Typename (TypeDecl (IdentifierType))))(TypeDecl (IdentifierType))))(Decl (FuncDecl (ParamList (Typename (PtrDecl (TypeDecl (IdentifierType))))(Typename (PtrDecl (TypeDecl (IdentifierType))))(Typename (TypeDecl (IdentifierType))))(TypeDecl (IdentifierType))))(Decl (FuncDecl (ParamList (Typename (PtrDecl (TypeDecl (IdentifierType)))))(TypeDecl (IdentifierType))))(FuncDef (Decl (FuncDecl (TypeDecl (IdentifierType))))(Compound (Decl (PtrDecl (TypeDecl (IdentifierType))))(Decl (PtrDecl (TypeDecl (IdentifierType))))(Decl (TypeDecl (IdentifierType)))(Decl (TypeDecl (IdentifierType)))(FuncCall (ID)(ExprList (Constant)(UnaryOp (ID))))(Assignment (ID)(Cast (Typename (PtrDecl (TypeDecl (IdentifierType))))(FuncCall (ID)(ExprList (BinaryOp (BinaryOp (UnaryOp (Typename (TypeDecl (IdentifierType))))(ID))(Constant))))))(Assignment (ID)(Cast (Typename (PtrDecl (TypeDecl (IdentifierType))))(FuncCall (ID)(ExprList (BinaryOp (BinaryOp (UnaryOp (Typename (TypeDecl (IdentifierType))))(ID))(Constant))))))(For (Assignment (ID)(Constant))(BinaryOp (ID)(ID))(UnaryOp (ID))(Compound (FuncCall (ID)(ExprList (Constant)(UnaryOp (ArrayRef (ID)(ID)))))(Assignment (ArrayRef (ID)(ID))(Constant))))(FuncCall (ID)(ExprList (ID)(ID)(ID)))(For (Assignment (ID)(Constant))(BinaryOp (ID)(ID))(UnaryOp (ID))(Compound (FuncCall (ID)(ExprList (Constant)(ArrayRef (ID)(ID))))(If (BinaryOp (ID)(ID))(FuncCall (ID)(ExprList (Constant))))))(FuncCall (ID)(ExprList (Constant)))(FuncCall (ID)(ExprList (ID)))(FuncCall (ID)(ExprList (ID)))(Return (Constant))))(FuncDef (Decl (FuncDecl (ParamList (Decl (PtrDecl (TypeDecl (IdentifierType))))(Decl (PtrDecl (TypeDecl (IdentifierType))))(Decl (TypeDecl (IdentifierType))))(TypeDecl (IdentifierType))))(Compound (Decl (TypeDecl (IdentifierType)))(Decl (ArrayDecl (TypeDecl (IdentifierType))(BinaryOp (Constant)(Constant))))(For (Assignment (ID)(Constant))(BinaryOp (ID)(Constant))(UnaryOp (ID))(Assignment (ArrayRef (ID)(ID))(Constant)))(FuncCall (ID)(ExprList (ID)(ID)(ID)))(FuncCall (ID)(ExprList (ID)))(For (Assignment (ID)(ID))(BinaryOp (ID)(Constant))(UnaryOp (ID))(Compound (Assignment (ArrayRef (ID)(ArrayRef (ID)(ArrayRef (ID)(ID))))(ArrayRef (ID)(ID)))(UnaryOp (ArrayRef (ID)(ArrayRef (ID)(ID))))))))(FuncDef (Decl (FuncDecl (ParamList (Decl (PtrDecl (TypeDecl (IdentifierType))))(Decl (PtrDecl (TypeDecl (IdentifierType))))(Decl (TypeDecl (IdentifierType))))(TypeDecl (IdentifierType))))(Compound (Decl (TypeDecl (IdentifierType)))(For (Assignment (ID)(Constant))(BinaryOp (ID)(ID))(UnaryOp (ID))(Compound (UnaryOp (ArrayRef (ID)(ArrayRef (ID)(ID))))))))(FuncDef (Decl (FuncDecl (ParamList (Decl (PtrDecl (TypeDecl (IdentifierType)))))(TypeDecl (IdentifierType))))(Compound (Decl (TypeDecl (IdentifierType)))(For (Assignment (ID)(Constant))(BinaryOp (ID)(BinaryOp (Constant)(Constant)))(UnaryOp (ID))(Assignment (ArrayRef (ID)(ID))(BinaryOp (ArrayRef (ID)(ID))(ArrayRef (ID)(BinaryOp (ID)(Constant))))))))) |ET| 
-0.49199262645507474411843418238277  |BT| (FileAST (FuncDef (Decl (FuncDecl (ParamList (Decl (TypeDecl (IdentifierType))))(TypeDecl (IdentifierType))))(Compound (If (UnaryOp (ID))(Compound (FuncCall (ID)(ExprList (Constant)))(Return)))(Decl (ArrayDecl (TypeDecl (IdentifierType))(Constant)))(Decl (TypeDecl (IdentifierType))(Constant))(While (ID)(ExprList (Assignment (ArrayRef (ID)(UnaryOp (ID)))(Cast (Typename (TypeDecl (IdentifierType)))(BinaryOp (BinaryOp (ID)(Constant))(Constant))))(Assignment (ID)(Constant))))(While (UnaryOp (ID))(FuncCall (ID)(ExprList (ArrayRef (ID)(ID)))))))(FuncDef (Decl (FuncDecl (TypeDecl (IdentifierType))))(Compound (Decl (TypeDecl (IdentifierType))(Constant))(Decl (TypeDecl (IdentifierType))(FuncCall (ID)))(If (BinaryOp (BinaryOp (ID)(Constant))(BinaryOp (Constant)(ID)))(Return (ID)))(While (BinaryOp (BinaryOp (Constant)(ID))(BinaryOp (ID)(Constant)))(Compound (Assignment (ID)(BinaryOp (BinaryOp (Constant)(ID))(BinaryOp (ID)(Constant))))(Assignment (ID)(FuncCall (ID)))))(Return (ID))))(Decl (TypeDecl (IdentifierType)))(FuncDef (Decl (FuncDecl (ParamList (Decl (PtrDecl (TypeDecl (IdentifierType))))(Decl (PtrDecl (TypeDecl (IdentifierType))))(Decl (PtrDecl (TypeDecl (IdentifierType)))))(TypeDecl (IdentifierType))))(Compound (Decl (TypeDecl (IdentifierType))(Cast (Typename (TypeDecl (IdentifierType)))(BinaryOp (ID)(ID))))(Decl (TypeDecl (IdentifierType))(Cast (Typename (TypeDecl (IdentifierType)))(BinaryOp (ID)(ID))))(Decl (PtrDecl (TypeDecl (IdentifierType)))(FuncCall (ID)(ExprList (BinaryOp (UnaryOp (Typename (TypeDecl (IdentifierType))))(BinaryOp (ID)(Constant))))))(Decl (PtrDecl (TypeDecl (IdentifierType)))(FuncCall (ID)(ExprList (BinaryOp (UnaryOp (Typename (TypeDecl (IdentifierType))))(BinaryOp (ID)(Constant))))))(FuncCall (ID)(ExprList (ID)(ID)(BinaryOp (UnaryOp (Typename (TypeDecl (IdentifierType))))(BinaryOp (ID)(Constant)))))(FuncCall (ID)(ExprList (ID)(ID)(BinaryOp (UnaryOp (Typename (TypeDecl (IdentifierType))))(BinaryOp (ID)(Constant)))))(Assignment (ArrayRef (ID)(ID))(Assignment (ArrayRef (ID)(ID))(Constant)))(For (DeclList (Decl (PtrDecl (TypeDecl (IdentifierType)))(ID))(Decl (TypeDecl (IdentifierType))(Constant))(Decl (TypeDecl (IdentifierType))(Constant)))(BinaryOp (ID)(ID))(UnaryOp (ID))(Compound (Assignment (UnaryOp (ID))(TernaryOp (BinaryOp (ArrayRef (ID)(ID))(ArrayRef (ID)(ID)))(ArrayRef (ID)(UnaryOp (ID)))(ArrayRef (ID)(UnaryOp (ID)))))))(FuncCall (ID)(ExprList (ID)))(FuncCall (ID)(ExprList (ID)))))(FuncDef (Decl (FuncDecl (ParamList (Decl (PtrDecl (TypeDecl (IdentifierType))))(Decl (PtrDecl (TypeDecl (IdentifierType)))))(TypeDecl (IdentifierType))))(Compound (Decl (TypeDecl (IdentifierType))(Cast (Typename (TypeDecl (IdentifierType)))(BinaryOp (ID)(ID))))(If (BinaryOp (ID)(Constant))(Return))(Decl (PtrDecl (TypeDecl (IdentifierType)))(BinaryOp (ID)(BinaryOp (ID)(Constant))))(FuncCall (ID)(ExprList (ID)(ID)))(FuncCall (ID)(ExprList (ID)(ID)))(FuncCall (ID)(ExprList (ID)(ID)(ID)))(Assignment (ID)(ID))))(FuncDef (Decl (FuncDecl (ParamList (Decl (TypeDecl (IdentifierType)))(Decl (PtrDecl (PtrDecl (TypeDecl (IdentifierType))))))(TypeDecl (IdentifierType))))(Compound (Decl (TypeDecl (IdentifierType))(FuncCall (ID)))(Decl (ArrayDecl (TypeDecl (IdentifierType))(Constant)))(For (DeclList (Decl (TypeDecl (IdentifierType))(Constant)))(BinaryOp (ID)(ID))(UnaryOp (ID))(Assignment (ArrayRef (ID)(ID))(FuncCall (ID))))(FuncCall (ID)(ExprList (ID)(BinaryOp (ID)(ID))))(For (DeclList (Decl (TypeDecl (IdentifierType))(Constant)))(BinaryOp (ID)(BinaryOp (ID)(Constant)))(UnaryOp (ID))(ExprList (FuncCall (ID)(ExprList (ArrayRef (ID)(ID))))(FuncCall (ID)(ExprList (Constant)))))(ExprList (FuncCall (ID)(ExprList (ArrayRef (ID)(BinaryOp (ID)(Constant)))))(FuncCall (ID)(ExprList (Constant))))(ExprList (FuncCall (ID)(ExprList (ID)))(FuncCall (ID)(ExprList (Constant))))(Return (Constant))))) |ET| 
1  |BT| (FileAST (FuncDef (Decl (FuncDecl (TypeDecl (IdentifierType))))(Compound (Decl (TypeDecl (IdentifierType)))(Decl (TypeDecl (IdentifierType)))(Decl (TypeDecl (IdentifierType)))(Decl (TypeDecl (IdentifierType)))(Assignment (ID)(Constant))(FuncCall (ID)(ExprList (Constant)(UnaryOp (ID))))(Decl (PtrDecl (TypeDecl (IdentifierType))))(Decl (PtrDecl (TypeDecl (IdentifierType))))(Assignment (ID)(FuncCall (ID)(ExprList (BinaryOp (UnaryOp (Typename (TypeDecl (IdentifierType))))(BinaryOp (ID)(Constant))))))(Assignment (ID)(FuncCall (ID)(ExprList (BinaryOp (UnaryOp (Typename (TypeDecl (IdentifierType))))(BinaryOp (ID)(Constant))))))(For (Assignment (ID)(Constant))(BinaryOp (ID)(BinaryOp (ID)(Constant)))(UnaryOp (ID))(Compound (FuncCall (ID)(ExprList (Constant)(UnaryOp (ArrayRef (ID)(ID)))))(If (BinaryOp (ID)(ArrayRef (ID)(ID)))(Assignment (ID)(ArrayRef (ID)(ID))))))(Decl (ArrayDecl (TypeDecl (IdentifierType))(BinaryOp (ID)(Constant))))(For (Assignment (ID)(Constant))(BinaryOp (ID)(BinaryOp (ID)(Constant)))(UnaryOp (ID))(Assignment (ArrayRef (ID)(ID))(Constant)))(For (Assignment (ID)(Constant))(BinaryOp (ID)(BinaryOp (ID)(Constant)))(UnaryOp (ID))(UnaryOp (ArrayRef (ID)(ArrayRef (ID)(ID)))))(For (Assignment (ID)(Constant))(BinaryOp (ID)(BinaryOp (ID)(Constant)))(UnaryOp (ID))(Assignment (ArrayRef (ID)(ID))(BinaryOp (ArrayRef (ID)(ID))(ArrayRef (ID)(BinaryOp (ID)(Constant))))))(For (Assignment (ID)(ID))(BinaryOp (ID)(Constant))(UnaryOp (ID))(Compound (Assignment (ArrayRef (ID)(ArrayRef (ID)(ArrayRef (ID)(ID))))(ArrayRef (ID)(ID)))(UnaryOp (ArrayRef (ID)(ArrayRef (ID)(ID))))))(For (Assignment (ID)(Constant))(BinaryOp (ID)(ID))(UnaryOp (ID))(FuncCall (ID)(ExprList (Constant)(ArrayRef (ID)(ID)))))(FuncCall (ID)(ExprList (Constant)(ArrayRef (ID)(ID))))(FuncCall (ID)(ExprList (ID)))(FuncCall (ID)(ExprList (ID)))(Return (Constant))))) |ET| 
-0.58286826283731785203201525291661  |BT| (FileAST (Decl (TypeDecl (IdentifierType)))(Decl (TypeDecl (IdentifierType))(Constant))(Decl (ArrayDecl (TypeDecl (IdentifierType))(Constant)))(FuncDef (Decl (FuncDecl (TypeDecl (IdentifierType))))(Compound (Decl (TypeDecl (IdentifierType)))(FuncCall (ID)(ExprList (Constant)(UnaryOp (ID))))(For (Assignment (ID)(Constant))(BinaryOp (ID)(ID))(UnaryOp (ID))(Compound (FuncCall (ID)(ExprList (Constant)(UnaryOp (ArrayRef (ID)(ID)))))))(FuncCall (ID)(ExprList (ID)(Constant)(ID)))(For (Assignment (ID)(Constant))(BinaryOp (ID)(ID))(UnaryOp (ID))(Compound (FuncCall (ID)(ExprList (Constant)(ArrayRef (ID)(ID))))(If (BinaryOp (ID)(BinaryOp (ID)(Constant)))(Compound (FuncCall (ID)(ExprList (Constant)))))))(FuncCall (ID)(ExprList (Constant)(ID)))(Return (Constant))))(FuncDef (Decl (FuncDecl (ParamList (Decl (PtrDecl (TypeDecl (IdentifierType))))(Decl (TypeDecl (IdentifierType)))(Decl (TypeDecl (IdentifierType)))(Decl (TypeDecl (IdentifierType))))(TypeDecl (IdentifierType))))(Compound (Decl (TypeDecl (IdentifierType)))(Decl (TypeDecl (IdentifierType)))(Decl (TypeDecl (IdentifierType)))(Decl (TypeDecl (IdentifierType)))(Decl (TypeDecl (IdentifierType)))(Assignment (ID)(BinaryOp (ID)(ID)))(Assignment (ID)(BinaryOp (ID)(ID)))(Decl (ArrayDecl (TypeDecl (IdentifierType))(BinaryOp (ID)(Constant))))(Decl (ArrayDecl (TypeDecl (IdentifierType))(BinaryOp (ID)(Constant))))(For (Assignment (ID)(Constant))(BinaryOp (ID)(ID))(UnaryOp (ID))(Compound (Assignment (ArrayRef (ID)(ID))(ArrayRef (ID)(BinaryOp (ID)(ID))))))(For (Assignment (ID)(Constant))(BinaryOp (ID)(ID))(UnaryOp (ID))(Compound (Assignment (ArrayRef (ID)(ID))(ArrayRef (ID)(BinaryOp (ID)(ID))))))(Assignment (ArrayRef (ID)(ID))(Constant))(Assignment (ArrayRef (ID)(ID))(Constant))(Assignment (ID)(Constant))(Assignment (ID)(Constant))(For (Assignment (ID)(ID))(BinaryOp (ID)(ID))(UnaryOp (ID))(Compound (If (BinaryOp (ArrayRef (ID)(ID))(ArrayRef (ID)(ID)))(Compound (Assignment (ArrayRef (ID)(ID))(ArrayRef (ID)(ID)))(Assignment (ID)(BinaryOp (ID)(Constant)))(UnaryOp (ID)))(Compound (Assignment (ArrayRef (ID)(ID))(ArrayRef (ID)(ID)))(Assignment (ID)(BinaryOp (ID)(Constant)))(UnaryOp (ID))))))))(FuncDef (Decl (FuncDecl (ParamList (Decl (PtrDecl (TypeDecl (IdentifierType))))(Decl (TypeDecl (IdentifierType)))(Decl (TypeDecl (IdentifierType))))(TypeDecl (IdentifierType))))(Compound (Decl (TypeDecl (IdentifierType)))(If (BinaryOp (BinaryOp (ID)(Constant))(ID))(Compound (Assignment (ID)(BinaryOp (BinaryOp (ID)(ID))(Constant)))(FuncCall (ID)(ExprList (ID)(ID)(ID)))(FuncCall (ID)(ExprList (ID)(ID)(ID)))(FuncCall (ID)(ExprList (ID)(ID)(ID)(ID)))))))) |ET| 
1  |BT| (FileAST (FuncDef (Decl (FuncDecl (TypeDecl (IdentifierType))))(Compound (Decl (PtrDecl (TypeDecl (IdentifierType))))(Decl (PtrDecl (TypeDecl (IdentifierType))))(Decl (ArrayDecl (TypeDecl (IdentifierType))(BinaryOp (Constant)(Constant))))(Decl (TypeDecl (IdentifierType)))(Decl (TypeDecl (IdentifierType)))(Decl (TypeDecl (IdentifierType)))(Decl (TypeDecl (IdentifierType)))(FuncCall (ID)(ExprList (Constant)(UnaryOp (ID))))(Assignment (ID)(FuncCall (ID)(ExprList (BinaryOp (BinaryOp (UnaryOp (Typename (TypeDecl (IdentifierType))))(ID))(Constant)))))(Assignment (ID)(FuncCall (ID)(ExprList (BinaryOp (BinaryOp (UnaryOp (Typename (TypeDecl (IdentifierType))))(ID))(Constant)))))(Assignment (ID)(UnaryOp (Constant)))(For (Assignment (ID)(Constant))(BinaryOp (ID)(ID))(UnaryOp (ID))(Compound (FuncCall (ID)(ExprList (Constant)(UnaryOp (ArrayRef (ID)(ID)))))(If (BinaryOp (ArrayRef (ID)(ID))(ID))(Compound (Assignment (ID)(ArrayRef (ID)(ID)))))))(For (Assignment (ID)(Constant))(BinaryOp (ID)(ID))(UnaryOp (ID))(Compound (Assignment (ArrayRef (ID)(ID))(Constant))))(For (Assignment (ID)(Constant))(BinaryOp (ID)(ID))(UnaryOp (ID))(Compound (UnaryOp (ArrayRef (ID)(ArrayRef (ID)(ID))))))(For (Assignment (ID)(Constant))(BinaryOp (ID)(ID))(UnaryOp (ID))(Compound (Assignment (ArrayRef (ID)(ID))(ArrayRef (ID)(BinaryOp (ID)(Constant))))))(For (Assignment (ID)(ID))(BinaryOp (ID)(Constant))(UnaryOp (ID))(Compound (Assignment (ArrayRef (ID)(ArrayRef (ID)(ArrayRef (ID)(ID))))(ArrayRef (ID)(ID)))(UnaryOp (ArrayRef (ID)(ArrayRef (ID)(ID))))))(FuncCall (ID)(ExprList (Constant)(ArrayRef (ID)(Constant))))(For (Assignment (ID)(Constant))(BinaryOp (ID)(BinaryOp (ID)(Constant)))(UnaryOp (ID))(Compound (If (ID)(FuncCall (ID)(ExprList (Constant))))(FuncCall (ID)(ExprList (Constant)(ArrayRef (ID)(ID))))))(FuncCall (ID)(ExprList (Constant)))(Return (Constant))))) |ET| 
-0.53048500674828258372173195311916  |BT| (FileAST (Decl (FuncDecl (ParamList (Typename (PtrDecl (TypeDecl (IdentifierType))))(Typename (TypeDecl (IdentifierType)))(Typename (TypeDecl (IdentifierType)))(Typename (TypeDecl (IdentifierType))))(TypeDecl (IdentifierType))))(Decl (FuncDecl (ParamList (Typename (PtrDecl (TypeDecl (IdentifierType))))(Typename (TypeDecl (IdentifierType)))(Typename (TypeDecl (IdentifierType))))(TypeDecl (IdentifierType))))(Decl (TypeDecl (IdentifierType))(Constant))(FuncDef (Decl (FuncDecl (TypeDecl (IdentifierType))))(Compound (Decl (TypeDecl (IdentifierType))(Constant))(Decl (TypeDecl (IdentifierType))(Constant))(Decl (ArrayDecl (TypeDecl (IdentifierType))(Constant)))(FuncCall (ID)(ExprList (Constant)(UnaryOp (ID))))(For (Assignment (ID)(Constant))(BinaryOp (ID)(ID))(UnaryOp (ID))(Compound (FuncCall (ID)(ExprList (Constant)(UnaryOp (ArrayRef (ID)(ID)))))))(FuncCall (ID)(ExprList (ID)(Constant)(ID)))(For (Assignment (ID)(Constant))(BinaryOp (ID)(ID))(UnaryOp (ID))(Compound (FuncCall (ID)(ExprList (Constant)(ArrayRef (ID)(ID))))(If (BinaryOp (ID)(BinaryOp (ID)(Constant)))(FuncCall (ID)(ExprList (Constant)))(FuncCall (ID)(ExprList (Constant))))))(FuncCall (ID)(ExprList (Constant)(ID)))(Return (Constant))))(FuncDef (Decl (FuncDecl (ParamList (Decl (PtrDecl (TypeDecl (IdentifierType))))(Decl (TypeDecl (IdentifierType)))(Decl (TypeDecl (IdentifierType)))(Decl (TypeDecl (IdentifierType))))(TypeDecl (IdentifierType))))(Compound (Decl (TypeDecl (IdentifierType))(Constant))(Decl (TypeDecl (IdentifierType))(Constant))(Decl (TypeDecl (IdentifierType))(Constant))(Decl (TypeDecl (IdentifierType))(Constant))(Decl (TypeDecl (IdentifierType))(Constant))(Decl (ArrayDecl (TypeDecl (IdentifierType))(BinaryOp (BinaryOp (Constant)(Constant))(Constant))))(Decl (ArrayDecl (TypeDecl (IdentifierType))(BinaryOp (BinaryOp (Constant)(Constant))(Constant))))(Assignment (ID)(BinaryOp (ID)(ID)))(Assignment (ID)(BinaryOp (ID)(ID)))(For (Assignment (ID)(Constant))(BinaryOp (ID)(ID))(UnaryOp (ID))(Compound (Assignment (ArrayRef (ID)(ID))(ArrayRef (ID)(BinaryOp (ID)(ID))))))(For (Assignment (ID)(Constant))(BinaryOp (ID)(ID))(UnaryOp (ID))(Compound (Assignment (ArrayRef (ID)(ID))(ArrayRef (ID)(BinaryOp (ID)(ID))))))(Assignment (ArrayRef (ID)(ID))(Constant))(Assignment (ArrayRef (ID)(ID))(Constant))(Assignment (ID)(Constant))(Assignment (ID)(Constant))(For (Assignment (ID)(ID))(BinaryOp (ID)(ID))(UnaryOp (ID))(Compound (If (BinaryOp (ArrayRef (ID)(ID))(ArrayRef (ID)(ID)))(Compound (Assignment (ArrayRef (ID)(ID))(ArrayRef (ID)(ID)))(UnaryOp (ID))(UnaryOp (ID)))(Compound (Assignment (ArrayRef (ID)(ID))(ArrayRef (ID)(ID)))(UnaryOp (ID))(UnaryOp (ID))))))))(FuncDef (Decl (FuncDecl (ParamList (Decl (PtrDecl (TypeDecl (IdentifierType))))(Decl (TypeDecl (IdentifierType)))(Decl (TypeDecl (IdentifierType))))(TypeDecl (IdentifierType))))(Compound (Decl (TypeDecl (IdentifierType))(Constant))(If (BinaryOp (BinaryOp (ID)(Constant))(ID))(Compound (Assignment (ID)(BinaryOp (BinaryOp (ID)(ID))(Constant)))(FuncCall (ID)(ExprList (ID)(ID)(ID)))(FuncCall (ID)(ExprList (ID)(ID)(ID)))(FuncCall (ID)(ExprList (ID)(ID)(ID)(ID)))))))) |ET| 
1  |BT| (FileAST (FuncDef (Decl (FuncDecl (TypeDecl (IdentifierType))))(Compound (Decl (TypeDecl (IdentifierType)))(Decl (TypeDecl (IdentifierType))(UnaryOp (Constant)))(FuncCall (ID)(ExprList (Constant)(UnaryOp (ID))))(Decl (ArrayDecl (TypeDecl (IdentifierType))(ID)))(For (DeclList (Decl (TypeDecl (IdentifierType))(Constant)))(BinaryOp (ID)(ID))(UnaryOp (ID))(Compound (FuncCall (ID)(ExprList (Constant)(UnaryOp (ArrayRef (ID)(ID)))))(If (BinaryOp (ArrayRef (ID)(ID))(ID))(Compound (Assignment (ID)(ArrayRef (ID)(ID)))))))(Decl (TypeDecl (IdentifierType))(BinaryOp (ID)(Constant)))(Decl (ArrayDecl (TypeDecl (IdentifierType))(ID)))(Decl (ArrayDecl (TypeDecl (IdentifierType))(ID)))(For (DeclList (Decl (TypeDecl (IdentifierType))(Constant)))(BinaryOp (ID)(ID))(UnaryOp (ID))(Assignment (ArrayRef (ID)(ID))(Constant)))(For (DeclList (Decl (TypeDecl (IdentifierType))(Constant)))(BinaryOp (ID)(ID))(UnaryOp (ID))(Compound (UnaryOp (ArrayRef (ID)(ArrayRef (ID)(ID))))))(For (DeclList (Decl (TypeDecl (IdentifierType))(Constant)))(BinaryOp (ID)(ID))(UnaryOp (ID))(Compound (Assignment (ArrayRef (ID)(ID))(ArrayRef (ID)(BinaryOp (ID)(Constant))))))(For (DeclList (Decl (TypeDecl (IdentifierType))(Constant)))(BinaryOp (ID)(ID))(UnaryOp (ID))(Compound (Assignment (ArrayRef (ID)(ArrayRef (ID)(ArrayRef (ID)(ID))))(ArrayRef (ID)(ID)))(UnaryOp (ArrayRef (ID)(ArrayRef (ID)(ID))))))(For (DeclList (Decl (TypeDecl (IdentifierType))(Constant)))(BinaryOp (ID)(BinaryOp (ID)(Constant)))(UnaryOp (ID))(Compound (FuncCall (ID)(ExprList (Constant)(ArrayRef (ID)(ID))))(If (BinaryOp (ID)(ID))(Compound (FuncCall (ID)(ExprList (Constant)))(Break)))(FuncCall (ID)(ExprList (Constant)))))(Return (Constant))))) |ET| 
-0.59085767895912078007114587308024  |BT| (FileAST (Decl (TypeDecl (IdentifierType))(Constant))(FuncDef (Decl (FuncDecl (ParamList (Decl (ArrayDecl (TypeDecl (IdentifierType))))(Decl (TypeDecl (IdentifierType)))(Decl (TypeDecl (IdentifierType)))(Decl (TypeDecl (IdentifierType))))(TypeDecl (IdentifierType))))(Compound (Decl (TypeDecl (IdentifierType)))(Decl (TypeDecl (IdentifierType)))(Decl (TypeDecl (IdentifierType)))(Decl (TypeDecl (IdentifierType))(BinaryOp (ID)(ID)))(Decl (TypeDecl (IdentifierType))(BinaryOp (ID)(ID)))(Decl (ArrayDecl (TypeDecl (IdentifierType))(BinaryOp (ID)(Constant))))(Decl (ArrayDecl (TypeDecl (IdentifierType))(BinaryOp (ID)(Constant))))(For (Assignment (ID)(Constant))(BinaryOp (ID)(BinaryOp (ID)(Constant)))(UnaryOp (ID))(Compound (Assignment (ArrayRef (ID)(ID))(ArrayRef (ID)(BinaryOp (ID)(ID))))))(For (Assignment (ID)(Constant))(BinaryOp (ID)(BinaryOp (ID)(Constant)))(UnaryOp (ID))(Compound (Assignment (ArrayRef (ID)(ID))(ArrayRef (ID)(BinaryOp (ID)(ID))))))(Assignment (ArrayRef (ID)(ID))(Constant))(Assignment (ArrayRef (ID)(ID))(Constant))(Assignment (ID)(Constant))(Assignment (ID)(Constant))(For (Assignment (ID)(ID))(BinaryOp (ID)(BinaryOp (ID)(Constant)))(UnaryOp (ID))(Compound (If (BinaryOp (ArrayRef (ID)(ID))(ArrayRef (ID)(ID)))(Compound (Assignment (ArrayRef (ID)(ID))(ArrayRef (ID)(ID)))(UnaryOp (ID))(UnaryOp (ID)))(Compound (Assignment (ArrayRef (ID)(ID))(ArrayRef (ID)(ID)))(UnaryOp (ID))(UnaryOp (ID))))))))(FuncDef (Decl (FuncDecl (ParamList (Decl (ArrayDecl (TypeDecl (IdentifierType))))(Decl (TypeDecl (IdentifierType)))(Decl (TypeDecl (IdentifierType))))(TypeDecl (IdentifierType))))(Compound (Decl (TypeDecl (IdentifierType)))(Decl (TypeDecl (IdentifierType)))(If (BinaryOp (BinaryOp (ID)(Constant))(ID))(Compound (Assignment (ID)(BinaryOp (BinaryOp (ID)(ID))(Constant)))(FuncCall (ID)(ExprList (ID)(ID)(ID)))(FuncCall (ID)(ExprList (ID)(ID)(ID)))(FuncCall (ID)(ExprList (ID)(ID)(ID)(ID)))))))(FuncDef (Decl (FuncDecl (TypeDecl (IdentifierType))))(Compound (Decl (ArrayDecl (TypeDecl (IdentifierType))(Constant)))(Decl (TypeDecl (IdentifierType)))(Decl (TypeDecl (IdentifierType)))(FuncCall (ID)(ExprList (Constant)(UnaryOp (ID))))(For (Assignment (ID)(Constant))(BinaryOp (ID)(ID))(UnaryOp (ID))(Compound (FuncCall (ID)(ExprList (Constant)(UnaryOp (ArrayRef (ID)(ID)))))))(FuncCall (ID)(ExprList (ID)(Constant)(ID)))(For (Assignment (ID)(Constant))(BinaryOp (ID)(ID))(UnaryOp (ID))(Compound (FuncCall (ID)(ExprList (Constant)(ArrayRef (ID)(ID))))(If (BinaryOp (ID)(BinaryOp (ID)(Constant)))(FuncCall (ID)(ExprList (Constant))))))(FuncCall (ID)(ExprList (Constant)))(FuncCall (ID)(ExprList (Constant)(ID)))(Return (Constant))))) |ET| 
1  |BT| (FileAST (FuncDef (Decl (FuncDecl (TypeDecl (IdentifierType))))(Compound (Decl (PtrDecl (TypeDecl (IdentifierType))))(Decl (PtrDecl (TypeDecl (IdentifierType))))(Decl (ArrayDecl (TypeDecl (IdentifierType))(BinaryOp (Constant)(Constant))))(Decl (TypeDecl (IdentifierType)))(Decl (TypeDecl (IdentifierType)))(Decl (TypeDecl (IdentifierType)))(FuncCall (ID)(ExprList (Constant)(UnaryOp (ID))))(Assignment (ID)(FuncCall (ID)(ExprList (BinaryOp (BinaryOp (UnaryOp (Typename (TypeDecl (IdentifierType))))(ID))(Constant)))))(Assignment (ID)(FuncCall (ID)(ExprList (BinaryOp (BinaryOp (UnaryOp (Typename (TypeDecl (IdentifierType))))(ID))(Constant)))))(For (Assignment (ID)(Constant))(BinaryOp (ID)(ID))(UnaryOp (ID))(Compound (FuncCall (ID)(ExprList (Constant)(UnaryOp (ArrayRef (ID)(ID)))))))(For (Assignment (ID)(Constant))(BinaryOp (ID)(Constant))(UnaryOp (ID))(Compound (Assignment (ArrayRef (ID)(ID))(Constant))))(For (Assignment (ID)(Constant))(BinaryOp (ID)(ID))(UnaryOp (ID))(Compound (UnaryOp (ArrayRef (ID)(ArrayRef (ID)(ID))))))(For (Assignment (ID)(Constant))(BinaryOp (ID)(Constant))(UnaryOp (ID))(Compound (Assignment (ArrayRef (ID)(ID))(BinaryOp (ArrayRef (ID)(ID))(ArrayRef (ID)(BinaryOp (ID)(Constant)))))))(For (Assignment (ID)(Constant))(BinaryOp (ID)(Constant))(UnaryOp (ID))(Compound))(For (Assignment (ID)(BinaryOp (ID)(Constant)))(BinaryOp (ID)(Constant))(UnaryOp (ID))(Compound (Assignment (ArrayRef (ID)(ArrayRef (ID)(ArrayRef (ID)(ID))))(ArrayRef (ID)(ID)))(UnaryOp (ArrayRef (ID)(ArrayRef (ID)(ID))))))(For (Assignment (ID)(Constant))(BinaryOp (ID)(ID))(UnaryOp (ID))(Compound (If (BinaryOp (ID)(ID))(FuncCall (ID)(ExprList (Constant)(ArrayRef (ID)(ID))))(FuncCall (ID)(ExprList (Constant)(ArrayRef (ID)(ID)))))))(FuncCall (ID)(ExprList (Constant)))(FuncCall (ID)(ExprList (ID)))(FuncCall (ID)(ExprList (ID)))(Return (Constant))))) |ET| 
-0.46916854428455462278080290161597  |BT| (FileAST (Decl (TypeDecl (IdentifierType))(Constant))(FuncDef (Decl (FuncDecl (ParamList (Decl (PtrDecl (TypeDecl (IdentifierType))))(Decl (TypeDecl (IdentifierType)))(Decl (TypeDecl (IdentifierType)))(Decl (TypeDecl (IdentifierType))))(TypeDecl (IdentifierType))))(Compound (Decl (TypeDecl (IdentifierType)))(Decl (TypeDecl (IdentifierType)))(Decl (PtrDecl (TypeDecl (IdentifierType))))(Decl (PtrDecl (TypeDecl (IdentifierType))))(Decl (TypeDecl (IdentifierType)))(Decl (TypeDecl (IdentifierType)))(Decl (TypeDecl (IdentifierType)))(Assignment (ID)(BinaryOp (ID)(ID)))(Assignment (ID)(BinaryOp (ID)(ID)))(Assignment (ID)(Cast (Typename (PtrDecl (TypeDecl (IdentifierType))))(FuncCall (ID)(ExprList (BinaryOp (UnaryOp (Typename (TypeDecl (IdentifierType))))(BinaryOp (ID)(Constant)))))))(Assignment (ID)(Cast (Typename (PtrDecl (TypeDecl (IdentifierType))))(FuncCall (ID)(ExprList (BinaryOp (UnaryOp (Typename (TypeDecl (IdentifierType))))(BinaryOp (ID)(Constant)))))))(For (Assignment (ID)(Constant))(BinaryOp (ID)(ID))(UnaryOp (ID))(Compound (Assignment (ArrayRef (ID)(ID))(ArrayRef (ID)(BinaryOp (ID)(ID))))))(For (Assignment (ID)(Constant))(BinaryOp (ID)(ID))(UnaryOp (ID))(Compound (Assignment (ArrayRef (ID)(ID))(ArrayRef (ID)(BinaryOp (ID)(ID))))))(Assignment (ArrayRef (ID)(ID))(ID))(Assignment (ArrayRef (ID)(ID))(ID))(Assignment (ID)(Constant))(Assignment (ID)(Constant))(For (Assignment (ID)(ID))(BinaryOp (ID)(ID))(UnaryOp (ID))(Compound (If (BinaryOp (ArrayRef (ID)(ID))(ArrayRef (ID)(ID)))(Compound (Assignment (ArrayRef (ID)(ID))(ArrayRef (ID)(ID)))(UnaryOp (ID)))(Compound (Assignment (ArrayRef (ID)(ID))(ArrayRef (ID)(ID)))(UnaryOp (ID))))(UnaryOp (ID))))(FuncCall (ID)(ExprList (ID)))(FuncCall (ID)(ExprList (ID)))))(FuncDef (Decl (FuncDecl (ParamList (Decl (PtrDecl (TypeDecl (IdentifierType))))(Decl (TypeDecl (IdentifierType)))(Decl (TypeDecl (IdentifierType))))(TypeDecl (IdentifierType))))(Compound (If (BinaryOp (BinaryOp (ID)(Constant))(ID))(Compound (Decl (TypeDecl (IdentifierType))(BinaryOp (BinaryOp (ID)(ID))(Constant)))(FuncCall (ID)(ExprList (ID)(ID)(ID)))(FuncCall (ID)(ExprList (ID)(ID)(ID)))(FuncCall (ID)(ExprList (ID)(ID)(ID)(ID)))))))(FuncDef (Decl (FuncDecl (ParamList (Decl (TypeDecl (IdentifierType))))(TypeDecl (IdentifierType))))(Compound (Decl (TypeDecl (IdentifierType)))(Decl (TypeDecl (IdentifierType))(Constant))(For (Assignment (ID)(Constant))(BinaryOp (ID)(ID))(UnaryOp (ID))(UnaryOp (ID)))))(FuncDef (Decl (FuncDecl (TypeDecl (IdentifierType))))(Compound (Decl (TypeDecl (IdentifierType))(Constant))(Decl (TypeDecl (IdentifierType)))(Decl (TypeDecl (IdentifierType)))(Decl (PtrDecl (TypeDecl (IdentifierType))))(FuncCall (ID)(ExprList (Constant)(UnaryOp (ID))))(Assignment (ID)(Cast (Typename (PtrDecl (TypeDecl (IdentifierType))))(FuncCall (ID)(ExprList (BinaryOp (UnaryOp (Typename (TypeDecl (IdentifierType))))(ID))))))(For (Assignment (ID)(Constant))(BinaryOp (ID)(ID))(UnaryOp (ID))(Compound (FuncCall (ID)(ExprList (Constant)(BinaryOp (ID)(ID))))))(FuncCall (ID)(ExprList (ID)(Constant)(ID)))(For (Assignment (ID)(Constant))(BinaryOp (ID)(BinaryOp (ID)(Constant)))(UnaryOp (ID))(Compound (FuncCall (ID)(ExprList (Constant)(ArrayRef (ID)(ID))))))(FuncCall (ID)(ExprList (Constant)(ArrayRef (ID)(ID))))(FuncCall (ID)(ExprList (Constant)(ID)))(FuncCall (ID)(ExprList (ID)))(Return (Constant))))) |ET| 
1  |BT| (FileAST (FuncDef (Decl (FuncDecl (TypeDecl (IdentifierType))))(Compound (Decl (PtrDecl (TypeDecl (IdentifierType))))(Decl (PtrDecl (TypeDecl (IdentifierType))))(Decl (ArrayDecl (TypeDecl (IdentifierType))(BinaryOp (Constant)(Constant))))(Decl (TypeDecl (IdentifierType)))(Decl (TypeDecl (IdentifierType)))(Decl (TypeDecl (IdentifierType)))(FuncCall (ID)(ExprList (Constant)(UnaryOp (ID))))(Assignment (ID)(FuncCall (ID)(ExprList (BinaryOp (BinaryOp (UnaryOp (Typename (TypeDecl (IdentifierType))))(ID))(Constant)))))(Assignment (ID)(FuncCall (ID)(ExprList (BinaryOp (BinaryOp (UnaryOp (Typename (TypeDecl (IdentifierType))))(ID))(Constant)))))(For (Assignment (ID)(Constant))(BinaryOp (ID)(ID))(UnaryOp (ID))(Compound (FuncCall (ID)(ExprList (Constant)(UnaryOp (ArrayRef (ID)(ID)))))))(For (Assignment (ID)(Constant))(BinaryOp (ID)(BinaryOp (Constant)(Constant)))(UnaryOp (ID))(Compound (Assignment (ArrayRef (ID)(ID))(Constant))))(For (Assignment (ID)(Constant))(BinaryOp (ID)(ID))(UnaryOp (ID))(UnaryOp (ArrayRef (ID)(ArrayRef (ID)(ID)))))(Assignment (ID)(ArrayRef (ID)(Constant)))(For (Assignment (ID)(Constant))(BinaryOp (ID)(ID))(UnaryOp (ID))(Compound (If (BinaryOp (ArrayRef (ID)(BinaryOp (ID)(Constant)))(ID))(Assignment (ID)(ArrayRef (ID)(BinaryOp (ID)(Constant)))))))(For (Assignment (ID)(Constant))(BinaryOp (ID)(ID))(UnaryOp (ID))(Assignment (ArrayRef (ID)(ID))(BinaryOp (ArrayRef (ID)(ID))(ArrayRef (ID)(BinaryOp (ID)(Constant))))))(For (Assignment (ID)(ID))(BinaryOp (ID)(Constant))(UnaryOp (ID))(Compound (Assignment (ArrayRef (ID)(ArrayRef (ID)(ArrayRef (ID)(ID))))(ArrayRef (ID)(ID)))(UnaryOp (ArrayRef (ID)(ArrayRef (ID)(ID))))))(For (Assignment (ID)(Constant))(BinaryOp (ID)(ID))(UnaryOp (ID))(FuncCall (ID)(ExprList (Constant)(ArrayRef (ID)(ID)))))(FuncCall (ID)(ExprList (Constant)(ArrayRef (ID)(ID))))(Return (Constant))))) |ET| 
-0.64239394619954448550913639337523  |BT| (FileAST (Decl (TypeDecl (IdentifierType))(Constant))(Decl (FuncDecl (ParamList (Typename (PtrDecl (TypeDecl (IdentifierType))))(Typename (TypeDecl (IdentifierType)))(Typename (TypeDecl (IdentifierType))))(TypeDecl (IdentifierType))))(FuncDef (Decl (FuncDecl (TypeDecl (IdentifierType))))(Compound (Decl (ArrayDecl (TypeDecl (IdentifierType))(Constant)))(Decl (TypeDecl (IdentifierType)))(Decl (TypeDecl (IdentifierType)))(FuncCall (ID)(ExprList (Constant)(UnaryOp (ID))))(Assignment (ID)(Constant))(For (Assignment (ID)(Constant))(BinaryOp (ID)(ID))(UnaryOp (ID))(Compound (FuncCall (ID)(ExprList (Constant)(UnaryOp (ArrayRef (ID)(ID)))))))(FuncCall (ID)(ExprList (ID)(Constant)(BinaryOp (ID)(Constant))))(For (Assignment (ID)(Constant))(BinaryOp (ID)(BinaryOp (ID)(Constant)))(UnaryOp (ID))(Compound (FuncCall (ID)(ExprList (Constant)(ArrayRef (ID)(ID))))))(FuncCall (ID)(ExprList (Constant)(ArrayRef (ID)(ID))))(FuncCall (ID)(ExprList (Constant)(ID)))(Return (Constant))))(FuncDef (Decl (FuncDecl (ParamList (Decl (ArrayDecl (TypeDecl (IdentifierType))))(Decl (TypeDecl (IdentifierType)))(Decl (TypeDecl (IdentifierType))))(TypeDecl (IdentifierType))))(Compound (Decl (TypeDecl (IdentifierType)))(Decl (TypeDecl (IdentifierType)))(Decl (TypeDecl (IdentifierType)))(Decl (TypeDecl (IdentifierType)))(Decl (ArrayDecl (TypeDecl (IdentifierType))(Constant)))(If (BinaryOp (ID)(ID))(Return))(Assignment (ID)(BinaryOp (BinaryOp (ID)(ID))(Constant)))(FuncCall (ID)(ExprList (ID)(ID)(ID)))(FuncCall (ID)(ExprList (ID)(BinaryOp (ID)(Constant))(ID)))(For (Assignment (ID)(ID))(BinaryOp (ID)(ID))(UnaryOp (ID))(Compound (Assignment (ArrayRef (ID)(ID))(ArrayRef (ID)(ID)))))(For (ExprList (Assignment (ID)(BinaryOp (ID)(Constant)))(Assignment (ID)(ID)))(BinaryOp (ID)(ID))(ExprList (UnaryOp (ID))(UnaryOp (ID)))(Compound (Assignment (ArrayRef (ID)(ID))(ArrayRef (ID)(ID)))))(Assignment (ID)(ID))(Assignment (ID)(ID))(For (Assignment (ID)(ID))(BinaryOp (ID)(ID))(UnaryOp (ID))(Compound (If (BinaryOp (ArrayRef (ID)(ID))(ArrayRef (ID)(ID)))(Compound (Assignment (ArrayRef (ID)(ID))(ArrayRef (ID)(UnaryOp (ID)))))(Compound (Assignment (ArrayRef (ID)(ID))(ArrayRef (ID)(UnaryOp (ID))))))(UnaryOp (ID))))))) |ET| 
1  |BT| (FileAST (Decl (FuncDecl (ParamList (Typename (PtrDecl (TypeDecl (IdentifierType))))(Typename (PtrDecl (TypeDecl (IdentifierType))))(Typename (TypeDecl (IdentifierType))))(TypeDecl (IdentifierType))))(FuncDef (Decl (FuncDecl (TypeDecl (IdentifierType))))(Compound (Decl (TypeDecl (IdentifierType)))(Decl (TypeDecl (IdentifierType)))(Decl (TypeDecl (IdentifierType)))(Decl (ArrayDecl (TypeDecl (IdentifierType))(BinaryOp (Constant)(Constant))))(FuncCall (ID)(ExprList (Constant)(UnaryOp (ID))))(Decl (PtrDecl (TypeDecl (IdentifierType))))(Decl (PtrDecl (TypeDecl (IdentifierType))))(Assignment (ID)(FuncCall (ID)(ExprList (BinaryOp (BinaryOp (UnaryOp (Typename (TypeDecl (IdentifierType))))(ID))(Constant)))))(Assignment (ID)(FuncCall (ID)(ExprList (BinaryOp (BinaryOp (UnaryOp (Typename (TypeDecl (IdentifierType))))(ID))(Constant)))))(FuncCall (ID)(ExprList (Constant)(UnaryOp (ArrayRef (ID)(Constant)))))(Assignment (ID)(ArrayRef (ID)(Constant)))(For (Assignment (ID)(Constant))(BinaryOp (ID)(ID))(UnaryOp (ID))(Compound (FuncCall (ID)(ExprList (Constant)(UnaryOp (ArrayRef (ID)(ID)))))(If (BinaryOp (ID)(ArrayRef (ID)(ID)))(Assignment (ID)(ArrayRef (ID)(ID))))))(For (Assignment (ID)(Constant))(BinaryOp (ID)(ID))(UnaryOp (ID))(Assignment (ArrayRef (ID)(ID))(Constant)))(For (Assignment (ID)(Constant))(BinaryOp (ID)(ID))(UnaryOp (ID))(UnaryOp (ArrayRef (ID)(ArrayRef (ID)(ID)))))(For (Assignment (ID)(Constant))(BinaryOp (ID)(ID))(UnaryOp (ID))(Assignment (ArrayRef (ID)(ID))(BinaryOp (ArrayRef (ID)(ID))(ArrayRef (ID)(BinaryOp (ID)(Constant))))))(For (Assignment (ID)(ID))(BinaryOp (ID)(Constant))(UnaryOp (ID))(Compound (Assignment (ArrayRef (ID)(ArrayRef (ID)(ArrayRef (ID)(ID))))(ArrayRef (ID)(ID)))(UnaryOp (ArrayRef (ID)(ArrayRef (ID)(ID))))))(For (Assignment (ID)(Constant))(BinaryOp (ID)(ID))(UnaryOp (ID))(Compound (FuncCall (ID)(ExprList (Constant)(ArrayRef (ID)(ID))))(If (BinaryOp (ID)(ID))(FuncCall (ID)(ExprList (Constant))))))(FuncCall (ID)(ExprList (Constant)))(Return (Constant))))) |ET| 
-0.50271773578191214504329309420427  |BT| (FileAST (Decl (TypeDecl (IdentifierType))(Constant))(FuncDef (Decl (FuncDecl (ParamList (Decl (ArrayDecl (TypeDecl (IdentifierType))))(Decl (TypeDecl (IdentifierType)))(Decl (TypeDecl (IdentifierType)))(Decl (TypeDecl (IdentifierType))))(TypeDecl (IdentifierType))))(Compound (Decl (TypeDecl (IdentifierType))(BinaryOp (ID)(ID)))(Decl (TypeDecl (IdentifierType))(BinaryOp (ID)(ID)))(Decl (TypeDecl (IdentifierType)))(Decl (TypeDecl (IdentifierType)))(Decl (TypeDecl (IdentifierType)))(Decl (PtrDecl (TypeDecl (IdentifierType))))(Decl (PtrDecl (TypeDecl (IdentifierType))))(Assignment (ID)(FuncCall (ID)(ExprList (BinaryOp (UnaryOp (Typename (TypeDecl (IdentifierType))))(ID)))))(Assignment (ID)(FuncCall (ID)(ExprList (BinaryOp (UnaryOp (Typename (TypeDecl (IdentifierType))))(ID)))))(For (Assignment (ID)(Constant))(BinaryOp (ID)(ID))(UnaryOp (ID))(Compound (Assignment (ArrayRef (ID)(ID))(ArrayRef (ID)(BinaryOp (ID)(ID))))))(For (Assignment (ID)(Constant))(BinaryOp (ID)(ID))(UnaryOp (ID))(Compound (Assignment (ArrayRef (ID)(ID))(ArrayRef (ID)(BinaryOp (ID)(ID))))))(For (ExprList (Assignment (ID)(Constant))(Assignment (ID)(Constant))(Assignment (ID)(ID)))(BinaryOp (ID)(ID))(UnaryOp (ID))(Compound (UnaryOp (ID))(If (BinaryOp (BinaryOp (ID)(ID))(BinaryOp (ID)(ID)))(Compound (If (BinaryOp (ArrayRef (ID)(ID))(ArrayRef (ID)(ID)))(Compound (Assignment (ArrayRef (ID)(ID))(ArrayRef (ID)(ID)))(UnaryOp (ID)))(Compound (Assignment (ArrayRef (ID)(ID))(ArrayRef (ID)(ID)))(UnaryOp (ID)))))(If (BinaryOp (ID)(ID))(Compound (Assignment (ArrayRef (ID)(ID))(ArrayRef (ID)(ID)))(UnaryOp (ID)))(If (BinaryOp (ID)(ID))(Compound (Assignment (ArrayRef (ID)(ID))(ArrayRef (ID)(ID)))(UnaryOp (ID)))(Compound (FuncCall (ID)(ExprList (Constant)))))))))(FuncCall (ID)(ExprList (ID)))(FuncCall (ID)(ExprList (ID)))(Return)))(FuncDef (Decl (FuncDecl (ParamList (Decl (ArrayDecl (TypeDecl (IdentifierType))))(Decl (TypeDecl (IdentifierType)))(Decl (TypeDecl (IdentifierType))))(TypeDecl (IdentifierType))))(Compound (If (BinaryOp (BinaryOp (ID)(Constant))(ID))(Compound (Return)))(Decl (TypeDecl (IdentifierType))(BinaryOp (BinaryOp (ID)(ID))(Constant)))(FuncCall (ID)(ExprList (ID)(ID)(ID)))(FuncCall (ID)(ExprList (ID)(ID)(ID)))(FuncCall (ID)(ExprList (ID)(ID)(ID)(ID)))))(FuncDef (Decl (FuncDecl (ParamList (Decl (TypeDecl (IdentifierType)))(Decl (ArrayDecl (PtrDecl (TypeDecl (IdentifierType))))))(TypeDecl (IdentifierType))))(Compound (Decl (TypeDecl (IdentifierType)))(Decl (TypeDecl (IdentifierType)))(Decl (PtrDecl (TypeDecl (IdentifierType))))(FuncCall (ID)(ExprList (Constant)(UnaryOp (ID))))(Assignment (ID)(FuncCall (ID)(ExprList (BinaryOp (UnaryOp (Typename (TypeDecl (IdentifierType))))(ID)))))(For (Assignment (ID)(Constant))(BinaryOp (ID)(ID))(UnaryOp (ID))(Compound (Decl (TypeDecl (IdentifierType)))(FuncCall (ID)(ExprList (Constant)(UnaryOp (ID))))(Assignment (ArrayRef (ID)(ID))(ID))(Cast (Typename (TypeDecl (IdentifierType)))(FuncCall (ID)(ExprList (ID))))))(FuncCall (ID)(ExprList (ID)(Constant)(ID)))(For (Assignment (ID)(Constant))(BinaryOp (ID)(ID))(UnaryOp (ID))(Compound (FuncCall (ID)(ExprList (Constant)(ArrayRef (ID)(ID))))(If (BinaryOp (BinaryOp (ID)(Constant))(ID))(Compound (FuncCall (ID)(ExprList (Constant)))))))(FuncCall (ID)(ExprList (Constant)))(FuncCall (ID)(ExprList (Constant)(ID)))(Return (Constant))))) |ET| 
1  |BT| (FileAST (FuncDef (Decl (FuncDecl (TypeDecl (IdentifierType))))(Compound (Decl (PtrDecl (TypeDecl (IdentifierType))))(Decl (PtrDecl (TypeDecl (IdentifierType))))(Decl (ArrayDecl (TypeDecl (IdentifierType))(BinaryOp (Constant)(Constant))))(Decl (TypeDecl (IdentifierType)))(Decl (TypeDecl (IdentifierType)))(Decl (TypeDecl (IdentifierType)))(FuncCall (ID)(ExprList (Constant)(UnaryOp (ID))))(Assignment (ID)(FuncCall (ID)(ExprList (BinaryOp (BinaryOp (UnaryOp (Typename (TypeDecl (IdentifierType))))(ID))(Constant)))))(Assignment (ID)(FuncCall (ID)(ExprList (BinaryOp (BinaryOp (UnaryOp (Typename (TypeDecl (IdentifierType))))(ID))(Constant)))))(For (Assignment (ID)(Constant))(BinaryOp (ID)(ID))(UnaryOp (ID))(FuncCall (ID)(ExprList (Constant)(UnaryOp (ArrayRef (ID)(ID))))))(For (Assignment (ID)(Constant))(BinaryOp (ID)(Constant))(UnaryOp (ID))(Assignment (ArrayRef (ID)(ID))(Constant)))(For (Assignment (ID)(Constant))(BinaryOp (ID)(ID))(UnaryOp (ID))(UnaryOp (ArrayRef (ID)(ArrayRef (ID)(ID)))))(For (Assignment (ID)(Constant))(BinaryOp (ID)(Constant))(UnaryOp (ID))(Assignment (ArrayRef (ID)(ID))(ArrayRef (ID)(BinaryOp (ID)(Constant)))))(For (Assignment (ID)(ID))(BinaryOp (ID)(Constant))(UnaryOp (ID))(Compound (Assignment (ArrayRef (ID)(ArrayRef (ID)(ArrayRef (ID)(ID))))(ArrayRef (ID)(ID)))(UnaryOp (ArrayRef (ID)(ArrayRef (ID)(ID))))))(For (Assignment (ID)(Constant))(BinaryOp (ID)(ID))(UnaryOp (ID))(Compound (FuncCall (ID)(ExprList (Constant)(ArrayRef (ID)(ID))))(If (BinaryOp (ID)(ID))(FuncCall (ID)(ExprList (Constant))))))(FuncCall (ID)(ExprList (Constant)))(FuncCall (ID)(ExprList (ID)))(FuncCall (ID)(ExprList (ID)))(Return (Constant))))) |ET| 
